-0.0355415270
-0.0165176708
0.0252165645
-0.0009969362
0.0256872177
-0.0230483096
0.0291918181
0.0159190334
-0.0317486301
-0.0060512335
-0.0395852290
0.0391921699
0.0003153954
0.0191030167
-0.0272869021
0.0094186934
-0.0401850902
-0.0222988334
-0.0352128707
0.0289506074
0.0329878218
0.0299221501
0.0439543426
0.0030001181
-0.0353627168
-0.0215766989
0.0154778976
0.0109907761
0.0059397183
-0.0371585265
-0.0251662303
-0.0130112590
-0.0223660097
0.0181173291
0.0293998122
0.0048202137
0.0097082630
-0.0365023613
0.0245924648
-0.0326020829
0.0277457125
-0.0121739432
0.0035752538
-0.0237276107
0.0385118946
0.0379041508
-0.0272661764
0.0191879105
0.0251620896
0.0033647779
-0.0076782759
-0.0035304413
0.0397839695
0.0365900546
0.0020830710
-0.0341862030
-0.0033683972
0.0035624728
-0.0329556093
0.0178660955
0.0311214700
-0.0365309455
-0.0051111481
0.0133017562
-0.0170548595
0.0345611200
0.0151233636
-0.0058247680
0.0165376272
0.0129609248
-0.0118986396
-0.0094156796
0.0326607078
0.0239260755
-0.0252225287
-0.0192343090
-0.0421649925
-0.0114222756
-0.0389151238
0.0432826616
0.0328365564
0.0287817139
0.0348687507
-0.0210584626
-0.0070336820
-0.0307681095
-0.0355606899
-0.0181639008
0.0416653678
-0.0244685896
-0.0292216688
0.0396952815
-0.0441683158
-0.0125046112
0.0418175794
0.0357721671
0.0160299428
-0.0325954184
0.0300768018
0.0103599215
-0.0376737043
0.0149900010
0.0304869171
-0.0408735387
-0.0178782605
0.0154183386
-0.0440260135
0.0208311006
-0.0186797772
0.0050157858
0.0267180558
-0.0316081122
0.0243861191
0.0156632867
0.0344259441
-0.0247957651
0.0082715824
0.0191452205
0.0083054686
-0.0110674938
-0.0035497868
0.0052026967
0.0131379887
-0.0356698558
-0.0109108808
0.0275147222
0.0340091772
0.0057074050
0.0217916798
0.0255612247
-0.0286684018
-0.0399742052
-0.0259124301
0.0028099250
0.0148415491
0.0284624361
-0.0377052762
-0.0168374069
-0.0076253288
-0.0386023186
-0.0376224592
-0.0436129160
0.0404588878
-0.0409062020
0.0268007480
-0.0260809436
0.0074869660
-0.0052506016
-0.0099296449
0.0315662660
-0.0287418012
0.0192872994
0.0260758121
0.0344499648
-0.0334984921
0.0388829187
-0.0359150767
0.0100309709
-0.0237495694
-0.0297234636
0.0092693670
-0.0285561867
-0.0328117944
-0.0205841828
-0.0192508828
0.0288122073
0.0086068232
-0.0068130381
0.0023701070
-0.0120227626
0.0018285621
-0.0135966307
0.0265522618
0.0226994753
0.0001690615
0.0246903133
-0.0412361547
-0.0412603356
0.0022169296
0.0441867821
-0.0102963326
0.0299478434
0.0440887734
0.0169206522
0.0045804195
-0.0138040306
-0.0366594233
0.0090598762
0.0209434647
-0.0253511555
-0.0137601187
0.0162530523
-0.0018928887
-0.0432035848
0.0048347595
0.0244731251
0.0356128365
-0.0228387136
0.0380456336
0.0157229509
0.0150773712
0.0256646164
-0.0206153672
0.0188600235
-0.0173133817
-0.0369711295
0.0217681825
-0.0250449311
0.0311019812
-0.0388465635
-0.0328219682
0.0052467715
-0.0303029362
-0.0430349559
-0.0232828874
-0.0023148630
-0.0295017604
-0.0201388597
0.0278567597
-0.0289906822
0.0018658673
-0.0259092264
-0.0244150888
-0.0397693440
-0.0039956737
0.0417742282
-0.0115788244
0.0061892699
0.0217704438
0.0372710936
-0.0135697834
0.0294627491
-0.0258542039
0.0358769558
0.0396898277
-0.0220784359
-0.0421254225
-0.0320909955
0.0148487296
-0.0017019898
0.0436239541
0.0135588571
-0.0170829389
-0.0167526975
-0.0121989679
-0.0105752395
0.0251230989
0.0023539595
-0.0223160814
-0.0241850093
-0.0085514691
-0.0088585513
0.0220835265
-0.0431096777
0.0236020032
-0.0238221828
-0.0182761066
-0.0188631006
-0.0214747880
-0.0425313227
-0.0088744406
-0.0079410141
-0.0188011713
-0.0262274258
0.0417417437
-0.0291687120
-0.0054194578
0.0146728614
-0.0069468594
-0.0074183405
-0.0134972064
0.0188857652
-0.0405435748
-0.0056258719
-0.0264820177
0.0268321317
-0.0231122877
-0.0314344876
0.0252125338
-0.0020673978
-0.0089440299
-0.0156282615
0.0319927931
0.0324506760
-0.0321325846
-0.0089270715
0.0381382443
-0.0062810816
-0.0059771291
-0.0030355793
0.0397876054
0.0209815651
-0.0158147831
-0.0174663644
-0.0056222263
-0.0277232379
0.0143543100
-0.0337678343
-0.0045030271
-0.0281230006
-0.0364593528
-0.0317583978
0.0087792203
0.0335862972
-0.0223616417
-0.0354461148
-0.0373660997
0.0040480359
-0.0309007354
0.0268692635
0.0220886618
0.0203505419
-0.0177554712
-0.0157761183
0.0432164036
-0.0287209749
0.0215322915
0.0107492795
0.0195618905
0.0165958907
-0.0260344036
-0.0262480080
-0.0287441555
0.0287242886
0.0068494896
-0.0297832657
-0.0277149193
-0.0376973934
0.0145616252
0.0340909995
0.0094297510
-0.0075407983
-0.0176231731
0.0028619026
-0.0090420377
-0.0058169286
-0.0186383631
-0.0121658193
-0.0198008623
0.0362446308
-0.0210578609
0.0167492572
-0.0017810626
0.0358937606
0.0144016724
0.0063196565
-0.0333953165
0.0096155507
-0.0418481641
-0.0030931202
-0.0158500597
0.0440512411
0.0266601834
-0.0074067288
-0.0038499355
-0.0062453197
0.0133361528
-0.0317917205
0.0137528954
0.0195225943
0.0423403159
-0.0173071399
-0.0171577130
0.0349109359
-0.0330703706
-0.0241418462
-0.0098423688
-0.0214659162
0.0045133531
-0.0338599980
-0.0268234760
0.0031918597
0.0285244975
0.0029228944
0.0144507261
-0.0234940648
-0.0383099243
0.0173155535
-0.0015231924
-0.0358096547
0.0222323034
0.0437401086
0.0215899125
-0.0265890919
-0.0343929715
0.0008141138
-0.0378180183
0.0112291900
-0.0383003093
0.0426230878
0.0200827885
-0.0183238480
0.0076556220
-0.0153962858
-0.0279591493
-0.0397210605
0.0067575988
0.0086737005
0.0007382547
0.0075639999
0.0410628095
0.0049579130
-0.0067457613
-0.0100997649
-0.0021683290
0.0351137593
-0.0364479832
0.0056042294
-0.0123664280
-0.0035541700
0.0407208763
-0.0273109302
0.0091201719
-0.0112285996
-0.0093449363
0.0253361352
-0.0316426568
-0.0379302613
0.0320060365
0.0184037481
-0.0088186963
0.0126341870
-0.0060818638
-0.0376740806
-0.0346611477
0.0212972127
-0.0315847099
0.0116114672
0.0077798022
0.0432510935
-0.0413796008
-0.0148266023
0.0002311544
0.0252321474
-0.0099524613
-0.0394353606
0.0364005044
-0.0410470888
0.0146614080
-0.0318527594
0.0225964002
-0.0124869728
0.0356086642
-0.0240500234
0.0382931568
0.0197396185
-0.0269127544
-0.0264294669
0.0352703929
-0.0324821137
-0.0064240280
0.0182200409
-0.0054822881
-0.0130391810
-0.0083027706
-0.0031890834
0.0368436538
0.0166260246
0.0154149933
0.0305044502
-0.0354870856
-0.0262378082
-0.0439975373
0.0083558075
0.0089267762
-0.0406931937
0.0402903073
0.0029735919
0.0428829491
-0.0038477648
0.0142660551
-0.0082113547
0.0205325577
-0.0221714489
-0.0347146578
-0.0182111468
0.0362911597
0.0240108538
-0.0411112159
-0.0226912145
-0.0080559645
0.0106437178
-0.0148771470
-0.0329700261
0.0354326405
-0.0086285295
0.0289236754
0.0357610323
-0.0281532258
-0.0068848454
-0.0158482101
0.0179395322
-0.0270753298
0.0109819034
-0.0118340133
-0.0172887053
-0.0235503353
-0.0184156597
-0.0166091565
-0.0377074257
-0.0344829708
0.0000511452
-0.0248363372
0.0049955291
0.0369207226
-0.0269352291
-0.0247030463
0.0312320739
-0.0255023669
-0.0351734534
-0.0378394201
-0.0188420694
