0.0364032425 0.0341915675 0.0103290016 0.0054624686 0.0191553254 -0.0152384304 0.0405741446 -0.0015322223 -0.0286278203 -0.0423761792 -0.0249512494 -0.0112836966 -0.0165335499 0.0238731597 -0.0230323784 -0.0004979281 -0.0400317200 0.0340271592 -0.0053412435 -0.0028172638 0.0236780681 -0.0336585045 -0.0071281171 0.0239627752 0.0003589067 0.0279884990 -0.0067894990 -0.0409673639 -0.0238520969 -0.0078076879 0.0001044452 -0.0226572342 0.0201992448 -0.0062441449 0.0354733989 -0.0107858051 0.0192713030 0.0436688513 0.0060052727 -0.0407508649 -0.0120850028 -0.0122003378 0.0194279999 0.0385893732 0.0087300027 0.0073388461 -0.0414629430 0.0266300756 -0.0100211194 -0.0288500600 -0.0302051492 0.0189805329 0.0181444548 0.0369510651 -0.0327536538 -0.0241463091 -0.0065944116 -0.0424736738 -0.0265381373 -0.0221130028 -0.0063938927 0.0083576674 0.0000994402 0.0426021814 -0.0126510775 -0.0143117206 -0.0075519145 -0.0141987354 -0.0384077430 -0.0157056227 0.0338963196 0.0092887068 -0.0275865346 -0.0106895631 -0.0100185163 -0.0384659059 0.0124887852 -0.0080537619 -0.0261431206 -0.0108997123 0.0385489874 -0.0055819075 -0.0068051987 0.0268583260 -0.0114766080 0.0084567070 -0.0397707149 0.0184864663 -0.0163923167 -0.0376605913 -0.0047223805 -0.0361340940 -0.0055681360 -0.0397483073 -0.0404147282 -0.0049694399 -0.0092723696 -0.0092087863 -0.0046966709 -0.0159524810 -0.0106232921 0.0060794298 0.0079119327 0.0212257169 -0.0228786524 0.0433687903 0.0398513526 0.0299192835 -0.0247628372 0.0321483985 -0.0417422429 -0.0139731187 0.0174880344 0.0141010499 0.0436558612 0.0025284684 0.0371508226 0.0016405556 -0.0072238273 -0.0305142701 -0.0106706545 -0.0315771252 -0.0377968699 0.0209821649 0.0155442106 -0.0331986398 0.0352733918 0.0335219018 -0.0435933322 0.0133040631 0.0235012881 -0.0185299348 -0.0033146387 -0.0005870266 -0.0192722101 0.0052717435 -0.0149027305 -0.0277549271 0.0271597449 -0.0014777896 -0.0182472561 0.0007409890 -0.0188821778 0.0310820621 -0.0182393491 0.0102955848 0.0158440545 -0.0382633284 -0.0173757169 -0.0119620869 -0.0377731174 -0.0034883050 0.0109260436 0.0254179742 -0.0147640668 -0.0158014167 0.0311063975 -0.0154102156 -0.0256868228 -0.0362852365 -0.0014334195 -0.0062945262 0.0412036441 0.0252355300 -0.0123567600 0.0170495752 0.0052621975 -0.0341173522 0.0157525837 0.0411450788 -0.0310489777 -0.0121361483 -0.0356085710 0.0410101824 -0.0208867081 -0.0285536144 0.0137062864 -0.0197847262 -0.0339928567 -0.0033665374 0.0213043299 -0.0218374152 -0.0361714847 0.0371642485 0.0426041260 0.0252487008 0.0232736692 0.0345725343 0.0215036534 -0.0132544516 0.0355197266 -0.0391159505 0.0232318956 0.0304574203 -0.0393773466 0.0109354267 0.0380148590 -0.0241814014 -0.0167248603 0.0059533422 -0.0402968749 -0.0146323321 -0.0207922198 0.0406287760 0.0008813222 -0.0406648591 0.0440808721 -0.0396207273 0.0256442651 -0.0326548778 -0.0061477711 -0.0074545760 -0.0243929457 0.0052825385 -0.0119259302 0.0248705018 -0.0179911088 0.0168116614 0.0334770679 -0.0150151150 0.0138239553 0.0011436073 0.0438180529 0.0417925678 -0.0265903417 -0.0099547850 0.0350793079 -0.0314075425 0.0437039696 -0.0062850434 -0.0010421546 -0.0369984470 -0.0416678078 -0.0214754157 -0.0228935778 -0.0203274414 -0.0180315375 -0.0071779243 0.0087569663 -0.0357405357 0.0075063114 -0.0016210784 -0.0233957097 0.0115171690 -0.0171100087 -0.0221855361 0.0035544701 -0.0080022058 0.0112416605 -0.0121439500 0.0378125757 -0.0151939280 -0.0167595893 -0.0233785305 -0.0399156250 0.0283188410 0.0281625818 0.0364355296 0.0325979590 0.0184444673 0.0228918921 0.0331700109 0.0076087443 0.0065930896 -0.0034390986 -0.0441396460 0.0354898125 -0.0094166594 0.0168059245 0.0167364348 0.0322483853 -0.0040461817 0.0432429500 -0.0100203501 0.0341382362 -0.0221555978 0.0370891057 0.0206176471 0.0049401056 -0.0085534025 -0.0124748982 0.0386929139 0.0344158709 0.0125771463 -0.0402082093 0.0196097158 0.0200000387 -0.0394323803 -0.0399551503 0.0017853405 -0.0425148048 -0.0326240733 0.0190888662 -0.0250719581 -0.0430685952 0.0239699818 -0.0109714037 0.0384560488 -0.0094242990 0.0232939404 0.0275624320 -0.0400364250 -0.0149706397 -0.0148930782 0.0275608096 0.0429785997 0.0106099471 0.0356823020 -0.0306577850 0.0436793603 -0.0289969891 -0.0394471884 -0.0086422376 -0.0074448613 0.0359177701 -0.0429785363 -0.0066512730 -0.0310831219 0.0221885145 0.0440906808 0.0371248946 0.0304397866 0.0301133636 0.0388737768 -0.0122490227 0.0007383074 0.0130311418 0.0159114413 -0.0161853321 0.0149150211 -0.0086110542 -0.0246562641 -0.0028803155 -0.0282599088 0.0020196137 -0.0083935820 -0.0156903118 -0.0359942131 -0.0075643738 0.0245352872 -0.0299304258 0.0227370393 -0.0113510629 -0.0095956251 -0.0108447950 -0.0362001024 -0.0377897806 0.0219563376 0.0203187205 -0.0230439156 0.0399001949 -0.0373274311 -0.0436858609 -0.0101316758 -0.0034253164 -0.0254684761 0.0318375900 -0.0410919487 -0.0422136150 0.0165462513 -0.0389136374 -0.0158172846 -0.0419702642 -0.0405724347 -0.0208152216 -0.0364789777 -0.0015132088 0.0028936393 -0.0435701534 -0.0243312176 0.0396663696 -0.0316682979 -0.0013922157 -0.0086674988 -0.0427640602 -0.0022792066 -0.0161178503 0.0306696761 -0.0024508496 0.0025757309 0.0148420278 -0.0033511696 0.0072941654 0.0173559040 -0.0315541662 0.0225240085 -0.0110194618 -0.0333518684 -0.0343090519 -0.0174016170 0.0004747158 0.0181513298 0.0111590577 0.0238292646 -0.0199933052 0.0177540760 0.0163624659 0.0359916203 -0.0212718043 -0.0104199760 -0.0106538748 0.0012333590 -0.0140059190 0.0155917471 -0.0263519790 0.0010727848 -0.0360621698 -0.0247538183 0.0233395807 -0.0136760622 0.0322473273 0.0349568650 -0.0069819572 -0.0249291342 -0.0234114043 0.0082757128 0.0225204881 0.0292052217 0.0390539505 -0.0055757854 -0.0235022306 0.0264992937 0.0364154279 -0.0363033563 -0.0020494694 -0.0161132030 0.0348647907 0.0152106239 0.0203254018 -0.0285260659 -0.0136424499 -0.0233606230 0.0419220030 0.0007667881 0.0147270514 -0.0384005196 0.0251333080 -0.0076791556 -0.0066433707 -0.0243874565 -0.0405687019 0.0366606154 0.0359398499 -0.0108166197 0.0120161930 -0.0317745730 -0.0195212029 0.0409190692 -0.0385039411 0.0203503259 0.0136828423 0.0422911495 -0.0199414026 -0.0025152396 0.0399284698 0.0382667258 -0.0423050635 -0.0338264331 0.0009327888 -0.0309711155 -0.0301821474 0.0261405446 -0.0134608923 -0.0374157391 -0.0228212066 -0.0305042192 -0.0099635832 0.0394833498 -0.0369366743 0.0155849140 -0.0012157733 0.0200926308 0.0229209941 0.0317207538 -0.0411762521 -0.0365695767 0.0087380158 0.0199509747 -0.0249697622 -0.0372962244 -0.0056887972 0.0135368565 0.0152052501 0.0179569758 0.0292160362 0.0009871792 -0.0029578975 -0.0354982354 -0.0092394585 -0.0091380738 -0.0424857177 0.0435959734 0.0146836825 0.0231451523 -0.0044113155 0.0012321157 -0.0157322269 0.0213571880 0.0189219117 0.0386227965 -0.0062788320 -0.0092839338 -0.0400714204 0.0427759737 0.0123555325 -0.0180595499 -0.0300329905 -0.0024186338 0.0250644609 -0.0366431475 0.0045156293 -0.0346765183
-0.0095845358 -0.0416882411 -0.0305882543 0.0268045422 0.0408015102 -0.0243330393 -0.0012744470 0.0042965496 0.0118204942 0.0186810531 0.0330081619 -0.0279114023 -0.0361366458 -0.0169228651 -0.0307179969 0.0069083269 -0.0350503363 -0.0158917699 -0.0264843889 0.0389006250 0.0305319987 -0.0403501838 -0.0085646976 0.0015864127 -0.0284288172 -0.0322727486 -0.0033018577 -0.0022133207 0.0321664959 0.0220793318 -0.0084731914 0.0117202848 0.0108104926 -0.0124524124 0.0199640393 -0.0323716700 -0.0061347741 -0.0367286541 0.0200954806 0.0377681330 -0.0151443109 -0.0217187125 0.0272024609 0.0399630666 0.0368074737 0.0144084217 0.0066952007 -0.0433437936 0.0073387674 -0.0222666170 0.0036629403 0.0194632038 0.0178230423 0.0096871266 0.0226615276 0.0169810485 -0.0082097743 0.0118935714 0.0096708210 0.0013143284 -0.0269185808 -0.0399142504 -0.0320685990 0.0117369071 0.0415533036 0.0431786664 -0.0381596386 -0.0369228870 -0.0168173146 -0.0314059705 -0.0186297856 -0.0101862242 -0.0357940644 -0.0265425947 0.0254594516 -0.0312921181 -0.0282017570 0.0415089503 0.0011095790 -0.0424073189 0.0190227330 -0.0297284685 0.0073782695 0.0199069679 -0.0042376919 0.0123251975 -0.0403185450 -0.0298165400 -0.0027411256 -0.0213410985 0.0074960012 0.0317835324 0.0106249833 0.0131596206 -0.0183737334 0.0341129117 0.0436942689 0.0173882823 -0.0028766962 -0.0258263666 -0.0093077729 -0.0286041796 -0.0312557667 0.0091687199 -0.0392893143 0.0269507170 -0.0147390692 -0.0055529210 -0.0434775092 -0.0176457632 0.0358786173 0.0145353312 0.0077985786 0.0017529558 0.0258829370 0.0137809133 -0.0009198181 0.0080246646 0.0417977870 0.0258871093 -0.0038450886 -0.0319225080 0.0428091325 -0.0042143003 0.0181806479 -0.0187358651 0.0270372927 -0.0176671464 0.0277864467 0.0116716633 -0.0265293904 0.0288145244 -0.0210527778 0.0327727869 0.0377268195 0.0346628278 0.0100826640 -0.0330012962 -0.0164957494 -0.0237799250 0.0378582515 0.0219200328 0.0410799496 0.0262320302 -0.0350332409 -0.0231635291 0.0430339091 0.0333743878 -0.0119435899 0.0295712668 -0.0294564478 -0.0097690020 -0.0063281544 -0.0287174862 -0.0183442514 -0.0405018665 -0.0285450071 0.0043491754 0.0186222587 -0.0111750783 0.0269805528 -0.0380339883 0.0407899506 0.0269025173 -0.0082342029 0.0440009087 -0.0422124118 -0.0124288211 -0.0206777491 0.0299781989 -0.0206409767 -0.0377397947 -0.0143800145 -0.0398721769 0.0069253696 -0.0240604561 -0.0145404628 -0.0371652171 -0.0122165903 0.0197945349 0.0078189410 -0.0164894592 0.0318607353 0.0249012224 -0.0089396518 0.0411828496 0.0177356098 -0.0331796966 0.0347232297 -0.0250736605 0.0428828523 0.0188669674 0.0265153926 -0.0174151137 0.0402021594 -0.0349529125 0.0067017125 -0.0044160467 -0.0302934572 0.0437282398 0.0020075282 0.0361705199 -0.0276374537 -0.0147005785 -0.0297322348 -0.0365401842 -0.0373130143 -0.0307879820 -0.0033323194 0.0405615047 0.0303571951 -0.0275430065 -0.0042472328 -0.0155649623 0.0184914134 -0.0351540260 0.0221070126 -0.0352022946 0.0342445336 0.0153020294 0.0426884629 -0.0020028183 0.0025271408 0.0050819297 0.0128634339 0.0421932824 0.0147161623 0.0237426478 -0.0310647450 0.0107855946 -0.0131925428 0.0307716243 0.0222692676 0.0366937257 -0.0124451900 0.0343593732 0.0126997931 -0.0242986474 0.0244873706 0.0286516063 -0.0100577343 -0.0274666529 0.0174859632 0.0062903273 -0.0198194608 0.0227931198 -0.0305587035 0.0148195373 0.0152266184 -0.0115058739 0.0408538990 0.0166963730 -0.0207468271 -0.0014916455 -0.0031550392 -0.0125644440 -0.0174767692 0.0288979765 -0.0423648320 -0.0315411054 0.0419273898 -0.0405413434 0.0009644410 -0.0199778527 0.0229640938 0.0364883244 -0.0151357809 0.0310210753 0.0308744777 -0.0332656838 -0.0382803865 0.0398040190 -0.0118328538 -0.0027379857 -0.0298273880 -0.0045182738 0.0022516691 -0.0097935945 0.0048335218 0.0405910984 0.0366900414 0.0153976977 -0.0273160841 0.0228499137 0.0217420738 0.0046930462 -0.0401200429 0.0304362569 0.0425007716 0.0064902143 -0.0321713425 0.0231287200 -0.0023490915 0.0419458710 0.0022728741 0.0342224613 -0.0255513154 -0.0035172440 0.0176179353 0.0244586170 0.0086069712 -0.0225956943 0.0188431963 0.0393246226 -0.0140193952 0.0018587076 0.0013902823 -0.0247734580 -0.0351758525 -0.0109867193 -0.0385027826 -0.0438493118 -0.0392580181 0.0004917273 0.0068892553 -0.0042477911 0.0007024352 -0.0108921891 0.0183269829 -0.0042442298 0.0346785486 0.0106497547 0.0163260400 0.0195193589 -0.0224980619 0.0154611552 0.0165393502 0.0268885307 -0.0137745226 -0.0373560637 -0.0128560374 -0.0242332518 0.0437525325 -0.0079584364 0.0387659222 -0.0412259027 -0.0113929622 0.0040755318 -0.0007181507 -0.0391281992 -0.0141858598 0.0309932958 0.0249299929 0.0329566747 0.0193966329 0.0045144069 -0.0177784879 -0.0310713258 0.0369643494 -0.0439310446 0.0235450044 0.0354208834 -0.0142413042 0.0044802045 -0.0011577739 0.0307064392 0.0107172318 0.0302460585 0.0053066676 0.0190714374 0.0353944786 0.0258795191 -0.0305567328 -0.0103404503 -0.0331958160 -0.0028930861 0.0096351486 0.0378467143 -0.0324874073 0.0248496979 -0.0202643201 0.0243133474 -0.0108838333 -0.0099481000 -0.0206666496 0.0266577080 -0.0409781374 -0.0352730341 0.0243004020 0.0420666672 -0.0042973980 -0.0116692027 0.0012925279 -0.0208452046 -0.0375412703 0.0232838057 0.0291315857 -0.0165273380 -0.0375305936 0.0014679641 0.0229425952 0.0033716636 0.0124091906 0.0377149321 0.0191372503 -0.0171030276 0.0084102247 0.0095524406 -0.0005449798 0.0115138814 0.0352583416 -0.0340795293 -0.0157852806 -0.0202287119 -0.0249874964 0.0336241908 0.0083490321 0.0232556816 -0.0193195883 0.0066530854 -0.0027680048 -0.0320049673 -0.0287962072 -0.0268103108 -0.0106722824 0.0197906159 0.0094281603 -0.0126171913 0.0344813950 0.0266099069 -0.0303685591 -0.0406484231 0.0284890309 0.0346209444 0.0205607135 0.0386561714 0.0200886317 0.0295919292 0.0046729422 0.0042879204 0.0417895317 -0.0098301731 0.0083269579 0.0091349976 0.0103913629 0.0420712270 0.0091552967 0.0367819928 -0.0164177455 -0.0195413064 -0.0315876342 -0.0007262956 -0.0164990257 0.0271034632 0.0191487875 -0.0326427706 0.0013674439 -0.0245783348 0.0186813958 -0.0422514863 0.0294218715 0.0065338886 -0.0042702607 0.0159413870 0.0089488085 -0.0040980908 0.0266827103 -0.0303052068 -0.0197727196 -0.0065315813 -0.0372435898 0.0026804183 -0.0418995991 -0.0257505327 0.0196497031 0.0273558907 0.0288680941 0.0085017886 0.0262319818 0.0384155400 -0.0059899837 -0.0430270955 0.0296444595 -0.0086299041 0.0117219230 0.0324278995 0.0223492086 -0.0054415688 0.0215634182 -0.0302389879 -0.0182084963 -0.0109226555 0.0325988755 -0.0432313718 0.0356127284 0.0034996055 0.0038695969 0.0171803776 -0.0330009349 -0.0341435783 0.0274757296 0.0039970754 0.0158396866 0.0087947883 -0.0399779342 -0.0114371004 -0.0292051733 -0.0292883236 0.0183972195 0.0064485939 0.0244793259 -0.0439937524 0.0404254533 -0.0203092694 0.0007334763 0.0084458757 -0.0093356268 0.0330771506 0.0055773398 0.0028344702 -0.0421827026 0.0186099466
-0.0413792543 -0.0268718880 0.0297326315 -0.0109541658 -0.0193743259 -0.0376242809 -0.0059619774 -0.0286685601 -0.0373111926 0.0382813774 0.0271013249 -0.0158145726 0.0058275391 -0.0308558922 -0.0137388399 -0.0245518815 -0.0072283214 0.0336133316 -0.0031970069 -0.0191265140 -0.0129269231 0.0210264828 -0.0407927111 -0.0056048511 0.0228855275 -0.0378066748 0.0288568344 -0.0295699015 0.0125616360 -0.0054481174 -0.0351955593 0.0364697687 0.0362959839 -0.0021092547 -0.0034603984 0.0248510614 -0.0061370870 -0.0172655135 0.0203652717 -0.0103791459 -0.0230431408 0.0222565383 0.0106611662 -0.0350226909 -0.0356604382 0.0179191269 0.0241033826 -0.0106373532 0.0052987384 0.0244061444 -0.0084296437 0.0420811251 -0.0044147824 0.0220334809 0.0060512917 0.0222445112 -0.0129429810 -0.0131347543 0.0113362530 0.0215601195 0.0398007073 -0.0099599697 0.0094843106 -0.0306311902 -0.0352372304 -0.0434227400 0.0333518870 0.0351981744 0.0160716511 -0.0017132694 0.0327769332 -0.0126885511 -0.0068346276 0.0157431699 -0.0371879227 -0.0065178364 -0.0156181417 -0.0129645811 -0.0060623237 0.0143484836 0.0063634627 -0.0173529908 -0.0177777186 -0.0381826572 -0.0169142783 -0.0395047739 -0.0024379580 0.0219116360 0.0121111078 -0.0391288027 -0.0277231317 -0.0013997337 0.0220994577 -0.0055416836 -0.0067073018 -0.0357461534 0.0084863203 -0.0061740181 0.0049184528 0.0052686301 0.0441403352 -0.0142802894 -0.0182858948 -0.0315260999 0.0203804560 -0.0066793114 -0.0044867005 0.0202194713 0.0049038860 -0.0095513659 0.0267273393 0.0286648255 0.0165545493 0.0161352195 -0.0133649027 -0.0100733386 -0.0012786827 0.0331664085 -0.0273864474 -0.0290516950 0.0286814049 0.0382713601 -0.0183621068 0.0352637731 0.0295128506 0.0063663973 0.0129408101 0.0075535001 0.0424529612 0.0070508728 0.0047226809 -0.0404077470 0.0219487343 0.0392120592 0.0135043766 0.0084122792 0.0123909675 0.0140875736 0.0150155835 -0.0369511433 -0.0270549897 0.0367028341 -0.0355057269 -0.0095129600 0.0286463536 -0.0092270412 -0.0430054329 0.0041138381 0.0139026958 -0.0093872407 -0.0177500229 0.0106097264 -0.0002438195 -0.0126518672 0.0248338077 -0.0309203230 -0.0245951731 -0.0336573832 0.0281248279 0.0033245960 -0.0023482169 -0.0410010852 0.0172294471 -0.0178445335 -0.0059569827 0.0242222361 -0.0107107945 0.0339531749 -0.0171730220 -0.0036745730 -0.0252310373 -0.0201936606 -0.0342141055 -0.0298701674 -0.0253075808 -0.0002350319 -0.0405431092 0.0275785420 0.0177850164 0.0014621427 0.0296266675 -0.0410741456 0.0432571694 -0.0185060389 0.0048612016 0.0123447487 0.0025357020 -0.0257894341 -0.0350169800 0.0230078958 0.0062372806 -0.0228288397 -0.0304956678 -0.0165033825 -0.0366327912 0.0260728877 -0.0390361473 -0.0000337227 -0.0390568078 -0.0397059992 -0.0361176245 0.0079408772 0.0098655811 0.0283710603 -0.0196430385 -0.0141335605 0.0073870569 0.0043038307 0.0149100060 0.0344468988 0.0258949865 -0.0368105732 0.0221093465 -0.0434065796 0.0423247479 0.0170008168 -0.0344664417 -0.0013040603 0.0391163118 -0.0244815387 0.0412389450 -0.0078153582 -0.0207238682 -0.0078766402 0.0331882760 0.0376017950 -0.0396740288 0.0198285226 0.0015018713 0.0269895028 0.0161164906 -0.0355809480 -0.0227869675 -0.0245453864 0.0036193132 -0.0388566703 -0.0129880570 0.0381979160 0.0352691412 0.0422867797 -0.0108029796 -0.0040271208 0.0211587977 0.0109232198 0.0117429756 -0.0259898808 -0.0213282648 -0.0050974875 0.0090336921 0.0165071972 0.0176936742 0.0155174946 0.0192179512 0.0180597287 0.0103672128 0.0424798392 -0.0396044925 0.0401855707 0.0064177797 0.0164391939 0.0184387304 -0.0331863239 0.0364818126 -0.0344425626 0.0058210962 -0.0368356928 0.0440520793 0.0242572650 -0.0053880792 0.0149072818 -0.0343056284 0.0364051051 -0.0283481851 -0.0224316753 0.0153370854 0.0304748956 0.0418672971 -0.0322443359 0.0360377878 0.0439559184 0.0209973175 -0.0237732138 0.0054066293 0.0262513533 -0.0235054977 0.0111213997 -0.0048262724 -0.0351012684 0.0412888788 -0.0380941331 -0.0183312390 -0.0017992279 -0.0020977012 -0.0321809612 -0.0127044823 0.0356794000 -0.0348901302 -0.0398930497 0.0355757736 0.0006471859 -0.0305905249 -0.0035836252 0.0416802503 0.0072275731 0.0169994999 -0.0217912793 0.0104429349 0.0344131812 -0.0286020003 -0.0084902663 0.0093899593 -0.0101193422 0.0326273181 0.0050202166 0.0310696177 0.0385016389 -0.0214884598 -0.0126956636 -0.0441804267 0.0253692828 -0.0102958903 0.0047330754 0.0120111406 0.0231560525 -0.0398108698 -0.0280849263 0.0352787822 0.0204278771 0.0409649462 -0.0038980672 0.0014294157 0.0043651173 -0.0286997687 0.0285304282 -0.0077693816 0.0410414040 -0.0432029702 -0.0111773023 0.0083388956 0.0425158627 -0.0329854786 0.0287411939 0.0292368103 0.0257037301 0.0369758867 -0.0391976647 -0.0090578320 0.0070241359 0.0111042084 0.0366622694 -0.0111936228 0.0315076783 0.0187060516 0.0116160978 -0.0334177986 -0.0332010537 -0.0206259191 0.0259625744 0.0382458605 -0.0184976775 -0.0241937190 -0.0282539669 0.0428405255 0.0049924520 0.0063087824 0.0337769911 0.0046341936 0.0094268275 0.0352023765 -0.0318095423 0.0196255744 -0.0023466733 0.0213562828 0.0037368555 -0.0293710325 0.0348305963 0.0403399393 -0.0403400436 0.0091164000 0.0126453191 0.0189962275 0.0203646570 -0.0371369421 -0.0046604089 0.0388418920 0.0183161031 -0.0086774668 0.0331726894 -0.0409008488 0.0302807763 -0.0118945837 -0.0320053995 0.0293709524 0.0229439326 -0.0409900434 0.0176547356 -0.0377599970 0.0308229122 0.0152516430 0.0400767103 0.0353553407 0.0170053151 0.0201581679 0.0410260931 0.0335663147 0.0284579936 0.0294955969 -0.0110033723 0.0353348143 0.0056752469 0.0133702233 0.0247440878 -0.0259677637 0.0025657052 0.0087625775 -0.0098541807 -0.0208905917 0.0356728248 0.0118581951 -0.0356930755 0.0105608515 -0.0430977270 -0.0332091190 -0.0130448341 -0.0224715509 0.0063177915 0.0196650028 -0.0440232567 -0.0144937318 0.0025047134 -0.0017466128 0.0227308795 0.0328576826 -0.0152152916 -0.0120607046 -0.0375586897 0.0305163786 -0.0216417853 0.0011854802 0.0386975035 -0.0012847203 0.0308373887 0.0271480493 0.0309249070 0.0156844761 -0.0195023734 -0.0247410275 0.0110400505 -0.0333490372 -0.0177225396 -0.0407216847 0.0118588377 -0.0005755521 -0.0315562189 0.0334037803 0.0205531474 -0.0425128713 0.0360134654 0.0199920945 0.0194338951 -0.0287667681 -0.0165484902 0.0421234369 -0.0224532224 -0.0338929296 -0.0259357840 0.0045977049 0.0276540648 0.0143236592 0.0037188956 -0.0255931783 -0.0095366566 0.0053993273 -0.0191614106 0.0395535827 0.0216666572 0.0066420692 -0.0330140740 0.0211995896 -0.0030803392 0.0339582562 -0.0052572871 0.0353645347 0.0060412451 -0.0313725397 0.0396563150 -0.0139587196 -0.0127780708 0.0276656337 -0.0410473421 0.0087764226 -0.0376866795 0.0048448117 0.0359404571 0.0078606084 0.0255657081 -0.0339689106 0.0424395725 -0.0212357901 -0.0165013913 0.0014127729 0.0271213166 0.0361999273 0.0201301407 0.0243462063 0.0350014456 0.0232688580 0.0431740470 0.0136208339 -0.0039476370 0.0331070609 0.0107384846
-0.0314627923 -0.0030135629 0.0120025212 0.0373370983 0.0275213867 -0.0437215716 -0.0290695708 -0.0377490409 -0.0431591608 0.0017149973 0.0425521694 0.0081363488 -0.0109449942 -0.0351236723 -0.0109062660 -0.0196327083 -0.0045453636 0.0080019636 -0.0147454860 0.0004981652 -0.0281260777 0.0092581501 0.0111571131 -0.0379441604 0.0196591131 -0.0115305660 0.0276762079 -0.0316226594 0.0014503152 0.0365403518 0.0184177253 -0.0037564959 -0.0071995510 0.0228325445 0.0198835544 -0.0315857157 0.0424248688 -0.0179053508 0.0097817983 0.0241464712 -0.0111792982 0.0151010891 -0.0304768290 0.0220844261 -0.0137993786 -0.0326294452 -0.0010117246 -0.0291770659 0.0019067234 0.0169629212 0.0392604880 -0.0199857559 -0.0225980654 0.0105666099 0.0007747697 0.0148183256 -0.0374385975 -0.0428191684 -0.0376703404 0.0381609090 0.0284006223 0.0128459698 -0.0001512650 0.0190428104 0.0172617678 -0.0201535691 0.0000419150 -0.0084872162 -0.0188230928 -0.0296210889 -0.0023046213 0.0392375141 -0.0037892335 -0.0345784761 -0.0354606733 0.0352265835 -0.0191152599 -0.0265625138 -0.0032759164 -0.0381834172 -0.0250359289 -0.0050695650 -0.0249571707 -0.0195893962 -0.0330814384 0.0313123092 0.0336214267 0.0075302087 0.0226061307 0.0228231195 -0.0256275851 0.0090001700 -0.0279017128 -0.0340982117 -0.0351480357 0.0399413444 0.0317354649 0.0025739870 -0.0363774337 0.0363016762 -0.0160933211 -0.0016164159 0.0096220253 -0.0360041671 -0.0083628306 0.0440058187 0.0415631495 0.0157423001 -0.0392165184 -0.0199216828 0.0397662520 -0.0398423411 0.0128735807 0.0055155419 0.0152348261 -0.0329716839 -0.0401053913 0.0068383473 -0.0336996764 0.0306609105 0.0274806768 0.0125671467 -0.0094275437 -0.0378936529 -0.0234870482 -0.0204967018 -0.0334788747 0.0208316538 -0.0105010029 0.0094316686 -0.0302536190 0.0173031613 -0.0270329937 0.0376290642 -0.0204781629 -0.0111243967 -0.0094218431 -0.0185422320 0.0246909875 0.0222606696 -0.0084524816 -0.0405407250 -0.0204322077 0.0293488093 -0.0103836451 -0.0178583469 -0.0164862722 0.0116804671 -0.0283526592 0.0273223482 0.0018327135 0.0330687761 -0.0059407614 -0.0104829641 0.0307833888 -0.0031800165 0.0222687870 -0.0322370268 -0.0128767369 -0.0015263007 0.0133281238 0.0015869447 -0.0376608893 -0.0013901242 -0.0306062922 -0.0288859271 -0.0416438133 0.0039261947 -0.0246160664 0.0375091247 -0.0361076780 -0.0170964058 -0.0164773725 0.0203937907 -0.0405743495 0.0440917723 0.0428130403 -0.0063907583 -0.0223384928 0.0086079510 0.0388201177 -0.0340410769 0.0411057062 0.0007632478 -0.0062155798 0.0349715576 -0.0251000971 -0.0388053097 -0.0383080058 -0.0129473954 0.0379369780 0.0321249217 -0.0009525609 0.0019049374 0.0406426303 -0.0192062967 -0.0167425033 0.0027628208 -0.0108168833 0.0389894061 -0.0003345301 0.0323876143 -0.0274851229 0.0344407596 -0.0385114886 0.0104840491 -0.0064459653 0.0395496637 -0.0040801098 0.0110838991 -0.0025276993 -0.0357413329 -0.0284055267 -0.0363814384 -0.0225841142 0.0319850408 0.0364579558 -0.0195014942 0.0060193180 0.0131290695 0.0187699404 0.0337489210 -0.0120036593 -0.0221295189 -0.0336999334 0.0417568162 0.0379974172 -0.0275642592 0.0071336753 0.0030295944 0.0192506891 -0.0113339461 -0.0351567864 -0.0375686027 0.0054005128 0.0248775557 0.0173692051 -0.0380737074 0.0362769403 0.0318098031 0.0364052951 0.0398592316 0.0257868432 -0.0005898610 0.0338986106 -0.0413900912 0.0043796320 -0.0098946625 0.0367541052 -0.0063836090 0.0293437317 -0.0251692180 0.0090290243 0.0014927993 -0.0226710159 -0.0135704316 0.0287711397 -0.0112000927 0.0122126918 -0.0382584780 0.0227013770 -0.0285709165 0.0417340510 -0.0399484150 -0.0261880606 -0.0076458333 -0.0316638686 -0.0412274003 0.0149466470 0.0327103734 -0.0126793738 -0.0184119716 0.0415635370 -0.0241694320 0.0408174880 -0.0232856795 0.0260241777 0.0347406045 0.0402364843 -0.0181170534 -0.0285747778 -0.0269606747 -0.0167824216 -0.0295554660 0.0303483754 -0.0320000276 0.0121527538 -0.0086869607 -0.0231636912 0.0322029032 -0.0053557949 -0.0036201086 -0.0352491327 -0.0297578610 0.0441706926 -0.0050167181 -0.0198438372 -0.0303225014 -0.0414849147 -0.0057334253 -0.0360805318 -0.0425534323 -0.0433965847 -0.0021666060 -0.0110524893 0.0435278751 0.0163642410 -0.0336795002 0.0363634266 -0.0156873520 0.0016141137 -0.0125279455 0.0381140485 -0.0298061613 0.0039326958 0.0405070558 -0.0134975174 0.0286028683 -0.0305497106 -0.0176844746 0.0339879990 -0.0333404653 0.0278062411 -0.0135018378 0.0355130434 0.0150166582 0.0024066693 -0.0333833396 0.0048561492 -0.0363224596 0.0277698208 0.0117191523 -0.0034840796 0.0098479530 0.0004367731 0.0073016887 0.0294217449 -0.0223326031 0.0309406761 0.0114473738 0.0430820175 -0.0409433395 0.0062065395 -0.0025832488 -0.0278001670 0.0339465551 -0.0233840253 -0.0336805619 0.0246482883 0.0032535153 -0.0422611646 -0.0088517498 -0.0323769860 0.0089278510 0.0019148682 0.0171398167 0.0246882960 0.0020788985 0.0096549634 0.0037335786 0.0433078706 0.0082791531 -0.0313530229 0.0089668259 -0.0002247165 0.0055423370 0.0178299397 0.0326745845 -0.0148600461 -0.0187282003 0.0344792940 -0.0037917728 0.0008572932 0.0439898670 -0.0391281955 0.0393544137 -0.0021862572 -0.0342053138 -0.0254740976 0.0109664304 0.0265528876 -0.0049937903 -0.0041201706 0.0281547941 -0.0392668210 0.0072379466 0.0428319871 -0.0016664864 -0.0281009357 -0.0362009294 -0.0101493560 -0.0180696920 -0.0347468778 0.0381174125 -0.0261902772 0.0047583161 -0.0304150935 -0.0343021043 0.0235258006 0.0396037027 0.0113633219 -0.0076026907 -0.0285890754 0.0347735398 0.0187787432 -0.0226418301 0.0365136154 0.0061614844 0.0022062873 -0.0265617762 -0.0173718818 0.0087644104 -0.0241835974 0.0392653793 0.0296709165 -0.0222560335 0.0069727483 0.0246954765 -0.0276588108 0.0258269291 -0.0365262665 -0.0153013496 0.0062945737 -0.0346627906 -0.0374368653 -0.0286186319 -0.0290199853 0.0294104032 -0.0366704911 -0.0372438952 0.0357267447 0.0401312523 0.0138470046 -0.0414849743 0.0049389307 0.0252888091 0.0348957740 -0.0000138294 0.0313800834 0.0412536934 0.0309451800 -0.0064088232 0.0184193365 -0.0269240867 0.0207413752 0.0046815509 -0.0085735219 0.0255345143 0.0133430548 -0.0311326850 0.0101892743 0.0319586061 0.0439825282 0.0189699754 -0.0114419842 0.0329762846 -0.0215429179 -0.0158127379 -0.0280039776 -0.0286601838 -0.0126305250 0.0097286990 0.0356316455 0.0152943591 0.0239567943 -0.0131740300 -0.0404373258 -0.0298066568 0.0028006739 0.0250171144 -0.0242137741 -0.0352817364 -0.0232574623 0.0107671134 -0.0278250538 0.0292516239 -0.0397122242 0.0307692438 -0.0056897667 0.0426406600 -0.0210321676 0.0105155753 0.0192936100 0.0045093279 0.0164431073 -0.0284568984 -0.0063576992 -0.0094925240 0.0113186464 0.0145481806 -0.0166454818 0.0155721540 -0.0262375884 0.0221365206 -0.0310934372 -0.0396840349 -0.0196839739 -0.0002128258 -0.0404837504 0.0368031748 0.0158607755 -0.0014781427 0.0317575932 0.0408718213 -0.0128273191 0.0152592137 0.0231015310 0.0325514860 -0.0160674211 0.0308622085 0.0172807183 0.0291592963
-0.0352349058 0.0184677113 0.0266585443 -0.0385605991 0.0034266177 -0.0213758647 -0.0374957286 0.0213498808 0.0224928875 0.0110428799 -0.0149099324 0.0316302292 0.0192859080 -0.0121617261 -0.0023907167 0.0154436640 0.0311826188 -0.0301618129 0.0284615550 -0.0223926101 0.0092682289 -0.0176042430 -0.0382492244 0.0437032245 -0.0351033546 0.0034862712 -0.0350753479 -0.0031969280 -0.0379149765 0.0151977632 -0.0134869125 -0.0136575541 0.0199177731 0.0113558890 -0.0426738299 -0.0434981398 0.0418693163 -0.0141349100 0.0231289938 0.0061220773 -0.0184678640 -0.0291095953 -0.0165944360 0.0415235162 0.0012444068 0.0313129649 0.0074862442 0.0304681715 0.0315101855 -0.0366488062 -0.0189929921 -0.0258609746 -0.0154904732 -0.0331284404 0.0155571811 0.0407587290 0.0429502837 -0.0051651015 -0.0101737641 0.0029830907 -0.0113933310 -0.0328208879 -0.0076043662 -0.0334233679 0.0438064598 0.0310442559 0.0203990638 0.0340718590 0.0019763394 0.0286235623 0.0239187516 -0.0175862312 0.0239942316 0.0163488891 -0.0127869844 0.0024129229 0.0276299883 0.0199151710 -0.0299007762 -0.0023664823 0.0103212306 0.0294165295 0.0198459234 0.0021039075 0.0359705575 -0.0138231022 0.0321460851 0.0360467620 -0.0252782833 0.0411168933 -0.0017520708 0.0180114396 0.0172040220 0.0040624924 -0.0289974958 0.0423894934 0.0095332162 0.0399904139 0.0243242569 0.0012682092 -0.0112255597 -0.0206391271 -0.0126699163 0.0071920380 -0.0214393698 -0.0314639881 -0.0251047853 0.0393963754 0.0292518623 0.0387071855 0.0334252752 0.0130934557 -0.0306772739 -0.0240249410 -0.0113094952 0.0176344514 0.0169201940 0.0130672455 0.0007990568 -0.0080420291 0.0311561096 0.0001366401 0.0408878475 -0.0148622477 -0.0247177146 -0.0438387170 -0.0136140324 0.0143456915 -0.0424376279 0.0102766240 -0.0296338070 -0.0247773416 0.0270165447 -0.0193169173 -0.0342893638 -0.0100695193 0.0268750060 -0.0266971048 0.0424913876 0.0332669653 0.0111502120 0.0027125396 -0.0291870609 -0.0312407818 0.0027285870 -0.0013391634 0.0007418846 0.0216094367 0.0328327753 -0.0283379443 0.0355194509 0.0154133970 -0.0091219209 0.0221303459 0.0319701917 -0.0328373574 0.0143500585 -0.0301518962 -0.0406508259 -0.0177557878 -0.0288132653 -0.0398897938 0.0316706859 -0.0116516594 0.0373098999 0.0346846282 -0.0116184736 0.0357056521 -0.0266935639 0.0272110067 -0.0361475237 -0.0027632001 0.0378971808 0.0311425589 -0.0210920312 -0.0250154231 -0.0245673973 -0.0324533358 -0.0272459518 -0.0272540320 -0.0204570107 0.0196633488 0.0381914228 0.0045923996 -0.0289908834 0.0297408924 -0.0405816287 -0.0136428876 0.0377633087 -0.0166292917 -0.0158093031 -0.0025990487 0.0378837213 0.0334264487 -0.0334988683 -0.0211071949 -0.0416158028 -0.0176762715 -0.0195986740 0.0157751534 -0.0327770598 -0.0261557009 0.0237386171 -0.0073041595 -0.0217996147 0.0377308391 0.0277263559 0.0063718236 0.0347020030 0.0246893223 0.0095079970 -0.0407132804 -0.0367422402 0.0108233793 0.0051088356 0.0439916849 -0.0072614383 0.0074313427 -0.0274644569 0.0100722378 0.0399567857 -0.0279354844 -0.0310241319 -0.0009479932 -0.0340012908 -0.0302357581 0.0358862542 0.0009831595 -0.0191353634 -0.0210986380 -0.0438965894 0.0123812947 -0.0116892653 -0.0041966932 0.0335885100 0.0082442500 0.0127128642 -0.0193071067 -0.0034269760 0.0300743580 -0.0007388869 -0.0345331579 -0.0220417101 -0.0299887881 -0.0344352983 -0.0087726451 -0.0415427685 -0.0410165787 0.0018334248 -0.0437020771 -0.0190614387 0.0167513862 0.0146197928 -0.0108000720 -0.0318838209 0.0435676984 0.0010663100 -0.0414384082 -0.0030757401 0.0088216932 0.0185780823 0.0341930017 -0.0435337462 0.0208257530 0.0220527593 0.0397205912 0.0075561078 -0.0193036031 0.0197272263 -0.0014685490 0.0182077754 -0.0193480011 0.0435090847 -0.0173809286 0.0074113966 -0.0428442061 -0.0152906608 0.0218274090 -0.0320917144 0.0426640883 0.0251886100 0.0375564098 -0.0279644486 -0.0054415110 0.0423332229 0.0070384447 -0.0089419121 -0.0175031479 0.0054954537 0.0334385969 -0.0332001038 0.0171507001 -0.0434528105 -0.0441397093 -0.0158909895 -0.0098096523 0.0053800927 -0.0376057476 -0.0078968601 -0.0214516558 -0.0351844169 0.0187553950 0.0015974973 -0.0323809162 0.0434940867 0.0388782434 0.0109819034 -0.0239614677 -0.0252845101 0.0178744365 0.0200839322 0.0274946745 0.0012013485 0.0180873983 0.0075365729 -0.0333842561 -0.0006330615 0.0392022990 0.0121442825 0.0106073609 -0.0252319276 0.0066517894 0.0244715866 0.0182878226 0.0123278322 0.0217426904 -0.0121374335 -0.0012755111 -0.0037918044 -0.0021885277 0.0046328185 -0.0146386912 -0.0159987900 0.0093019987 0.0199710783 0.0238655526 -0.0388399474 0.0153170815 0.0261688083 0.0266550314 -0.0045389207 0.0320197232 0.0180123504 -0.0161553826 -0.0299226716 0.0065521277 0.0245010369 0.0085924622 0.0162858274 0.0135254236 0.0138840517 -0.0371726714 -0.0223378446 0.0116639500 0.0322557874 -0.0126563031 -0.0268026665 0.0190775804 0.0058745909 0.0104505904 0.0249270797 -0.0186001249 0.0126351723 0.0149001805 0.0308376886 0.0109063974 0.0237678569 0.0043439176 0.0202434994 0.0057427031 0.0119321942 0.0083224429 0.0271805134 0.0249127112 0.0073511321 -0.0329813622 0.0351213217 -0.0209117215 0.0078599341 0.0425303057 -0.0370095856 -0.0358124860 -0.0034769359 -0.0333242156 -0.0259453896 0.0071703959 -0.0142213842 -0.0135005787 -0.0346912593 -0.0256861113 0.0205417518 -0.0357865319 -0.0438550971 0.0301844180 -0.0060607484 -0.0431146771 0.0210693087 0.0438902117 -0.0328721069 -0.0404773578 0.0123491315 0.0145022031 0.0269801468 -0.0197176803 -0.0148762884 -0.0012057476 0.0207532179 -0.0307101905 -0.0058447826 -0.0238449909 -0.0200584959 -0.0137507776 0.0297476556 0.0141597502 -0.0073926570 -0.0050058234 -0.0040410189 0.0124447001 -0.0309711266 0.0011163752 -0.0216706023 0.0141859865 -0.0064564073 0.0155354068 -0.0408589914 0.0135618597 0.0074620047 -0.0254431255 0.0210806672 0.0108092120 -0.0368844569 0.0119393487 -0.0041014627 -0.0413266905 -0.0399112143 0.0011232820 0.0010488875 0.0437174924 0.0287277177 0.0277845506 -0.0159195922 -0.0011670198 0.0337917581 -0.0332048424 0.0216792580 0.0370478630 0.0237116963 -0.0426909216 0.0226444639 -0.0332151204 -0.0190107934 0.0426277369 -0.0136073893 0.0293451063 -0.0269983746 -0.0345014408 -0.0040582619 -0.0330385454 0.0196224283 0.0247204546 0.0047199149 0.0314986631 -0.0099809691 -0.0131085021 0.0125382291 0.0314278603 0.0099685406 0.0016734564 0.0239657722 0.0340973474 -0.0407808051 0.0076442421 0.0437685326 -0.0190034602 0.0094566830 -0.0295222066 -0.0038437399 0.0270943008 -0.0020581570 0.0032730715 -0.0387650691 0.0213467665 -0.0240870919 0.0382835791 0.0143843396 -0.0040754210 0.0436441079 0.0231574848 0.0381478742 -0.0433951654 -0.0055354564 -0.0016819964 0.0428360552 -0.0249599963 -0.0265318565 -0.0042740856 0.0055563664 0.0034752237 0.0024271316 -0.0038098169 0.0100376355 0.0203197338 0.0165646113 0.0413665660 0.0406226851 0.0211730860 -0.0007442291 -0.0258912724 -0.0210829601 -0.0187555216 -0.0094899526 0.0006450575
0.0064626499 -0.0010930838 0.0379362777 -0.0150620667 -0.0395834781 0.0304584056 0.0009184114 0.0290442090 -0.0030478861 -0.0137280552 0.0152381081 0.0034099277 0.0378890298 -0.0307904221 -0.0115711857 0.0030090690 0.0015651126 -0.0410882309 -0.0177120753 0.0276282653 0.0425461270 -0.0071342653 -0.0082039787 -0.0154131921 -0.0153946579 0.0159529299 -0.0045945910 0.0141851222 -0.0106857382 0.0441393964 0.0086806389 0.0169719253 0.0367122963 0.0327427536 0.0073824157 0.0126451189 0.0127691254 0.0405696668 0.0347889923 0.0239093173 -0.0210635513 0.0212568995 0.0205252413 0.0264140721 -0.0184637867 -0.0117398361 -0.0253388528 0.0435584709 -0.0075346921 -0.0383709371 0.0391954817 -0.0070995311 -0.0373922661 -0.0282839127 -0.0104533723 0.0285974946 0.0342504941 0.0137398141 -0.0093135526 -0.0104762577 0.0004522357 0.0201201309 -0.0298618954 0.0251273029 -0.0109881368 -0.0037809673 0.0044054994 0.0417336226 0.0414413251 -0.0039264159 -0.0267891418 0.0010343943 -0.0347450674 0.0223104451 0.0311425384 0.0262047872 -0.0108462172 0.0113631804 -0.0273671597 0.0096158404 0.0197495185 -0.0221515410 0.0334386863 -0.0386903174 0.0348149501 0.0355497003 -0.0256097205 -0.0229045786 0.0078575788 -0.0235204492 0.0330164954 -0.0133291781 0.0028514082 0.0188944377 -0.0243365597 -0.0071551441 0.0141862389 0.0091257989 0.0041460432 -0.0121392561 0.0064461231 0.0244327337 0.0133735109 -0.0426177159 0.0417353436 0.0345789865 -0.0318353474 0.0397497155 -0.0257676244 -0.0242489353 0.0312446486 0.0316797346 -0.0183466598 0.0328523256 0.0381431356 -0.0070561781 -0.0285398811 -0.0148382876 -0.0405339263 0.0186509602 0.0347961225 -0.0381445475 0.0375931300 -0.0137424432 0.0373095945 0.0045261132 -0.0089501990 -0.0183607209 0.0056408816 0.0017726595 -0.0196418483 -0.0380110927 0.0179768689 -0.0146082295 -0.0319235511 -0.0012884976 -0.0115993237 -0.0018662044 -0.0081588393 -0.0204242934 0.0254915878 -0.0413206220 -0.0092843864 0.0246106293 0.0085436767 -0.0436167940 -0.0438391864 -0.0187229831 -0.0388481729 0.0435332507 0.0054882942 -0.0083240392 -0.0023066916 -0.0279685054 0.0372683592 -0.0315039046 -0.0066516260 0.0404756367 0.0134234764 0.0058005443 0.0372373350 -0.0407221355 -0.0108454376 -0.0305562485 -0.0073328982 -0.0188552029 0.0290699936 0.0032743148 -0.0247177407 0.0151125845 -0.0417118557 -0.0074016922 -0.0277873538 -0.0202444009 -0.0092564700 0.0281272512 -0.0171438623 0.0030313542 -0.0003321698 0.0215574019 -0.0131118260 -0.0259684119 -0.0194513239 0.0306174941 0.0253244136 -0.0230016429 0.0050431811 -0.0175902192 0.0240404680 0.0167395789 0.0321009308 -0.0388987064 -0.0068355021 -0.0168069564 0.0395676866 0.0253064111 0.0381683446 0.0291047171 -0.0275550447 0.0125799067 0.0352068804 -0.0061160503 -0.0381787606 0.0295765083 -0.0324231796 0.0122667085 -0.0099696843 0.0357415974 0.0184161235 -0.0054219970 0.0393395573 0.0396707989 -0.0042780368 -0.0352417119 0.0261743981 0.0408620164 0.0137611199 -0.0316856988 0.0423159152 -0.0016546114 -0.0176138636 -0.0324476883 0.0163059831 0.0277570281 0.0024533258 -0.0405277610 -0.0099045830 0.0223491620 0.0257734079 0.0310272183 0.0228607357 0.0048318622 0.0061811302 0.0067308727 0.0103171114 0.0160858445 -0.0352329724 0.0205671564 -0.0430113636 -0.0420852490 0.0039476636 0.0049384465 0.0120745711 -0.0094741900 -0.0414616354 0.0029108983 0.0014179306 -0.0016282907 0.0205394439 -0.0248485636 0.0366409831 -0.0105540557 -0.0288316160 0.0319973566 0.0060238750 0.0163956024 0.0239711143 -0.0297812056 -0.0089756297 -0.0175515022 0.0259538498 0.0293589719 -0.0252160002 0.0109033417 0.0178568289 -0.0230224412 0.0067035826 0.0348870941 -0.0164306909 -0.0100108618 -0.0398416519 -0.0327093676 -0.0337595828 -0.0278766882 0.0036083919 -0.0273510274 -0.0052044457 0.0113219656 -0.0441397578 0.0234030075 0.0331605189 -0.0322321542 0.0204906799 -0.0110036517 -0.0408063419 0.0266345479 -0.0302298274 0.0393443443 -0.0028753211 -0.0435987711 0.0184261855 0.0116112772 -0.0367835499 -0.0098212268 -0.0279287044 0.0321808457 -0.0140444944 0.0175958034 0.0435771234 0.0175828543 -0.0315852128 -0.0051609552 0.0180909541 0.0405531377 -0.0337111838 0.0125219868 0.0427753218 0.0222689305 0.0108491201 -0.0331368148 -0.0044895294 0.0203449745 -0.0033701251 0.0038832156 0.0127351228 0.0059506451 -0.0202918798 -0.0050406577 -0.0277856309 0.0047102896 -0.0367497168 -0.0329288915 -0.0376972780 -0.0206848029 -0.0324509814 0.0146906525 -0.0050136889 -0.0055710706 0.0238413978 0.0340318941 -0.0261019748 -0.0076529984 0.0265695471 -0.0166324731 -0.0114036994 -0.0115517396 0.0186299346 0.0197763592 -0.0307644587 0.0191838015 -0.0369635299 -0.0162483212 -0.0397782214 0.0088114571 -0.0253450181 -0.0116432356 -0.0261069480 0.0090422062 0.0433258526 -0.0178876799 0.0320785046 -0.0005074639 0.0115636783 -0.0300341379 -0.0270319823 0.0316282362 0.0338148810 -0.0222542211 0.0211239420 0.0028154831 0.0173325595 -0.0112245120 -0.0067421366 0.0359779857 0.0163255297 -0.0330084004 -0.0337610468 -0.0024761853 -0.0218859464 0.0138948150 0.0371853411 -0.0162400026 0.0382030718 -0.0295113437 -0.0117000807 0.0352641344 0.0423333831 0.0322279595 0.0395509936 0.0030009768 0.0096848877 -0.0284904465 0.0432896316 0.0141571052 0.0262690764 -0.0032761851 0.0044982857 -0.0203304384 0.0026045803 0.0082735894 0.0393997729 -0.0300264210 -0.0145686958 0.0142756645 0.0141696539 -0.0344234742 -0.0154032242 0.0151620172 0.0374563001 -0.0139199505 0.0100363074 -0.0224659294 -0.0114471633 -0.0182588529 0.0423699729 -0.0369273312 0.0149160381 -0.0021854090 0.0313427821 0.0083633205 -0.0239168294 -0.0330306962 -0.0030695549 -0.0108462591 -0.0124231838 -0.0427435413 0.0044637043 0.0100391209 -0.0166421570 0.0022204698 -0.0352508947 -0.0399767868 0.0126467152 -0.0165953208 -0.0193843674 0.0281987954 -0.0288060643 0.0044884761 0.0125975031 0.0300341174 0.0020841984 0.0139527665 -0.0039116014 0.0364116505 -0.0156673472 -0.0023734523 -0.0387136862 0.0274011455 0.0202313308 -0.0218321830 0.0197017603 -0.0344088450 0.0268297922 0.0120218666 0.0015839259 0.0306434184 -0.0258605368 0.0370140411 0.0307121295 0.0182375684 0.0008740624 0.0085959546 0.0062530274 -0.0041932529 0.0030818987 -0.0167973358 0.0106673986 -0.0427140966 0.0015392978 -0.0099574775 -0.0323323123 -0.0167549420 -0.0256573409 -0.0008105840 0.0283132829 0.0122278435 -0.0280462410 -0.0090732733 -0.0091204457 -0.0325213261 0.0290187150 -0.0420792960 0.0067827767 -0.0429272614 -0.0052340641 0.0132911084 0.0432971232 -0.0224166606 0.0149817606 0.0308853742 0.0017338160 0.0261957627 -0.0282693021 0.0077189319 -0.0426519513 -0.0414907522 -0.0178321898 -0.0090383496 -0.0207827687 0.0154566290 0.0205093771 -0.0436108485 -0.0017187274 0.0342425555 0.0327469110 -0.0170737039 0.0265806150 0.0253182650 0.0363920704 -0.0075346711 0.0331484973 -0.0078773042 -0.0066314377 -0.0195184425 -0.0148206120 0.0218406972 -0.0271593910 0.0178243238 -0.0414186753 -0.0109105073 0.0265220366 0.0301392321
-0.0119410660 0.0389881879 0.0245261043 -0.0401653461 -0.0378395543 -0.0305576026 0.0204455946 -0.0417061187 -0.0110066542 -0.0168450624 0.0310402997 -0.0131183062 0.0240025036 0.0151370987 0.0195146166 -0.0301453434 -0.0349871255 -0.0429317690 0.0420962386 0.0115396017 0.0325427577 0.0012936132 0.0002618215 -0.0345947109 0.0088221040 -0.0171582084 -0.0281341597 0.0169476904 0.0142553234 -0.0283718836 -0.0362329222 0.0207933262 0.0026295367 0.0210147183 0.0390930176 -0.0098616248 0.0161088631 -0.0173995458 0.0176145267 -0.0092880484 0.0281096920 -0.0040505757 -0.0410903841 -0.0279647708 -0.0096526919 0.0257171486 0.0255787950 -0.0187900979 -0.0045775059 0.0212339144 -0.0411513224 0.0183432978 0.0362574831 0.0361343510 -0.0308121070 -0.0138894934 -0.0226849727 -0.0046545295 -0.0022632699 -0.0088747460 -0.0101445355 -0.0203029793 -0.0360693373 -0.0395372733 -0.0423141122 0.0055136294 0.0265083648 0.0336002484 -0.0060560755 0.0422763340 -0.0264833774 -0.0187934842 0.0277081858 0.0044713593 -0.0375978537 -0.0065117879 0.0079288231 -0.0228740424 -0.0270771738 -0.0066367006 -0.0237638354 -0.0089899125 -0.0361349545 -0.0062511046 -0.0167500637 0.0036734350 0.0184958167 0.0233632624 -0.0120323664 -0.0257754214 -0.0237844456 -0.0002893276 0.0359474719 0.0242638197 0.0133529697 -0.0041625123 -0.0399390645 -0.0324595124 -0.0256325118 0.0271576643 0.0269751474 0.0305609424 -0.0320028588 -0.0298706088 0.0016942559 0.0129703181 -0.0388971418 -0.0242436100 0.0181393549 -0.0341382995 0.0327068642 -0.0440225974 0.0088713476 -0.0054054279 0.0088564912 -0.0158903990 -0.0109498929 0.0355768129 0.0412875563 0.0401909649 0.0012165898 0.0162278377 0.0171481352 0.0298874248 -0.0375430360 -0.0145141101 -0.0077942167 0.0351121500 0.0403754003 0.0241999514 -0.0233641099 -0.0222800560 0.0155040501 0.0230190437 0.0371333472 -0.0325107239 -0.0060058204 0.0078874612 0.0023291139 0.0438239090 -0.0293089766 -0.0109359324 -0.0191908460 -0.0125048645 -0.0198182110 0.0214989334 0.0102471579 0.0131562967 -0.0143414820 -0.0009365135 0.0040271156 0.0320381597 0.0017594623 -0.0251116715 -0.0336280800 -0.0264700484 0.0428861044 -0.0138446968 0.0135526452 -0.0196109973 0.0098142624 -0.0307337288 -0.0282719899 -0.0397622511 -0.0307875499 -0.0013464970 0.0072231055 -0.0147931594 -0.0266050138 0.0337021202 -0.0351375006 -0.0025948603 0.0023904059 0.0063292976 -0.0102194250 -0.0150457611 -0.0103326365 -0.0035116384 0.0365017466 0.0176780634 0.0177363306 -0.0415162370 0.0199419390 -0.0215160456 0.0061438726 0.0278501362 0.0065982840 0.0059936559 -0.0226988848 -0.0358542986 -0.0173676144 -0.0350400582 0.0324946046 0.0037660210 -0.0227668844 0.0155835813 -0.0106208269 -0.0062926561 -0.0214665271 0.0122730462 -0.0075805690 0.0409464091 0.0345076174 -0.0061690710 -0.0114545226 -0.0105617205 0.0277641471 -0.0294429548 -0.0303583946 0.0004066117 -0.0283480864 0.0238017105 0.0356586576 0.0119554903 -0.0223575812 -0.0271603037 -0.0235845856 -0.0206826702 -0.0068200394 -0.0310714673 -0.0036312353 0.0327437967 -0.0202168580 0.0054383446 0.0097707724 -0.0093938261 0.0010717153 0.0126556708 -0.0354547389 -0.0312383696 -0.0350924544 -0.0163642038 -0.0118736578 -0.0070711398 -0.0082316799 0.0369855538 -0.0061202282 -0.0151619809 0.0080109937 -0.0097616734 0.0329488553 0.0280916952 -0.0045928895 -0.0409022830 0.0432608835 -0.0223836843 0.0172805600 -0.0031283498 -0.0337595604 -0.0304820444 0.0181281548 0.0317933336 0.0196202751 -0.0157212913 -0.0248077195 -0.0288937036 0.0426392742 0.0029819105 0.0125188520 0.0020724817 -0.0435880013 -0.0285632610 -0.0162708741 0.0244713239 -0.0087663438 -0.0078048743 -0.0123581514 -0.0048809894 0.0409925245 -0.0116444258 -0.0158731714 -0.0020754584 -0.0359753072 -0.0075463089 -0.0111979116 -0.0375037938 -0.0361595601 -0.0199161619 -0.0077660047 0.0267436076 0.0088982424 -0.0049393838 0.0355980955 0.0272817910 0.0053480980 0.0211527012 -0.0350508057 -0.0385716558 -0.0214305390 0.0008406031 0.0092835436 0.0025632291 -0.0186828543 0.0122930817 -0.0137961749 -0.0259259846 -0.0381136090 0.0226775426 0.0165364947 0.0360785909 0.0086754700 -0.0066143684 0.0299796369 -0.0079330429 0.0305895451 0.0110552600 -0.0303727984 -0.0168631170 0.0182526205 0.0381125510 -0.0364380740 0.0276029874 0.0222299024 0.0088864416 0.0178280063 -0.0290333666 0.0208025575 0.0157497339 0.0305728707 -0.0146708703 -0.0098262159 -0.0193253104 -0.0202315301 0.0426755846 -0.0090896580 0.0210637152 -0.0017053984 -0.0434656069 0.0286615472 -0.0119395433 0.0064147399 0.0392851457 0.0297705475 -0.0404017828 -0.0052687405 -0.0091628665 0.0069524017 0.0052960673 0.0101342676 -0.0284610335 -0.0365156084 0.0034170451 -0.0062909964 0.0187874585 -0.0355327688 -0.0149820028 -0.0283311959 -0.0122126658 -0.0345366597 0.0053905239 0.0431071855 0.0213600062 0.0168574378 0.0090200575 -0.0220126975 0.0178315826 -0.0188745707 0.0354711786 -0.0353296325 -0.0285243858 -0.0162058957 -0.0427471288 -0.0325590000 -0.0187335424 -0.0198621657 -0.0227387082 -0.0349390693 0.0020498910 -0.0162868965 0.0259837471 0.0057241004 0.0110495547 -0.0022935313 -0.0148449149 0.0268627778 0.0293249134 -0.0374362618 0.0363453515 -0.0380985290 0.0027183190 0.0021982584 0.0181286819 -0.0324056149 0.0111617493 0.0280360207 0.0239704084 0.0304818340 -0.0015846372 -0.0384202823 0.0081247166 -0.0127585512 -0.0251014978 0.0346007384 0.0087447865 -0.0022659304 -0.0120273670 -0.0293499380 -0.0109096430 -0.0088383732 -0.0250962097 -0.0090790950 0.0081192637 -0.0153455622 -0.0063875550 -0.0174298491 -0.0169836469 -0.0340697244 0.0331553444 -0.0047082244 0.0039047052 -0.0107277427 0.0394647904 0.0100583294 0.0035330227 0.0061442624 0.0054889945 0.0217950139 0.0255830567 0.0155167729 -0.0439281538 -0.0305568650 -0.0045411596 0.0336288959 0.0378839262 0.0013816633 -0.0140659893 0.0007905115 -0.0313055515 -0.0186895356 -0.0075828712 0.0348524414 -0.0363840684 0.0290326346 0.0275401361 -0.0331076197 0.0048308610 -0.0142809637 0.0318312421 -0.0380787514 -0.0342470109 -0.0108855031 -0.0120634288 -0.0127979796 0.0150907366 0.0114066284 0.0270532668 0.0175837595 0.0348077789 0.0253470782 0.0428653099 0.0033463070 0.0342236795 -0.0053805718 -0.0363348760 -0.0257189926 0.0386988819 0.0374081843 0.0269412342 0.0359055810 0.0030032315 0.0320155770 -0.0222126525 0.0214197338 0.0377536491 -0.0439190082 0.0233930554 -0.0007703864 0.0164231416 -0.0053200489 -0.0007936094 -0.0176399052 0.0205370467 0.0209414624 -0.0303924140 -0.0156706832 -0.0112419818 0.0075257728 -0.0336618088 0.0015473688 -0.0312253833 -0.0420778170 0.0146922804 -0.0304608867 -0.0301084332 0.0249327049 -0.0270921998 0.0000397497 -0.0017567385 -0.0160383079 0.0286599509 -0.0414392129 0.0400859304 0.0195299536 0.0152527699 -0.0082748905 0.0424478240 0.0180067718 -0.0366857871 -0.0152625693 0.0002355535 0.0296474528 0.0318195336 0.0323669650 -0.0007237193 0.0324707255 -0.0376844443 -0.0255888682 0.0259381868 0.0232275072 -0.0389167592 -0.0351146422 0.0060022222
-0.0130524365 -0.0171030220 -0.0152193056 0.0387013704 0.0242684614 -0.0071168062 0.0151307918 -0.0058105700 -0.0082231136 -0.0038079098 -0.0312550999 0.0176599976 0.0405010357 -0.0145775564 -0.0080226837 -0.0148287257 -0.0395201147 0.0240206681 0.0001208508 0.0229635313 0.0254671965 0.0346218906 -0.0412320048 -0.0426842533 0.0202063639 0.0436154008 0.0353977196 -0.0238943603 0.0333593562 0.0027273910 -0.0179393478 -0.0313646831 -0.0359670408 -0.0088885594 0.0129665146 -0.0435459912 -0.0167026166 -0.0142450444 0.0007691115 -0.0151016684 0.0129577108 -0.0291829351 -0.0112013733 0.0011088889 0.0413450077 0.0349477232 0.0367027707 0.0156146856 -0.0362893157 -0.0342585295 0.0370288230 -0.0363038369 0.0162976012 -0.0131282741 0.0030684643 0.0398682691 -0.0296991449 0.0288442280 -0.0164181460 0.0440800078 -0.0219459329 -0.0081674168 0.0102920234 -0.0130812330 -0.0258041751 0.0047272379 0.0377816781 -0.0256261211 0.0143896183 0.0029034964 0.0422244072 0.0207690187 0.0414344147 0.0145296408 0.0205771606 0.0328236856 0.0400894023 0.0349116921 0.0168813728 0.0082673253 -0.0377315022 0.0404517129 -0.0238577873 -0.0108885327 -0.0330267698 0.0170628931 -0.0340976939 -0.0280282497 0.0090529537 -0.0127386637 -0.0324781463 0.0311139785 -0.0107314093 0.0232863817 -0.0116984742 -0.0122422893 -0.0430927873 -0.0185620356 -0.0017219780 -0.0305663850 -0.0377068557 0.0273902714 0.0195366703 -0.0122912275 0.0228278078 -0.0281407237 0.0419930965 -0.0330650359 0.0142883817 -0.0415541455 0.0072911307 -0.0069916877 -0.0062870136 -0.0097358907 -0.0244504251 0.0053903237 0.0068044085 0.0158128757 0.0430817157 -0.0376454815 -0.0325786173 -0.0115758106 -0.0239659734 0.0155103505 -0.0024185653 -0.0313998647 -0.0363793112 0.0427744128 -0.0250371657 -0.0181057006 -0.0176363010 0.0256503932 -0.0353790708 0.0272294246 -0.0360713378 0.0244335700 -0.0348078236 0.0061667897 -0.0243884996 0.0243332814 0.0195277259 -0.0266789813 -0.0048454334 -0.0204698760 0.0252682529 -0.0294468328 0.0194566343 -0.0022741174 -0.0310631227 0.0009172840 0.0205630884 0.0012419939 -0.0358181149 0.0048426203 -0.0099545270 0.0154819600 0.0375707969 0.0297944918 0.0345388316 0.0200485345 -0.0382405147 0.0003778412 -0.0228444450 -0.0036443325 -0.0076464284 0.0111931805 -0.0200021304 -0.0298892651 -0.0306432340 -0.0255467482 0.0048397067 0.0224450342 0.0301481411 -0.0165954381 -0.0290481877 -0.0331883132 -0.0272834823 -0.0349867903 0.0208986308 0.0350974202 0.0180374011 0.0135279261 0.0381709337 0.0074665616 0.0324124545 0.0236239675 -0.0140135530 -0.0353055932 0.0232924297 -0.0076248967 -0.0116473185 -0.0277335476 0.0221809428 0.0035362891 -0.0240216479 -0.0037588615 0.0013497528 0.0035746112 0.0265182164 0.0255412534 -0.0155160250 -0.0268471632 -0.0041991114 -0.0129567944 0.0005324991 -0.0126195038 -0.0233312417 -0.0203186739 -0.0119180167 -0.0073138373 -0.0075491485 0.0056155249 0.0405543782 0.0392118245 -0.0206889231 -0.0029972731 -0.0342148840 0.0256685112 0.0428317934 -0.0270866789 0.0015584113 -0.0390969180 -0.0353181772 -0.0068935226 0.0258779004 0.0068245442 0.0306586493 0.0321522020 -0.0253709909 0.0163330846 0.0069824895 0.0004160105 0.0153065706 -0.0254134219 0.0051908214 0.0344451629 -0.0002567006 0.0346800387 -0.0433127880 0.0038143899 0.0263419747 0.0382255614 0.0237723496 -0.0100713158 0.0386000685 -0.0004583786 -0.0062621366 -0.0379788578 -0.0081255911 0.0120548205 -0.0150029976 0.0256927088 0.0184171554 -0.0273740254 -0.0052482258 -0.0314714424 -0.0161314048 -0.0396715961 0.0196246002 0.0267253947 -0.0074103693 -0.0347099565 0.0026827997 -0.0374731980 -0.0275877770 0.0262203924 0.0332044363 -0.0391232893 0.0438353606 0.0361982845 -0.0202881023 0.0192322023 -0.0139023643 -0.0137326866 -0.0396297164 0.0054022935 0.0220340341 0.0183628555 -0.0342506357 0.0370151252 -0.0394462943 -0.0343812034 -0.0114151835 0.0404904149 -0.0285573453 0.0328774117 -0.0366002135 0.0253253076 0.0010609415 -0.0369186588 0.0405784361 -0.0269760787 0.0407213941 -0.0345249660 -0.0360897928 0.0241465513 0.0396648049 -0.0405905396 -0.0354394466 -0.0205520783 -0.0172092542 0.0341812894 0.0435974523 0.0034123301 0.0175959039 -0.0039438596 0.0296440125 -0.0143986912 -0.0079123015 -0.0337188281 0.0345032886 -0.0003132828 -0.0379794165 -0.0363204405 0.0387453027 0.0295147318 -0.0163766742 -0.0435965955 0.0305134170 -0.0401680283 0.0023739634 0.0266781431 0.0290262178 0.0407282151 0.0310493670 0.0269703846 0.0369268619 -0.0225836299 0.0211990215 -0.0386623144 -0.0263869725 -0.0365673490 0.0411016047 -0.0237632934 0.0413174145 -0.0148520647 -0.0176019464 -0.0038421699 0.0205091462 -0.0142451236 0.0008190449 0.0345791951 0.0067373631 -0.0245343912 0.0312142186 0.0124661205 -0.0105830738 0.0361016691 -0.0246249009 0.0035758491 -0.0370209254 0.0104171047 -0.0053545884 0.0193065591 0.0416493304 -0.0004820124 -0.0301940385 -0.0106141986 -0.0075341496 0.0370449759 -0.0407798737 -0.0419872366 0.0239849184 0.0412503220 -0.0100990646 -0.0007716140 -0.0396900922 0.0057538720 0.0117304157 -0.0214627292 -0.0038277030 0.0000344182 -0.0327720940 0.0072718905 -0.0395936817 0.0434022658 -0.0055804374 0.0441597402 -0.0010845175 -0.0280345026 -0.0334515423 -0.0139999343 -0.0013857094 -0.0135815684 0.0156565160 -0.0381648131 -0.0083151674 0.0411834233 -0.0129431756 0.0197469722 -0.0039759018 0.0136199594 -0.0138478102 -0.0306448992 -0.0142637994 -0.0396837443 -0.0400146432 0.0142014017 -0.0150854206 -0.0314793959 0.0192425121 0.0134659233 0.0278375819 0.0240310784 -0.0112209078 -0.0164055806 0.0023257525 0.0329465643 0.0049609370 -0.0313068256 0.0035355727 0.0428916924 0.0403101407 -0.0055116275 0.0231883898 -0.0390680581 -0.0220958162 0.0348201878 -0.0125871776 -0.0288219899 0.0039467835 -0.0391498394 -0.0094045419 -0.0365895294 -0.0188245364 0.0291362368 -0.0002655409 0.0022257275 0.0135974847 0.0010317443 -0.0167722441 -0.0294960812 0.0351636633 0.0419327579 0.0304594003 -0.0191516336 -0.0040000309 -0.0206628554 0.0285960101 -0.0435690209 0.0057239002 0.0314924456 0.0188080780 -0.0365381129 0.0328814127 0.0207686070 -0.0236113183 0.0402755365 0.0158415940 0.0255715717 -0.0155670438 -0.0114261741 0.0276558455 0.0351078920 0.0345736705 -0.0418586545 -0.0287284665 -0.0093944222 -0.0399197191 -0.0081246160 0.0100073842 0.0072767166 0.0426231213 0.0061150598 0.0324826762 -0.0128998598 -0.0395132750 -0.0190463290 0.0365788452 0.0070810500 -0.0146269267 -0.0409294106 0.0114145940 -0.0385906249 0.0037839178 -0.0050109285 -0.0145022031 0.0304622501 -0.0207954291 0.0404705517 0.0149300573 -0.0069799605 -0.0078543602 -0.0210423097 -0.0301412493 0.0205061063 0.0140649667 -0.0076058623 -0.0220677312 -0.0058507938 -0.0328260735 0.0409581065 -0.0010719998 0.0314135700 -0.0113617573 -0.0262666792 0.0155238118 0.0089565003 0.0308041889 -0.0172513686 0.0145583488 -0.0270131063 -0.0241591949 0.0147030652 -0.0091096833 0.0218347758 -0.0130783459 0.0157481749 0.0156676639 0.0038689543 0.0440472700 -0.0097747184
-0.0070377281 -0.0316953920 -0.0215701722 -0.0136033325 0.0041700406 0.0353031568 0.0416149870 -0.0186139494 0.0255203806 0.0005583983 -0.0380504429 0.0365247466 -0.0433558412 0.0170028228 0.0379724167 0.0041911723 -0.0212455261 0.0091672186 -0.0197933670 0.0159194227 -0.0261635091 0.0411670618 0.0310072880 -0.0340353139 0.0397127867 -0.0389477797 0.0119940601 -0.0090486966 -0.0065777530 0.0383596160 -0.0011069922 -0.0122185191 -0.0204281248 -0.0418333188 0.0240199156 0.0236234982 0.0310817827 -0.0048370725 -0.0356949344 0.0130936187 -0.0082752863 0.0385274030 -0.0218444690 0.0305335578 0.0114257624 0.0109049594 0.0405771844 -0.0104517443 -0.0258028749 -0.0280421730 -0.0036330530 0.0409631804 -0.0184293780 -0.0435288064 0.0149479220 -0.0195632502 0.0315612815 -0.0115945395 -0.0169913117 0.0187900607 0.0369751304 0.0125441086 -0.0010463903 0.0254838485 0.0066739586 0.0163543262 -0.0058043692 -0.0187815670 -0.0358096585 0.0180881210 -0.0170517303 -0.0295475367 0.0128475446 -0.0112689659 0.0387841836 0.0142649589 0.0066037211 -0.0131786084 0.0087922588 0.0052453964 0.0025419027 -0.0096647199 0.0156208389 0.0022856763 -0.0123308823 -0.0250713322 -0.0218062252 -0.0395722352 0.0055537061 0.0351860523 0.0022240523 0.0082787843 -0.0272153579 -0.0105380239 -0.0355528742 0.0004796522 -0.0307302680 -0.0192306433 0.0344574749 0.0045744553 -0.0136648091 0.0429616533 -0.0385341533 0.0219600145 -0.0413406268 -0.0074557564 -0.0271520000 -0.0228079818 0.0054999846 -0.0409382619 0.0430527851 -0.0031233712 -0.0063630519 -0.0044047460 -0.0004807164 -0.0308120903 0.0428544581 0.0020848622 0.0007186459 0.0391320586 -0.0293444786 -0.0106834518 -0.0427586399 0.0431506597 -0.0269431677 -0.0441241153 0.0013109619 -0.0096592037 0.0204690546 -0.0162638407 0.0003240513 -0.0146763753 -0.0296100993 -0.0234616902 0.0232650489 -0.0386725366 0.0297820214 0.0284245349 -0.0327250473 -0.0374911129 0.0044977744 -0.0208673198 -0.0143595943 -0.0409250371 -0.0303164534 -0.0064358446 -0.0290582329 -0.0206151605 -0.0205326434 -0.0023284394 -0.0276316740 -0.0223761890 -0.0325285830 0.0287928134 0.0374276899 -0.0219284035 0.0181624889 0.0365983434 -0.0173403509 0.0287993886 -0.0408933051 0.0301103462 0.0298155807 -0.0290487036 0.0063529052 0.0336292647 0.0118410941 0.0244119968 -0.0407951362 0.0110928398 -0.0084161563 -0.0031846685 0.0328098126 -0.0074350676 0.0401952341 0.0074330391 -0.0436553061 -0.0057773003 0.0173101574 0.0120561477 0.0229807049 -0.0055933343 0.0281390790 0.0174416881 -0.0226129796 -0.0264906380 0.0365833528 -0.0397300944 0.0429359861 -0.0096884491 0.0395123810 -0.0194852985 0.0441579409 -0.0326802693 0.0406439602 0.0197984390 0.0313025489 0.0393086262 0.0258380137 0.0022396941 0.0001459809 -0.0350783616 -0.0342556871 -0.0155593148 -0.0096070264 -0.0354664810 -0.0335654505 -0.0147128589 -0.0280849785 0.0426947512 0.0169922244 -0.0145668937 -0.0303531848 -0.0084255552 -0.0148599092 -0.0159413498 0.0010978990 0.0048990706 0.0423304141 -0.0246024318 -0.0068855938 0.0168063920 0.0000010642 0.0101473387 0.0277792830 0.0242412649 0.0190332588 -0.0093817515 -0.0100612538 -0.0257786084 0.0418662652 0.0245085862 0.0305635240 -0.0075691789 -0.0350775830 -0.0036105993 0.0160860457 0.0280984230 -0.0018513582 0.0126446495 0.0049688448 0.0012333379 -0.0145934727 0.0062661986 -0.0073857978 0.0385306813 -0.0387752689 -0.0428020693 0.0407278948 -0.0257404596 0.0074910172 -0.0239760242 -0.0039129397 0.0026465429 0.0317413546 -0.0368161127 0.0258697886 -0.0145976981 -0.0281263515 0.0134811327 -0.0145712821 0.0241957046 -0.0112167774 0.0148618370 0.0116974832 -0.0046361322 0.0278176460 -0.0206888709 0.0005598629 -0.0095156785 0.0067221378 0.0367141552 -0.0291340239 -0.0162941292 0.0389326513 -0.0176716577 0.0187352430 -0.0186991710 0.0325399525 -0.0244728420 -0.0111871483 -0.0405171923 -0.0398142003 0.0340985507 0.0262496583 0.0357342139 -0.0363683738 0.0370624363 -0.0024444014 0.0046431865 0.0285776071 -0.0216071457 0.0018588130 0.0040705111 -0.0190743413 -0.0199396219 0.0267322287 0.0301343948 0.0389261134 -0.0239424706 0.0234476719 -0.0413992628 -0.0155889019 0.0290584080 0.0292122588 0.0069983471 0.0016596270 0.0281087290 0.0169542972 -0.0031248936 -0.0075542270 0.0370422862 -0.0411906242 0.0333801359 -0.0268770605 0.0205414090 -0.0351949148 -0.0351184495 0.0122893201 0.0087740095 -0.0119128386 0.0327816717 -0.0212673731 0.0390654542 -0.0233401395 -0.0246218927 0.0206522401 -0.0210603364 0.0352204181 -0.0113458997 -0.0421650186 -0.0257225223 0.0423779450 0.0185517929 -0.0357925631 -0.0084169256 -0.0082158428 -0.0121306684 -0.0432083420 -0.0161721520 0.0424734540 -0.0396548770 0.0409433022 0.0136617422 -0.0105655352 -0.0200465955 0.0083462661 0.0076798196 0.0362556651 -0.0065518487 -0.0266147554 0.0002569167 -0.0071672401 0.0118596861 0.0029809042 -0.0383089520 0.0313018486 0.0332520306 -0.0195990112 -0.0024784137 0.0367363393 -0.0360659808 -0.0117118135 0.0239445362 0.0127644576 0.0024607489 -0.0150926439 -0.0231296159 -0.0211889278 0.0023349880 0.0417179242 -0.0375237428 0.0319988765 -0.0005114678 -0.0193942301 0.0071755326 -0.0387253128 0.0028719441 -0.0147579825 -0.0430533066 -0.0071883029 -0.0079669766 -0.0224628206 -0.0315512531 0.0061738282 -0.0041171783 0.0062876036 0.0112876315 0.0143750152 0.0058183302 -0.0115158781 0.0180600025 0.0042429231 -0.0410310216 0.0048903883 -0.0239652190 0.0072922003 0.0410748497 -0.0038878992 -0.0332792364 0.0269157141 0.0191730484 0.0303029194 -0.0307824090 0.0139284479 -0.0389943197 0.0093458369 -0.0434999578 0.0242984910 0.0116943959 -0.0192951486 0.0224113595 0.0396694019 0.0003378965 0.0396831445 0.0415465198 0.0194228105 -0.0293847881 -0.0157009922 0.0239813086 0.0258567277 -0.0348178893 -0.0426268838 0.0117353573 0.0417222828 0.0139396489 -0.0275233202 0.0241869856 0.0220599342 0.0168567747 0.0139169842 0.0161220171 -0.0119278794 -0.0009248704 0.0324745923 -0.0102862967 -0.0027449136 -0.0432552323 0.0012544536 -0.0379697941 0.0291835424 -0.0232839361 -0.0406288020 0.0256233346 0.0268246774 0.0319205746 -0.0439594351 -0.0167765263 -0.0322131738 -0.0374456681 0.0121299941 0.0094069969 -0.0237942301 0.0246716794 0.0109543819 0.0176328458 0.0197635796 -0.0111862635 -0.0157584213 0.0002184208 0.0284765922 -0.0440567918 0.0338804163 0.0118336175 -0.0200987197 0.0308730565 0.0409015603 -0.0116261235 0.0103593264 -0.0413751751 0.0136848446 0.0086302469 -0.0100319143 -0.0364605598 0.0291609727 0.0062391348 0.0071567665 0.0195374824 0.0436766483 0.0121543920 0.0052672443 -0.0248903632 0.0364346206 -0.0405205898 0.0150204096 0.0106762229 -0.0012561289 -0.0200266596 0.0438636355 -0.0244747791 0.0328870863 0.0144205755 -0.0010095276 0.0425938144 -0.0377802327 -0.0066491342 -0.0109198745 -0.0433384404 -0.0043699378 0.0016708169 0.0063707172 0.0402324945 -0.0186299402 0.0182823651 0.0204095691 0.0323427096 -0.0110586584 -0.0203284249 0.0114215640 -0.0087254671 0.0260367375 -0.0124400957
0.0142070912 -0.0412962921 -0.0429555774 0.0289751515 0.0301179048 0.0139266411 0.0128962453 -0.0254166611 -0.0229167156 0.0352658890 -0.0098286923 -0.0130637633 -0.0034825888 -0.0206295438 0.0412818938 -0.0123409759 -0.0105822040 0.0059398920 0.0020269158 0.0326038338 0.0139759528 -0.0433969870 0.0287980922 0.0103433477 0.0314303115 -0.0247145910 -0.0142847104 0.0378526598 -0.0188786909 0.0088669332 -0.0434491895 -0.0003777359 0.0435760468 -0.0305794980 -0.0194600001 -0.0000585789 -0.0265946500 -0.0392723531 -0.0239369236 -0.0014839220 -0.0294128526 0.0332054086 0.0287960861 0.0340410545 0.0156792272 -0.0138710383 -0.0268040840 -0.0004062219 -0.0295856427 -0.0362723097 0.0048031127 0.0259446353 -0.0197619665 0.0242553260 -0.0292553380 -0.0412505828 0.0041692979 0.0127308611 -0.0239688959 -0.0284931138 -0.0397416204 -0.0169110857 0.0008314993 0.0219037328 0.0082070818 -0.0148180518 -0.0156184258 -0.0221232958 0.0402548276 0.0389024504 -0.0209465884 -0.0422770567 -0.0039376221 -0.0315958783 -0.0276724249 0.0390534215 0.0137443608 -0.0272600651 -0.0148969190 0.0025008623 -0.0027885302 0.0203390624 -0.0182300713 -0.0298162978 -0.0328661799 -0.0244144052 0.0296164379 -0.0122657493 0.0227484927 0.0344838388 -0.0272737052 0.0430493653 0.0000006006 0.0099642156 -0.0064329365 0.0090162223 0.0342146680 0.0181224495 -0.0359610543 -0.0374594182 -0.0424455851 -0.0298605412 0.0221208092 -0.0422445759 -0.0186919533 0.0262307599 0.0022624324 -0.0007268330 0.0087549016 0.0006432821 -0.0331084915 0.0014434241 -0.0209625941 -0.0232203417 -0.0116681233 0.0046588653 0.0001395377 0.0083615342 -0.0230223574 0.0016826497 0.0142008215 0.0012281961 0.0303073339 0.0026291837 -0.0218562484 -0.0176181253 -0.0052392748 -0.0182426143 -0.0343771726 -0.0371353179 0.0112756994 0.0256303828 -0.0206794459 0.0385000706 0.0415704437 -0.0263148788 -0.0226967409 -0.0343096927 0.0089367488 0.0123576084 0.0062546027 -0.0325976796 0.0206575934 0.0314452089 -0.0412868001 0.0432246998 0.0253901146 0.0279395767 0.0144797601 0.0221922863 -0.0249586515 0.0251582228 0.0147748142 0.0437989160 0.0138732987 0.0054068980 0.0248705707 0.0047070971 -0.0189877711 -0.0434801206 -0.0242320448 -0.0245189872 0.0125506520 0.0440352261 0.0270735063 0.0297364723 0.0349648409 -0.0196198057 -0.0072739664 -0.0033762206 0.0402208120 0.0372828767 0.0099885762 0.0386158489 -0.0194745250 -0.0342245512 -0.0338949226 -0.0137942256 0.0158965942 0.0221173540 0.0164900124 0.0167475138 -0.0073663839 0.0342440195 0.0271258540 0.0339963809 -0.0426129922 -0.0231234357 0.0198088232 -0.0138449604 0.0420079120 0.0352073833 0.0280934926 -0.0390971638 -0.0242887959 -0.0126553020 0.0418653116 0.0302731898 -0.0272562392 -0.0348235369 -0.0305369347 0.0202448964 -0.0370733701 -0.0188999418 -0.0177079234 0.0251752920 0.0387803353 -0.0255322438 -0.0208236780 -0.0040065371 -0.0164554305 -0.0391483009 -0.0275772102 0.0169229805 -0.0212096944 0.0001919631 -0.0287352949 0.0076650209 0.0139296856 -0.0153426537 -0.0242056772 0.0123019638 0.0381597281 0.0244695004 -0.0045131003 0.0340841040 0.0091259517 -0.0394790843 -0.0104310969 0.0244435705 0.0290348642 -0.0113885263 -0.0017560378 0.0361771174 0.0079935500 0.0109447092 -0.0322885513 -0.0437142216 0.0144272344 -0.0425903909 0.0150901573 0.0133713987 0.0227294844 -0.0405914485 0.0419073552 -0.0223936792 -0.0368214026 -0.0151062207 0.0222769119 0.0332237817 0.0153040951 0.0115306927 -0.0262044277 -0.0175981522 -0.0204437822 0.0081979679 -0.0150868911 0.0009460545 0.0238664430 -0.0396536142 0.0361042954 -0.0005852617 -0.0194845404 0.0324139036 0.0222677235 -0.0311310533 -0.0310160238 0.0389172509 0.0402286910 0.0215661041 0.0170462038 0.0145303896 -0.0423023850 0.0181065761 0.0157024357 0.0315269269 -0.0198569763 -0.0101865614 0.0403983295 -0.0397017524 -0.0350886732 -0.0332993977 0.0338090472 -0.0099037457 -0.0352399796 0.0210679341 0.0385707840 0.0155394580 -0.0415112898 0.0239713993 0.0406988524 -0.0356697142 0.0425484106 0.0433720760 0.0151789291 0.0091405343 0.0240471307 0.0022052652 -0.0420309864 -0.0212137625 -0.0158236809 0.0316115916 -0.0268161055 0.0384759009 -0.0097207967 -0.0367231667 0.0080620646 0.0419879444 0.0158282910 0.0181218125 -0.0389560983 -0.0020476519 -0.0338504501 0.0177000333 0.0002772420 -0.0254628714 0.0054006130 0.0326560959 -0.0223546978 0.0200902540 0.0437626950 0.0045301067 -0.0347642116 0.0050204378 0.0188682694 -0.0184210129 0.0099533945 0.0011293511 0.0120296590 0.0122779878 -0.0269942824 0.0045824056 -0.0425252318 -0.0298727956 0.0298736859 -0.0000297135 -0.0018555097 -0.0343577825 0.0298511423 0.0344284326 -0.0342328139 0.0008897147 0.0370746627 -0.0262347367 -0.0272569247 -0.0437388346 0.0338421911 0.0114514409 -0.0103155626 -0.0363200419 -0.0207577385 0.0299926233 0.0296398085 -0.0031681047 0.0251387246 -0.0411356725 -0.0050782054 0.0395613983 0.0003975976 -0.0310591664 -0.0277580507 -0.0420479141 0.0040838085 0.0384017043 -0.0383541733 0.0265475456 0.0146315154 -0.0087666605 0.0355500281 -0.0300705638 -0.0389859453 -0.0299955904 -0.0433805026 0.0425715409 0.0107351653 0.0314901210 0.0389512703 -0.0433190949 -0.0051067807 -0.0084943604 0.0317061245 0.0167529453 -0.0200964343 0.0176373497 0.0431859568 0.0047833566 0.0102385972 0.0351663753 0.0106707336 0.0371712185 -0.0412413068 -0.0024965263 -0.0274305493 0.0338649601 -0.0236647073 0.0177376755 -0.0137893111 0.0026943847 -0.0330081731 -0.0301945284 -0.0373642780 0.0119456071 -0.0271885619 0.0044335905 0.0021345746 0.0146570299 0.0085760672 0.0190181956 -0.0312634371 -0.0288922433 0.0320709907 0.0240722299 -0.0377320871 -0.0214762222 0.0081717363 0.0232452769 0.0269693621 0.0309561901 0.0120222988 0.0238010790 0.0084989695 0.0266524609 0.0210391376 -0.0213331282 -0.0408463031 -0.0319036618 -0.0222207345 -0.0163755510 -0.0319198892 -0.0437129512 0.0402988866 0.0322733782 0.0392326303 -0.0363560244 0.0241999775 0.0069083530 -0.0294120088 -0.0317004099 0.0172139425 -0.0220347829 -0.0245826971 -0.0244189836 -0.0110645695 0.0113273924 0.0180312376 -0.0278381091 -0.0422189124 -0.0388166048 -0.0309193749 -0.0372310653 0.0018498725 0.0173611660 0.0389574133 -0.0089525962 0.0054515419 -0.0018217764 0.0345772542 0.0043550339 0.0351580642 -0.0174392704 -0.0436175838 0.0397816412 -0.0306049604 0.0385821201 -0.0105764614 -0.0230206028 0.0128931841 -0.0214655958 0.0426579304 0.0160749983 -0.0399772823 -0.0315933935 0.0060491157 -0.0434586219 0.0208750330 -0.0095733935 0.0186467450 -0.0045413859 0.0366086885 -0.0379848406 -0.0208168495 0.0407733470 0.0281145982 0.0256869700 -0.0198970214 0.0298475809 0.0067315311 -0.0202521980 0.0157997943 0.0168872681 0.0156624112 -0.0001116154 -0.0131851882 0.0014920195 0.0416477658 -0.0193122551 -0.0393857248 -0.0328625888 -0.0348532870 -0.0140157547 -0.0163741298 -0.0339621529 -0.0031159322 -0.0171219353 0.0309991483 -0.0220199525 0.0319283605 0.0032797307 -0.0199359227 0.0358623117 -0.0420740508 0.0063053318
-0.0092273094 0.0287816916 0.0035148838 0.0247470327 0.0111578880 -0.0103464397 0.0275123287 -0.0177023672 0.0414418876 0.0144745288 -0.0183704048 0.0431524925 0.0392858945 0.0134291025 0.0115880435 -0.0131314564 0.0288652591 -0.0042340248 0.0035066600 -0.0308770239 0.0396078601 0.0326885618 0.0226487145 -0.0426598713 -0.0275599547 -0.0324327089 -0.0299243983 -0.0242155287 0.0138011910 0.0251124296 0.0071752057 -0.0290658474 0.0107858367 -0.0228657294 -0.0227798820 -0.0287499819 0.0368357971 0.0035584953 0.0148300063 0.0143596102 -0.0303321425 0.0268816072 -0.0154480468 -0.0403500386 0.0049547572 0.0119817639 0.0261952989 -0.0228892360 0.0327690728 -0.0225979015 -0.0353176035 -0.0230356287 -0.0249698739 0.0077133155 0.0234657209 -0.0082846684 -0.0360205881 0.0020453392 -0.0311629046 -0.0406874865 0.0095057786 -0.0252910592 -0.0132186636 0.0135990176 -0.0276509300 -0.0438259766 0.0181385018 0.0119052045 0.0140132997 0.0306697395 -0.0290693715 0.0420991257 -0.0196632370 -0.0305644255 -0.0372271426 -0.0184877049 -0.0169900581 -0.0079533523 0.0002716891 0.0143980011 -0.0088241538 -0.0270800870 -0.0362309888 -0.0243134163 -0.0329611152 0.0098090097 -0.0388192050 -0.0393369272 -0.0241338126 -0.0370235071 -0.0341238491 0.0439290591 0.0054237302 0.0219372977 0.0385482498 0.0070890998 -0.0292060897 -0.0403525233 0.0076605901 0.0244393349 0.0336547904 -0.0061949757 0.0385547131 0.0130310208 -0.0209964849 -0.0054125087 -0.0392514244 0.0301336311 0.0357771330 0.0419487953 -0.0247288402 -0.0137917027 0.0091847302 -0.0314990170 -0.0405541807 0.0284824185 -0.0140092857 -0.0161038209 0.0332515649 -0.0160083473 -0.0047863224 -0.0102055427 0.0097893747 0.0154907582 0.0246271566 -0.0371008217 -0.0396759100 -0.0368094221 0.0394943953 -0.0268808585 0.0244672671 -0.0249445904 0.0276390593 -0.0287427176 -0.0149702178 0.0311925709 0.0156676378 -0.0208122712 -0.0076260506 -0.0020109157 0.0321410485 0.0288537629 0.0151840132 -0.0386215635 -0.0399223901 -0.0204847436 -0.0400504731 -0.0380820259 -0.0266146604 0.0187076572 0.0344333835 0.0325938053 0.0062094107 0.0113557512 0.0340207368 -0.0008198615 -0.0168730170 -0.0214473344 -0.0262719169 -0.0349102914 -0.0386058539 0.0319761075 -0.0352717973 -0.0188333560 -0.0116036963 -0.0354111977 0.0040489845 -0.0147514809 -0.0280602966 -0.0373655297 0.0399865843 0.0239196531 0.0225697327 -0.0366730727 -0.0316478722 -0.0240396392 -0.0061128102 -0.0134651642 0.0147803780 0.0405665897 -0.0050721518 0.0251539871 -0.0061530606 0.0090055699 0.0384700410 -0.0255097169 0.0280734152 -0.0091989450 0.0288476739 0.0278777052 -0.0059335018 -0.0124950651 0.0279684067 0.0020184652 -0.0205974653 -0.0378328823 0.0055974545 0.0279904231 -0.0096837757 0.0026531757 0.0110804960 -0.0255033690 -0.0057196436 0.0049849553 -0.0327813402 0.0232713353 -0.0215733591 -0.0328939334 0.0338364430 0.0285314508 0.0426974110 0.0174935032 -0.0272642747 0.0146135241 -0.0441263430 0.0118451398 0.0294168666 0.0300537534 -0.0136048598 0.0004930391 -0.0083190138 0.0233677141 -0.0150644686 -0.0175792966 0.0155564230 0.0326852165 0.0353501663 0.0415904298 -0.0126870601 0.0405488610 -0.0294723418 0.0405950844 0.0367712118 -0.0370040461 0.0096243536 0.0028681087 -0.0228486378 0.0381060466 0.0341168083 0.0324580707 -0.0021408491 -0.0212140363 -0.0085522383 -0.0329290442 -0.0195884053 0.0282112826 -0.0053806775 -0.0122149521 -0.0202834029 0.0118585210 0.0321666151 0.0110115698 -0.0349472016 -0.0099203726 -0.0159974787 -0.0173598435 0.0083152466 -0.0116581451 -0.0286080111 -0.0357873626 -0.0232046787 -0.0164035000 0.0294250436 0.0266582351 0.0232363008 0.0441354923 0.0158002153 -0.0089806244 -0.0377091207 -0.0132873366 0.0068830336 0.0046551512 0.0397150218 -0.0176501833 0.0343681946 0.0103006950 -0.0388882793 0.0350848064 -0.0030805394 -0.0414529257 0.0370561108 -0.0110404510 0.0336063281 -0.0331601165 -0.0431645885 0.0274649095 -0.0233301353 -0.0334235840 -0.0400535986 0.0324765444 -0.0351851806 -0.0033805303 -0.0185392182 0.0358727723 0.0221029241 -0.0110642798 0.0303725731 0.0144181680 0.0316910222 -0.0265689045 0.0044749151 0.0129393879 -0.0184600297 -0.0306762774 -0.0239611734 0.0169467423 -0.0188465640 -0.0090825297 -0.0406238548 -0.0361422114 -0.0156208603 -0.0064644571 -0.0217325687 0.0410428569 0.0024113054 -0.0333803706 0.0416246764 0.0029274779 -0.0193076655 0.0182157680 0.0131068481 0.0230516698 0.0144105712 0.0190492012 -0.0257277433 0.0379870422 -0.0429792963 0.0197231974 0.0168093108 0.0336179733 0.0206241440 -0.0025779752 0.0379153043 -0.0155078322 -0.0165232457 0.0438085385 -0.0004297714 0.0066708922 0.0440240316 -0.0009651470 -0.0056393854 -0.0216611046 0.0383634530 -0.0205400083 -0.0317448042 0.0213644430 -0.0357168503 0.0281875748 0.0329904296 0.0261532199 0.0224738326 0.0401280597 0.0074919709 0.0395652801 -0.0413006172 0.0376466811 0.0116333943 -0.0138534633 -0.0146887135 0.0031664295 0.0126524363 -0.0012107050 -0.0062572737 -0.0086422320 -0.0094376383 0.0042537390 -0.0227053333 -0.0273934230 0.0167380143 -0.0263997745 -0.0393547490 -0.0351689197 0.0305018257 -0.0143192494 0.0120494785 -0.0185429212 0.0079915319 -0.0423599146 -0.0117763504 0.0109052332 0.0201849155 -0.0013066155 0.0092883278 0.0354174599 -0.0082342457 -0.0013246333 0.0287820566 0.0182574093 0.0154616814 -0.0141525744 0.0225114115 0.0429178141 -0.0018208597 -0.0021393793 0.0298877843 -0.0259733275 -0.0053173150 0.0130921751 0.0241196658 -0.0165719669 0.0266858507 -0.0151639404 0.0438505746 0.0150573039 -0.0185204688 -0.0000727718 0.0359605178 0.0257975962 -0.0213261787 -0.0120104188 0.0265593790 0.0080741402 0.0103949402 -0.0359722152 -0.0094064390 0.0105966395 -0.0264267642 -0.0419941954 -0.0342845656 0.0270799659 -0.0418814234 0.0119514605 0.0090309791 -0.0082321065 -0.0290224403 -0.0275090002 0.0079099620 -0.0353846066 0.0152289839 -0.0133354738 -0.0154055366 0.0089122513 0.0030936366 -0.0420624577 -0.0188647080 0.0401837900 -0.0285296757 -0.0282496419 -0.0105289305 0.0423349403 -0.0141972126 -0.0201574620 0.0248697847 0.0105950851 -0.0309591834 0.0114583261 0.0352119803 0.0089223143 0.0345433913 0.0054258062 -0.0392125323 -0.0259695649 -0.0142681990 0.0223476030 0.0067492854 -0.0388400629 -0.0120569961 -0.0070327707 0.0425335541 0.0345760025 -0.0322110690 0.0110797789 -0.0025916256 0.0107078021 0.0064006415 -0.0083557814 0.0294372607 -0.0149110807 -0.0231411532 0.0066863657 0.0162566863 0.0235301424 0.0078568207 -0.0368444249 -0.0068037971 0.0305046085 -0.0227634814 0.0360905342 0.0410951786 0.0330373645 -0.0171922892 -0.0049470128 -0.0392381288 0.0027028457 0.0331630409 0.0017414392 -0.0435687490 0.0011507038 -0.0089165187 -0.0180967338 0.0281318873 0.0238691512 -0.0056855520 -0.0312355869 -0.0040396065 0.0179748517 -0.0042421171 -0.0098805595 -0.0235693492 0.0137604875 -0.0384021439 0.0323451832 -0.0195658673 0.0324467681 -0.0142914215 -0.0147224311 -0.0204394292 -0.0380945019 -0.0238520596 0.0204394571 0.0320061110 0.0013919366
-0.0005025116 0.0362655558 -0.0166326538 0.0264651235 0.0244933516 -0.0373753309 0.0055804588 -0.0094165802 0.0269127432 0.0337548405 -0.0140376715 -0.0104515543 0.0177769456 -0.0120014464 0.0317066573 -0.0104381302 -0.0348583572 -0.0126797054 0.0027767080 0.0353214033 0.0249278527 0.0376083218 -0.0087993871 -0.0055805533 0.0040341592 0.0421971753 -0.0310892593 0.0248627793 0.0002780111 0.0220021345 -0.0229268633 -0.0312032774 -0.0000416464 0.0430663116 -0.0127931172 0.0307501666 0.0425519794 0.0045113722 -0.0120109562 0.0304988921 0.0345376991 0.0088347169 -0.0094036991 0.0075364043 -0.0106610451 -0.0239333399 -0.0086628739 0.0177004058 0.0396320820 -0.0232984088 0.0415548496 0.0147372615 -0.0411340706 -0.0426880196 -0.0357536189 0.0087694945 -0.0022967292 0.0089625744 0.0055365204 -0.0358426794 -0.0360638946 -0.0039031510 0.0186126120 -0.0393879190 -0.0353859290 -0.0304023437 -0.0105804550 -0.0066406205 0.0326610133 -0.0419912301 0.0052400175 0.0176698174 0.0409237407 0.0023415261 -0.0100244060 0.0112685338 -0.0188226979 -0.0124668218 -0.0087689096 -0.0172160286 0.0251444560 0.0169806704 0.0032635201 0.0108334152 0.0287833940 -0.0003846690 0.0422467776 0.0178653374 -0.0209699012 -0.0055314153 -0.0000050787 0.0084008733 0.0371701755 -0.0095348023 0.0388580784 0.0375080071 -0.0181739572 -0.0056826067 -0.0254412647 -0.0067092357 -0.0071518356 0.0373753831 0.0207313709 0.0430791266 -0.0017992384 0.0021596414 -0.0345988125 -0.0019079088 0.0202151239 0.0125211328 -0.0371446237 0.0308074653 0.0153108537 -0.0009361605 -0.0399514250 0.0403293446 -0.0123085966 -0.0004999459 0.0252272021 0.0194104929 -0.0226998441 0.0402506553 -0.0162278432 -0.0171140600 0.0142846787 0.0141194519 0.0337019935 0.0235061459 -0.0375827849 0.0317574292 -0.0013846346 0.0406032652 0.0350920148 -0.0303482804 0.0010537186 0.0237254295 -0.0406660512 -0.0360373892 -0.0286706928 0.0057613109 -0.0100731598 0.0318873301 0.0158001464 -0.0146021442 -0.0171895493 0.0101934625 -0.0122137610 -0.0276134498 -0.0070389765 -0.0131530724 -0.0265889391 0.0202209093 0.0348266251 -0.0366827622 -0.0272871554 -0.0222672708 -0.0356501751 -0.0156348366 -0.0122534269 0.0018024626 -0.0362410173 -0.0294128936 0.0403595045 0.0336783454 0.0350148678 -0.0006480342 -0.0391225740 0.0256934557 -0.0059618508 0.0412217826 -0.0033828483 0.0245065168 0.0312195979 -0.0378458872 0.0076859309 -0.0343184657 -0.0348923281 0.0347915702 0.0305915363 0.0061723269 0.0310461801 0.0001195179 -0.0415841490 -0.0122851105 -0.0237825438 -0.0150033450 0.0398128442 0.0136768995 -0.0259738006 0.0338936523 -0.0086009810 -0.0327637307 0.0227374397 0.0371272676 -0.0392323881 0.0037192644 -0.0073360065 0.0250399113 0.0116532082 0.0106282020 -0.0194663387 -0.0249235854 0.0433034189 -0.0114335548 0.0206652097 0.0254982747 0.0116381459 -0.0190209523 0.0422668196 0.0114687104 -0.0219743606 -0.0392142273 0.0085824579 -0.0298248064 -0.0412084386 -0.0253795721 -0.0385507420 0.0140510006 0.0171922315 0.0083726402 0.0158416927 0.0030444670 -0.0225024819 -0.0341047272 0.0166918635 0.0196786318 0.0263604876 0.0002433243 0.0380123518 0.0052292491 0.0084450906 -0.0211853553 -0.0379080698 -0.0219191108 -0.0145784048 -0.0051721348 -0.0400659777 0.0224434696 0.0009119524 -0.0287499353 0.0436353013 0.0292594954 -0.0122678783 -0.0076499479 0.0016206411 -0.0223672856 -0.0155787393 -0.0395716578 0.0086735208 0.0152921043 -0.0063979127 0.0390423946 -0.0194165111 0.0177531317 0.0198572297 0.0070596179 0.0304645635 0.0154478736 0.0262547992 0.0418392122 -0.0256807059 0.0204994995 -0.0183529034 0.0080116261 -0.0053209709 -0.0040013320 -0.0363022499 -0.0212402195 -0.0147120003 0.0301049463 0.0265199300 -0.0072768694 0.0331172161 -0.0149159534 0.0289186910 0.0010013090 0.0201226920 0.0354167297 -0.0369913541 0.0232383702 0.0271781310 0.0188610461 -0.0263828356 -0.0144609679 0.0308701005 0.0050353524 0.0141118970 0.0418294929 0.0236082040 -0.0229260195 -0.0390612818 -0.0220182817 -0.0038042800 -0.0433974303 0.0197039302 0.0286807194 0.0110319536 0.0152734332 0.0127551220 0.0379280075 -0.0385938883 -0.0146378372 -0.0178543273 0.0278848875 -0.0100443363 -0.0234643575 0.0425372496 -0.0077495938 0.0338410363 0.0431267023 -0.0227846485 -0.0239766352 0.0256775077 0.0101730218 0.0365408994 0.0220634751 -0.0208932664 -0.0328632295 -0.0072861733 0.0013233741 0.0255683586 0.0226466823 0.0421553366 0.0101318071 -0.0400176048 -0.0207168609 0.0078725200 0.0320036933 0.0396558866 -0.0419286788 0.0201481692 -0.0437138192 -0.0023783941 0.0235355739 -0.0283434335 0.0218822751 0.0089261178 0.0433138274 0.0262147542 -0.0214383416 -0.0183336735 -0.0125265699 -0.0322565176 0.0414144918 -0.0063139242 0.0133419847 0.0296183228 -0.0337527879 -0.0217331070 -0.0036865058 0.0369672999 -0.0202687886 -0.0163228419 -0.0416646712 -0.0425221696 0.0266102720 -0.0128261810 0.0438890345 -0.0299844481 -0.0213340018 -0.0140682859 -0.0149492659 0.0107055837 -0.0374843329 -0.0306246057 0.0291017666 0.0246399269 -0.0277696885 -0.0214446373 -0.0073205754 0.0427500606 -0.0256388858 0.0368520916 0.0223008357 0.0267453939 -0.0416962206 0.0180412792 0.0356483795 -0.0250607952 0.0292026866 0.0436718315 -0.0356907621 0.0235214233 -0.0104122786 -0.0069499728 0.0333600976 0.0030765617 0.0339365900 0.0407059416 0.0075806058 0.0111356033 0.0009223837 -0.0145906694 -0.0273513868 -0.0017190276 -0.0066823196 0.0259547252 -0.0425914600 0.0101868296 0.0050385557 0.0292543378 -0.0078375014 0.0158701055 0.0316524394 0.0393743962 -0.0309040658 -0.0006300375 0.0309091173 0.0191821270 0.0154679930 -0.0081065092 -0.0189701542 0.0393871628 0.0294482242 0.0353646502 -0.0138217742 -0.0435939282 -0.0135938181 -0.0163308810 0.0417334363 -0.0287121497 0.0025779698 -0.0071298345 0.0084994175 -0.0340802632 -0.0218330100 -0.0254222732 0.0345610939 0.0027732416 -0.0189396720 0.0023860068 0.0415938906 0.0169834886 -0.0107590631 -0.0378750078 -0.0132523281 -0.0343639962 -0.0439818576 -0.0066325231 0.0008170904 0.0436863974 0.0206659902 -0.0143440999 -0.0312646851 -0.0061644297 0.0217486788 -0.0125634745 0.0254508909 -0.0248329379 0.0020100621 0.0126901576 -0.0411903411 0.0254992582 -0.0118854009 0.0216384288 0.0101792961 -0.0171152651 -0.0298648719 0.0287767984 0.0049679228 -0.0120813940 -0.0048511494 0.0042740959 0.0120004984 -0.0052248710 -0.0085542668 -0.0402960517 -0.0302683227 0.0205201674 0.0145226661 -0.0207410119 0.0069184895 -0.0194529984 0.0332155079 0.0066826250 -0.0212001968 0.0085961344 0.0292087607 -0.0158263203 0.0013906247 0.0041306387 -0.0309338737 -0.0263356362 -0.0199585669 0.0404141471 0.0392586254 0.0056412080 -0.0056729079 0.0140604414 0.0041222619 0.0252575148 -0.0316479988 -0.0387712903 0.0080290167 -0.0145703396 0.0068815108 0.0082430914 -0.0144703295 -0.0368762948 0.0328603834 -0.0173355471 -0.0275469273 -0.0070571052 -0.0351083204 -0.0083298078 0.0434575044 0.0374584496 0.0185280442 -0.0235229991 -0.0408441573 0.0264178235 0.0232108794
0.0271987524 -0.0438976847 0.0362337045 -0.0067509292 0.0025220991 0.0014963342 -0.0397578999 0.0387855507 -0.0082296776 -0.0021167938 -0.0383094773 -0.0049387151 -0.0170915946 -0.0263399836 -0.0246131159 -0.0303224493 -0.0330856964 0.0154637154 0.0327906944 -0.0120156286 0.0403096229 -0.0039551971 0.0254865475 0.0000594955 -0.0343385749 0.0199673176 0.0172242206 0.0374658592 0.0279040951 -0.0157542657 -0.0221629515 0.0168972872 -0.0166313946 -0.0075173276 -0.0395945199 0.0350914970 0.0148640238 -0.0028364512 0.0330970176 -0.0177392866 0.0365829207 -0.0400088057 0.0246130321 -0.0246768687 0.0181961060 0.0203368980 -0.0205815025 -0.0383875594 0.0065757562 -0.0300781392 -0.0103432266 0.0162097830 0.0373987518 -0.0050134095 0.0216747075 -0.0075860587 -0.0237705950 0.0379919074 0.0230076686 -0.0256346874 0.0418181121 0.0158078391 -0.0015985668 0.0363292173 -0.0121154431 -0.0402454883 0.0068323463 -0.0119324783 -0.0210581087 0.0230906941 0.0173440278 0.0348543786 0.0043733148 0.0065658363 0.0277635716 -0.0167319402 0.0359785035 -0.0197864287 0.0367302895 0.0305464547 -0.0353302471 0.0236585010 0.0068252077 0.0108876899 -0.0048553539 -0.0119672390 0.0026874833 0.0232114699 -0.0263070296 0.0140450364 0.0393276364 -0.0283262897 -0.0362118594 -0.0290081427 -0.0342772007 0.0356253833 0.0266855191 -0.0092805568 0.0195015408 -0.0108331935 0.0402585939 0.0141445613 0.0192999747 -0.0113332188 -0.0069462270 0.0189676154 0.0265447646 0.0167726744 0.0136974677 -0.0160159767 -0.0193151683 0.0141944205 -0.0289455913 -0.0242090859 -0.0380196981 0.0047183922 -0.0398698449 0.0265291166 -0.0348360129 -0.0010879998 -0.0063667819 0.0204062387 -0.0125141740 -0.0365852714 0.0075706067 0.0420338772 0.0261195544 -0.0199943110 -0.0429776683 0.0148578333 -0.0422120057 0.0374150425 -0.0251200851 0.0153960856 -0.0433978923 -0.0219547823 -0.0253396910 0.0369836651 -0.0009207822 -0.0313079655 -0.0220914073 -0.0233095083 -0.0286733322 -0.0359041356 -0.0417236611 -0.0321641080 0.0189352557 -0.0070197736 0.0019707812 -0.0346017331 0.0293061249 0.0324049518 0.0039720139 -0.0000832295 0.0310307331 0.0345095433 -0.0193459932 0.0042634644 -0.0383213162 -0.0158662759 -0.0301221143 -0.0255068243 -0.0193259530 -0.0383422934 0.0333295204 0.0061851554 0.0217280164 -0.0306693278 -0.0160379354 -0.0037536931 0.0145943630 0.0364795774 -0.0289824437 -0.0140200751 -0.0414638072 -0.0101192426 -0.0308443494 0.0066819983 -0.0400066674 -0.0381229520 0.0069517433 -0.0263607837 -0.0174692627 -0.0323566496 -0.0320096314 -0.0412274823 0.0398415998 -0.0430929139 -0.0302002560 -0.0066718725 0.0287142154 -0.0441123359 -0.0251673628 -0.0059642848 -0.0136850607 0.0343132801 -0.0214735661 -0.0366526470 0.0091709169 0.0009499689 -0.0341167822 0.0360547006 0.0081645660 -0.0256298296 0.0305750836 0.0328671709 -0.0150606865 -0.0295609869 0.0057202177 -0.0172322541 0.0128548676 -0.0066428175 0.0378011875 0.0304898098 0.0134572675 -0.0020818699 -0.0357915610 -0.0432265811 -0.0340826400 0.0347659811 0.0211763047 -0.0005763002 0.0422167368 0.0123999137 0.0284515359 -0.0171953402 -0.0080620488 0.0428678691 0.0271601081 -0.0340647474 0.0059780455 -0.0206846874 0.0146227907 -0.0262116045 -0.0293944869 0.0135150086 -0.0208281446 -0.0016615130 -0.0241610538 0.0275535695 0.0297434311 -0.0317615308 0.0434743464 0.0425740853 -0.0035144044 0.0190023016 -0.0301212408 -0.0035888040 -0.0135863526 0.0239909440 -0.0059661549 0.0170207936 -0.0042058076 -0.0122211156 0.0004622982 -0.0304967277 0.0037390208 -0.0293264091 0.0216398668 -0.0124079632 -0.0078183031 0.0406226404 0.0119178798 -0.0349676684 -0.0021215142 -0.0165465213 0.0061927838 -0.0187682603 0.0180794541 0.0290491674 0.0040571871 0.0150789674 -0.0062785209 -0.0257109888 0.0375896581 -0.0219098553 0.0191126261 -0.0339247622 -0.0236517619 -0.0187401213 -0.0005744563 0.0077037485 0.0026966555 -0.0194356758 0.0249099415 0.0298306383 0.0429561362 0.0374153964 -0.0119328424 -0.0074404203 -0.0314046852 -0.0272287391 -0.0316161104 0.0245676450 -0.0222985744 -0.0176654719 0.0261558648 -0.0091891512 0.0262386408 -0.0202235319 0.0297428351 -0.0358672850 -0.0202573445 0.0375761837 0.0351585932 0.0154506760 -0.0294808503 0.0049465331 0.0412030518 -0.0021291166 0.0437949374 -0.0142051997 -0.0426006466 0.0112985531 0.0134358825 -0.0387528501 0.0148146069 0.0224600714 0.0400992520 0.0193690527 -0.0038037689 -0.0036076701 -0.0385506675 -0.0359439105 0.0398069620 0.0179185327 0.0061008460 0.0095410664 0.0120034227 0.0368466042 -0.0207603145 -0.0183211565 0.0434440188 -0.0100598205 0.0174243283 -0.0034675950 0.0218001362 0.0140956547 0.0161419585 -0.0295464471 0.0043112012 0.0120863412 -0.0025614430 0.0180383828 0.0063020182 -0.0276725404 -0.0156379342 -0.0195974987 0.0440115631 0.0131675024 0.0119151827 0.0258544087 -0.0112504587 -0.0217767339 -0.0320129544 -0.0372422151 -0.0166827291 0.0167383142 -0.0085982149 -0.0040869168 -0.0295130666 -0.0034818037 -0.0263170339 0.0240403879 -0.0141017027 -0.0407166146 0.0302016716 0.0380530842 0.0219956134 0.0391635448 0.0301834177 0.0203826483 -0.0072241435 -0.0072433571 0.0272418056 -0.0322975554 0.0136025418 -0.0419076607 0.0324143805 0.0431374200 -0.0384443402 -0.0320799723 -0.0187106077 -0.0365277864 -0.0435070693 -0.0350566432 -0.0248315632 -0.0017517547 -0.0355249494 0.0266150963 0.0047493018 -0.0224476214 -0.0237962902 -0.0058667623 -0.0013790133 0.0237735510 0.0349178463 -0.0071025919 -0.0401021466 0.0409535877 -0.0018969296 -0.0365668088 0.0220449977 -0.0312671624 -0.0360115357 -0.0260649063 0.0397206433 0.0381781124 0.0020716861 0.0418287590 0.0438936241 -0.0368067883 0.0225993618 -0.0328160450 -0.0156687014 0.0297884550 0.0268985033 -0.0398336761 -0.0392909236 0.0230870377 0.0225573257 -0.0425107926 0.0324720815 -0.0094399033 0.0286028106 0.0049955132 -0.0410238728 -0.0304155089 -0.0415679775 0.0314428024 -0.0008062376 0.0208804011 0.0123201031 -0.0261257403 0.0165524799 -0.0104277516 -0.0132518802 -0.0414659902 -0.0320627913 0.0002052077 -0.0264968015 -0.0157520585 -0.0149633689 -0.0312995836 0.0017854458 -0.0098529374 -0.0346457660 -0.0243438762 0.0109667201 0.0366091616 0.0241742358 -0.0158036351 -0.0435314812 -0.0197396707 -0.0192523543 0.0372111835 0.0259221401 0.0437276959 0.0399907269 0.0188950747 -0.0122190565 -0.0231042597 -0.0028274267 -0.0085748872 -0.0389601812 -0.0073344838 0.0189603176 -0.0121236723 0.0031573153 0.0023832039 0.0095329164 -0.0255403202 -0.0166847408 0.0418593176 0.0392671861 -0.0294821002 -0.0358849280 0.0406393036 -0.0129492190 0.0218795184 -0.0217545908 0.0013816633 0.0365750454 0.0107607115 -0.0298742279 0.0269877743 0.0025262663 -0.0381729379 -0.0370817818 -0.0129786264 0.0384036712 -0.0043776245 -0.0125747435 0.0230565704 0.0073724478 -0.0201423261 0.0149980877 0.0412838794 -0.0263210442 -0.0193120018 0.0135772964 -0.0296357777 -0.0298584439 -0.0262239538 0.0062501510 -0.0419637896 0.0023733417 -0.0044815587 0.0375378355 0.0119765010 0.0303461198 -0.0286153704
0.0107954042 0.0326495394 0.0041653835 0.0396519452 -0.0007218438 0.0060018483 0.0308173168 -0.0190781560 0.0009903403 0.0046373913 -0.0139138391 -0.0399750583 -0.0210690517 -0.0081481813 -0.0312479250 -0.0357401595 0.0177530944 0.0007653657 0.0419835337 -0.0219892003 0.0005097977 0.0358984284 -0.0340646990 0.0404600613 -0.0127434153 0.0164703820 -0.0223353636 0.0055639106 0.0384329483 0.0037314238 -0.0182073060 -0.0337792113 -0.0307002328 0.0371309556 -0.0354912058 -0.0033102662 0.0425393991 0.0414490364 -0.0428772680 0.0170802306 -0.0245525520 0.0294848178 0.0307355206 0.0020298397 0.0388274714 -0.0208502728 0.0150263524 0.0020091191 0.0395874083 -0.0319414362 -0.0390463062 -0.0032677348 0.0204584282 -0.0353608355 -0.0202568080 -0.0088487882 -0.0173582584 0.0016128335 -0.0172283296 -0.0090779038 0.0267363582 -0.0074342191 -0.0403806008 0.0092087230 -0.0417248644 0.0340100564 -0.0240886044 0.0226299800 -0.0119073223 -0.0405276828 -0.0203522537 -0.0076603317 -0.0054580905 -0.0219121724 -0.0126654701 -0.0141987829 -0.0330229104 0.0341090634 -0.0073641553 -0.0242044032 -0.0188717302 -0.0410816334 0.0159434732 0.0269130170 0.0431433246 -0.0314353406 -0.0423815437 0.0430359654 -0.0045202756 -0.0146238916 0.0023371112 0.0217388533 0.0316489153 0.0045522861 -0.0390942693 -0.0406417251 0.0352869146 0.0330268703 -0.0319768600 -0.0107289804 -0.0301169101 0.0312191918 0.0066229082 0.0329384878 0.0016913477 -0.0026846856 -0.0338935480 0.0330464989 -0.0159450807 0.0160135794 0.0207074303 0.0317988172 0.0344292447 -0.0076682079 -0.0297541358 0.0422330797 0.0204489399 0.0274405647 0.0414885357 0.0270049442 -0.0268452074 -0.0184951387 0.0106128398 -0.0216641333 0.0327494591 -0.0199423917 -0.0391289592 -0.0218931008 -0.0130673032 0.0434035286 -0.0014198904 -0.0246735346 -0.0024691466 -0.0086625684 -0.0277568810 -0.0403189398 -0.0005910621 -0.0349257402 -0.0437117592 0.0379442163 -0.0075794100 -0.0256625526 -0.0206999294 0.0406317599 -0.0384245738 -0.0349808782 0.0207070615 -0.0160477553 -0.0034313698 -0.0268881191 0.0196878985 -0.0202463083 0.0206188913 -0.0372183286 -0.0174528416 0.0235102288 0.0058600293 -0.0112144276 0.0083310939 0.0379603803 0.0025272355 -0.0076532145 -0.0409906320 -0.0283486228 0.0268562082 0.0125339404 -0.0117529649 0.0024511341 -0.0093438299 -0.0328531265 -0.0438004285 -0.0313935466 0.0011626419 0.0179344788 0.0115421461 -0.0282301698 -0.0346296169 0.0101702819 -0.0218784921 0.0237837303 0.0367762223 -0.0321373083 -0.0158029087 0.0229293071 0.0112454267 -0.0230526812 -0.0182038881 -0.0318350531 0.0380754732 -0.0164488293 0.0004333223 -0.0024884448 0.0028542425 -0.0056250449 0.0114520360 -0.0177550651 0.0267452672 0.0225346293 0.0325855240 0.0074045006 -0.0149417212 0.0205688160 -0.0262829531 -0.0063928654 -0.0054011554 -0.0064553483 -0.0437677689 0.0021665429 0.0103775654 -0.0243891533 -0.0108515648 0.0111608859 0.0134991771 -0.0147324782 0.0208099894 0.0047723982 0.0000472624 -0.0289989077 -0.0216617193 -0.0328161567 0.0391253084 -0.0320339315 -0.0391366743 0.0048361295 -0.0105165550 -0.0063589318 -0.0192845426 -0.0101894690 0.0090054218 -0.0219159070 -0.0416060574 -0.0259913336 -0.0371324830 -0.0384477563 0.0349440500 -0.0028315147 -0.0372834131 -0.0405836217 0.0199250653 -0.0061626541 -0.0339135453 -0.0353500433 0.0003219914 0.0038817825 0.0353557318 -0.0036562022 -0.0365758687 0.0176399089 -0.0332609266 0.0291830879 -0.0065663578 0.0166066848 0.0113139628 -0.0272227172 -0.0182746574 0.0118307360 -0.0364718325 0.0053691976 -0.0272600446 0.0175437778 0.0102885934 -0.0286162142 0.0040511289 -0.0389497392 -0.0100847762 -0.0032629194 -0.0004215475 0.0071639526 0.0197024029 0.0137019670 0.0397953503 -0.0416570418 -0.0059013069 -0.0190772172 0.0114433430 0.0100751622 -0.0039776983 0.0279906392 -0.0078828726 -0.0132653248 -0.0202470515 -0.0096650673 0.0439386517 -0.0406822227 0.0321168825 -0.0290830582 0.0285512917 -0.0211409014 0.0401217081 -0.0149553297 0.0225604177 0.0346286707 0.0295213014 0.0022567846 0.0083929235 0.0181017015 -0.0232568681 0.0373141803 0.0421489812 0.0182566717 -0.0059695952 0.0363786668 -0.0359654538 -0.0042988993 -0.0325026102 -0.0251405519 -0.0400498472 -0.0040400969 0.0007292880 0.0227744225 0.0199318286 -0.0019520050 -0.0183404274 0.0295672677 0.0349430144 -0.0334665924 -0.0195798185 0.0162520036 -0.0250134319 -0.0300703701 0.0191592034 -0.0239558630 -0.0252773035 -0.0260483380 0.0242505167 -0.0246728119 -0.0050221602 -0.0117719360 0.0329798870 -0.0065814252 -0.0094838627 -0.0252178442 0.0226304755 0.0253784247 -0.0193691421 0.0358855240 0.0428297147 0.0081920456 -0.0347999521 -0.0072579980 0.0107154250 0.0274228733 0.0063527049 -0.0404414423 -0.0057871048 -0.0015333919 -0.0153805017 -0.0383563861 0.0094812969 -0.0203616582 0.0421708077 -0.0392526090 -0.0252487324 0.0100452695 0.0039499234 0.0178613644 -0.0099492166 -0.0042557726 -0.0437859930 0.0087438533 0.0367856883 0.0255387872 -0.0211553574 0.0385406017 0.0012021018 0.0085463952 -0.0270941071 -0.0015598970 -0.0130368415 -0.0362257957 -0.0276918598 -0.0002111030 0.0219624583 0.0204362050 -0.0081656249 0.0417496152 0.0379684158 0.0227305107 0.0003950108 0.0065671741 -0.0098868711 0.0397728570 0.0309402216 0.0166410450 -0.0016559286 -0.0363904983 -0.0414352864 -0.0063147093 0.0333583169 0.0011095105 0.0029761153 -0.0234228633 0.0243904125 0.0441879146 -0.0298871193 0.0086150840 0.0309355278 -0.0419094600 0.0296263043 0.0338970013 -0.0245627463 -0.0424761251 -0.0368053727 -0.0130493119 0.0012099043 0.0352116562 0.0080504380 -0.0394530408 -0.0344849341 0.0141527327 0.0327235982 0.0175765418 -0.0209161006 -0.0258247703 -0.0134816384 -0.0049829693 0.0327311531 -0.0147165414 -0.0387318432 -0.0191188585 0.0385033526 -0.0427205302 -0.0369568281 0.0178188346 -0.0215566326 -0.0210484155 -0.0414112434 -0.0419146381 -0.0377963595 0.0284104683 0.0412693806 0.0242285151 -0.0326629914 0.0056400648 -0.0112854037 0.0406702645 0.0150280381 0.0067276643 0.0441827662 -0.0012297870 -0.0221496653 0.0061613317 -0.0385568365 -0.0088252071 -0.0439998023 0.0123960990 0.0260774344 -0.0352257565 0.0096409330 0.0255019199 0.0154609121 -0.0041239480 -0.0164650604 -0.0158521980 -0.0111391377 0.0131165991 0.0132471547 0.0200828575 0.0131273158 -0.0029931953 0.0403073318 0.0414624289 0.0120988162 0.0148774004 -0.0079702530 -0.0258417185 0.0315257385 0.0254458487 -0.0304101054 0.0289471708 -0.0232733265 -0.0038909549 -0.0379817970 0.0092646098 -0.0438747890 -0.0273032803 -0.0409885645 -0.0392991714 -0.0232783891 0.0233758800 0.0303687733 0.0409185998 0.0384444259 0.0202310551 0.0317563228 -0.0321715735 0.0334527642 -0.0063881660 0.0082735475 -0.0318230055 -0.0023100160 0.0022723209 0.0212013293 -0.0362202227 -0.0292490702 0.0127135860 -0.0422479622 -0.0188108496 -0.0338360742 -0.0171246752 0.0094242403 -0.0364117362 0.0328832380 0.0330314375 0.0429571122 -0.0050171711 0.0327454098 -0.0431938246 -0.0134762647 -0.0180707145 0.0344516411 -0.0085452152
