-0.0003308738 0.0237076804 -0.0363737978 -0.0325242169 -0.0170215778 0.0118509931 -0.0008756271 0.0350410938 -0.0039219698 0.0116943335 -0.0133560570 -0.0086870445 -0.0422208384 -0.0292690098 -0.0182178598 0.0016371100 0.0174715128 0.0265175104 -0.0299610458 -0.0192449205 0.0160520803 0.0366983078 -0.0090951687 0.0330710188 -0.0071233651 0.0046763667 0.0400167741 -0.0409976244 -0.0278219078 -0.0111884288 -0.0172268860 0.0381838009 -0.0286457632 -0.0203440301 -0.0308758374 -0.0413905382 -0.0257979278 0.0379892252 0.0197202526 0.0214197021 0.0023242405 -0.0226576235 0.0074769771 -0.0412638672 -0.0319332182 -0.0227834210 0.0278837811 0.0259119812 -0.0195998959 -0.0015946312 0.0282648560 0.0439348891 0.0175398793 0.0059703169 0.0296315886 -0.0260216333 0.0082353204 -0.0342639871 -0.0306303687 -0.0228299834 0.0199966729 0.0177731458 -0.0261785295 0.0133513734 0.0242613647 -0.0055780723 0.0016874018 0.0102399979 0.0274170302 0.0424349830 -0.0340570696 -0.0161958262 0.0173687469 0.0366170555 0.0384580940 0.0389950275 0.0087952828 -0.0384304859 0.0040655322 -0.0276481118 -0.0411869437 0.0392661914 0.0336034708 -0.0440849215 0.0082719140 -0.0074449508 -0.0072726440 -0.0202301871 0.0169951413 -0.0261763632 0.0162012000 0.0223493520 0.0316373520 0.0165246930 -0.0437405296 -0.0286686234 0.0220668148 0.0092499005 -0.0344751664 -0.0254478659 0.0415756367 0.0297788233 -0.0192697700 -0.0111230006 -0.0420992859 -0.0007943521 -0.0332808159 -0.0340894721 -0.0024350816 0.0066355364 -0.0180988517 0.0262238327 -0.0268938821 0.0401004702 0.0302862618 -0.0372681916 -0.0109992372 0.0019941570 0.0064479779 0.0104817208 0.0173430424 0.0026472383 -0.0215636082 0.0209121965 -0.0423932113 -0.0261941813 -0.0110631213 -0.0215275716 -0.0154605964 -0.0362225026 -0.0094007701 0.0094467895 -0.0287909918 -0.0022680168 0.0316364355 -0.0045431722 0.0012282539 -0.0038125827 0.0089440774 0.0281003993 0.0418627635 0.0280657709 0.0419585444 -0.0031961957 -0.0397005752 -0.0209514517 0.0300920438 -0.0002864879 -0.0219665524 -0.0338665135 -0.0413592085 -0.0373002440 -0.0089642024 0.0242363494 0.0238931850 -0.0426222682 0.0275675319 -0.0345823579 -0.0093431026 -0.0179195274 -0.0085124727 -0.0086772032 -0.0396576375 -0.0381589234 -0.0069154813 0.0005715271 -0.0200763028 0.0166479107 -0.0397773348 -0.0029825429 0.0388652161 -0.0180264488 0.0399074741 0.0160050858 -0.0398835130 0.0279615354 -0.0050997632 -0.0197285805 0.0353400148 -0.0357130989 0.0047422526 -0.0092528770 0.0315596163 0.0123365615 0.0212355368 0.0156075675 -0.0106275808 -0.0092942752 -0.0364195965 0.0239463542 0.0350892060 0.0302387513 -0.0311736111 0.0019710553 -0.0311539806 -0.0243281927 -0.0257521868 0.0151031381 -0.0263358895 -0.0009641934 0.0018591660 0.0284885820 -0.0334072635 -0.0303398408 -0.0256618559 0.0309329778 -0.0158862583 0.0372772850 0.0159809459 0.0055961320 -0.0003289825 -0.0087363729 0.0055448813 -0.0100915041 -0.0003105275 0.0056388690 -0.0345689096 -0.0231635552 0.0356864743 -0.0358656347 -0.0031734153 0.0437185876 0.0159645732 0.0012512715 -0.0382991098 0.0218928158 -0.0314786583 -0.0125451460 -0.0148278670 -0.0065445993 0.0004834085 0.0364516862 0.0055171489 0.0395844020 0.0270341262 -0.0279401727 0.0198212676 -0.0312406868 -0.0187306013 0.0129985092 0.0145925665 0.0331557095 -0.0142268054 0.0000707487 0.0227522012 -0.0427398384 0.0319515318 -0.0365451537 0.0006091063 -0.0075137503 -0.0232758764 0.0058411895 0.0365449898 -0.0129188206 -0.0262378193 -0.0163447205 -0.0438029803 0.0199489836 -0.0212248582 -0.0294925515 -0.0254603252 0.0254097078 0.0234040711 0.0339199938 0.0160302483 -0.0147590730 -0.0123499800 0.0130562820 0.0363291427 0.0120160505 -0.0209102686 -0.0207746811 -0.0417842232 0.0095480625 -0.0248009972 -0.0394024551 0.0387528315 -0.0287001915 -0.0050275973 0.0126613453 0.0014079523 -0.0297374520 -0.0357231088 0.0352263972 0.0071965214 0.0366645716 -0.0148156816 0.0130176330 -0.0101061556 -0.0019653654 -0.0269162040 0.0149465101 0.0139726913 -0.0009116626 -0.0099393651 -0.0272426046 0.0305622499 -0.0328992084 0.0181048270 -0.0148604466 -0.0213222746 0.0079392651 -0.0229569711 0.0101825520 0.0086788898 -0.0328137092 0.0073582656 0.0188235883 0.0174934231 -0.0055631045 -0.0362298377 -0.0068127112 0.0153489755 -0.0161254425 0.0167752728 0.0294316653 -0.0230760574 0.0004358353 0.0182742458 0.0034638441 0.0036916055 0.0055183237 -0.0347431488 0.0034731426 0.0306031313 0.0398239754 0.0259751659 0.0059221536 0.0206393059 -0.0214995649 -0.0366231985 -0.0380035006 0.0440885387 0.0280539896 -0.0305485036 0.0172906443 0.0333740078 0.0441771522 0.0386431590 0.0342396051 -0.0101319235 -0.0155095765 0.0362855755 0.0247655138 -0.0265951250 0.0397313237 0.0213527940 0.0240918119 -0.0276998617 0.0126792993 -0.0154928174 0.0345314071 -0.0079523250 0.0172053445 0.0078498507 0.0188032147 -0.0150183970 0.0215478130 -0.0308683459 0.0099814748 -0.0299014188 -0.0435992107 -0.0354903862 0.0348899774 0.0239106230 0.0414636694 0.0354048908 -0.0394674055 -0.0301594790 -0.0071410090 -0.0287011229 0.0306882784 -0.0334111378 -0.0215624012 -0.0426956117 -0.0250910465 0.0363487117 0.0361844227 0.0316358544 0.0341235250 0.0392968617 -0.0113164922 0.0194455273 0.0393739343 0.0146202622 0.0441798680 0.0229218788 0.0274732336 -0.0154676139 0.0212055799 0.0050781998 -0.0105543341 -0.0249126907 -0.0247980822 -0.0340065695 0.0296688881 0.0314190164 -0.0050298576 -0.0255745500 0.0341579169 0.0282616839 0.0032851307 -0.0208656285 0.0406165607 0.0180727951 -0.0335498005 0.0422974862 0.0335598961 -0.0161083732 0.0248439554 -0.0251106434 -0.0069258600 0.0375253260 0.0018260649 -0.0312549211 -0.0147711476 -0.0119962944 -0.0085263280 0.0042294096 0.0408720784 0.0023661715 -0.0272872504 0.0022651402 0.0211905390 0.0219220873 -0.0403907560 -0.0079082130 -0.0328426585 -0.0188570153 0.0159228686 -0.0313836187 0.0164281614 0.0375110470 0.0028986230 -0.0294548720 -0.0158341080 0.0096504213 -0.0336900130 0.0219561215 -0.0401225463 -0.0424835645 -0.0429417379 -0.0089653777 0.0297176167 -0.0418288559 0.0367336273 -0.0176786799 0.0129437707 0.0020153832 -0.0398507304 0.0366515107 0.0237960629 0.0439288169 0.0223274343 -0.0291712023 0.0368837379 0.0023751908 0.0209576041 -0.0354361758 -0.0127114160 -0.0433932655 -0.0172132999 0.0095340591 -0.0346995741 0.0140875205 0.0237237327 0.0061566588 -0.0295695849 -0.0342646129 -0.0136346370 0.0193993933 0.0435929745 0.0254129320 -0.0049766735 0.0154952044 -0.0433572643 -0.0377462991 0.0206213519 -0.0250322502 0.0212616250 -0.0311980881 -0.0218898561 -0.0364022553 0.0230623186 -0.0045031696 0.0340118855 0.0273505431 0.0244545173 0.0014211127 -0.0136638656 -0.0096092122 0.0058734319 0.0219074730 -0.0309619904 0.0370911919 -0.0048052357 -0.0370323136 -0.0239116028 0.0391037874 0.0404167734 -0.0409361646 0.0311700758 0.0221483167 0.0261593480 0.0374116600 -0.0238184631 0.0139554478 0.0180857237 -0.0130590852 0.0147897191 -0.0127152558 0.0273235478
-0.0122618768 -0.0164753981 0.0111258402 0.0156753920 -0.0215920191 0.0039066914 0.0256121028 -0.0043971753 0.0134497862 -0.0106590586 0.0154900411 -0.0320140012 -0.0259874463 -0.0224325433 0.0406149253 -0.0118919490 -0.0001206664 -0.0214118790 0.0441186056 0.0431631282 -0.0333306529 -0.0358268842 -0.0334988721 -0.0002131366 -0.0112652676 -0.0289271045 -0.0158512183 0.0083496431 -0.0230910461 0.0097926566 -0.0101344259 -0.0214148760 0.0060716379 0.0363390222 -0.0298787635 0.0020521299 -0.0162973851 0.0433680229 -0.0419298075 -0.0423672386 0.0435482711 -0.0279612094 0.0084730545 -0.0038142265 -0.0093098115 -0.0098706707 0.0280827712 0.0021123474 -0.0430280901 -0.0260904785 -0.0150658069 0.0222392324 -0.0285995398 0.0416715518 -0.0098433383 -0.0079355929 0.0346286967 0.0222123321 0.0374819785 0.0255638696 -0.0134064751 -0.0293216147 -0.0032881813 0.0365767591 -0.0148324398 -0.0409843475 0.0181164481 0.0430217646 -0.0125813400 -0.0365938172 -0.0400867537 0.0110750329 -0.0033463701 -0.0223174933 0.0089330506 0.0167831276 0.0351484641 0.0343115702 -0.0066151479 -0.0389689691 -0.0399348773 0.0412636399 0.0195362642 0.0192645658 -0.0382377282 0.0409245007 0.0418670438 0.0399011634 -0.0372815430 -0.0166754946 -0.0303951520 0.0418503620 -0.0189893525 -0.0201770496 0.0231538974 -0.0204438865 -0.0217666086 -0.0038657300 -0.0042479229 -0.0344263092 0.0368432738 -0.0194950085 0.0156763308 0.0384393670 0.0222878493 0.0062570050 0.0376029238 0.0059408564 -0.0204467271 0.0418076664 0.0104598990 -0.0431194082 -0.0125817088 -0.0301036332 0.0387473740 -0.0072984854 -0.0402840897 -0.0027781937 0.0277545098 0.0114816651 0.0139743928 0.0041044550 0.0164764151 -0.0107679982 -0.0175804514 -0.0413086675 -0.0332931019 0.0191538669 -0.0261679608 0.0063403822 0.0141064022 0.0031291191 -0.0286532808 0.0422641411 -0.0256988872 0.0363497324 -0.0351568311 -0.0106308414 0.0240402520 -0.0180568844 0.0371250026 -0.0304125063 -0.0371130072 -0.0199279990 0.0071440064 0.0406920426 -0.0210983381 0.0158050843 -0.0110797901 -0.0095840506 0.0324961245 -0.0342498608 0.0046940101 0.0415606052 -0.0060728183 0.0343140401 -0.0136098964 0.0355746374 -0.0427503660 -0.0063694264 -0.0077625485 0.0143226683 0.0173385870 0.0339330323 -0.0065843123 -0.0017525239 0.0302646663 -0.0119577562 0.0387420990 -0.0294250175 -0.0047822446 -0.0023737105 0.0197198782 0.0302145015 -0.0070049432 -0.0366140157 0.0218978692 0.0132198799 0.0177527685 -0.0272619557 0.0284431744 0.0418587327 0.0038347889 -0.0412794985 0.0310238618 -0.0327678248 0.0101590073 0.0064221998 -0.0206844881 0.0153882150 -0.0395287126 0.0100656422 -0.0280169379 -0.0047788783 0.0056846458 0.0376509801 -0.0210859366 0.0283123814 -0.0056141550 -0.0209890399 -0.0384842716 -0.0405489653 0.0431605019 -0.0110220062 0.0022074464 0.0119815851 0.0300402027 0.0377185829 0.0358422324 -0.0327427164 -0.0070806495 -0.0261513554 -0.0252504181 0.0104831699 0.0414827727 -0.0354041271 0.0267465115 -0.0229132082 -0.0086078877 0.0350800492 -0.0099954093 0.0040241336 -0.0308931656 0.0376198851 -0.0057129734 -0.0323231965 0.0129405102 -0.0314228237 -0.0350684002 0.0026922722 0.0350390673 -0.0125062447 0.0208007339 0.0379769914 0.0293122679 -0.0231825411 -0.0048445589 -0.0139072379 -0.0355375484 0.0000182601 0.0332532451 0.0372342803 0.0041233473 0.0100375144 -0.0191326141 0.0333596356 -0.0183895715 -0.0306996051 0.0068056150 0.0264893416 -0.0398450941 0.0399500951 0.0158980172 -0.0309630018 -0.0095197558 0.0383419767 -0.0339073017 -0.0129169496 0.0144948177 -0.0387178548 0.0242271665 0.0230051726 0.0274094697 -0.0281758681 0.0440174416 -0.0261966046 0.0441208333 -0.0424127243 -0.0393756814 0.0271438975 0.0046188626 0.0025495314 -0.0244728941 -0.0185383707 -0.0129218232 -0.0430519953 0.0022967134 0.0078161331 -0.0000374159 0.0142716393 0.0419336855 0.0117505258 -0.0161782671 -0.0181879662 -0.0282756779 -0.0306362323 -0.0071174647 -0.0078164283 0.0196603294 -0.0188902169 0.0352317579 -0.0310101751 0.0001256081 0.0397270247 0.0439460278 -0.0256000161 0.0078722620 0.0052203350 -0.0207205117 -0.0152688595 0.0119701680 -0.0307310894 0.0072918474 0.0191239100 -0.0174156036 0.0367094986 -0.0029084380 0.0200514570 0.0437657721 -0.0135087604 0.0240154732 -0.0126408245 -0.0064555747 -0.0074896370 -0.0002745604 -0.0166951623 0.0103585357 0.0016652535 0.0280142352 -0.0089451363 0.0044317991 -0.0164398048 -0.0370105766 0.0178839341 0.0056549953 -0.0176990479 -0.0149422688 0.0115577197 -0.0079910532 0.0288798269 0.0025032961 0.0166937597 0.0192552358 -0.0108437622 0.0191212669 0.0326123498 0.0020337435 0.0086484859 0.0016058212 0.0305986069 -0.0186585728 -0.0234922897 0.0192577690 -0.0384628139 0.0007085412 -0.0203245059 0.0291696377 -0.0411465019 0.0267963652 0.0437238030 0.0089422548 -0.0029445104 0.0435025282 -0.0188864823 -0.0035414363 -0.0193528477 -0.0061006192 0.0096051134 0.0059026345 -0.0083471723 -0.0441871285 0.0022629222 -0.0013091180 0.0066484283 0.0338637978 0.0429571532 -0.0262196269 -0.0027557032 -0.0177074391 -0.0407313667 -0.0321582928 0.0414789319 0.0257679038 0.0237389486 0.0245606117 -0.0351113416 0.0046412372 0.0411321633 -0.0246641450 0.0393148847 0.0116159292 0.0310925245 -0.0189322382 0.0203742981 -0.0391775928 -0.0028061320 0.0147410184 0.0132535873 0.0369820409 0.0434277169 0.0402059592 0.0296716224 0.0310712457 -0.0057023633 -0.0342967510 -0.0164060760 -0.0049614375 -0.0238819364 0.0225907732 0.0155133586 0.0071308147 0.0106755756 0.0388224721 0.0160969030 -0.0387556106 -0.0320797004 0.0194785669 0.0060227476 0.0215531290 -0.0441376008 -0.0407854468 0.0271010343 0.0282686129 -0.0399829559 0.0167754572 -0.0345087647 0.0334685892 0.0138677089 0.0436986201 -0.0435751006 -0.0425446779 0.0298797712 0.0392366089 0.0270768832 0.0293816049 -0.0372234844 0.0319883451 -0.0417257994 0.0098730521 -0.0289487205 -0.0175537243 0.0078254109 -0.0173762664 -0.0069925310 -0.0418883152 -0.0416695029 0.0171191916 -0.0187064409 -0.0268872753 -0.0174382366 -0.0361317657 -0.0353288315 0.0264445711 0.0224613398 0.0058868187 -0.0241414923 0.0147034442 0.0019854326 -0.0315843746 0.0095101362 0.0402407348 -0.0434696674 -0.0439463407 0.0056623765 0.0332791992 -0.0268917009 0.0097287782 0.0310678538 0.0136257857 0.0095640942 0.0440936722 0.0287912972 -0.0248559974 0.0038199900 0.0225775819 0.0389752612 -0.0439702347 0.0239313804 -0.0128309755 -0.0432758741 0.0098099578 -0.0240599122 0.0062628528 -0.0286929309 -0.0332573988 -0.0037499210 -0.0148459589 0.0258476138 0.0038103384 0.0344961397 0.0082821194 -0.0142111378 0.0299341977 0.0024149932 0.0082948785 -0.0142138451 0.0001586039 -0.0084973527 -0.0037572703 -0.0344661213 -0.0002717892 -0.0366831198 -0.0095075285 0.0256125648 -0.0307304319 -0.0297891609 -0.0107911788 -0.0121151274 0.0074815187 0.0073369234 0.0224107113 -0.0304445066 -0.0031188352 0.0247174148 0.0382267013 -0.0032237649 -0.0255716406 0.0127041712 0.0251675788 -0.0276103057 -0.0256455876 0.0195337459
-0.0030965079 -0.0417413376 -0.0254816990 0.0179221891 -0.0149895893 0.0305041019 0.0349372551 0.0064289221 -0.0034946427 -0.0140284309 -0.0022347155 0.0080442633 -0.0337577648 -0.0105622159 -0.0367607549 0.0271243881 -0.0281444527 0.0403733142 -0.0113924090 -0.0253177490 0.0212332290 0.0065884269 0.0306025203 0.0184497293 -0.0425739884 0.0279523898 -0.0083223749 -0.0195325464 0.0280656815 0.0322321504 -0.0388436131 -0.0039961850 0.0362925455 0.0171158183 0.0372322351 -0.0151452851 -0.0243793800 0.0380029976 0.0184211433 0.0424256325 -0.0184597559 -0.0283756126 -0.0051801270 -0.0416123457 0.0173230190 0.0325971097 0.0106091145 -0.0043666875 0.0219117515 -0.0280523095 0.0432326458 -0.0439441949 -0.0423355959 -0.0104431566 0.0360997654 0.0044249767 0.0169725828 -0.0323946327 0.0161169861 -0.0049384092 0.0177140664 0.0312118065 0.0192103330 -0.0037593408 -0.0027223229 -0.0277177114 -0.0159851238 0.0287190564 -0.0177217107 0.0274463389 -0.0175244007 -0.0102927713 0.0009405491 -0.0405554660 -0.0004412775 -0.0044545848 -0.0039702435 -0.0088346014 0.0348416828 0.0326147340 -0.0299529210 0.0205293763 -0.0346651413 -0.0376234427 0.0135093611 0.0006494987 -0.0206168629 -0.0426254459 -0.0171091594 0.0147608323 -0.0409061909 -0.0429331139 0.0056070271 -0.0318376645 -0.0387176424 -0.0170274060 -0.0071152993 -0.0401594751 -0.0295096748 0.0028977171 -0.0416738540 -0.0062116869 -0.0285362974 -0.0306370500 0.0173696801 -0.0340157971 -0.0334918573 0.0252031200 0.0082628215 0.0402482003 -0.0118129030 -0.0213464517 -0.0040900144 0.0002235943 0.0337044336 -0.0440209284 -0.0031466573 0.0195493884 -0.0243369807 -0.0224568620 0.0213576201 -0.0423462018 0.0104720639 -0.0342145301 0.0219672378 -0.0377878062 0.0271707866 -0.0418356471 -0.0371481515 0.0006512847 0.0348244980 -0.0378476940 -0.0197132397 0.0388149694 -0.0074112494 0.0183089655 -0.0425147153 -0.0138982236 -0.0224432219 0.0372583941 0.0183423460 -0.0322474129 0.0071252934 -0.0005079433 -0.0181580521 -0.0252382588 -0.0146653326 0.0348350182 -0.0316806957 -0.0314814262 -0.0136347478 0.0007688164 0.0120301805 0.0013261822 -0.0106386701 -0.0267971456 -0.0079298764 -0.0177905113 0.0357057452 -0.0430190302 -0.0281896498 -0.0359559432 -0.0080767851 0.0344393440 0.0387379266 -0.0384734720 -0.0019147946 0.0259404834 0.0194806792 0.0361996181 -0.0012258674 -0.0296937451 0.0292357933 -0.0151548265 0.0228831302 -0.0108910566 0.0187866837 0.0397493877 0.0410941951 -0.0402195714 -0.0292335749 -0.0182728246 -0.0281826705 0.0424043126 -0.0039031773 -0.0293157883 -0.0196659397 -0.0244112965 0.0180307534 -0.0385484174 -0.0412067845 -0.0435649008 0.0190266576 0.0218520127 -0.0274480768 0.0109592080 0.0326234624 0.0064214729 -0.0093506733 0.0032651690 -0.0047388389 0.0222517289 -0.0300083440 0.0224109758 0.0249088760 -0.0267761294 0.0360873528 0.0434068441 -0.0174226109 -0.0123785399 0.0220244098 -0.0346226171 0.0174769387 0.0103107104 0.0278569013 -0.0383873582 -0.0367158465 0.0198488887 0.0159192178 -0.0411344431 -0.0246453006 -0.0404367186 -0.0316617191 -0.0199403949 0.0365723781 -0.0087968903 0.0253829751 0.0419703647 0.0201407094 -0.0395630822 0.0222395118 0.0168571845 0.0342533812 -0.0435946435 0.0271801222 0.0361747593 -0.0411166996 0.0046238727 0.0377273783 -0.0321427807 0.0145009598 0.0195284039 0.0115828542 0.0439411961 0.0361852869 0.0379166007 -0.0055086613 0.0370662101 -0.0411851108 -0.0238484722 -0.0094523001 -0.0131281791 0.0408219248 0.0208448563 0.0284527838 0.0300612915 -0.0330132060 -0.0051186136 0.0064534359 0.0114945732 0.0227260869 -0.0175851602 -0.0133260638 0.0369790904 -0.0118610235 -0.0306991003 0.0299654081 0.0299263280 -0.0138578312 -0.0088353017 -0.0326099955 -0.0369062759 0.0166191980 -0.0188794229 0.0351827815 -0.0353868566 -0.0061087431 0.0009542310 0.0227134675 0.0357677005 0.0299284924 0.0194540992 -0.0202848520 -0.0315611660 -0.0395366736 0.0021922367 0.0428630561 -0.0083943512 -0.0018605094 -0.0321156383 0.0135680400 0.0280183703 -0.0435717367 -0.0311180986 0.0327349678 0.0104636131 -0.0027553344 0.0079000732 -0.0067193666 -0.0308901779 -0.0412963554 0.0290668588 -0.0052563073 -0.0164131522 -0.0114071863 -0.0241045207 -0.0130895777 -0.0379369147 0.0330724269 0.0180463586 -0.0222880691 -0.0150840562 0.0198271628 -0.0163653418 0.0116537241 0.0121684903 -0.0278199334 0.0110707069 0.0027039838 0.0385984778 -0.0159903355 -0.0113609303 0.0380777270 -0.0360890664 0.0031929610 0.0425811857 -0.0198152512 0.0423681661 0.0392152853 0.0411155932 -0.0042171450 0.0399795212 -0.0192562565 -0.0151278945 0.0167156775 0.0093358960 0.0243631694 0.0419985764 -0.0276650693 0.0234550256 0.0147858048 0.0233154353 0.0209556557 -0.0165317114 -0.0349291302 0.0353723429 -0.0252010915 0.0282545350 -0.0421012938 -0.0076456964 0.0004684095 0.0076466342 0.0035723036 0.0139258616 -0.0049207816 0.0108233476 0.0437338613 -0.0285959300 -0.0024128596 -0.0168699343 0.0387772769 0.0378319733 -0.0012051417 -0.0153191416 -0.0273060836 0.0316226780 -0.0030433713 0.0416224934 0.0252022557 0.0386833623 0.0349542126 -0.0287192408 0.0129357316 -0.0183255076 0.0221745688 -0.0039734887 0.0038258855 -0.0305650793 -0.0394974649 0.0166423302 0.0102700805 0.0038388297 0.0300164428 -0.0184543561 0.0156880841 -0.0243404526 0.0091570299 -0.0100894654 0.0309503581 0.0386470333 0.0383836888 0.0019880405 0.0260609984 -0.0441560932 -0.0259240475 0.0078985244 0.0002464695 -0.0346956477 -0.0195608530 -0.0206410717 -0.0437859111 0.0042148321 0.0301269032 0.0179367978 -0.0209981073 -0.0405819714 -0.0356548429 0.0008197667 0.0304017588 -0.0178974271 -0.0240480378 -0.0235756673 -0.0038258326 -0.0419692025 -0.0389989056 0.0435043275 -0.0210769121 -0.0079710223 -0.0118242716 -0.0388248526 -0.0077911294 0.0135285743 -0.0179453790 -0.0018835479 -0.0002114033 -0.0439955145 0.0321166292 0.0356988497 0.0301318299 -0.0145132933 0.0230942499 -0.0414065123 -0.0109330500 -0.0089884000 -0.0156071568 0.0185615569 -0.0201374218 -0.0051222751 -0.0127612175 -0.0415019952 -0.0072982535 -0.0374535136 0.0257698055 0.0236201473 0.0414007492 -0.0148405265 0.0022473701 0.0086572263 0.0441154428 0.0405089743 -0.0228722300 -0.0376049392 -0.0398316905 -0.0212821346 0.0371578671 0.0148425968 0.0426408872 0.0327576399 0.0006407111 -0.0273904614 0.0431556366 0.0354512930 0.0191335566 -0.0241416618 0.0348152556 0.0040223738 0.0292226858 0.0184451789 0.0234674755 -0.0387793258 -0.0245048366 0.0265064053 -0.0092072319 -0.0384480357 0.0401901491 -0.0009557219 0.0356507264 -0.0345429070 0.0152157815 -0.0166465621 -0.0185975861 -0.0092175687 -0.0163582936 0.0242166463 -0.0083968537 0.0335088037 0.0100843655 -0.0068286746 -0.0255265273 -0.0404674113 -0.0128924260 -0.0409252010 -0.0081878835 0.0007223232 -0.0028480417 -0.0217089243 0.0306735691 0.0248892680 -0.0108884331 -0.0174613763 0.0277844407 0.0384500064 -0.0404658876 -0.0095485579 -0.0041013150 -0.0160009824 0.0377289690 -0.0065279831 0.0374699645 0.0002184787 -0.0047937981 -0.0257785339
-0.0146948462 0.0142406719 0.0195487402 -0.0015724357 0.0421101004 -0.0305882376 0.0169446394 0.0398046151 -0.0076845875 0.0350861549 0.0007285135 -0.0330945812 -0.0242456477 0.0164497569 -0.0191249810 0.0106291873 0.0434983484 0.0150118954 -0.0041361232 0.0110465521 -0.0254621971 -0.0371342897 -0.0332207419 -0.0370834433 0.0090695061 0.0086082825 -0.0187811088 -0.0432285555 0.0239401944 -0.0250761844 -0.0073781167 -0.0370560139 -0.0249325056 0.0184360370 -0.0411769003 -0.0252012704 0.0331337079 -0.0226649251 -0.0183916669 -0.0124085639 0.0188912023 -0.0289900340 0.0044311457 0.0180490185 -0.0032081970 0.0079911323 -0.0337134153 0.0199801605 0.0165166650 -0.0055433693 -0.0365428515 0.0176765881 0.0288385320 -0.0077299108 0.0208303779 0.0163809732 -0.0176762361 -0.0030679745 0.0439925790 0.0002086427 -0.0351835787 -0.0032230064 0.0219862778 -0.0144260228 -0.0231437609 0.0364062004 0.0233792365 -0.0075082765 0.0022578330 -0.0046740961 0.0102603659 0.0015706392 -0.0267434400 0.0081880419 0.0011558878 0.0028573086 -0.0168418642 0.0113235461 -0.0357374437 0.0132106608 0.0239485297 -0.0048637092 -0.0343300402 -0.0001606532 0.0000627356 -0.0381928161 -0.0312583260 0.0408768989 0.0330492295 0.0244925451 0.0306158978 0.0170131177 0.0248719826 0.0292707589 -0.0103240972 -0.0056180535 0.0315124989 -0.0000159157 -0.0287565514 -0.0342681110 0.0247167125 0.0366068929 0.0343217365 0.0073547512 0.0305063780 -0.0405761413 -0.0318402611 -0.0425249785 0.0356066376 -0.0003998945 -0.0203498565 0.0149541283 -0.0165433325 -0.0283436757 0.0170456190 0.0080918996 -0.0316482633 -0.0291090216 0.0207213089 0.0336042233 0.0035977182 -0.0221980698 0.0213402342 0.0077077048 -0.0386910848 -0.0286398102 0.0096730813 0.0273462236 -0.0141979875 0.0213693641 -0.0273700152 0.0422908887 0.0314902961 0.0082778884 0.0196616575 0.0153865023 -0.0260788575 -0.0003853697 0.0117848385 -0.0099752527 0.0423798002 -0.0170428846 -0.0394684747 -0.0210397914 -0.0410159416 0.0364181288 -0.0198391750 -0.0310938377 -0.0047773346 -0.0297784079 -0.0230858624 0.0225306358 -0.0331807919 0.0208416320 0.0322280936 -0.0000991294 0.0196238309 -0.0247557461 0.0344633572 0.0429320559 0.0105021568 0.0402730815 -0.0438921452 -0.0048525562 0.0087810745 -0.0384129956 0.0215062872 -0.0168430395 -0.0159842614 -0.0350642912 0.0180673636 -0.0321568735 -0.0093782535 0.0196324382 0.0332935117 0.0099934181 -0.0164863132 -0.0192229357 0.0248054266 0.0081996853 0.0372028314 0.0166429058 0.0356020369 -0.0356120467 0.0355289355 -0.0203051977 -0.0118300989 0.0002645189 -0.0082878144 0.0087418621 0.0393812880 -0.0264053643 0.0136554316 -0.0355190448 0.0069391676 0.0364076644 0.0297993906 0.0378462374 0.0239233784 -0.0036564025 0.0115389479 -0.0184667408 0.0375130214 0.0221282337 -0.0323465988 0.0382127762 -0.0006558049 -0.0019645279 -0.0120952921 -0.0116602043 0.0022119351 -0.0215751342 -0.0411097258 -0.0227646828 -0.0087945191 0.0333729871 0.0325116776 -0.0264790412 -0.0016969375 -0.0127551639 -0.0236424897 -0.0077714310 -0.0153343035 0.0247023571 -0.0219175722 0.0067993980 -0.0249394067 -0.0137932254 0.0347907059 -0.0216965172 -0.0026574219 0.0422075912 0.0151262190 -0.0224947836 -0.0265343171 -0.0154977543 -0.0138393706 0.0192415640 -0.0098254625 0.0372729897 -0.0242485311 -0.0138196824 0.0160902292 0.0352958813 0.0422758386 0.0070736269 0.0018628327 -0.0198005568 0.0249705371 -0.0256171115 -0.0116162505 -0.0369373448 -0.0424857661 0.0247024149 0.0030024254 0.0352304764 0.0351666659 0.0231910348 0.0176862553 -0.0114691528 0.0234720428 0.0212515518 0.0152990529 -0.0012757482 0.0066012712 0.0001960829 -0.0320728384 0.0102591747 -0.0324891396 0.0214430727 -0.0263313111 -0.0144360485 -0.0209592264 0.0348829553 -0.0311223604 0.0225661490 0.0221647173 0.0312485695 0.0110730305 0.0240923967 0.0349354967 0.0087051997 0.0150268003 -0.0345569290 -0.0118541960 0.0040071695 0.0053544934 -0.0156138530 -0.0438113548 -0.0114931501 0.0169193409 0.0380542986 -0.0399086289 0.0210998245 -0.0419346951 -0.0422629677 -0.0276763607 -0.0058373120 0.0123431627 -0.0336101614 0.0340489596 0.0399649702 0.0027191038 0.0359733477 -0.0200073831 -0.0174829811 -0.0057030376 0.0048288908 -0.0308292489 -0.0353879333 0.0174581725 0.0127423620 0.0432337821 -0.0180185363 0.0156067461 -0.0178340487 0.0218164306 -0.0024481418 0.0327614918 0.0245528985 0.0367849171 0.0227111876 0.0016603698 0.0380853191 -0.0259588547 0.0416833311 0.0431859717 0.0422172695 -0.0206440222 -0.0234166458 0.0027960904 0.0137619674 0.0221689939 0.0179738980 0.0376308709 -0.0110724140 -0.0144989369 0.0148138953 0.0123154670 -0.0257796831 0.0042746649 -0.0335544161 -0.0129652079 -0.0173450243 0.0387398750 -0.0397824310 -0.0260933451 -0.0432497412 0.0111460080 -0.0340157673 0.0142986132 -0.0306977611 -0.0283099432 -0.0225777235 0.0066321753 0.0406091772 0.0413972251 -0.0033388576 -0.0432880521 -0.0146006532 -0.0168428868 -0.0093999114 0.0168860871 0.0222400539 0.0195945799 0.0126248719 -0.0178910363 -0.0004688204 0.0056244810 -0.0225739572 -0.0039534480 -0.0055167116 -0.0417552181 0.0299602281 -0.0044681402 -0.0382040851 0.0349652618 -0.0237797368 0.0156466793 0.0438279174 0.0020458607 0.0127148237 0.0175596140 0.0334015600 -0.0135597792 -0.0248689000 -0.0034584966 0.0345620997 0.0037998967 0.0307066124 -0.0003285768 0.0135596627 0.0015367321 0.0011996942 -0.0420560390 -0.0386360586 0.0036738669 0.0218731873 0.0296875499 0.0019175499 0.0186288022 0.0184836425 -0.0381507203 -0.0388437361 -0.0342657790 0.0007598181 -0.0279447027 -0.0141427116 -0.0066120713 0.0172428768 0.0102468152 0.0409978665 0.0398627371 -0.0281939711 -0.0001392268 0.0072979848 0.0385814458 -0.0136967031 -0.0173684061 -0.0279950742 0.0325649679 -0.0125205480 -0.0165518317 0.0298915934 0.0406658724 -0.0018624007 -0.0311527420 0.0360087529 -0.0151146185 -0.0203657728 -0.0310695600 -0.0212545283 -0.0346113332 -0.0255095065 -0.0402590372 -0.0089074569 0.0177693795 -0.0335489213 -0.0000617188 -0.0162971225 0.0213766433 0.0382775180 -0.0058585121 -0.0222429149 -0.0339572206 -0.0259650405 0.0127598792 0.0101400577 0.0237998664 -0.0065667899 0.0227084477 -0.0393736027 0.0118802376 0.0429034196 -0.0437389016 -0.0229424108 0.0282917507 -0.0069097020 -0.0235574115 0.0269613024 0.0029624915 0.0017309552 -0.0134232808 0.0332976393 0.0245143827 0.0079170167 0.0067445389 0.0228525065 0.0275334083 -0.0181285124 -0.0048419773 0.0194022376 -0.0214155503 0.0413237549 -0.0302729737 0.0203932691 -0.0317452252 0.0141892685 0.0308677293 0.0053275879 -0.0044294912 0.0281036757 -0.0317332298 -0.0298162922 -0.0376665369 -0.0272036828 0.0011470264 -0.0200396627 0.0098457988 0.0014913293 0.0367809236 -0.0191629548 -0.0120900497 0.0292297602 -0.0111746937 0.0423112661 -0.0175530445 -0.0004840144 -0.0104708420 0.0206186492 0.0169337709 -0.0235346463 0.0291213803 -0.0028081972 -0.0111757163 -0.0008914691 0.0307567474 0.0433518849 0.0215044711 0.0077332091 0.0288426317 -0.0184805822
-0.0230960082 -0.0127626499 -0.0286035277 0.0190021172 0.0041979947 -0.0151203452 -0.0044866954 -0.0008762751 0.0378934368 0.0394506492 -0.0340227969 0.0161970239 0.0170654748 0.0168984197 -0.0060250605 0.0110524362 0.0111208670 0.0430141352 -0.0423569232 -0.0167706162 -0.0297339261 -0.0214372780 0.0086770030 0.0269533042 -0.0334202535 0.0287444144 0.0369154848 -0.0217836201 0.0077135898 -0.0226882957 0.0094658025 -0.0204894263 -0.0172160547 -0.0295843109 -0.0368535258 0.0352675803 -0.0055810013 -0.0012260412 -0.0219940953 0.0308034718 -0.0252955686 -0.0178748686 -0.0344986171 -0.0371620171 0.0392352976 -0.0341265500 -0.0061013778 -0.0127924532 0.0161877815 0.0118205734 -0.0338788517 0.0396896563 -0.0440232456 0.0043710652 -0.0036921534 -0.0102415839 0.0301168617 0.0373138785 0.0057568853 -0.0156093379 0.0328561403 0.0277658589 0.0079376316 -0.0120876106 0.0018632226 0.0393900014 0.0047926181 -0.0087091299 -0.0374172293 -0.0236828886 0.0319185704 -0.0015562355 -0.0029430247 0.0172074735 -0.0290765408 -0.0029854351 -0.0124298064 0.0231233146 0.0359662771 0.0277498588 0.0329492167 -0.0394964181 -0.0156896692 0.0052332953 -0.0375365317 0.0119886706 -0.0289684720 0.0189377535 0.0357686542 -0.0378058665 0.0370321684 0.0206210613 -0.0291646905 0.0423016734 -0.0382760614 -0.0297523867 -0.0219842009 -0.0022379239 0.0079359561 -0.0129696913 -0.0418893248 -0.0051014018 0.0335308239 0.0340267420 0.0221232492 0.0064165047 0.0109811295 -0.0340697095 0.0178959686 -0.0439836234 -0.0182508603 -0.0116141010 0.0324532054 -0.0012882869 -0.0201308578 0.0077211075 -0.0366710126 -0.0117007345 0.0122396713 -0.0029269089 -0.0046412582 0.0270103812 -0.0335711353 -0.0223147701 0.0427786969 0.0087941503 -0.0071555232 0.0228919704 0.0265865270 -0.0073848967 -0.0184087008 -0.0072238748 0.0160472747 -0.0056419563 0.0257210359 -0.0360396951 -0.0216830615 0.0336909741 0.0057977890 0.0088994540 0.0145352576 -0.0104427822 -0.0176735912 0.0126786092 -0.0117128249 -0.0182565190 0.0058388296 0.0106897475 -0.0039903633 -0.0298883114 -0.0066822562 -0.0250460543 0.0232601333 -0.0292830449 0.0352376141 0.0176020190 -0.0378442220 0.0327965394 -0.0437052175 -0.0025695036 -0.0275929458 -0.0380191542 0.0043787570 -0.0214279313 0.0319451280 -0.0347414725 0.0366821736 0.0266622119 0.0387079008 -0.0129414741 -0.0270890389 -0.0293610636 0.0367505699 -0.0219811089 -0.0054415162 -0.0068119369 0.0076030646 -0.0362648219 0.0356354974 -0.0327009708 0.0434675924 -0.0172924828 -0.0197292604 -0.0060745990 0.0130795371 -0.0081885057 -0.0441079251 0.0310854595 0.0437738113 0.0222972315 0.0432451591 0.0120451367 -0.0034630431 -0.0352004506 -0.0386259258 -0.0304275528 -0.0112130791 0.0257345755 -0.0182338059 -0.0017164672 -0.0006237154 -0.0288887974 -0.0011963436 0.0426718444 0.0353223942 0.0336591303 -0.0043587112 0.0007837838 0.0241603646 -0.0147001566 -0.0179106239 0.0378120393 0.0025231051 -0.0298401993 0.0372382402 0.0073352270 0.0236464255 -0.0383830853 0.0082011865 0.0270313863 -0.0063756746 -0.0251201689 0.0353580005 0.0205556396 0.0125867501 0.0104517862 0.0009754361 0.0253438894 -0.0096611902 -0.0260146670 0.0168754607 0.0117908120 0.0168268699 -0.0049086958 -0.0058647604 -0.0035125078 0.0116532398 -0.0339127816 -0.0411915965 0.0165372808 -0.0241964739 -0.0037177366 0.0122518884 0.0061986474 0.0284903049 0.0057931263 0.0109413853 -0.0039558611 0.0065234941 0.0162049308 0.0301499050 -0.0418745093 -0.0184096638 -0.0396571271 -0.0176199637 0.0269398652 -0.0418740623 -0.0395987816 0.0255894437 -0.0260982979 0.0323000215 0.0137704238 0.0110934665 0.0351084024 -0.0409368500 0.0323631801 0.0143320672 -0.0296149403 0.0107529731 -0.0123168947 -0.0177391134 -0.0047863806 -0.0208360050 0.0386450067 0.0380380191 -0.0047145304 -0.0391903631 -0.0027035992 0.0029199284 0.0295403153 0.0014219081 0.0128625380 0.0117262695 -0.0250758417 -0.0274130572 -0.0394994318 -0.0003470477 0.0136882374 -0.0031424162 0.0428977869 -0.0084305918 -0.0288378894 0.0073657464 -0.0124455690 -0.0060585514 0.0428219400 -0.0012680406 0.0386054553 0.0059019336 -0.0164411962 0.0324013680 -0.0251742750 0.0014622480 0.0099337008 0.0198358558 -0.0407761745 0.0021679760 -0.0114427423 0.0286540147 0.0148688601 0.0177128930 0.0265721809 -0.0098942360 -0.0028314991 0.0354549363 -0.0356200226 -0.0305478834 0.0032330267 -0.0175065305 0.0025310447 0.0390393659 -0.0051231496 -0.0376814790 -0.0200896803 0.0405864604 -0.0097089903 -0.0193781666 0.0198929701 0.0054710717 -0.0389650986 0.0368043184 0.0248868335 0.0384129174 0.0193393398 -0.0149002383 -0.0144270658 0.0214174744 -0.0085672112 0.0086644227 -0.0428236313 -0.0218461659 0.0164158177 -0.0021787235 -0.0212463792 -0.0385491401 0.0280880444 -0.0088856304 -0.0434222333 0.0426378474 0.0215060618 -0.0264342614 -0.0322542936 0.0427053943 0.0001845242 -0.0265793670 0.0254313927 -0.0092056040 0.0030274345 -0.0230222307 -0.0374322347 -0.0293503534 -0.0048526512 -0.0319942683 0.0435581654 0.0004783193 -0.0169189349 0.0174664278 -0.0391811728 -0.0226049721 0.0165993776 -0.0375501402 0.0220265072 0.0037147494 -0.0368494205 -0.0438597202 0.0139675969 0.0208891835 -0.0088346954 -0.0390789360 -0.0254711527 0.0046971082 0.0016078285 0.0113126878 0.0078144204 -0.0023164961 0.0233224370 0.0428689495 0.0368055142 0.0401581787 -0.0149156796 -0.0150841251 -0.0048879334 0.0130619770 0.0178888608 -0.0039392971 -0.0285461750 -0.0333445035 0.0425465517 -0.0118818600 -0.0059736730 -0.0270848498 -0.0219096970 0.0097067934 0.0186139867 -0.0174709950 -0.0162666496 0.0350088216 -0.0227607358 -0.0329726003 -0.0068949820 0.0420527086 0.0096161617 0.0061064512 -0.0055027241 0.0276164431 -0.0219048802 0.0299641322 0.0104406122 0.0049136481 0.0060840501 -0.0272556599 0.0328233130 0.0232111271 -0.0345650353 -0.0411483832 -0.0113768671 0.0293604955 -0.0217581894 0.0409607925 -0.0222197603 -0.0399207026 0.0194404647 -0.0267084837 -0.0069666947 -0.0137843369 -0.0035116333 -0.0385096110 -0.0405349508 0.0189980492 -0.0050078831 -0.0266592726 -0.0011258319 -0.0403374583 0.0117310062 0.0209879447 0.0428602397 -0.0360038020 -0.0053588613 0.0239839535 0.0405022241 -0.0314429179 0.0187808573 0.0182461869 0.0266433768 -0.0304681771 0.0315376893 -0.0192493759 -0.0272036679 0.0087750684 0.0374386609 -0.0292663332 0.0235956237 -0.0050613675 0.0141084306 0.0344745666 0.0119996136 -0.0366880782 -0.0133058019 0.0087715331 -0.0372817777 0.0073472704 -0.0237308983 -0.0087847942 0.0158100668 -0.0355683416 -0.0283732954 0.0201571509 -0.0437098332 0.0304139126 -0.0340772085 -0.0007116074 0.0090723457 0.0174386855 -0.0274298955 0.0059473366 0.0190294497 0.0379057638 -0.0332583003 -0.0219721049 0.0128744813 -0.0014187525 -0.0298234262 -0.0371960588 -0.0392413028 -0.0309247915 -0.0188164916 -0.0306884106 -0.0387692116 0.0034497511 0.0259179510 -0.0208369754 0.0044193184 -0.0005448112 0.0206578299 -0.0306489617 0.0020981859 0.0412506200 0.0315510407 -0.0438015871 -0.0066529694 0.0004119644 -0.0145927453
-0.0290349536 -0.0307514668 0.0293655843 -0.0143077066 -0.0028440799 0.0129679320 -0.0271259490 0.0039391075 0.0262872465 -0.0258398112 0.0128577333 -0.0015094999 0.0242995434 0.0293661542 0.0117249629 0.0013353596 -0.0380437002 0.0175960977 0.0269436836 -0.0160524435 -0.0438822769 0.0358134024 -0.0103736138 0.0088420296 -0.0124233523 0.0281839129 0.0431016646 0.0277026165 -0.0140645187 0.0309708305 0.0215637442 0.0043116803 -0.0355975553 -0.0189766753 -0.0437251255 0.0295585487 0.0436855331 0.0257437211 0.0141208954 0.0104449112 0.0425432064 -0.0224055164 -0.0148371076 -0.0396809950 -0.0043762652 0.0030315227 0.0120977154 -0.0307451878 -0.0051141195 -0.0364160426 -0.0359492972 0.0057604308 -0.0431402437 0.0117679425 -0.0407116115 -0.0307514463 -0.0091701159 -0.0421736725 0.0356926434 0.0362107754 -0.0230838973 0.0092577972 0.0226086341 0.0140437195 -0.0059200674 -0.0416844375 0.0321353003 -0.0387625657 -0.0081847496 0.0027414311 -0.0145549979 -0.0161642283 -0.0381957181 0.0024350658 -0.0050180298 0.0385285877 -0.0145496558 0.0341583379 0.0020921538 -0.0198556539 -0.0105101960 -0.0050152061 0.0004577727 -0.0072811050 0.0131156407 0.0363946147 0.0069465959 0.0160076935 0.0272908006 0.0095261363 0.0203722212 0.0231820829 0.0413663313 -0.0403339788 0.0151228635 -0.0020025021 -0.0079368465 -0.0170387123 0.0265695620 0.0404282734 -0.0360664167 0.0238772277 0.0304740779 0.0077239894 0.0005205979 0.0340085588 0.0013102929 -0.0110231023 -0.0032634989 0.0141790370 0.0110635320 -0.0023844158 0.0139506226 0.0119024068 -0.0357998870 0.0110121602 0.0270399470 0.0050682691 -0.0040339013 0.0338541232 -0.0386116169 -0.0201718342 -0.0199753568 0.0381860696 -0.0427455641 0.0043830774 -0.0428104140 -0.0014532707 0.0164728221 -0.0103350077 0.0429008454 0.0001406862 -0.0225315206 0.0113961650 0.0229837988 -0.0000878024 0.0378069617 -0.0279712025 0.0188567005 0.0250950288 0.0219508577 -0.0000162107 0.0126158530 -0.0346708298 -0.0346816294 -0.0027469576 -0.0055389917 0.0328153074 0.0320905745 0.0299657546 -0.0202423874 -0.0346940644 -0.0414540842 0.0159943495 -0.0398225859 -0.0441172086 -0.0223348588 -0.0373133086 -0.0174163841 -0.0278222878 -0.0226731449 0.0420164764 -0.0083282487 0.0366607718 0.0009805569 -0.0056830915 -0.0129392669 -0.0315911956 -0.0355077200 0.0306010079 -0.0136188585 -0.0430884175 0.0405583009 0.0008197826 -0.0295725521 -0.0347389877 -0.0371136069 -0.0387518890 0.0399922468 0.0304715969 0.0036146455 -0.0376655571 -0.0115590626 -0.0415157713 0.0152302012 -0.0117344204 -0.0094573097 -0.0137891788 0.0207205024 0.0239218399 0.0096811568 -0.0055342130 -0.0043674461 -0.0007722356 -0.0329098143 0.0431233421 -0.0190601740 0.0257124696 -0.0247751605 0.0002966822 0.0151288742 -0.0405782275 0.0202718601 -0.0338281989 0.0061671324 -0.0087636728 0.0253331270 0.0429523624 0.0099598533 -0.0012619240 -0.0218957718 0.0164771844 -0.0212716516 0.0182551537 -0.0191549733 0.0299775302 0.0338985212 0.0270992015 0.0004426947 0.0204947684 -0.0402711704 0.0358402841 -0.0114821866 0.0161112752 -0.0074837785 -0.0148398262 -0.0207538251 0.0285062529 -0.0240438078 -0.0077934423 0.0222937539 0.0044541894 -0.0371849537 -0.0439455695 -0.0214860160 0.0407610126 -0.0314231999 0.0243569687 0.0316348821 -0.0183183681 -0.0195164457 -0.0317948908 0.0068934807 -0.0061781956 0.0021471658 0.0191696938 0.0185544752 -0.0139431311 0.0030353053 0.0104981689 0.0009407282 0.0088437051 -0.0179026052 0.0362248011 -0.0045330096 -0.0056544370 -0.0396648310 -0.0320349485 0.0013747354 -0.0068347803 -0.0222199392 0.0231334679 -0.0039565144 0.0155425668 0.0372232646 -0.0203181375 -0.0217511449 -0.0088806935 -0.0037424082 -0.0221042726 -0.0106103215 -0.0012738516 0.0198237859 0.0408868082 0.0327261724 0.0046772887 -0.0027849742 0.0113204587 -0.0018040800 -0.0057999017 0.0151970685 -0.0359563865 -0.0375843458 0.0001790135 -0.0133951688 -0.0218593832 -0.0411422476 0.0296039041 -0.0017608689 -0.0237444323 -0.0180022363 0.0116187846 -0.0320511535 0.0028384163 -0.0005449956 0.0150553072 0.0175316390 -0.0288755596 0.0190826394 0.0333718173 0.0028451968 0.0225149151 -0.0167313609 0.0087782554 0.0129134674 -0.0204125028 0.0272862539 -0.0417854711 -0.0166009273 -0.0260033086 -0.0262353010 -0.0267795231 -0.0416437611 0.0075844624 -0.0087423464 -0.0372119695 -0.0000181758 -0.0073619271 0.0182312727 -0.0346166827 -0.0124329412 0.0090966802 0.0187333263 0.0033432830 0.0119765429 0.0441779979 -0.0153093943 0.0301203132 0.0380683430 -0.0390948839 0.0106903166 0.0250337627 -0.0068937228 0.0243906919 0.0015032147 0.0336442813 0.0009515652 -0.0282941014 0.0335627571 0.0131435366 0.0375990495 0.0109709091 0.0234674234 0.0275555719 0.0074417107 -0.0102736363 0.0091276215 -0.0308143869 0.0015098160 -0.0142046465 0.0027941463 -0.0349911191 0.0270036440 -0.0407740995 0.0189257730 0.0291045327 -0.0405037776 0.0399298817 -0.0328532420 -0.0086782519 0.0229013283 -0.0140140960 0.0393851846 -0.0194963776 -0.0059169065 -0.0288890768 -0.0205029715 0.0431267023 0.0332368240 0.0032540422 0.0036337536 -0.0375029668 0.0333642885 -0.0066259638 -0.0184331182 -0.0351707190 0.0363356210 0.0209563244 0.0266194269 0.0045761047 -0.0299888570 0.0181034561 0.0050968761 0.0148304487 -0.0110047208 -0.0208559036 0.0362804011 0.0148146227 -0.0179366134 0.0039464938 -0.0096067255 -0.0037793394 0.0247822944 -0.0351749547 0.0399971902 0.0297451485 0.0000379743 -0.0180769209 0.0090108169 -0.0292524938 0.0287063606 -0.0233725607 0.0084443893 -0.0434795953 0.0211634710 0.0299171768 0.0331712775 0.0036073539 0.0260938928 0.0150684938 0.0296373218 0.0249391161 -0.0386667252 0.0046589915 -0.0150665548 -0.0211025476 0.0309342369 -0.0063252621 0.0068652630 0.0278259497 0.0297480822 0.0235851966 -0.0077158180 -0.0393944532 -0.0424257331 0.0138915321 -0.0005244596 -0.0279224087 0.0193010438 0.0401146077 0.0255607981 -0.0062344093 0.0059717395 -0.0281898919 0.0208593346 -0.0342482179 0.0305113196 -0.0201856531 -0.0175279882 -0.0370175503 -0.0106870653 -0.0042748651 -0.0203704610 0.0314595662 0.0253632031 -0.0390041769 -0.0044207778 0.0148586603 0.0426384173 -0.0105673894 0.0271321274 -0.0024758850 -0.0169503670 0.0270451102 -0.0393809937 0.0370258950 0.0441424102 -0.0120660840 0.0174576677 0.0440706201 0.0133238724 0.0172828622 0.0162278228 -0.0180809610 0.0107877227 -0.0235543288 0.0377380252 -0.0189378317 0.0101030106 -0.0128021101 0.0221014004 0.0007284661 0.0243003070 -0.0119670443 -0.0259336568 0.0169437379 -0.0248716511 -0.0362847708 0.0170748737 -0.0265797675 -0.0166114680 -0.0110350773 0.0031381173 -0.0153061757 -0.0159055665 -0.0111076962 0.0309709162 0.0132329455 -0.0212767515 -0.0305483453 0.0010239893 0.0141582750 -0.0009248072 0.0258708410 0.0371721722 0.0129529117 0.0145751601 0.0256398506 -0.0151400222 0.0078392290 0.0357303023 -0.0211630017 0.0034395938 -0.0172781162 -0.0339819491 0.0234083757 0.0353135429 -0.0238752570 0.0165634006 0.0135518657 0.0172562636 0.0243273024
0.0412592925 0.0335433967 -0.0386703610 -0.0173253212 0.0234716479 -0.0252291877 0.0086778253 -0.0189462192 0.0087774238 0.0215641297 0.0138907526 0.0321042277 -0.0053181103 0.0239917394 0.0142874811 -0.0139278788 -0.0312128551 0.0404323339 -0.0131765641 0.0332881659 0.0278572012 -0.0017796243 -0.0365047529 0.0035578315 -0.0213643629 0.0114999888 -0.0175666641 0.0340627767 -0.0398735777 -0.0118972706 0.0069693555 0.0042159911 0.0363071188 -0.0139637832 -0.0352782011 0.0292602219 0.0123491790 0.0291126035 -0.0261565652 -0.0259572472 -0.0178521033 0.0031420896 0.0149756018 -0.0253963899 -0.0041609267 -0.0076382365 0.0403243825 -0.0159382038 0.0428272672 -0.0271056183 -0.0182107091 -0.0332403407 0.0325578600 -0.0303913858 0.0182934329 -0.0162397064 0.0440399051 0.0062338822 -0.0383789614 0.0076059783 0.0053730961 -0.0427449681 0.0088693565 0.0421654768 0.0127180330 -0.0002350266 -0.0091615496 0.0117441667 -0.0196891893 0.0435208939 0.0382040143 0.0206460487 -0.0164613836 -0.0414963327 -0.0254413858 0.0429697596 -0.0405648835 -0.0421971604 -0.0031852375 0.0140603883 -0.0439861156 -0.0410308242 0.0002402739 -0.0148242321 0.0307891946 0.0126886303 -0.0383615382 -0.0398326181 0.0303504243 -0.0078365579 -0.0193330590 0.0139203193 -0.0086857071 0.0211357493 0.0112072052 -0.0191349108 -0.0354211628 0.0239241682 -0.0265523344 -0.0048880544 0.0060425936 -0.0257195458 0.0240736529 -0.0310856346 0.0108543728 0.0047266055 0.0162153263 -0.0433729216 0.0025528979 0.0215449259 -0.0282938629 0.0109359007 0.0001731656 0.0374921225 -0.0093579749 0.0003019295 -0.0192216970 -0.0108917831 0.0126517778 -0.0426228419 0.0335260257 0.0317800790 0.0187160391 0.0330836438 -0.0137570528 0.0100663370 0.0022483657 -0.0305600315 -0.0169902574 -0.0156893861 -0.0109271603 -0.0392417125 -0.0310813133 -0.0041967989 -0.0067229541 -0.0401170962 0.0094428537 0.0240634847 0.0368055142 0.0371939838 -0.0308813900 -0.0141634429 -0.0209655799 0.0081056766 0.0118426317 0.0098326011 0.0258257650 0.0233158581 -0.0237210840 0.0303385016 0.0298120044 0.0058484389 -0.0384499952 -0.0271054115 0.0123158619 0.0152797913 0.0412088595 0.0224927515 0.0160178877 -0.0015073293 0.0301346742 -0.0160860606 0.0179944281 -0.0210491214 -0.0004124912 0.0261185225 0.0202785190 -0.0099173803 -0.0005595942 -0.0245336536 0.0204706769 0.0297374409 0.0152126206 -0.0427650362 -0.0316365473 0.0295860488 -0.0063279173 0.0271409154 0.0325758345 -0.0129456995 -0.0259296894 -0.0415776074 0.0169050954 0.0226664897 -0.0076617650 -0.0429048166 -0.0284659285 -0.0023812074 0.0201703645 -0.0148086958 -0.0285298806 -0.0307668820 0.0395418294 0.0160037167 -0.0358819887 -0.0272931140 -0.0375162102 0.0063940980 -0.0179457217 -0.0001496055 -0.0069914404 -0.0386850126 -0.0394930504 -0.0342782699 -0.0185089838 0.0068737296 -0.0207834952 -0.0015752912 -0.0052937176 0.0404173359 -0.0201467946 0.0415219143 -0.0339272730 -0.0368727371 0.0143716643 -0.0257207938 0.0226682611 -0.0244503077 0.0348013528 0.0427928641 0.0028292916 0.0094451718 0.0412031226 0.0261990279 -0.0385809839 -0.0014147011 -0.0398930870 0.0337593406 -0.0080948658 -0.0003080566 -0.0271524377 -0.0240307674 0.0057355431 0.0364633463 -0.0222143289 0.0041760677 0.0400048606 0.0396074094 -0.0086402195 0.0414214954 0.0160941370 0.0402504131 0.0013112254 -0.0374543332 -0.0120298276 0.0132551780 0.0235676058 -0.0440265872 0.0343764164 -0.0396455228 0.0258942749 0.0436048917 0.0108909514 -0.0083408244 0.0243335515 -0.0131169371 -0.0327360667 -0.0313640609 0.0207793023 0.0337521546 0.0017895446 -0.0428502262 -0.0434255451 -0.0099793728 0.0238568652 -0.0294507835 0.0119121326 -0.0241552126 0.0359570235 -0.0115802465 -0.0092100296 -0.0387618430 -0.0395843498 0.0029868523 0.0071458085 0.0238766689 -0.0386446714 0.0077437297 -0.0063842675 0.0259241145 -0.0200949106 0.0131666334 0.0178089086 0.0222003981 -0.0151581243 0.0142221637 -0.0086612776 0.0119005786 -0.0271751340 -0.0351171009 -0.0361502320 -0.0277816579 -0.0187041964 0.0065783905 -0.0096669113 -0.0251586754 0.0003712558 -0.0139563754 0.0272426326 -0.0363985598 -0.0163124520 -0.0284006316 0.0054531596 0.0024110472 -0.0025423137 0.0438492894 -0.0168593600 -0.0063519934 0.0114178862 0.0368849821 0.0334981419 0.0050486759 -0.0167198330 0.0145186037 0.0278063305 -0.0009431622 0.0242640879 0.0361694433 -0.0236778464 -0.0097702816 -0.0397886932 0.0101449201 0.0314967558 -0.0085821152 0.0070520160 0.0141215380 -0.0009426301 0.0343583524 0.0064400383 -0.0434404723 -0.0364949331 -0.0437860563 0.0018215235 0.0238899495 -0.0058305580 0.0397355519 -0.0079506608 0.0090355147 0.0398516841 0.0223663095 -0.0014099227 0.0425688438 -0.0264044479 0.0164612513 0.0279102530 -0.0273646619 -0.0415135138 0.0141360424 -0.0167667754 -0.0223022196 0.0087904576 -0.0320596993 0.0397484079 -0.0039671301 -0.0141532905 0.0369454995 0.0123054944 0.0084199756 -0.0211306009 0.0421203487 -0.0134601593 0.0367576256 -0.0032486473 0.0221694577 0.0310739279 -0.0329026692 -0.0294555575 -0.0437015928 0.0318756029 0.0380063578 -0.0161516257 -0.0216453876 0.0073976726 0.0237932280 0.0109086893 -0.0092105037 -0.0281107984 0.0377978571 -0.0286207497 -0.0427047871 -0.0176455211 0.0088126743 0.0164265707 0.0170884393 -0.0256016292 -0.0169612765 -0.0196522530 -0.0214014482 -0.0372235738 0.0090465313 -0.0128524341 -0.0425371602 -0.0258057397 -0.0265406333 -0.0190637205 -0.0273077637 -0.0076641198 0.0158375464 -0.0357669592 -0.0037858775 -0.0127186282 -0.0225946344 -0.0098132398 -0.0187308714 0.0014207439 -0.0319015644 0.0083809327 0.0405760966 0.0366197824 -0.0198148619 0.0136218928 -0.0417725146 0.0372089930 -0.0440423563 -0.0394930728 -0.0396699794 -0.0410410948 0.0059852106 -0.0116863828 0.0105777634 -0.0027344769 -0.0009493419 -0.0159665328 -0.0262201708 -0.0370018184 0.0222996604 -0.0227864869 -0.0089881578 0.0214648787 -0.0109452093 -0.0111428834 -0.0294618476 -0.0378125608 0.0212117396 -0.0099710068 0.0277895126 0.0029087067 -0.0000561343 -0.0398985445 0.0009757206 -0.0099877389 -0.0252187140 -0.0102282027 0.0023104164 -0.0332995281 0.0073487666 0.0307509676 0.0087304348 0.0421856716 0.0206228644 -0.0348536894 -0.0173954573 -0.0106350146 0.0132203596 -0.0012604857 0.0355629027 0.0051338705 -0.0279886369 -0.0162022803 -0.0367678367 -0.0121856388 0.0217283703 0.0004267632 -0.0421437547 -0.0382411219 0.0160224251 -0.0387893394 -0.0352501497 -0.0263492242 0.0421222746 -0.0125664249 -0.0182213150 -0.0298404731 0.0282713249 -0.0071359775 0.0085221771 0.0105575435 0.0124639347 0.0282881837 0.0022933891 0.0045713368 -0.0028699739 -0.0343418457 -0.0101137627 0.0420619920 -0.0313213989 -0.0278913453 -0.0438544899 0.0026798334 -0.0413357988 -0.0226359963 0.0407223254 0.0183036756 0.0235453993 0.0075674192 -0.0375553109 -0.0205644220 -0.0357777700 -0.0273278579 0.0150500704 -0.0122574363 0.0431893393 -0.0322156549 -0.0377157480 0.0436374359 -0.0381774008 0.0376062058 0.0119005106 -0.0402808376 0.0384922102 -0.0120316083 -0.0182229113
-0.0344758369 -0.0373814628 0.0098397397 -0.0434101820 0.0181605332 -0.0109207854 0.0155097656 -0.0108205443 0.0152831636 -0.0012072122 0.0129894158 -0.0179800931 -0.0303987823 0.0056283535 -0.0282081999 -0.0273964051 -0.0424957015 -0.0140867932 -0.0295300316 0.0344163477 0.0318484642 0.0104857245 0.0359079912 0.0212801173 -0.0416319072 -0.0044218525 -0.0071736989 -0.0268330798 0.0125869820 -0.0137935886 -0.0211327188 -0.0005151873 -0.0293833856 0.0365773700 0.0279652141 0.0418339223 -0.0078276703 0.0144335991 -0.0017775802 -0.0365697779 0.0199942011 -0.0308692791 -0.0159532670 -0.0197912212 -0.0431144722 0.0015851746 0.0072400593 -0.0032855838 0.0325027592 0.0021190012 -0.0080498951 -0.0241053998 -0.0262471493 -0.0062831151 -0.0259377491 -0.0291537009 -0.0058452305 -0.0078031835 -0.0269771274 0.0258221980 0.0374800600 -0.0301328357 0.0193574578 -0.0205065534 -0.0045888592 0.0412554592 0.0056550847 -0.0421379805 0.0406272076 -0.0018698291 -0.0221295245 -0.0233393852 0.0378979556 0.0007458780 0.0244099852 0.0290456526 -0.0171531513 0.0037511010 -0.0285872370 0.0369045064 -0.0233696215 0.0293546636 0.0111974319 0.0272619557 -0.0311378799 -0.0013743876 0.0228996407 -0.0017640247 -0.0006341151 0.0215360280 -0.0330308042 -0.0088604419 0.0201300830 0.0216749758 0.0410467722 -0.0087423204 0.0104713161 -0.0217447169 -0.0074173133 -0.0221862271 0.0327509604 0.0002692077 0.0179787595 0.0243088324 0.0082355095 0.0047030929 -0.0032346388 -0.0374357738 0.0071204519 -0.0097909607 -0.0371464565 0.0411749929 -0.0047114696 -0.0220567249 -0.0430237874 -0.0407048874 0.0168292895 -0.0201748367 -0.0190906934 -0.0255716946 0.0356738456 -0.0106237764 0.0286458749 0.0350849107 -0.0342638157 0.0329708420 -0.0084392214 0.0423278064 0.0225736201 -0.0428101346 0.0082103377 0.0155353863 -0.0160324294 0.0335129015 -0.0365983061 -0.0140230730 0.0421095230 0.0431621186 0.0220768508 -0.0263815448 -0.0380247235 -0.0359329022 -0.0110479845 0.0250358284 0.0139918840 -0.0053669796 0.0397460535 0.0347042680 -0.0206555687 -0.0191385616 -0.0005185063 0.0091710808 -0.0003163753 0.0170617662 0.0304916743 -0.0079687471 0.0217033979 0.0060106516 0.0169640277 0.0181938726 -0.0118123339 -0.0197044108 0.0188901387 -0.0282953810 0.0232020449 -0.0283559039 0.0303187463 0.0177324433 -0.0108269034 0.0252611078 -0.0145542920 0.0094153164 0.0130118169 0.0045134849 0.0088749034 -0.0008773446 -0.0127675179 0.0246563591 0.0174315572 0.0164842121 0.0298361592 -0.0231232736 -0.0102679944 -0.0012596640 0.0356640145 -0.0351922959 -0.0253497493 -0.0105270548 -0.0377506986 -0.0349164717 0.0302739386 0.0020616024 -0.0355531797 -0.0072972998 -0.0014529652 -0.0157117397 -0.0369661525 0.0240520779 -0.0054584909 0.0431482270 -0.0338468701 -0.0242620483 -0.0022960179 -0.0307757650 0.0322075002 0.0341764800 0.0400370248 -0.0278980844 0.0314441770 0.0306854863 -0.0175846443 0.0048494479 0.0210594423 0.0316248909 -0.0412772223 0.0439986065 -0.0111113898 0.0180066936 -0.0274485145 -0.0340093300 -0.0299298353 0.0260460507 -0.0217995085 0.0256905369 0.0133605246 0.0175794140 -0.0098298518 -0.0139796454 -0.0206775852 -0.0247031413 0.0407484099 -0.0024017803 -0.0189520307 -0.0411184765 0.0019225865 -0.0438687988 -0.0005204029 0.0279045384 -0.0254544672 0.0242820419 -0.0140975099 -0.0339901932 -0.0437716283 0.0219547562 -0.0338126346 0.0215789918 0.0063276696 0.0240192823 -0.0332203731 0.0386475436 -0.0440187789 -0.0335449353 0.0265027024 0.0015019820 -0.0248165745 -0.0092703728 -0.0393299386 -0.0384625867 -0.0094816871 0.0337136276 0.0131983701 0.0083337333 -0.0117127094 0.0402243212 0.0004232597 0.0149222864 0.0007024299 0.0068963203 0.0147373043 0.0339137577 0.0254385211 0.0056559122 0.0176688284 -0.0132905710 0.0302083734 0.0124061462 0.0333524756 -0.0069002188 -0.0360834710 0.0087303668 0.0179745350 0.0357098132 0.0171292741 0.0163286906 0.0351699516 -0.0151878167 0.0390202664 0.0226580985 0.0295148790 0.0315188468 -0.0361060835 0.0230189059 0.0411596932 -0.0310473386 -0.0037877425 -0.0269714221 -0.0106715979 0.0065861614 0.0236398503 -0.0128302639 -0.0418484472 0.0238632243 0.0247942843 -0.0080118421 0.0378336199 0.0340690613 -0.0097406525 0.0017066154 0.0077848178 -0.0086602392 -0.0108878370 -0.0199492350 -0.0251326282 0.0220711604 -0.0131230326 -0.0212016404 0.0389304161 0.0070659351 0.0318870731 0.0402738564 -0.0062256427 0.0065921778 0.0409741476 -0.0304071438 -0.0132506210 0.0062887683 -0.0029982687 0.0117661776 0.0232385285 -0.0181823038 0.0034411743 0.0399831012 -0.0250074100 -0.0299692638 -0.0338925868 0.0264174547 -0.0405363068 -0.0214916673 0.0298484918 -0.0264935568 0.0359393433 -0.0206591897 0.0069915247 0.0057850922 -0.0010840116 0.0275260899 0.0375350751 -0.0275931768 0.0247855652 0.0118081030 -0.0008235389 -0.0309009142 0.0131096821 0.0320777856 -0.0379335918 -0.0408157073 -0.0434465818 0.0102115599 -0.0126985190 -0.0137279294 0.0411517769 -0.0112724062 -0.0280653965 0.0039753225 -0.0242564753 -0.0129486443 0.0233446490 0.0101997424 -0.0303269532 0.0420745462 0.0299001280 -0.0301264990 0.0192502141 0.0181602333 -0.0317115709 -0.0310593769 -0.0365938433 0.0196862873 0.0076997234 0.0186772905 -0.0194112156 0.0332306549 0.0056431098 -0.0352637358 -0.0111237066 0.0225539207 0.0097175352 -0.0067609339 -0.0308765601 -0.0274917986 0.0381189100 -0.0253160037 0.0313178636 -0.0147924842 0.0004417464 -0.0430358425 -0.0143659431 0.0372547805 -0.0396775119 0.0222368240 -0.0371931270 0.0064458386 -0.0400680453 -0.0349856243 -0.0356778502 -0.0153243411 0.0060173636 -0.0324019343 0.0112004038 0.0266176946 0.0360270366 0.0391315557 0.0290969610 -0.0130135715 -0.0040728920 0.0391018838 0.0219847802 -0.0117199691 0.0333665572 -0.0386223868 0.0378243774 0.0247269031 -0.0324147157 -0.0360453427 0.0345609859 0.0435981117 0.0038565209 -0.0172682274 0.0251647290 0.0199379250 -0.0055155260 0.0353826098 0.0286455378 0.0110176448 0.0229468662 -0.0413965248 -0.0207009353 0.0048444956 0.0120182894 -0.0060418136 0.0166871641 0.0134628415 -0.0408444330 0.0139396489 -0.0035932190 -0.0304120164 0.0014914663 -0.0108690821 -0.0234688707 -0.0402713642 0.0369712003 -0.0268389657 0.0059357723 0.0354039483 -0.0055676936 -0.0289654788 -0.0427559912 0.0073430189 -0.0221749637 0.0032229009 0.0141165545 -0.0125217279 0.0299658030 -0.0057510058 -0.0176373180 -0.0292210896 0.0134085873 -0.0273232702 0.0092899920 -0.0055777403 0.0303726681 -0.0216658972 -0.0217710324 -0.0057114195 -0.0269929916 0.0168487616 -0.0161882881 0.0181317795 0.0256490912 0.0258065201 -0.0081132203 0.0241183601 -0.0234020539 -0.0440328345 -0.0042059552 -0.0320437215 -0.0342384651 0.0112339891 0.0377649814 -0.0173918810 -0.0024999666 -0.0320184343 0.0077241370 0.0125996266 -0.0067840358 0.0336242281 -0.0355686843 -0.0059294715 -0.0245308764 0.0388051383 0.0374331027 0.0434717722 0.0406605937 0.0175033957 -0.0338401198 -0.0299776085 0.0105943745 -0.0394566990 0.0279786009 0.0192130934 0.0105444882 -0.0385736488
0.0321489610 -0.0046773148 -0.0185455456 0.0230742134 0.0037346585 -0.0196593497 0.0103437798 -0.0294712353 0.0410746858 0.0387360714 0.0203815512 0.0233799424 -0.0439315289 -0.0245669875 -0.0425266027 -0.0230342634 -0.0366402417 0.0325300694 0.0238432996 0.0260265265 -0.0196193364 0.0336842313 -0.0063860482 -0.0114502078 0.0237955786 0.0292667709 -0.0317637026 0.0420741551 -0.0044604959 0.0117706824 -0.0440057553 0.0049199387 -0.0218724124 -0.0276717711 -0.0184522215 -0.0002058610 -0.0125900907 -0.0283105280 0.0316423476 0.0131477304 -0.0411290638 0.0092705050 0.0108562587 0.0016239391 0.0107314782 -0.0037001297 0.0193279963 -0.0311117973 -0.0188435875 0.0331061259 -0.0273800828 0.0216830522 0.0408916473 -0.0404116251 -0.0193616711 0.0377141684 -0.0026722893 0.0087245293 0.0062896954 0.0182123799 -0.0182093978 0.0057373871 0.0301042292 -0.0037283364 -0.0405462161 0.0152759515 -0.0112821525 -0.0093235783 0.0230488200 0.0077451840 -0.0267353579 -0.0203943010 -0.0067179389 -0.0109188417 -0.0093558943 -0.0302071143 0.0320154205 0.0229200609 0.0087215416 0.0100065051 0.0051737311 0.0330454893 0.0100003034 0.0067321896 -0.0242940225 0.0147427991 -0.0413457118 0.0139383310 -0.0383070372 -0.0182907209 0.0233318098 -0.0263225827 0.0351906382 -0.0244181827 0.0418603159 0.0136211766 -0.0191517286 0.0269530937 -0.0391380377 -0.0279966015 -0.0276880879 0.0058177193 0.0043417681 -0.0380117260 0.0426456407 -0.0000422364 -0.0235995427 0.0010556310 -0.0189704970 0.0121928193 0.0159987006 -0.0125361690 0.0025764368 0.0262958873 -0.0287452731 -0.0098547703 -0.0065197274 -0.0292394329 0.0035994935 0.0016242500 -0.0356969014 0.0090658553 0.0421818569 0.0235066041 -0.0239726007 0.0404538736 -0.0303788111 -0.0224703383 0.0194937438 0.0351582952 0.0421738848 0.0380478464 -0.0243353322 0.0101128044 -0.0277501438 0.0009759524 0.0366150886 0.0217608437 -0.0408077426 -0.0190199614 -0.0372884385 0.0208186097 -0.0056102299 -0.0323069543 -0.0141219813 0.0145029519 0.0040914789 0.0414677151 -0.0005867421 0.0139015792 -0.0133876093 0.0052736034 0.0015831884 0.0379619673 0.0185178239 -0.0251859073 -0.0392690599 -0.0420480557 -0.0160494782 0.0057127681 0.0415763780 -0.0043422789 0.0172795113 0.0224605985 -0.0338527523 -0.0365581065 0.0167458802 0.0205993131 -0.0205783620 0.0069255857 -0.0432709977 0.0005570549 0.0108329989 0.0004183233 -0.0070149372 0.0183949228 -0.0121475011 0.0328978635 -0.0380657427 -0.0252568312 -0.0368947499 -0.0399693213 0.0327634998 -0.0109368591 -0.0347157121 0.0091662966 -0.0334662944 0.0022845436 0.0210091192 -0.0093451524 0.0227191634 0.0090706181 -0.0354631841 0.0086982083 0.0284893941 -0.0102450820 0.0041767578 0.0056380313 0.0038003495 0.0114882244 -0.0423141196 0.0335307941 0.0192750655 0.0054575638 0.0080415765 -0.0356411822 -0.0126183601 -0.0019223019 0.0105053652 -0.0242431089 0.0046891952 -0.0137155587 0.0321680345 -0.0379345641 0.0046197423 0.0299413148 -0.0343248248 -0.0012666655 0.0204218011 0.0178334638 0.0051972438 0.0178648680 -0.0308076181 0.0368086770 0.0009856726 0.0285674445 0.0097766304 -0.0049164877 0.0189300198 0.0419535525 0.0435938761 -0.0372002795 0.0026803499 -0.0317480452 0.0257496648 0.0317267515 -0.0310330410 -0.0025542306 0.0305814203 0.0292259045 -0.0332282521 0.0296733044 -0.0078241145 -0.0375859179 0.0088034384 0.0205883924 0.0265041720 -0.0300486311 -0.0320090726 -0.0296936762 0.0250453800 -0.0386248715 -0.0003726677 -0.0129869347 0.0192953795 0.0086790267 -0.0223169774 0.0077192481 0.0406704694 0.0072762896 -0.0219001602 0.0014796178 -0.0405369923 -0.0283548087 -0.0082089780 -0.0275396723 0.0374242887 0.0085785426 0.0342302695 -0.0100634079 -0.0061463118 0.0111477729 -0.0131406756 -0.0150645953 -0.0433534011 0.0332935378 0.0399970114 -0.0437576361 -0.0146220168 -0.0334279388 -0.0179395415 0.0336454958 0.0236403886 -0.0034291151 0.0188754071 0.0131981801 0.0241352133 -0.0355144516 0.0136607364 -0.0418559983 -0.0290649831 -0.0164691396 -0.0043058116 -0.0417062491 0.0010998694 0.0070558880 -0.0175391678 0.0143345222 0.0386178978 -0.0075490116 -0.0235368703 -0.0391484536 -0.0322707072 -0.0244432427 -0.0326716155 -0.0173749533 0.0243459009 0.0138293346 0.0398332700 0.0438780449 -0.0159146227 -0.0173072815 0.0060477513 -0.0351910330 0.0240380485 -0.0079539744 -0.0370050594 -0.0333657898 -0.0304528046 0.0121468641 0.0338779464 0.0350129530 -0.0121690854 -0.0256704483 -0.0196149163 -0.0301898979 -0.0113942157 -0.0399136245 0.0236216746 -0.0415953472 -0.0274911877 0.0296587218 -0.0330576487 0.0105652660 0.0331024826 0.0435628034 0.0223617945 -0.0118602123 0.0252541173 -0.0014585286 -0.0136268400 0.0001439315 0.0099131549 0.0296330694 0.0185511298 0.0211022943 0.0066113388 -0.0022243632 0.0185569935 0.0106296875 -0.0422889739 0.0071451026 -0.0196262747 -0.0234360769 0.0170912258 0.0090372059 0.0074839895 -0.0209649857 0.0204209797 0.0414732136 0.0054065869 0.0181649700 -0.0387727879 0.0262732226 0.0153525267 0.0199107137 0.0184295159 -0.0116241537 -0.0026527594 0.0427475944 0.0323384665 -0.0316778719 0.0350647010 0.0439834334 0.0058120345 -0.0344795026 0.0085666263 -0.0089254910 0.0317750312 -0.0424610563 0.0113094430 -0.0005183483 0.0034790905 0.0304008164 0.0007983561 -0.0355798788 -0.0257801153 -0.0176955182 0.0047133244 0.0170545261 -0.0082491441 -0.0174424723 0.0193926822 -0.0429703444 0.0308820587 -0.0051374477 0.0307515990 0.0333937332 0.0047211265 0.0139798252 -0.0249965098 0.0316644199 0.0258666314 -0.0069410852 0.0172258802 -0.0024754582 0.0345284678 0.0181923080 0.0322196260 -0.0401715711 0.0430595651 0.0164659247 0.0214864109 0.0098477537 0.0290261600 0.0416053459 -0.0037649199 -0.0362622142 0.0405818895 -0.0093201743 -0.0213137977 0.0272052996 0.0246638190 0.0059168115 -0.0027741687 -0.0084543834 0.0405220613 0.0269268360 0.0263192151 0.0281816591 -0.0231294315 0.0092275310 -0.0382319205 0.0256759021 -0.0438056067 -0.0441678427 -0.0436851457 0.0272531100 0.0045992853 0.0001004992 0.0070292936 -0.0167253390 -0.0134201515 -0.0297688451 -0.0107929651 -0.0271942895 0.0011627736 0.0347236395 -0.0365349799 0.0217334274 -0.0328715369 -0.0183107033 0.0086419210 0.0076043662 0.0362425819 -0.0000165321 -0.0168321654 -0.0182773080 0.0012956837 -0.0331380628 -0.0346508101 -0.0189090613 0.0011352728 -0.0298461430 -0.0252275020 0.0315544270 0.0408406705 -0.0138431741 -0.0379158407 -0.0169198941 0.0178368669 0.0143429935 -0.0137001807 -0.0389226675 -0.0132886590 -0.0098815868 0.0254497789 -0.0219145641 0.0265237913 0.0061305487 -0.0074068662 -0.0393849649 0.0436314605 -0.0078805648 0.0278069098 -0.0228602495 -0.0430376418 -0.0352272615 -0.0226488616 -0.0140744392 -0.0062408103 0.0368585736 -0.0407584533 0.0220580474 0.0371862426 0.0002844438 -0.0275613461 0.0014135158 0.0104845762 0.0195541885 -0.0134336650 -0.0151661746 -0.0208495185 -0.0427452289 0.0155213829 -0.0334114507 -0.0212309472 -0.0004547908 0.0340694673 0.0392946266 -0.0321450792 0.0383290350
0.0395883024 0.0357016474 0.0038476384 0.0354943685 0.0214724448 -0.0317119509 -0.0232937410 0.0008311464 -0.0313195065 -0.0145523427 0.0356311835 0.0205759015 0.0384877920 0.0003388027 -0.0225346442 0.0292498227 0.0032580935 0.0074424641 -0.0187249798 0.0181536805 -0.0326394401 0.0352659114 0.0386629514 0.0159462336 0.0344151556 0.0268244557 -0.0168785211 -0.0383310840 0.0058155167 0.0277484674 -0.0045211292 0.0037185531 0.0327564180 0.0182474405 0.0330391154 0.0064893556 0.0049539353 -0.0105711352 -0.0074577057 -0.0234876852 0.0295471959 0.0403072536 0.0164011195 0.0012557232 -0.0145887202 -0.0436343141 -0.0081832372 -0.0313737169 -0.0326268859 -0.0087511716 -0.0086939204 0.0089151012 -0.0320327990 0.0317605250 -0.0402366519 -0.0209300611 -0.0167783964 0.0027247095 0.0182690192 -0.0116465753 0.0068973368 -0.0104623120 -0.0173820127 -0.0061817416 0.0088981371 -0.0429280549 -0.0307610556 0.0345267504 0.0199839380 -0.0011816449 0.0013956665 0.0061003454 0.0102717085 -0.0301730540 -0.0120467804 -0.0405603461 -0.0347448289 -0.0083153676 -0.0058352626 0.0345662981 0.0076122424 -0.0071658967 -0.0012243765 0.0246821046 -0.0133875087 -0.0082618250 -0.0088656582 -0.0356369838 -0.0061766943 -0.0408549346 -0.0237551853 -0.0281302016 0.0329213813 -0.0407109745 0.0425824933 0.0165704917 -0.0298661254 0.0366144106 -0.0097386083 -0.0374318063 -0.0061373399 0.0218412075 -0.0429695025 -0.0033118308 0.0179818626 -0.0172235891 0.0040251082 -0.0173207056 -0.0296497755 0.0346102528 -0.0313799717 -0.0005181218 0.0147193018 -0.0246978272 0.0213387851 -0.0367014445 0.0422076881 0.0196822677 -0.0062567415 -0.0367624499 0.0013628973 0.0156760830 -0.0240022708 -0.0055656494 -0.0440428704 -0.0441810451 -0.0047996882 0.0369792804 -0.0020800207 0.0138554024 -0.0176651087 -0.0144305751 -0.0048577562 -0.0223415587 0.0270430408 0.0275594499 -0.0343565717 0.0135552008 -0.0182568338 -0.0254135951 -0.0053916196 -0.0137073668 -0.0251637325 0.0065131630 0.0252248682 -0.0068194601 -0.0030914345 0.0033256498 -0.0189937036 0.0233968999 0.0407770164 -0.0040391749 0.0030042327 0.0356088430 0.0361976363 -0.0328760482 -0.0204664357 -0.0433513522 0.0270685498 0.0344937034 -0.0160849765 0.0141763184 0.0107053360 -0.0380228013 0.0176482182 0.0216852482 0.0009719379 0.0045321137 0.0102695907 0.0318378396 0.0390486717 0.0063518933 0.0188380610 -0.0115623288 0.0263487604 -0.0173838474 -0.0364287756 0.0207347795 0.0163910259 0.0097274818 0.0188032314 0.0052589574 0.0150409983 0.0180083737 -0.0238403864 -0.0023679312 0.0066601345 -0.0067096888 -0.0371577516 0.0041922256 0.0270088334 -0.0236349776 0.0433902219 0.0100787915 0.0187960770 -0.0170653742 -0.0361514054 -0.0164473169 0.0013502111 -0.0201381221 0.0393578485 -0.0282857567 -0.0297658890 -0.0156759247 0.0396488868 -0.0202080067 0.0408854298 0.0212383345 -0.0067149936 0.0228575729 0.0210102778 -0.0224944782 -0.0090984609 0.0428075641 0.0253374260 -0.0215853397 -0.0118833249 0.0247704815 0.0224358570 0.0035031827 -0.0284364410 -0.0325961187 -0.0093280245 0.0162487421 -0.0047115488 -0.0369499736 -0.0108310869 0.0441131145 -0.0365273356 -0.0342988893 0.0277817640 0.0439735129 -0.0425131582 -0.0399709120 -0.0138188871 0.0440631323 -0.0250826906 0.0037785808 0.0360768922 -0.0156451315 -0.0135528250 -0.0296646003 0.0016968584 0.0412498899 0.0180715676 0.0310636442 -0.0029279205 -0.0070197368 -0.0078954687 0.0252060071 -0.0057950863 -0.0377504714 -0.0155187063 0.0172956120 0.0430881344 -0.0080359289 -0.0384782702 -0.0325409584 -0.0347722657 0.0178148244 0.0325767957 0.0130697479 0.0152379237 0.0287916400 0.0302164555 0.0263897702 0.0247133728 0.0119584939 0.0228114016 -0.0303245038 -0.0286048912 0.0118856952 0.0068775909 -0.0388520695 -0.0321953818 -0.0351818912 0.0351000726 0.0288940817 -0.0232616197 0.0066680582 -0.0101649817 0.0384191535 -0.0400281996 -0.0322414264 -0.0367945284 0.0257200561 -0.0220921189 0.0263224877 0.0149390660 -0.0216017812 -0.0119054783 -0.0178846139 0.0194973312 -0.0177232865 0.0149981352 0.0031572203 -0.0352937505 -0.0277809836 -0.0306430813 0.0231575165 0.0095760487 -0.0011112174 -0.0263150316 -0.0437879153 -0.0156397149 -0.0338236764 -0.0439583398 -0.0421506464 -0.0288673881 -0.0429629534 0.0137764607 0.0165362470 0.0178132486 -0.0439950712 0.0273278840 0.0086162537 0.0225981753 -0.0108619016 0.0212226864 -0.0419144183 0.0150528569 0.0350443758 0.0185777042 -0.0416579954 -0.0124063408 -0.0054882099 0.0231557041 -0.0167231690 0.0063563031 -0.0155144027 -0.0070206164 -0.0008797417 -0.0253770221 -0.0306748860 0.0364839286 0.0371319093 -0.0013379675 0.0382531062 0.0340553969 -0.0278370921 -0.0175609533 -0.0303546339 0.0142884031 0.0011176765 -0.0060606590 0.0328127109 -0.0172741972 -0.0241870694 -0.0314165801 -0.0224828627 0.0425956100 -0.0214867890 -0.0121601718 0.0199189484 -0.0339425802 -0.0268240348 0.0325272791 -0.0169503670 -0.0229326803 -0.0057177679 -0.0062973239 0.0080766426 0.0162025224 -0.0340757482 0.0401619747 -0.0420177504 0.0149678942 -0.0124696661 -0.0186630040 0.0413401350 -0.0425878577 0.0030182833 0.0283189472 0.0395093299 -0.0373624265 0.0053246850 0.0437248275 -0.0432894751 0.0107945139 -0.0276907850 0.0071743364 -0.0399773605 0.0217436850 -0.0098039992 0.0264123343 -0.0006645715 -0.0062994207 -0.0107296025 -0.0404660068 -0.0187719576 0.0014677061 -0.0341906659 0.0387848504 -0.0287423804 -0.0172176994 -0.0059100366 -0.0358000472 -0.0003491708 -0.0212814026 -0.0369922444 0.0010840169 0.0391245857 0.0108827846 0.0364508927 -0.0004321843 -0.0154254930 0.0356186479 -0.0235341880 -0.0408842564 0.0096724592 0.0220252573 -0.0264177173 0.0155547736 -0.0156793483 -0.0053622276 -0.0097853867 -0.0094528105 -0.0359591730 0.0108312657 -0.0116250012 0.0337924361 0.0073765097 -0.0361429304 -0.0336209051 -0.0230323933 0.0211635809 -0.0285337735 -0.0202176366 0.0080234325 -0.0306397267 -0.0217623301 0.0400746204 -0.0233651791 -0.0147242490 0.0316076949 0.0099032130 0.0346879885 -0.0389346220 0.0220902581 -0.0067598484 -0.0283128358 -0.0189282075 -0.0427478813 0.0305724330 -0.0084800301 -0.0433343500 0.0377955921 0.0286248010 0.0182735249 0.0432541780 0.0399097316 0.0413020402 0.0395770110 0.0359156057 0.0115695521 -0.0037010675 0.0016806740 -0.0183661114 0.0207649730 0.0012803316 0.0104265558 -0.0284675714 -0.0166403651 0.0331324898 0.0042983885 0.0152510479 -0.0385818407 -0.0189250987 -0.0011247677 -0.0046375389 0.0282111242 -0.0133371279 0.0368843414 -0.0085474970 0.0171892755 -0.0311139356 0.0075012273 -0.0430865325 -0.0379180983 -0.0282845013 0.0123724649 0.0034253586 0.0042773099 -0.0048343330 0.0371341370 0.0432926156 0.0187687557 0.0351456329 -0.0021841656 -0.0162471831 0.0085917562 0.0290592499 -0.0068302811 -0.0339336917 0.0145945055 -0.0112657892 -0.0212738216 0.0279140305 -0.0015000484 -0.0252624825 -0.0264445599 0.0416203178 0.0287459940 -0.0316898189 0.0000211261 -0.0009561276 0.0210657790 -0.0378506556 0.0006568218 0.0147250658 0.0224905480 0.0046210750
-0.0219057612 -0.0424270518 0.0238875430 0.0403476581 -0.0133430967 -0.0394942984 0.0129305897 -0.0309844706 -0.0288749263 0.0120467069 -0.0041967933 -0.0030061135 0.0396398902 -0.0077517587 0.0269014370 -0.0137542598 0.0328850672 0.0134824235 0.0393813439 0.0154140191 -0.0156543516 0.0192622002 0.0376524813 0.0083762649 0.0203747824 -0.0310916286 0.0239460114 -0.0417762659 0.0390685983 0.0182532407 0.0029083486 -0.0413636789 0.0401884615 0.0281800255 0.0407412127 0.0173732098 0.0148836058 -0.0114477687 -0.0181108490 0.0175187010 0.0153267747 -0.0014327768 0.0070294621 0.0151813002 -0.0427073315 -0.0390828289 -0.0117646605 0.0300988816 0.0215615537 -0.0421816558 -0.0132692400 -0.0046715564 0.0145151792 0.0361561887 0.0009665958 -0.0344001241 0.0027117124 -0.0170660652 -0.0270089116 0.0244787149 -0.0059375740 0.0208825469 0.0344121568 0.0043434752 0.0248923078 -0.0208722614 0.0246698838 0.0017655683 0.0293683298 0.0422522575 -0.0334308743 0.0419544540 0.0337361507 -0.0356014520 0.0129551459 -0.0359788239 0.0143359760 0.0068341852 -0.0421882607 0.0160433184 -0.0121392664 0.0440517478 0.0431338698 0.0152562736 0.0348357446 0.0159620810 0.0418120064 -0.0040802998 0.0109226089 -0.0073001236 -0.0007728836 -0.0133318966 -0.0174900573 0.0255653504 0.0189649165 -0.0195089802 -0.0389483906 0.0216090623 -0.0406529680 -0.0019556454 -0.0380265564 0.0370051414 0.0359862968 -0.0363206193 -0.0410887897 -0.0261296816 0.0121949958 -0.0221004430 -0.0105246687 -0.0112023056 0.0081066666 -0.0209040996 0.0201001689 -0.0316247679 -0.0039338921 0.0370447189 -0.0244030785 0.0339065790 0.0230013002 -0.0142755220 0.0153249679 -0.0298565160 0.0035568620 0.0125184674 0.0382262468 -0.0247301273 -0.0251341984 -0.0220575258 -0.0430527478 0.0089372760 -0.0365826041 -0.0118636582 -0.0197186247 0.0024709431 0.0134062488 -0.0321152695 -0.0130467676 -0.0042487765 -0.0255478695 0.0102093630 0.0163605213 -0.0314963534 0.0347506069 0.0314043760 -0.0132770156 0.0065757143 0.0053809932 -0.0060975635 -0.0296603907 0.0364168994 0.0217480846 -0.0369316898 -0.0342511795 0.0420266651 0.0070536067 -0.0101534184 0.0299520586 0.0126960585 0.0158644207 0.0350609720 -0.0034492612 0.0421115346 -0.0310435183 -0.0268921591 0.0074881935 -0.0053653833 0.0252194721 -0.0120175937 0.0069494569 -0.0091830185 0.0331786200 -0.0028988074 0.0006783535 0.0323763601 0.0429646112 0.0422874130 -0.0432096981 -0.0249723922 -0.0095966896 -0.0091235917 0.0255635809 0.0199601632 -0.0036350498 0.0010469487 0.0094689373 0.0380978845 0.0229020063 -0.0222919639 -0.0226392951 0.0139762843 -0.0044700578 -0.0283523630 -0.0427744687 0.0063304040 -0.0129057234 -0.0257137548 0.0083133653 0.0430355929 0.0367068686 0.0251977928 -0.0333313569 0.0252229292 0.0228580274 0.0147450799 -0.0110089043 -0.0007695540 -0.0239708573 -0.0099550588 -0.0072750044 -0.0062604086 -0.0439815521 0.0155911520 -0.0361592770 -0.0330499001 0.0179591980 -0.0361764356 0.0421605408 0.0423179492 -0.0140441144 -0.0076164515 -0.0338109769 0.0027321852 0.0080802776 -0.0242433734 0.0138585633 -0.0017008149 -0.0130275115 -0.0001528982 -0.0428385101 -0.0311318003 0.0058498769 0.0426792987 -0.0261948872 0.0283321012 0.0040446222 -0.0190137178 0.0000484215 0.0211878046 0.0052578035 0.0391215160 -0.0083640786 -0.0295120236 0.0399355516 -0.0126218852 0.0280412249 0.0291503351 0.0078269858 -0.0362722501 -0.0433873199 0.0209805947 0.0108050872 0.0257149823 -0.0389530137 -0.0060887234 0.0381838232 0.0232187621 0.0367268622 0.0346978046 -0.0108438097 -0.0300955102 -0.0263524689 0.0150095196 -0.0175422505 0.0001752729 0.0070526744 0.0274347160 0.0246472452 0.0252234135 0.0017961827 0.0249498021 -0.0206895396 -0.0176886208 -0.0069974042 -0.0256646741 0.0394211113 -0.0067721135 0.0128483241 -0.0013740347 -0.0006044438 -0.0235550944 -0.0032446119 -0.0395314731 -0.0211340785 0.0340101048 -0.0414519720 0.0072726337 0.0070406627 -0.0422988832 0.0086317742 0.0205200091 0.0320090465 0.0082720779 0.0345455520 0.0016634781 0.0168389622 0.0130465198 -0.0325858109 -0.0097012557 -0.0311218482 0.0343387797 0.0210832171 -0.0187430400 -0.0080873212 0.0117978565 -0.0385339297 0.0012479102 0.0210814271 0.0055375635 -0.0040663225 0.0284125432 0.0192238931 -0.0392883904 0.0260088574 -0.0348571651 0.0248250570 0.0372135751 0.0040729293 -0.0149363475 -0.0228283238 -0.0196239613 -0.0081464006 -0.0183220990 0.0438721031 -0.0190629512 0.0183489248 -0.0409824289 0.0223998912 0.0376053974 -0.0316813625 -0.0112758409 0.0105332239 -0.0423038676 -0.0279624946 0.0153700542 0.0416152328 -0.0132027427 -0.0004024813 -0.0426621512 -0.0424196646 0.0384346806 0.0375035033 -0.0134690152 -0.0174751952 -0.0028609333 0.0205057003 -0.0427087434 -0.0244801119 -0.0145695331 -0.0192359481 -0.0011674940 0.0322355777 0.0096492842 -0.0399948992 0.0408744141 0.0355846770 0.0139147611 0.0216321759 0.0165209379 0.0362243690 -0.0425057933 -0.0275114980 -0.0056123692 -0.0084066158 -0.0293506067 -0.0423821285 -0.0337521806 -0.0068639670 0.0375152901 0.0292998515 0.0127386795 -0.0271433387 -0.0177791417 0.0042574322 -0.0409638323 -0.0020174696 0.0089869406 0.0399553590 -0.0116008939 0.0433799848 0.0033341793 -0.0306613203 0.0417689644 0.0383153521 -0.0349203385 -0.0256368108 0.0211314335 -0.0271929726 0.0300499182 -0.0210864414 -0.0137162646 -0.0126866968 0.0421626531 -0.0149446772 -0.0085933683 0.0267408676 -0.0302374028 -0.0002128785 -0.0341366380 -0.0407902822 -0.0100900447 0.0048854728 0.0376873687 -0.0423818529 -0.0127166677 0.0116300331 0.0166881923 0.0258205868 -0.0355360508 -0.0108042974 0.0102190673 -0.0354263522 0.0222699996 -0.0421686471 0.0275765080 0.0143681709 -0.0125532858 0.0143375201 0.0374315307 0.0325110108 0.0268061124 -0.0257267524 0.0126995938 0.0331651345 0.0077945800 0.0292595904 -0.0274084527 0.0310620051 -0.0014659622 -0.0396504067 -0.0114562614 0.0390608832 -0.0154389488 -0.0076542785 -0.0176793747 -0.0240295976 0.0076565016 0.0268096514 0.0052257455 -0.0027257893 0.0025564961 -0.0331407711 -0.0232858118 0.0022114557 -0.0353241526 0.0218894761 0.0067360671 0.0004653539 -0.0028360877 0.0373262502 0.0403326824 0.0215788539 0.0219499413 -0.0214288216 0.0180659257 -0.0298914034 0.0190996341 -0.0313815065 -0.0002417332 0.0320312791 0.0293462966 0.0390767455 0.0150756324 0.0171552002 0.0118513936 0.0322712101 0.0231910087 0.0130403563 -0.0154200774 -0.0213883761 -0.0109263705 0.0210911725 -0.0240567140 0.0120741865 0.0386655927 0.0374212749 -0.0325378366 0.0125968447 0.0288973544 -0.0401425175 0.0282452367 -0.0275369696 -0.0319545455 -0.0187336002 -0.0166229494 -0.0182717126 0.0127234589 0.0171208661 0.0171759147 0.0305129383 -0.0279620513 -0.0419636667 -0.0354538113 -0.0242902301 -0.0202148128 0.0194195081 -0.0319816060 -0.0323121548 0.0236673839 -0.0281203408 0.0082891630 -0.0336975902 0.0168625005 0.0276155900 -0.0371738896 0.0150328008 -0.0231697615 0.0280473251 0.0397485234 -0.0372832604 0.0165307578 0.0298462585 0.0401800424
0.0333779752 0.0086917076 0.0025836439 0.0091057159 -0.0263477061 -0.0086589223 -0.0006815619 -0.0279655028 -0.0019595281 -0.0058708871 -0.0154717127 -0.0135738030 -0.0440141372 0.0421168432 0.0217834301 0.0319509096 -0.0376197435 -0.0432663634 0.0328656659 -0.0077606202 0.0068889391 0.0221606959 0.0028241074 -0.0014636547 0.0262601208 0.0353059471 -0.0123158302 -0.0377312005 -0.0242333040 0.0315822698 0.0038429075 0.0378409214 -0.0154597750 -0.0418749675 0.0137242833 -0.0188328139 -0.0264218636 0.0275524911 0.0030733482 -0.0037737340 0.0430393666 0.0384991281 -0.0361031629 -0.0406258218 -0.0218540467 -0.0343132652 -0.0232312996 0.0298158173 -0.0294066668 0.0405328497 0.0137887839 0.0019195254 0.0075594005 0.0093281353 0.0142197087 -0.0359428786 -0.0007686268 0.0293176156 0.0439071208 -0.0023379435 -0.0315708295 0.0203107558 -0.0404353701 0.0393914506 0.0271624532 0.0199056715 0.0060367403 0.0321260765 -0.0178526454 -0.0368616693 -0.0244299732 0.0328867473 -0.0220875870 -0.0352390334 0.0096801724 -0.0274525657 -0.0018706457 -0.0280507915 0.0093376338 -0.0072147236 0.0058310535 0.0204282291 -0.0284564141 -0.0150678568 -0.0294696242 0.0368019491 -0.0158236232 0.0166434422 0.0101995002 -0.0436011441 -0.0313742086 -0.0113579007 -0.0338796712 0.0234339684 0.0277804099 -0.0000810747 0.0054114340 0.0116462642 0.0146988397 -0.0085480390 -0.0173895992 -0.0273263939 0.0017597890 0.0349464603 -0.0054933992 0.0380268842 0.0154585419 -0.0227394309 0.0171660054 0.0177021399 -0.0196689647 -0.0077464064 -0.0045896969 0.0156007456 0.0344846137 -0.0097196316 0.0287381187 0.0238292702 -0.0382933840 0.0323080458 -0.0017899818 0.0341114663 0.0344243720 -0.0427951664 -0.0368053205 -0.0050306320 0.0142013328 -0.0070335083 -0.0425464101 0.0240395404 -0.0252713971 0.0200631116 0.0312157832 -0.0149061913 0.0266157445 0.0058768564 -0.0138742048 0.0028669075 0.0158925280 0.0226221513 -0.0253596734 0.0330329388 -0.0209021438 -0.0380700193 -0.0191048663 -0.0391260982 0.0123743936 0.0029751724 -0.0021521023 -0.0299102161 0.0232974123 0.0072376463 -0.0110916644 0.0078299940 0.0155868372 -0.0265516285 -0.0127288224 -0.0200694166 0.0391151682 0.0109277554 -0.0333527960 0.0312112793 -0.0070174397 0.0030417696 0.0057181260 -0.0051615033 0.0418382548 0.0191435926 0.0095150461 -0.0160672162 0.0101716937 -0.0321782380 -0.0152796814 0.0224084314 -0.0434960276 -0.0011118391 -0.0162883867 0.0225785412 -0.0276055895 0.0076493947 -0.0127408812 0.0370762832 -0.0065944223 -0.0322729275 -0.0137299886 0.0311550815 0.0169203095 0.0094622886 0.0275579803 0.0170663130 -0.0056662960 -0.0234069210 -0.0422919579 0.0212533437 0.0344651677 -0.0168910921 -0.0198635031 0.0076197549 -0.0040832763 0.0339330584 -0.0007650548 -0.0013311713 -0.0410867743 0.0134889353 0.0001535726 0.0104260501 0.0270194635 0.0188012086 0.0000841778 -0.0034050334 -0.0223219451 0.0399089083 0.0367847830 -0.0001790714 0.0441424586 0.0388079993 0.0254075695 0.0227176677 0.0174964480 -0.0077524702 0.0043918281 0.0359541178 -0.0074465000 0.0137924720 -0.0142627042 0.0072525293 0.0256673414 0.0274857711 0.0216250625 0.0210292544 -0.0106093520 0.0402428024 0.0310506895 0.0418376103 -0.0357326679 -0.0200264752 -0.0366967283 0.0039149206 0.0337684639 -0.0302053504 0.0115661854 -0.0008843094 -0.0411470607 -0.0017354544 -0.0051889145 -0.0214347076 -0.0275799222 0.0261271577 -0.0045352327 -0.0087590208 -0.0122870179 -0.0056506856 -0.0121898269 -0.0264758486 0.0188558828 -0.0006533341 -0.0395209529 -0.0221924763 -0.0090163853 -0.0168564413 0.0104255127 0.0413447879 -0.0318961479 -0.0006484977 0.0383999348 -0.0257611498 -0.0344931632 0.0117876781 -0.0005149186 -0.0005781283 0.0277652852 -0.0378149748 -0.0264399182 0.0306727588 -0.0310265329 -0.0059333066 0.0205180179 -0.0241348650 -0.0342709236 -0.0263917390 -0.0328877084 -0.0378715657 -0.0072427513 -0.0410231724 -0.0268802587 0.0032615075 0.0411530510 0.0435771607 0.0369406380 0.0048926063 0.0275173299 -0.0138172489 -0.0284139235 0.0221788995 0.0174345281 0.0155558484 0.0205650795 -0.0111053307 0.0325107388 0.0240853690 -0.0192289352 0.0324792787 0.0159267187 0.0015063547 0.0006638655 0.0379853956 0.0014358377 0.0155420508 0.0322512910 0.0023887937 0.0400363058 -0.0261599105 -0.0043179127 0.0035737683 0.0023965067 -0.0321236104 0.0421735756 -0.0247987360 0.0318981186 -0.0176306013 0.0175723545 -0.0243512318 -0.0192463957 0.0116515169 0.0303904116 -0.0035518783 0.0165734477 -0.0243777577 0.0139698787 -0.0049655098 -0.0100691402 0.0217592474 -0.0146699687 -0.0269903783 -0.0125358794 0.0220394563 0.0423081182 0.0399504900 0.0308711380 -0.0272736102 0.0394662134 0.0179914143 0.0078551294 -0.0256200358 -0.0234799869 0.0114012910 -0.0039184135 -0.0124850553 -0.0337345935 0.0376686864 0.0136818253 0.0058069504 0.0041522072 0.0237812120 -0.0266512018 -0.0017648045 0.0390080661 -0.0068601212 -0.0378398709 -0.0263642501 0.0273989290 0.0232735164 0.0305035654 -0.0156190954 -0.0205481946 -0.0390710905 0.0030490980 -0.0095527042 0.0419312306 -0.0199097283 -0.0280822758 0.0179223623 -0.0161246099 -0.0041030324 0.0440876372 0.0275647976 -0.0440478511 0.0021314030 0.0013908301 0.0432220660 -0.0382080451 0.0272060912 -0.0433951020 -0.0434447490 -0.0226543527 -0.0422688164 -0.0027187667 0.0356882438 -0.0122605972 -0.0335152037 -0.0038019987 -0.0359698832 0.0299827885 0.0063896780 0.0391954184 0.0187479928 0.0158024020 0.0148915723 0.0410504825 -0.0276468098 -0.0270254966 0.0339882560 0.0160387773 0.0405259058 0.0103005525 0.0160003509 0.0272377841 0.0287961587 0.0242500473 -0.0346571989 0.0127930539 -0.0302437823 0.0057045864 0.0241936017 -0.0147717111 0.0383435637 0.0393485166 0.0127231693 -0.0319710337 0.0009223785 0.0343865715 0.0079377210 0.0385005884 0.0031979869 -0.0204675309 0.0288392920 0.0146249933 0.0244004689 -0.0264066868 -0.0335091203 0.0296000578 0.0154605908 0.0323325172 -0.0368462913 -0.0203360114 -0.0014005081 -0.0229539368 0.0276107788 0.0350998044 0.0383052044 0.0062059863 -0.0401319601 -0.0158518609 0.0102528213 -0.0119268680 0.0188738704 -0.0118103372 0.0365189165 0.0382821523 0.0437890142 0.0146363461 -0.0299179927 -0.0114380280 -0.0235846378 0.0198777858 -0.0038774309 0.0176950693 0.0128282728 -0.0135642467 0.0061229095 -0.0067879185 0.0076516024 -0.0292564183 0.0008181599 0.0336864069 0.0228651874 -0.0274511166 0.0368726216 -0.0168961287 0.0395010002 -0.0090112276 0.0426316224 0.0259892214 -0.0036532783 0.0297765695 0.0375373103 -0.0345671065 0.0079441061 0.0302531868 -0.0045763468 0.0279733688 0.0344731174 -0.0350512713 0.0240970701 -0.0406065024 0.0276703909 -0.0244368315 -0.0137550188 0.0108083747 -0.0380549096 -0.0015234768 -0.0154613657 0.0139829069 -0.0026195636 -0.0401627831 -0.0109112449 0.0068933121 0.0241984278 -0.0252311155 -0.0268688258 0.0199103877 -0.0265282318 -0.0174680464 -0.0441726930 -0.0106463572 -0.0352394842 0.0069238474 0.0357883945 0.0196262486 -0.0368436873 0.0396158658 -0.0394945927
-0.0169569422 0.0247948691 0.0209701434 0.0243550669 -0.0105171343 -0.0387021862 -0.0432709046 0.0036212204 -0.0427547805 -0.0291324910 0.0288807210 -0.0068036392 0.0154246818 -0.0347681046 0.0070053120 0.0398226641 0.0080345692 0.0077952542 -0.0272725727 -0.0319546126 0.0257636681 -0.0395661481 -0.0027072553 -0.0354121290 0.0031060751 -0.0433053598 0.0146305142 0.0000752005 -0.0290606264 -0.0164556578 -0.0176608209 -0.0198382996 -0.0110205468 0.0081424918 -0.0254279729 0.0111535098 -0.0364168510 0.0416194759 -0.0264882669 0.0187923685 -0.0302506164 -0.0301650148 -0.0064870794 -0.0251760241 -0.0123648206 -0.0192234293 -0.0123597737 -0.0341641046 0.0431022607 0.0249257255 -0.0157877356 0.0320926607 -0.0196899008 -0.0361023173 0.0141554615 -0.0152077628 0.0332375355 -0.0118923970 -0.0359828882 0.0372656696 0.0099200299 0.0134127233 -0.0042740642 -0.0351408198 0.0142273055 0.0001193599 -0.0292605013 0.0251845960 -0.0413841121 -0.0274281669 -0.0103044780 -0.0414239280 -0.0397859253 -0.0132775158 -0.0083309356 0.0324187763 0.0206231959 0.0410905369 0.0137273967 0.0059106159 -0.0085168350 -0.0186438486 -0.0395915210 -0.0403664745 0.0188044701 -0.0279739480 -0.0181295555 0.0206533354 -0.0273195077 0.0163397752 -0.0024455497 0.0091194343 -0.0201313570 0.0322246626 -0.0361476429 -0.0412586927 0.0344810784 -0.0298575070 0.0424240641 0.0196296629 0.0170566924 -0.0054728207 0.0083126863 0.0113333296 -0.0207817778 0.0325296447 0.0271625482 0.0025984480 0.0126714502 -0.0053639449 -0.0159632452 -0.0340659693 -0.0169775728 -0.0423226841 -0.0138980867 0.0231220145 0.0428792350 -0.0404406339 -0.0367383026 0.0364763699 -0.0155996438 0.0000597906 0.0277306549 0.0391454883 0.0167367235 0.0109470272 -0.0010656145 0.0011137199 0.0178322997 -0.0415717438 -0.0427822806 0.0297994763 -0.0432606377 0.0232243929 0.0319892243 0.0293070003 0.0134799788 0.0049101184 0.0204098858 0.0263349526 0.0013915941 -0.0317995027 0.0274955966 0.0049232943 0.0266221985 -0.0296163522 -0.0110473419 -0.0283902809 0.0025312344 0.0375559591 0.0083999988 0.0375666916 0.0324711166 -0.0303976815 0.0424231589 0.0024546746 0.0370030850 0.0085577806 -0.0075456346 0.0375176072 -0.0327007324 0.0009913044 -0.0061906450 0.0019968913 -0.0126793738 0.0350882150 -0.0023099738 0.0182610862 0.0190313514 0.0402669981 0.0158911534 -0.0440555960 -0.0366380475 -0.0417532325 -0.0433268324 -0.0367699154 -0.0006441566 0.0418275334 -0.0286027156 0.0185926706 -0.0201645903 0.0342365690 0.0287429113 0.0205344018 0.0389336608 -0.0333327353 -0.0375268832 -0.0225785561 0.0089571802 0.0390699022 0.0291787423 0.0138140824 -0.0078457361 -0.0250927843 0.0439515226 -0.0386832654 -0.0304855481 0.0260087140 0.0344762392 0.0116153127 -0.0007720776 -0.0052507492 0.0057561425 -0.0222363770 0.0436926745 0.0441378914 -0.0171033219 0.0306841955 -0.0105044115 -0.0320588611 0.0075874282 -0.0084464289 0.0367515124 0.0030626587 -0.0096935323 -0.0351060256 0.0289114732 0.0294967294 0.0062159174 -0.0038717042 -0.0148059716 0.0102437017 0.0424110889 -0.0072812946 0.0040322524 -0.0421055295 0.0112823900 -0.0189350192 -0.0104782442 -0.0234373976 0.0409268811 0.0300940722 -0.0190319307 -0.0108390888 0.0134610133 0.0166306030 -0.0208061505 0.0179480873 0.0070267962 0.0253959205 -0.0238820221 -0.0285354704 0.0205481369 -0.0017244224 -0.0192580968 0.0346862227 -0.0049161455 -0.0295146629 -0.0063077919 -0.0204753708 -0.0152630806 -0.0363816805 0.0352777503 0.0388861895 -0.0372820497 0.0276461989 0.0129175140 -0.0179212186 -0.0129619315 0.0075334539 0.0093757771 0.0375206210 0.0422296338 0.0025505850 0.0415704995 -0.0261372514 0.0003741218 -0.0365000553 0.0211705565 0.0088144969 -0.0267707091 -0.0337216817 -0.0087752528 -0.0166920908 -0.0180096906 -0.0384905972 -0.0281577408 0.0366802029 -0.0217359979 0.0179886110 0.0030099435 -0.0060322150 0.0144580174 0.0332781412 0.0137708504 0.0047908798 0.0358734578 0.0036569925 0.0097140269 0.0430901162 -0.0319938250 0.0321064852 -0.0212300513 -0.0022698869 -0.0255764667 0.0291608926 -0.0355454199 -0.0195792969 0.0076359129 -0.0169137996 0.0047488487 0.0405808650 -0.0390894674 -0.0287158862 -0.0343663916 0.0422606170 0.0107258195 -0.0319308154 -0.0384352542 0.0327544063 0.0405860171 -0.0267426968 0.0113110393 -0.0109716095 0.0262112878 -0.0247299429 0.0301827174 0.0441265255 0.0267650019 -0.0075614448 0.0057799765 0.0190689247 -0.0254791025 -0.0205888096 -0.0432319716 0.0312158521 -0.0205343291 0.0379716195 -0.0086682048 -0.0163285583 0.0225011017 -0.0042988993 -0.0299611352 0.0047471523 -0.0205784198 -0.0319823883 -0.0278843865 0.0153385866 0.0037195226 -0.0179117788 0.0157753341 -0.0138342502 -0.0341095403 0.0151777491 -0.0150494277 -0.0130956946 0.0317665786 0.0330333188 -0.0432568602 0.0379031561 0.0395225212 -0.0318690911 -0.0440618619 -0.0344994552 -0.0117328390 -0.0019869921 0.0121800750 0.0105403261 0.0085620424 -0.0345017090 0.0425362065 0.0380699374 0.0215316489 0.0096526658 -0.0246779639 0.0032296022 -0.0315384530 0.0406203568 -0.0392490476 0.0376139320 0.0416080914 -0.0213949364 -0.0394351371 0.0155910300 -0.0339193232 -0.0407750942 -0.0266252961 0.0312416255 -0.0277000628 -0.0176872201 -0.0179231428 0.0314103067 0.0171240754 0.0253320672 -0.0082562044 -0.0261318460 0.0159280095 0.0178307500 0.0365796983 -0.0414112918 -0.0324285552 0.0289951824 0.0114315422 0.0293403435 -0.0111754844 0.0440670960 0.0172715038 -0.0171058401 -0.0213503391 0.0116111040 -0.0010883369 -0.0214190762 -0.0236882977 0.0148909343 0.0218153931 0.0420903824 -0.0186495055 -0.0260909423 -0.0278607477 -0.0299376585 0.0436555929 -0.0216129869 -0.0207892321 0.0324227735 0.0351440161 -0.0404461734 -0.0048715170 0.0132800499 0.0067586843 -0.0251253750 -0.0356139690 -0.0318897441 0.0147208190 -0.0205752905 -0.0401846543 0.0435710475 0.0202510227 -0.0131851146 0.0070521212 -0.0157054123 -0.0291333552 -0.0408318043 0.0288083497 -0.0408116244 -0.0333344787 0.0368774496 -0.0278329886 -0.0148381451 0.0002040908 -0.0436425917 -0.0401264019 -0.0358482450 -0.0066620731 -0.0159945451 0.0328219421 0.0284286961 0.0429967828 -0.0382411107 -0.0210574605 0.0301055983 0.0153205637 -0.0287880041 0.0331346728 -0.0225717705 0.0419640131 -0.0352727398 0.0229071286 -0.0025124156 -0.0382534415 0.0228672046 -0.0162197184 0.0007690694 -0.0134924492 -0.0098791681 -0.0113108438 0.0198404230 -0.0035694323 0.0301953461 0.0178518556 -0.0002610839 0.0177178439 -0.0148666687 -0.0340558067 -0.0291104484 -0.0302636176 -0.0356758945 0.0070711770 -0.0039322693 -0.0397389419 0.0229318477 0.0273863152 0.0375420190 0.0018122355 -0.0032355872 0.0259935781 -0.0383257978 0.0027319798 0.0289194603 0.0305848401 0.0052075856 -0.0036649951 0.0157919396 0.0093948273 -0.0014838272 0.0350057445 0.0377256311 -0.0251059663 0.0397727303 -0.0115373628 0.0095079439 0.0393609852 -0.0208833572 0.0206280742 -0.0060256664 -0.0250084121 -0.0026905653 0.0377781056 0.0246624388 -0.0228545647 0.0400035791 0.0089907758 0.0377214849
0.0420362242 -0.0128663471 0.0352828540 -0.0065508792 0.0069763516 0.0014377080 0.0006083107 -0.0034291781 -0.0405080430 0.0038452465 0.0405523106 0.0144955022 -0.0408353545 0.0082503399 -0.0071586212 0.0130272908 -0.0405859649 0.0073878313 -0.0315845720 0.0062883464 0.0265992079 0.0309396647 -0.0073035220 0.0392578728 -0.0025994754 -0.0254356656 0.0206565596 0.0019140939 -0.0348685496 0.0280990303 0.0425908491 0.0241995081 -0.0070373118 -0.0370776206 0.0378618725 -0.0235372707 0.0066569052 -0.0399876684 0.0272626467 0.0088726282 0.0420719534 0.0214469135 -0.0422073714 0.0349228792 -0.0357136428 -0.0211222246 0.0228183661 -0.0240526162 0.0115886396 0.0045518172 0.0031307258 -0.0240037311 0.0309295282 0.0063526416 0.0164079368 0.0051458669 -0.0219853334 -0.0166110639 0.0294181406 -0.0386077650 -0.0152742648 -0.0404547714 -0.0264208056 0.0059391283 -0.0100680180 0.0147271724 0.0336748324 0.0092956871 0.0419727005 -0.0001167573 0.0426361822 0.0071300822 -0.0011343403 0.0123518296 -0.0348456390 0.0360388942 0.0404372178 -0.0388672389 -0.0263025984 0.0349284820 0.0111084282 -0.0159772057 -0.0220194776 -0.0101259910 -0.0083181383 0.0407686159 -0.0268709343 0.0062153060 0.0125265177 -0.0219214931 -0.0027555346 -0.0079895938 0.0337197892 0.0316202305 -0.0021321301 -0.0226476621 -0.0253721345 -0.0188155062 0.0383388549 0.0359257162 0.0087876813 -0.0411768556 0.0141134830 -0.0082137305 0.0247094426 0.0229704585 0.0370756350 0.0032181279 0.0033821475 0.0003202844 0.0305322520 0.0333708636 0.0208230708 -0.0088369818 -0.0128303273 0.0409541391 -0.0228612516 0.0076017054 0.0138949463 0.0228852481 -0.0268049054 -0.0085319867 -0.0012909211 -0.0040311301 -0.0379296988 0.0190699045 -0.0337907523 -0.0111601064 0.0135465339 0.0347503610 -0.0076863682 -0.0244691856 -0.0197072495 -0.0004065538 -0.0241606012 0.0109184152 0.0199806988 0.0417086594 0.0371651500 -0.0090321014 0.0187844075 0.0057982053 0.0209527146 -0.0200885106 0.0415078662 0.0002938794 0.0279909708 0.0327775516 -0.0093613472 0.0338644609 -0.0114371795 0.0219854657 -0.0068590096 -0.0349498615 -0.0112663321 0.0167822950 0.0353024304 -0.0360622853 -0.0256457031 0.0230334364 -0.0225771014 0.0023029512 -0.0308289696 0.0027918336 -0.0213838257 0.0098699545 0.0174258724 0.0084755570 -0.0347561464 0.0331352837 0.0371997841 -0.0396264829 0.0361962989 -0.0380908288 0.0207738969 -0.0026100068 -0.0035320797 -0.0215185955 0.0348043330 0.0071423417 -0.0030729952 -0.0015632107 0.0320320465 0.0437916405 -0.0251765717 -0.0391982086 -0.0298982728 -0.0239953119 -0.0361057073 -0.0159491673 -0.0170970317 -0.0003159644 0.0126038305 0.0283882245 -0.0291595329 -0.0316650942 -0.0192500353 -0.0325699970 0.0023803907 -0.0335137509 -0.0020381005 -0.0060478724 -0.0342231616 -0.0199526288 0.0193177015 -0.0126696797 -0.0390058607 0.0359546691 -0.0137786632 0.0053264396 0.0355397388 0.0220056809 -0.0357214920 0.0390362367 -0.0123192761 0.0112734968 0.0196747128 0.0154259093 0.0302069094 -0.0199439991 0.0328440592 0.0280931816 -0.0387598909 -0.0164771210 0.0381923094 -0.0328020602 -0.0399888307 0.0272939876 0.0155730126 0.0048455386 0.0352413990 0.0021761314 0.0430925488 -0.0293278582 -0.0379817486 -0.0096105244 0.0429638959 -0.0377858914 0.0182326902 0.0113163553 -0.0187136587 -0.0362435617 0.0185053535 0.0165737160 -0.0011559142 0.0174624510 0.0241677351 -0.0311268438 -0.0382026024 -0.0073489351 -0.0063602016 -0.0169753600 0.0116317980 -0.0339139514 0.0429439396 -0.0088933958 -0.0246864408 -0.0070615886 -0.0349947400 -0.0382414460 0.0127899405 -0.0121283401 -0.0239320546 0.0203816090 0.0345228873 0.0049552945 -0.0220228545 0.0240492597 -0.0152196111 -0.0204577576 -0.0086164335 -0.0107390853 0.0426646546 -0.0079315417 -0.0397916809 -0.0140353478 0.0162124112 0.0191100705 -0.0296464413 -0.0311314426 -0.0125745963 0.0028260252 -0.0363696516 0.0203454792 -0.0082944417 0.0257083494 0.0131715015 -0.0070523424 -0.0039884089 0.0135853514 -0.0229656696 -0.0114568407 0.0202259868 -0.0394448824 -0.0087982602 0.0091993874 -0.0227915514 0.0209218524 0.0218922850 -0.0064072744 -0.0142001789 0.0213895366 0.0024896511 -0.0341723114 0.0254707783 0.0435062200 0.0378239304 -0.0243790541 0.0410302989 -0.0184178464 -0.0334893949 0.0316476747 -0.0311656650 0.0406217426 0.0433125757 -0.0297032706 0.0292677991 -0.0084274253 -0.0114909215 0.0067048785 0.0166920424 -0.0300791208 0.0433382057 0.0309662577 -0.0255323332 0.0208691638 0.0078462260 0.0242875423 -0.0010291312 0.0149509516 0.0123513080 0.0413013436 0.0062300260 0.0360229388 0.0073118671 0.0142349349 -0.0049219565 -0.0047998358 -0.0332157873 0.0424806140 -0.0239109024 0.0231310427 0.0101966076 0.0286595449 -0.0418271013 -0.0041229418 -0.0423551798 -0.0347869955 0.0156061193 -0.0104403850 0.0295180976 0.0329694860 0.0001082700 -0.0131231323 0.0306552257 0.0421374403 0.0053420127 -0.0368818380 0.0184766930 -0.0073765572 -0.0325624496 0.0095138233 0.0010333512 0.0006549094 0.0439679436 0.0224322751 0.0278994851 0.0003673361 -0.0087384535 0.0165718459 -0.0330666378 0.0417632572 0.0054926933 -0.0410789028 -0.0255198423 0.0213110000 0.0101991575 0.0218282007 -0.0435815491 -0.0002179730 0.0263319965 0.0244138986 0.0024000786 -0.0436950065 0.0386226550 0.0169750378 0.0172634181 0.0266363081 0.0261195507 -0.0049920729 0.0292725712 0.0300324578 0.0109467003 -0.0340542644 0.0308770854 -0.0216515567 0.0376891717 -0.0275264699 -0.0030454628 -0.0170877278 -0.0241983812 -0.0145762926 0.0284830034 0.0146008795 -0.0040760110 -0.0354945846 -0.0244829506 0.0250990912 -0.0206444170 -0.0340778828 -0.0242394265 -0.0147775915 -0.0196399353 0.0233879760 -0.0005289746 0.0417147726 -0.0406838208 -0.0221899524 0.0146813802 0.0270962138 -0.0181480013 0.0176780745 -0.0243452042 -0.0267663877 0.0241674986 -0.0026910920 -0.0323411189 -0.0017093655 0.0388952307 0.0100900400 -0.0088442471 -0.0080058835 -0.0263386816 0.0251387823 0.0007302995 -0.0228309799 0.0025608214 0.0136601459 0.0018713675 -0.0036143505 -0.0415440835 -0.0013322566 -0.0141380811 -0.0005658899 -0.0271477178 0.0166746415 -0.0273628458 -0.0142807215 -0.0203178674 -0.0222483724 0.0006296528 -0.0196651816 -0.0191297587 0.0046578906 0.0185744576 -0.0210283957 0.0235596299 0.0131126745 0.0341187045 0.0042755133 0.0362627171 -0.0398242921 0.0128758196 -0.0379775539 0.0186846144 -0.0169546865 -0.0090606343 0.0374320112 0.0413741432 -0.0110822506 -0.0254402906 0.0241500642 -0.0195763987 -0.0207826272 -0.0332349762 0.0439178012 0.0026211441 0.0086408677 -0.0256981608 0.0206018481 -0.0419063680 -0.0128295375 -0.0067538321 0.0260094050 -0.0041176523 0.0063467356 0.0337929986 0.0155606745 0.0359040052 -0.0150607964 0.0273182653 -0.0068501537 -0.0032017801 0.0094439127 0.0426083207 0.0001790187 -0.0047198832 -0.0172974933 -0.0279159863 0.0253859535 -0.0091695683 -0.0148867462 0.0095937289 0.0075443331 -0.0071740258 0.0369344056 0.0270416290 0.0107673816 -0.0209358558 -0.0183084216 0.0384292230 0.0091238860
