0.0366653800
-0.0033086278
-0.0261771958
-0.0151164467
0.0403771140
0.0198138710
0.0257852357
-0.0302548781
0.0024581675
0.0101960599
-0.0261232536
0.0090755699
0.0014941848
-0.0089359274
0.0363634191
0.0271568522
0.0042763879
-0.0324593410
-0.0203494616
0.0117937047
-0.0250030756
0.0359717384
-0.0048872535
0.0154683460
0.0007464681
0.0324897207
0.0264439862
-0.0377062596
-0.0319975987
-0.0440661944
-0.0123364031
0.0273822900
0.0060534202
0.0200345200
0.0150531316
0.0187258180
-0.0034438716
-0.0081876209
0.0291998424
0.0081876991
-0.0371184982
0.0325016156
-0.0127155408
-0.0239575543
-0.0301599409
-0.0298088267
-0.0062818085
-0.0318346769
-0.0258835219
-0.0057398635
-0.0135465711
0.0440939255
0.0348665789
0.0263129305
-0.0353746414
-0.0295995940
0.0378071070
0.0022537080
0.0120731862
-0.0308959894
-0.0151538989
0.0071774186
0.0255294777
0.0081069879
-0.0161450710
-0.0415569171
0.0353996530
0.0091614285
-0.0327657163
-0.0251725148
0.0409866348
0.0410736725
-0.0375244096
-0.0098672882
0.0131770167
0.0297845770
0.0239660721
-0.0050512943
-0.0021299911
-0.0245637000
0.0175504945
0.0178524889
0.0441767015
-0.0315446183
-0.0185032450
-0.0313722156
0.0220796000
0.0111560812
-0.0382440761
0.0317576341
0.0419900455
0.0031026350
-0.0117795905
0.0131911840
0.0067665656
-0.0063111163
-0.0204592608
-0.0323903374
-0.0003315903
-0.0079746153
-0.0207482763
-0.0190985128
0.0109631801
0.0200234726
0.0271628741
0.0054720938
0.0203976054
0.0339929909
-0.0321338139
-0.0107623665
0.0255881678
-0.0179750137
0.0194423515
-0.0163958557
-0.0257391278
0.0023002485
-0.0058014295
-0.0257607009
0.0313234217
-0.0232293569
-0.0092781018
0.0439351499
-0.0290271137
0.0166398548
0.0186530203
0.0007487019
-0.0167828966
0.0380432568
-0.0204773676
-0.0229766704
0.0402364358
0.0150657594
-0.0162782930
-0.0229180753
-0.0156600084
0.0274480246
0.0192994531
-0.0237464290
0.0384195074
0.0272534583
-0.0348415300
-0.0048341169
-0.0230991691
0.0220425967
-0.0254106764
-0.0428202897
-0.0355315581
0.0429109633
-0.0270800665
-0.0071068751
-0.0293883961
0.0298542343
0.0073758615
0.0414649323
0.0259884000
0.0300971903
0.0291040782
-0.0391889550
-0.0276958589
-0.0067296769
0.0314565673
-0.0164310802
-0.0080601843
-0.0400932692
-0.0398317799
0.0254848599
0.0141615570
-0.0315601304
0.0190251563
-0.0179348383
0.0182868484
0.0032079967
-0.0184354056
-0.0062899850
0.0011588855
-0.0176272336
-0.0029727700
-0.0049241795
-0.0261803158
-0.0087849675
-0.0139575871
0.0185089149
-0.0260877497
0.0323939994
-0.0381813683
-0.0416225195
0.0175873693
0.0279083196
0.0009422823
0.0358061455
-0.0424947739
-0.0399609432
0.0264756270
-0.0090368688
0.0363949724
-0.0364060737
-0.0178144723
-0.0316678472
-0.0333555490
0.0367445871
-0.0379624292
-0.0187240690
-0.0214958452
-0.0035421739
-0.0098972227
0.0146572301
0.0378987305
-0.0371271856
-0.0280094519
-0.0168330930
-0.0361464694
-0.0432512164
0.0130481534
-0.0330428295
-0.0427650437
0.0334199220
-0.0332311876
0.0325709060
0.0440949798
-0.0418289863
0.0350851603
-0.0156818721
-0.0070357579
-0.0342005230
-0.0429303460
-0.0140159503
-0.0076294066
0.0115848090
0.0425579846
-0.0146181230
-0.0051085353
-0.0170976073
0.0357953720
0.0066813552
-0.0376614854
-0.0135898609
0.0248813443
0.0414335392
0.0211845655
-0.0008872069
-0.0316173211
-0.0226348862
-0.0079284012
-0.0350302383
-0.0394353792
0.0010677272
-0.0269682985
0.0183924679
-0.0424903296
-0.0233407933
0.0074584009
0.0416402481
0.0138510922
0.0175921787
-0.0208098013
-0.0354231931
0.0219310801
-0.0161815602
-0.0088580716
0.0255178940
-0.0203119460
0.0048556859
0.0098761125
0.0352578722
-0.0119232219
-0.0023296564
0.0310745910
0.0118926289
-0.0160382818
-0.0100874528
0.0283608977
0.0021049031
0.0436587967
-0.0030070196
-0.0368847772
0.0385901555
0.0429920293
-0.0118699642
0.0144729801
-0.0177511927
0.0102883298
0.0427210182
0.0265570767
0.0046744333
-0.0094876140
-0.0252489392
-0.0427843034
-0.0032463400
-0.0163407009
0.0323162638
-0.0118180551
0.0178654846
0.0374175757
0.0069417176
0.0075275428
-0.0430986769
0.0103202509
0.0048187333
-0.0023876769
0.0237693004
-0.0098913964
-0.0088894023
0.0326797292
-0.0263087843
-0.0047221277
-0.0360085741
-0.0413771532
-0.0220378172
-0.0366193950
0.0322088413
-0.0021261135
-0.0186603013
0.0376335420
0.0433956273
-0.0370834954
-0.0344370678
0.0356685296
-0.0190942660
0.0338313207
-0.0099616554
-0.0421984717
0.0333617441
-0.0312711112
0.0296757799
0.0435722508
0.0426580347
0.0051797265
0.0394115113
-0.0255171768
-0.0191238206
0.0241592210
-0.0065088696
-0.0192963127
0.0024626984
0.0054787844
0.0237597488
0.0320426151
-0.0162790101
0.0175846387
-0.0009312925
-0.0349075086
0.0338162370
0.0182566401
-0.0205981806
0.0373522229
-0.0414754599
-0.0437439904
0.0196768679
-0.0039969487
0.0349153392
0.0106920386
-0.0287171174
0.0119815748
0.0005616489
0.0092812255
-0.0274586193
0.0309640411
-0.0318164714
0.0117743649
-0.0218950398
-0.0079094199
0.0259662680
0.0376791880
0.0340883061
-0.0351100639
-0.0005037339
-0.0413376279
-0.0302885324
0.0109430654
-0.0057639554
-0.0188796706
-0.0308343023
0.0014232200
0.0063161212
0.0131277740
0.0397289954
0.0120076789
-0.0386009924
-0.0109205330
0.0030594396
0.0398478545
0.0053600515
0.0174389016
-0.0139580034
-0.0199722536
-0.0129174981
0.0301096290
0.0281607751
-0.0199165717
-0.0047461721
-0.0093391091
-0.0167177469
0.0391103663
-0.0414501131
0.0012855685
-0.0361472927
-0.0214397162
-0.0275192317
0.0049713789
-0.0021237480
-0.0372631438
0.0331440456
0.0215656366
0.0034663675
-0.0419370048
0.0222399849
0.0424761027
-0.0436993800
0.0014684700
-0.0250215661
-0.0398292020
0.0084193014
0.0328839980
-0.0091899568
0.0082079666
-0.0416923203
0.0212911647
0.0036590418
0.0139126955
0.0126388753
-0.0136743234
0.0385645777
-0.0329783894
0.0207980573
-0.0245563611
-0.0035586376
-0.0095431162
-0.0305547211
0.0418851003
0.0161399301
0.0123887705
0.0005802357
0.0372327715
0.0300652962
0.0166231748
-0.0015007439
0.0311203152
0.0314155482
0.0429204255
-0.0302305594
-0.0392336212
0.0261169374
0.0304162577
-0.0124794710
0.0235493723
-0.0060088076
0.0246544145
-0.0198386218
-0.0052926433
-0.0071504763
-0.0437204652
0.0179563742
-0.0031281020
0.0201802962
0.0359678790
0.0361212604
0.0386086665
-0.0197580419
0.0161717981
-0.0376502760
0.0263855178
-0.0289736874
0.0291028358
0.0420684405
-0.0135260513
-0.0358376317
0.0072411760
-0.0437047146
0.0262258388
0.0300937705
-0.0130140353
-0.0022168821
0.0089352634
0.0026443300
-0.0322604999
0.0402607173
0.0253103413
-0.0074376278
-0.0021051455
0.0091734985
0.0350725837
0.0224936195
-0.0285288375
-0.0273849089
-0.0154230222
-0.0231966767
0.0342394449
0.0211389828
-0.0086907325
-0.0024707641
0.0210102350
-0.0165118556
0.0142064383
-0.0130878557
-0.0211702250
0.0349979624
0.0239795540
-0.0229208097
0.0210031290
0.0128494995
-0.0387803540
-0.0075281486
-0.0426767692
0.0089921989
-0.0395634621
-0.0422234796
-0.0159637611
0.0102879722
0.0095914742
0.0147401122
-0.0246932749
0.0004409825
