-0.0387564749
-0.0346242711
-0.0274269339
0.0231791381
-0.0043473211
-0.0092382571
0.0367828608
0.0069450312
0.0361747779
-0.0275661834
-0.0292851944
0.0430332907
0.0312715210
-0.0347022302
0.0100577185
-0.0015408098
0.0096669383
-0.0172379613
0.0156397838
0.0013738186
-0.0381017514
0.0119162574
-0.0177361742
0.0271885991
0.0412562788
0.0427433215
-0.0157243889
0.0017847979
0.0318853669
-0.0083480524
0.0310645718
0.0411166139
-0.0149705447
-0.0094251577
-0.0100279097
-0.0315826088
-0.0033738394
0.0127534941
-0.0354561470
-0.0158525519
-0.0021891706
-0.0438028239
-0.0413978472
0.0419782251
0.0359315313
0.0163216405
-0.0143821640
0.0396913812
-0.0166386534
0.0286543518
-0.0167651474
-0.0244391877
0.0240139943
0.0119395852
0.0047467309
-0.0381863862
0.0369211547
-0.0067759329
-0.0284882654
-0.0245463606
0.0387574844
0.0338176452
0.0212820452
0.0319960155
0.0262777843
0.0120073836
-0.0329886153
0.0242472813
0.0286825951
0.0282299016
-0.0223937538
0.0339692123
-0.0115612224
-0.0348375216
-0.0144163081
-0.0068727760
0.0140089644
0.0406308770
0.0338068083
-0.0224410109
0.0043818709
-0.0294173770
0.0088522183
-0.0296392646
0.0392858572
0.0041144807
-0.0136738233
0.0352851339
-0.0304112900
0.0092519019
0.0434766598
-0.0172927883
0.0127961570
0.0393978208
-0.0072042239
-0.0317157097
0.0204935670
0.0212674253
-0.0386975668
-0.0342178494
0.0273579508
-0.0408095606
-0.0023991198
0.0423269831
0.0083403131
-0.0010327769
0.0416260175
-0.0241480935
-0.0357696488
-0.0079521779
-0.0428326726
-0.0375421308
0.0069483924
0.0075448286
-0.0016100676
0.0380068161
0.0064763795
-0.0026107128
0.0062194732
0.0382412300
0.0189160630
-0.0175567176
-0.0347219855
0.0284653697
0.0084097292
0.0152688548
0.0060388530
-0.0257363729
-0.0102870231
0.0358716883
0.0434802957
-0.0437902994
0.0022513003
0.0039942409
-0.0227326714
0.0124912979
-0.0086325491
0.0251523796
0.0044342331
0.0196324177
0.0023043156
0.0191906616
-0.0164688379
0.0324183963
-0.0375081562
0.0304625612
0.0135402698
0.0227774996
0.0078517683
0.0388231091
0.0008624035
0.0268261842
-0.0386483707
0.0361819528
-0.0334465057
-0.0043533901
0.0397413522
-0.0126751214
-0.0245683249
-0.0297114775
-0.0249738134
-0.0374314897
-0.0430819429
-0.0102427956
0.0099890083
-0.0220023766
0.0416595340
-0.0148308752
0.0426482596
-0.0264059957
0.0054093529
0.0123452591
-0.0242333263
0.0016876862
-0.0023927714
0.0143684503
-0.0326641090
-0.0056568496
0.0001625393
-0.0074776779
0.0188458730
0.0313891806
0.0178661961
-0.0270761456
-0.0428775847
-0.0265955571
0.0414187908
0.0235873200
0.0213790722
0.0097973347
0.0302568004
-0.0054935836
-0.0385882743
0.0394644365
-0.0166316461
-0.0066821612
-0.0003684214
0.0321892686
0.0270884279
0.0385426879
0.0304646324
-0.0016660227
-0.0110105211
0.0088280002
0.0404894613
-0.0216026194
0.0041689132
0.0331775621
-0.0225566197
-0.0033744611
-0.0109808184
0.0429828987
0.0033729596
0.0285705533
0.0057426346
0.0094438130
-0.0330982879
-0.0308332853
-0.0114634000
0.0048968843
0.0081220344
-0.0011422376
0.0113356952
0.0057491041
-0.0009334210
0.0261317622
0.0319118984
0.0060601584
-0.0016147195
0.0164660569
0.0009176844
-0.0417603813
-0.0356449857
-0.0423949882
0.0181363635
0.0149754174
-0.0393933989
-0.0189392027
0.0327859446
0.0043712496
0.0302294362
0.0385847799
0.0095270211
-0.0320315734
-0.0065236632
-0.0013497897
-0.0049366709
-0.0263511576
-0.0022800339
0.0419463664
0.0153171709
-0.0231884941
0.0399373136
0.0213759057
-0.0058305846
0.0256873816
0.0135714272
0.0214742087
0.0303491335
-0.0050370065
-0.0102667985
0.0217793677
-0.0320696644
-0.0326982774
0.0252030455
-0.0293030906
0.0349917673
-0.0167983118
-0.0117249843
0.0093955547
0.0129272602
0.0364097990
-0.0393347256
0.0366150588
0.0234407708
0.0419151522
-0.0329511911
0.0415027738
-0.0434936434
0.0200095847
-0.0019281288
-0.0408901088
-0.0304846894
-0.0094519891
0.0156370699
0.0390376113
-0.0021717481
0.0405942686
-0.0264745522
-0.0083502391
-0.0192837995
0.0379474983
-0.0087966369
-0.0072931536
0.0297145080
0.0254072472
0.0059960266
-0.0307485703
-0.0013000353
-0.0097310068
0.0082783364
-0.0210949760
-0.0150399869
0.0162326749
0.0407037549
0.0201269314
-0.0077661364
0.0026511527
-0.0440003537
0.0042523537
0.0108187376
0.0158259086
0.0118362578
-0.0317104980
-0.0247627012
0.0420493931
0.0436117873
0.0174563080
-0.0210801512
-0.0028758638
0.0123892659
0.0396642685
-0.0275830626
0.0107830185
0.0136851715
0.0164428819
0.0349175930
-0.0037930477
0.0128910244
-0.0350259915
0.0345071293
-0.0366206355
-0.0437251106
-0.0143274255
0.0241471678
0.0149416374
0.0388573743
0.0427531078
-0.0106974440
0.0398474000
-0.0319214687
-0.0180340838
-0.0337104201
0.0009654104
-0.0143926479
-0.0170778390
0.0119922692
-0.0166242439
0.0276809055
0.0203048922
0.0007158484
-0.0301307868
-0.0391209163
0.0340928398
-0.0259652771
0.0083377054
0.0437098257
-0.0213444922
0.0062591126
0.0007632952
0.0166964475
-0.0192726739
-0.0120405955
0.0222556386
-0.0405940488
-0.0025266139
0.0027124605
-0.0323945954
-0.0037074527
0.0398111045
-0.0155962938
-0.0328545682
0.0092525240
0.0368278511
-0.0391850397
0.0146265160
-0.0134366574
-0.0071150726
0.0437517837
0.0101256482
0.0057586818
0.0031145203
0.0314666033
0.0307288356
0.0339366943
0.0141585330
-0.0312599838
0.0343936756
0.0323794633
-0.0068896874
-0.0271129571
0.0099848146
0.0403892808
0.0173844956
0.0392846502
0.0292726196
-0.0151643883
0.0352820642
-0.0157713611
0.0398563966
0.0382716618
-0.0071593323
0.0384775922
0.0298954546
0.0335611664
0.0404443219
0.0149473371
0.0087324530
-0.0173618142
0.0090518203
-0.0399065688
0.0204020869
-0.0417383537
-0.0268012434
-0.0193746742
0.0050523640
0.0392958149
0.0310220774
0.0246051513
0.0049498468
-0.0353211500
0.0057746135
-0.0137378490
-0.0234942026
-0.0099769803
0.0260276441
0.0229786560
0.0116037754
0.0154800052
0.0266349856
-0.0287473947
-0.0436575264
0.0065373397
0.0167826544
-0.0262690447
0.0142250778
0.0216256529
-0.0064614224
-0.0236616246
0.0166576151
0.0034104071
0.0307423063
0.0232665502
0.0198734868
-0.0093277348
0.0119285481
0.0213229544
0.0412188992
0.0065463642
0.0434614979
-0.0338084139
0.0257586315
0.0302879941
-0.0284958202
0.0342122912
-0.0288078822
0.0401941799
-0.0274506100
0.0203922931
0.0383299589
-0.0257529300
-0.0293725226
0.0150392232
0.0330533385
0.0126678040
-0.0033662478
0.0346820578
0.0026661833
0.0371408127
-0.0023797743
0.0418026559
0.0410392247
0.0337618738
-0.0100026010
0.0280850679
0.0429600962
0.0092667481
0.0349177532
-0.0433007330
-0.0388799310
-0.0269315299
-0.0323671252
-0.0257042982
0.0271514412
-0.0020025021
0.0319602229
0.0226908680
0.0195390843
0.0054828678
-0.0218263622
0.0415957719
-0.0180359371
0.0021318665
-0.0303664450
-0.0347459838
-0.0335246101
0.0276734047
-0.0335179828
0.0437038988
0.0383323543
-0.0120527549
-0.0422381572
-0.0311217383
-0.0216236189
-0.0219001975
0.0166544747
0.0368542112
-0.0258267093
0.0113378866
-0.0263482183
0.0253944825
-0.0309376363
