-0.0351495296 0.0403168388 -0.0282417964 -0.0304053146 -0.0306446571 0.0399263948 0.0389150009 0.0267019514 -0.0053930106 0.0172122456 0.0126084825 0.0317316651 0.0402652659 -0.0386055186 0.0341969728 -0.0047902842 -0.0198932122 0.0280445386 -0.0357875526 -0.0408571213 -0.0054484545 0.0164789222 -0.0025631448 0.0025458750 -0.0248244200 0.0074292775 -0.0080647990 0.0151025746 -0.0176883265 0.0172389094 -0.0095460769 0.0420855023 0.0245353654 -0.0380032696 0.0274218824 0.0287268329 0.0419302173 -0.0233741459 -0.0101418905 -0.0098761180 0.0201179963 0.0186645426 0.0336126499 -0.0085790800 0.0438379571 0.0315784104 -0.0128043387 0.0429736041 0.0303652603 0.0221804641 -0.0273434147 0.0111960890 0.0408039875 -0.0287396554 0.0023194570 0.0077093067 -0.0094790794 0.0014655144 -0.0094156377 0.0095302714 -0.0370167345 0.0067778612 -0.0092688454 -0.0231591985 0.0379098840 -0.0236359108 -0.0209998097 -0.0029605157 0.0079737045 0.0377766155 0.0268309414 0.0416116267 0.0343846828 0.0175301973 0.0027218328 0.0332314149 0.0256170444 -0.0068710581 -0.0353605412 -0.0019592964 0.0098605873 0.0043945569 0.0062650922 0.0083061168 -0.0062401569 -0.0113700712 0.0222264305 -0.0158497915 0.0164101869 -0.0106621413 -0.0225443430 -0.0345300436 0.0153665934 0.0315995626 -0.0178196449 -0.0067567192 0.0088775596 0.0262335371 0.0176283978 -0.0090964278 0.0395825766 0.0156920031 0.0440195799 -0.0007703654 0.0210352652 -0.0304683782 -0.0374165438 -0.0382062905 0.0060300338 0.0330033824 -0.0220768042 0.0439165682 0.0233128387 0.0157767981 -0.0034920771 0.0236541536 0.0115592573 0.0110528264 -0.0047039147 -0.0035684523 0.0169608872 -0.0225767698 -0.0162307881 0.0434830971 -0.0333666988 -0.0159850977 0.0393073522 0.0015999891 0.0393043272 0.0194656327 0.0065151965 -0.0215174928 0.0108568966 0.0313003249 -0.0345035233 0.0151830912 -0.0408963859 0.0136530977 0.0345865451 0.0386084616 -0.0095068328 -0.0126665821 -0.0065610632 -0.0226837713 -0.0331411138 0.0298918821 -0.0193191133 -0.0134721659 -0.0342208110 -0.0178463925 -0.0393503830 0.0181479584 -0.0159186106 -0.0426913053 -0.0267425757 -0.0126423370 0.0036519663 0.0174677037 0.0126652122 -0.0064372513 0.0037945439 0.0214634612 -0.0124336416 -0.0224330071 -0.0143193072 0.0131423827 -0.0409882851 -0.0078521734 0.0092931530 0.0375736319 0.0096838707 0.0429535918 0.0150632886 -0.0285211038 0.0154725872 -0.0350363329 0.0023911435 -0.0336674489 -0.0249502063 -0.0253882278 -0.0437884480 -0.0315688588 -0.0052066427 -0.0072023221 0.0190652534 -0.0425110795 0.0238287058 -0.0389671475 -0.0016801630 -0.0246960931 -0.0064192442 0.0011964963 -0.0203381404 -0.0393488295 -0.0441375636 -0.0048368354 0.0419742316 0.0364277586 -0.0038292676 -0.0056643151 0.0313276462 -0.0269104615 -0.0108628860 -0.0238391049 -0.0358961374 0.0370208919 -0.0402851962 -0.0420194604 -0.0359620415 -0.0120453425 -0.0428351574 -0.0178503916 -0.0301725287 -0.0412995592 -0.0440894291 0.0083486848 0.0297026373 -0.0149913123 -0.0269912779 -0.0274913199 -0.0167848654 -0.0053658783 -0.0111530516 -0.0318951532 -0.0326643772 0.0437440723 -0.0378049798 -0.0267180149 -0.0192446671 0.0280861743 -0.0308074430 0.0414577611 -0.0091209626 -0.0146258259 0.0335427672 0.0091101890 0.0418231599 0.0426680297 0.0141440919 0.0105477069 0.0182912480 0.0376783796 -0.0125035420 -0.0149986092 0.0207786914 0.0039503346 -0.0349960923 -0.0317831635 0.0387743637 0.0027400719 0.0169992037 -0.0112942755 -0.0114966696 0.0165996309 -0.0377471112 -0.0360879116 0.0364261828 0.0028137395 -0.0382136405 0.0358845517 -0.0350372903 0.0371875279 -0.0048640729 0.0380379632 -0.0331764445 -0.0021222413 -0.0385148488 -0.0311523005 0.0147189964 0.0248012766 0.0420717224 0.0023887462 0.0349133834 0.0097144637 -0.0109552406 0.0045382408 0.0352690890 -0.0125323385 -0.0048736189 0.0139372516 0.0305628609 0.0274145119 0.0331425145 -0.0001905986 0.0236119181 -0.0025055457 -0.0269868001 -0.0047937036 0.0004561132 -0.0227699671 0.0140985372 0.0087914849 -0.0080232844 0.0048281113 -0.0437484346 0.0072931484 -0.0195907131 -0.0313070267 -0.0316480994 -0.0130070755 -0.0279508457 0.0400053971 0.0277427360 0.0440619066 0.0044858102 -0.0205235295 -0.0181512348 0.0037002719 0.0208098907 -0.0023207793 -0.0319167525 0.0033223939 0.0199378505 -0.0171284992 0.0168671571 0.0041591828 -0.0177886616 0.0323872715 -0.0062698494 0.0230207406 0.0281822588 0.0136977360 -0.0264329743 -0.0325268842 0.0185357258 -0.0049720583 -0.0125407949 0.0209714342 -0.0358140357 0.0330433920 0.0031740158 -0.0032053310 0.0183059294 -0.0432085991 -0.0181902424 0.0316897295 -0.0135934856 0.0400488451 0.0045174886 0.0207025837 0.0110131297 -0.0325669125 0.0255939309 0.0022049965 -0.0164865833 -0.0028005263 0.0326864757 -0.0180542655 -0.0062593757 -0.0285578296 -0.0436734371 0.0074867555 0.0026517531 0.0215398464 -0.0190870371 0.0389833674 0.0366605259 0.0402111262 -0.0161044057 -0.0067881448 -0.0097850179 0.0048337113 -0.0264328904 -0.0023352988 -0.0186071638 -0.0349580906 -0.0078411633 -0.0140866833 -0.0027639745 -0.0220489390 0.0300502647 -0.0362311602 0.0091211470 -0.0144692129 -0.0254808944 -0.0186386909 -0.0281344336 -0.0097321132 0.0057838541 -0.0135442428 0.0196321122 -0.0085755931 0.0416669212 0.0407133214 -0.0382879414 -0.0384206437 0.0208324920 -0.0326206759 -0.0287990831 -0.0435267463 -0.0339862965 -0.0424600728 0.0171592832 -0.0226513389 -0.0197756644 0.0180558935 0.0055241189 -0.0374006443 -0.0291125346 -0.0335310400 -0.0254482664 0.0153169651 0.0099345446 -0.0233407244 0.0439296402 -0.0398608930 0.0011983087 -0.0285922047 -0.0285354070 -0.0012912320 0.0245748367 -0.0069858031 0.0322743803 0.0122644901 0.0419400595 0.0097305635 0.0047958004 0.0046120612 -0.0223566629 0.0354833715 0.0246580336 0.0161953736 0.0225534737 -0.0375340059 -0.0341631807 -0.0381106511 -0.0190116800 -0.0223147850 -0.0398820341 0.0382647738 -0.0059297979 0.0127730817 0.0085683484 -0.0248543173 -0.0234278627 0.0035524524 0.0226772595 -0.0199411809 0.0035548653 -0.0119017586 0.0203899015 0.0104566803 0.0033670589 0.0169955008 -0.0022660568 -0.0386588238 0.0208743904 0.0177378282 -0.0021739660 0.0254643243 0.0203246698 0.0335802473 -0.0205914490 0.0234985948 0.0053555104 0.0036589205 0.0262936372 -0.0368314087 -0.0205063857 -0.0372229517 -0.0289806779 0.0270379037 -0.0206896458 0.0383191854 0.0302146859 -0.0187117197 0.0436378457 -0.0109531647 -0.0040124641 -0.0221638530 -0.0214082915 -0.0110929711 0.0318452194 -0.0277441218 -0.0179772750 -0.0087830974 -0.0368186608 -0.0119439904 0.0236632470 -0.0235642809 0.0411777385 -0.0402877517 -0.0133672412 0.0247870777 -0.0136962133 0.0150277065 0.0116221569 0.0182880182 -0.0272498764 -0.0171609484 0.0373602211 0.0049877581 0.0348000079 0.0079112267 -0.0312225483 -0.0300193299 -0.0291836839 -0.0234727226 -0.0155992284 -0.0177546442 -0.0408819206 -0.0099295918 -0.0130179655 -0.0285702255 0.0335938893 0.0227285046 -0.0106368316 0.0073998328 0.0368217416 0.0418465100 -0.0041081798 0.0155401537
0.0200068131 0.0062225289 0.0024081550 -0.0128506739 0.0302052759 0.0129484599 0.0330602415 -0.0422086976 -0.0036443800 -0.0150895463 0.0381088741 0.0046488238 -0.0383800641 -0.0189568195 -0.0090510463 0.0416373461 0.0242995340 -0.0252202470 0.0357108191 -0.0430704802 0.0277317297 -0.0104811890 0.0419140905 -0.0149381338 -0.0338684991 -0.0166991185 0.0105554303 0.0399074480 -0.0035979236 -0.0059634838 0.0078413943 0.0196027886 0.0190924592 0.0104333311 -0.0137251681 -0.0074216174 0.0268536434 -0.0053326879 -0.0198626816 0.0433205478 -0.0306060985 -0.0000181179 0.0434472039 -0.0382523723 0.0019132930 -0.0028049201 0.0319850706 -0.0268070027 0.0033236213 0.0426236503 0.0098686796 0.0275165867 -0.0426614285 0.0351681560 0.0020867430 -0.0050660302 -0.0129596340 0.0064587938 0.0291749761 -0.0019938566 0.0208298098 -0.0164369177 0.0371565931 -0.0293347910 0.0152968504 0.0262696464 0.0187112410 0.0016077495 -0.0109908283 -0.0101210335 0.0420024544 0.0300598796 -0.0332739949 0.0378734246 -0.0331642590 -0.0212670565 -0.0175684132 -0.0196648873 -0.0060340115 0.0025175945 -0.0172542445 -0.0298289098 -0.0000220533 -0.0220938828 -0.0092732077 -0.0426046625 0.0323341116 -0.0150865065 0.0257043988 -0.0185825713 0.0174225792 0.0224954803 0.0048190337 0.0337249376 0.0281948391 -0.0247552935 -0.0371073969 0.0358779691 -0.0422912203 0.0411573723 -0.0097245742 0.0377665423 0.0429271497 0.0042174719 0.0168980360 -0.0033006198 -0.0067725559 -0.0206221789 -0.0251821205 0.0228055902 0.0085404264 0.0137129985 0.0231793020 -0.0184311699 0.0265316721 -0.0266252868 0.0175947081 0.0201656129 0.0117606092 0.0049239690 0.0433960892 -0.0072369510 0.0072590094 0.0265142191 -0.0173855480 0.0325045958 0.0344294608 -0.0316981524 0.0257258937 0.0345526189 -0.0270597190 0.0379582196 -0.0037904347 0.0215636920 -0.0104236007 -0.0197670553 -0.0376138426 0.0128970621 -0.0043819128 0.0171083324 -0.0000475574 0.0127187753 -0.0256990772 -0.0014551252 0.0015458041 -0.0170192029 -0.0201597437 0.0066806180 0.0185247250 -0.0060743038 -0.0252709500 -0.0215504058 0.0183387566 0.0165760070 -0.0334269926 -0.0079254145 -0.0009031332 0.0364443846 -0.0386291891 0.0288316421 -0.0366334617 0.0167203397 0.0103300819 0.0113339191 0.0084874639 0.0168257169 -0.0073101809 0.0242209975 -0.0314388126 -0.0173812024 0.0211670790 0.0258124359 0.0043050949 -0.0153097212 -0.0338329449 -0.0107375681 0.0030198586 0.0335388370 0.0386900231 -0.0435366295 -0.0259383135 -0.0018155071 -0.0122541692 0.0071350294 -0.0310473330 -0.0139923533 -0.0000241607 0.0408606045 -0.0406438820 0.0280488227 0.0130957365 0.0253647212 0.0012945036 -0.0286595989 -0.0262388419 0.0139997657 0.0054212175 0.0400838964 -0.0381889269 -0.0277670063 0.0134826927 -0.0214053243 0.0364048071 0.0097554568 -0.0182409342 -0.0346294157 -0.0274967290 -0.0003313006 -0.0219682809 0.0002729535 -0.0367123261 -0.0173819549 0.0395920128 0.0403773859 0.0344332159 0.0014670686 -0.0142253721 0.0048512393 -0.0032991341 -0.0246402640 -0.0078934403 -0.0300656110 -0.0091110365 -0.0400172770 0.0074589541 -0.0159114730 -0.0402103513 -0.0213759337 0.0264190249 0.0361871049 0.0021289585 0.0122748958 -0.0252065342 -0.0142868329 0.0046578748 0.0363280363 0.0272993557 0.0025136012 -0.0286763944 -0.0401360802 0.0388534702 -0.0033113302 -0.0236676633 0.0013874584 -0.0170572456 0.0286822785 0.0040721758 -0.0437187664 -0.0228992831 0.0080174841 0.0105717145 0.0071403822 0.0180466529 -0.0074232714 -0.0268566031 -0.0150453923 -0.0109302420 0.0199355744 -0.0369689800 0.0383093655 -0.0422319546 -0.0304512139 0.0301015694 -0.0069029159 0.0088305231 -0.0122138774 0.0243487023 0.0122015178 0.0162025187 0.0124190906 0.0311160590 0.0027433382 -0.0386279598 -0.0041439254 0.0220591333 0.0081832949 -0.0361328833 -0.0237547848 0.0421376266 -0.0305568501 -0.0221436005 0.0115488470 0.0035657077 -0.0082038678 -0.0123405233 0.0041673854 -0.0290807616 -0.0040450278 -0.0394321606 -0.0315310173 0.0000264630 0.0021726226 -0.0338625461 -0.0141698439 -0.0208490342 0.0092384573 0.0335952751 -0.0017328045 0.0320428982 0.0359701365 0.0157802757 0.0217565391 -0.0129444189 0.0002876259 0.0309352595 0.0388839543 0.0220569056 -0.0351755805 -0.0228739157 -0.0187303592 0.0346780457 0.0427487381 -0.0334031880 0.0261914898 -0.0190929547 0.0268162526 -0.0086690644 0.0417287983 0.0340922438 -0.0052731819 0.0249687824 0.0209445748 -0.0183852296 -0.0039887512 0.0277148392 -0.0020296711 -0.0198205188 -0.0391488746 -0.0024720232 0.0286615267 -0.0052655530 -0.0379410945 0.0285002626 0.0391037613 -0.0079384223 -0.0412055030 0.0243509635 -0.0352450684 0.0351713747 -0.0412214734 -0.0297945980 -0.0191686191 0.0387027971 0.0343438797 0.0426444374 0.0150819225 0.0181731563 0.0270647723 0.0085941851 -0.0076224944 0.0187361911 -0.0329954885 -0.0097092222 0.0268016495 -0.0353800282 0.0324596390 0.0177610721 0.0155833336 0.0271689389 -0.0361293964 0.0231411010 -0.0181389023 -0.0384838879 0.0407703780 0.0022084473 0.0236268006 -0.0090548657 0.0195718631 -0.0119203087 0.0107146082 0.0324618779 0.0028696102 -0.0230356660 0.0166414622 0.0271013603 -0.0406150743 -0.0300718974 -0.0211123843 0.0070462627 0.0235985778 0.0351406448 0.0172862392 0.0382223129 -0.0210592672 -0.0399226286 0.0440153852 -0.0344566591 0.0105716567 0.0229360927 -0.0012067327 0.0002510740 0.0259749871 -0.0197600015 0.0281943027 0.0434500240 0.0103774760 -0.0315003283 0.0324759632 0.0000903945 -0.0002057398 -0.0018350685 -0.0011329915 -0.0248269755 -0.0106046265 -0.0190763529 -0.0249839500 0.0110289184 0.0015067341 -0.0411079489 -0.0306889173 -0.0427387431 0.0139221000 0.0320847668 0.0351392850 0.0212427955 -0.0107646259 0.0341958143 0.0349620320 0.0094724195 0.0360838622 0.0048226109 0.0055512614 -0.0290135574 -0.0044670813 0.0027335181 0.0140914666 -0.0360261947 -0.0064167152 0.0043761600 0.0019516045 -0.0174778122 -0.0004615291 0.0165281706 0.0230118576 -0.0431330316 -0.0436132886 0.0071129971 -0.0169269741 0.0321230069 0.0417466722 -0.0221535694 0.0380988121 0.0127478670 0.0344410092 -0.0175972618 0.0019094313 -0.0292460136 0.0240597073 0.0245653801 -0.0027236610 0.0274179578 0.0364723690 -0.0064698993 0.0163919739 0.0078363428 0.0393902026 -0.0143869370 0.0245768968 -0.0364625640 0.0430409499 -0.0114207370 -0.0172239896 -0.0307580102 0.0060220785 -0.0427856036 -0.0093037952 -0.0074704657 0.0015402355 0.0161736682 0.0277203340 -0.0092242910 0.0405683592 0.0180037636 0.0272763856 -0.0314819813 -0.0372160897 0.0366943367 -0.0088711157 0.0269818585 0.0349755362 -0.0302476380 -0.0090223700 -0.0018693761 -0.0037160506 -0.0144879632 -0.0166080557 -0.0195140168 0.0414762013 -0.0034419065 0.0145524954 -0.0428765640 0.0013944021 -0.0021620332 0.0249497108 0.0148295369 -0.0275176037 -0.0375639908 -0.0063325269 -0.0155041609 0.0224241614 0.0020854524 -0.0252518468 -0.0167943649 -0.0365413055 0.0290723797 0.0100116413 -0.0289751887 0.0357600637 0.0195028055 -0.0148388669 0.0070971497 -0.0006517589
0.0070527745 0.0001323042 0.0360476524 0.0082941940 0.0152871199 0.0204081312 -0.0135367196 0.0173949990 -0.0377175398 -0.0257859938 -0.0373605974 -0.0274262503 0.0403986499 -0.0021595571 -0.0234853085 -0.0207422227 -0.0124406060 0.0042375969 0.0250494257 0.0032484788 -0.0065899654 0.0249627456 -0.0146694211 0.0332081132 -0.0193105843 0.0026681905 0.0367705002 -0.0298674218 0.0164433084 0.0378166959 -0.0145385871 0.0362096280 0.0440857597 -0.0083407136 -0.0107792728 -0.0228605401 0.0419759788 -0.0334984288 -0.0303464048 0.0093076043 0.0234368034 0.0071290024 -0.0353425555 0.0416472591 -0.0396508127 -0.0099667599 0.0207279138 0.0411442593 0.0344801322 0.0359203741 0.0226341225 0.0413488187 0.0422697514 -0.0416569002 -0.0424834974 -0.0168000180 0.0365909338 0.0065066828 0.0233614706 -0.0358038060 0.0021541833 0.0298455898 0.0020155255 -0.0363355614 0.0196397305 -0.0033273988 -0.0359645411 0.0439977050 -0.0214388631 -0.0139059201 -0.0109988730 -0.0121409688 0.0217437483 -0.0266549829 -0.0151434625 0.0385357887 -0.0252688210 -0.0005862205 -0.0324803367 0.0098757967 -0.0366229452 0.0374190919 -0.0384093337 0.0347544737 0.0360470675 0.0246952809 -0.0408880897 0.0140546933 -0.0219873097 -0.0432401262 -0.0204618946 -0.0296825971 -0.0059706224 0.0005062943 0.0350141637 -0.0179254487 0.0125745544 -0.0276692845 -0.0190486889 0.0174566656 0.0048832707 -0.0421169959 0.0294748284 -0.0310405418 0.0387943871 0.0147171943 -0.0400395803 0.0224529486 0.0380392596 0.0258955769 -0.0360786170 -0.0410693884 0.0247654505 0.0050584278 0.0089334929 0.0044497009 -0.0252594221 -0.0425281674 -0.0218516290 -0.0232975446 -0.0180025045 0.0302774478 -0.0374458991 0.0267052799 -0.0368915983 0.0242604893 -0.0072885072 -0.0340861380 -0.0095362198 0.0227355435 0.0017202974 0.0410321020 0.0021122315 -0.0365687795 -0.0247541759 -0.0374685116 0.0054389662 -0.0386094041 0.0245217793 -0.0347055309 0.0394899882 -0.0351876654 -0.0312513560 0.0308386963 0.0186195709 -0.0168394987 -0.0416990146 -0.0143289063 0.0403844677 0.0430930406 -0.0093179410 0.0335697532 -0.0247330237 0.0363638476 -0.0171759408 -0.0222115107 0.0014177251 0.0334134102 -0.0432259031 -0.0028944979 -0.0199750029 0.0267514102 -0.0082887569 0.0158083178 0.0077235312 0.0247880258 -0.0156666059 -0.0163704250 0.0273785293 0.0359483548 -0.0298659671 -0.0282766726 0.0083826231 -0.0124883484 0.0120457532 -0.0428781994 -0.0196436867 0.0393629447 0.0148281250 0.0311018135 -0.0053132162 -0.0008070384 0.0205831192 0.0062001436 -0.0293464288 0.0192981400 -0.0315737352 -0.0367374159 -0.0387168601 0.0272301715 -0.0232052281 -0.0320731699 0.0279835630 -0.0219504107 0.0299810227 -0.0352565907 0.0315625146 -0.0007598023 0.0433850475 -0.0203040224 0.0294022523 -0.0314669013 -0.0360321105 0.0280607287 0.0431510136 0.0071792835 0.0090900846 -0.0234106667 -0.0284345765 -0.0285046976 -0.0058196262 0.0354014561 -0.0371043794 -0.0369840488 0.0301346071 -0.0258571859 -0.0407317840 -0.0406024344 -0.0230208933 -0.0381127112 0.0194709897 -0.0222885553 -0.0136514585 -0.0284585785 -0.0410590097 -0.0275997426 -0.0227121618 0.0387425944 -0.0029978210 -0.0186614972 0.0428847373 -0.0117497565 -0.0046592918 -0.0053478605 -0.0122750904 0.0430490151 0.0082062809 -0.0245606229 -0.0441940613 -0.0082119340 0.0179817993 -0.0023422532 0.0136194956 -0.0089978827 -0.0111649213 -0.0364218205 0.0204738434 -0.0002731853 -0.0438045636 -0.0308557805 -0.0440333672 -0.0358661413 -0.0272331275 0.0344950780 -0.0347136408 0.0271046385 -0.0001445795 -0.0040235911 -0.0323367417 0.0123134013 0.0186172053 -0.0170771126 0.0393337458 0.0245860741 0.0128324721 -0.0375866182 0.0249851625 0.0360943303 -0.0408782847 0.0177352931 -0.0010760459 0.0229174122 -0.0201257989 0.0373301022 -0.0418052226 0.0218915623 -0.0358567610 -0.0302290469 0.0065112296 0.0087516978 0.0018577119 0.0092384471 0.0424138308 -0.0103530148 -0.0196183994 -0.0164493937 -0.0048013162 -0.0155641725 0.0021745034 0.0052743196 0.0381504223 -0.0008874967 0.0419830978 -0.0172372553 0.0334430970 0.0113787325 -0.0090045314 -0.0102236820 -0.0095862476 -0.0381305963 0.0121421749 -0.0001394218 0.0069962926 -0.0059391125 0.0097455159 0.0342036784 -0.0032151302 -0.0202320684 -0.0094485385 -0.0068670651 -0.0121485759 -0.0275719091 0.0395966433 -0.0431360602 0.0024863374 -0.0096717691 -0.0363929272 -0.0172743276 0.0198464449 0.0349602103 -0.0286788754 0.0281839035 -0.0137298042 0.0340878852 -0.0316094570 0.0023792633 0.0263543501 -0.0121215284 0.0377780125 -0.0260800011 -0.0001811840 -0.0082786521 0.0168681704 0.0424880832 -0.0093939900 -0.0014653511 0.0079821916 -0.0337547772 0.0016369573 0.0133359106 -0.0151877645 -0.0373266377 0.0294050500 0.0171431247 0.0194063634 0.0053760465 0.0043817339 -0.0184756089 -0.0277659856 -0.0184646714 -0.0226168260 0.0245453753 0.0260462146 -0.0430448875 0.0433945172 0.0094069028 -0.0341617167 -0.0171631351 0.0122335283 -0.0198387895 -0.0395813547 0.0071312888 -0.0292961467 -0.0203736182 -0.0250503905 -0.0052942606 -0.0328515731 0.0078776255 -0.0175952334 -0.0352621339 0.0197128449 0.0310006347 -0.0252114274 -0.0280599855 0.0063898889 0.0294392630 0.0036814588 0.0040044351 0.0003373644 0.0066181771 0.0299597066 -0.0364793241 0.0284343399 0.0114257205 0.0038043589 0.0070814872 -0.0298604202 0.0152098909 -0.0396061242 0.0200326815 0.0237954631 0.0167977531 0.0109091587 -0.0207919311 -0.0037998913 -0.0024194187 0.0212095324 0.0127744246 -0.0114541491 0.0009895711 -0.0371737294 0.0212723315 0.0150851421 -0.0343382433 0.0167282466 -0.0273447745 0.0183109567 0.0168973990 -0.0439770967 0.0036908048 0.0286721326 0.0329591632 -0.0236956272 -0.0419489518 -0.0324250087 0.0099966787 0.0424723327 -0.0405569635 -0.0439107940 0.0130905947 0.0426619090 -0.0335964113 -0.0157786049 -0.0359306671 -0.0027510722 0.0437412411 -0.0071301982 -0.0292244349 -0.0330852382 -0.0248164069 -0.0129472325 0.0392819531 0.0292389654 -0.0130024133 0.0219574068 -0.0143105146 -0.0304276422 0.0254182052 0.0044706687 0.0096791759 -0.0092840865 0.0278907288 0.0029515964 0.0103935758 0.0242275298 -0.0105441557 0.0190779809 -0.0371441953 0.0333076119 0.0209568199 -0.0014195427 -0.0169587806 0.0404720418 0.0421631075 0.0290155914 -0.0088479193 -0.0275863558 0.0035502608 -0.0129262432 0.0349363498 0.0332763121 0.0218930636 -0.0251131300 -0.0424748361 0.0067512505 0.0047240714 0.0008764806 -0.0419205390 -0.0143828224 0.0174834188 -0.0116989380 0.0251527801 0.0320203081 0.0142618185 -0.0362877026 0.0129008284 -0.0275515784 0.0135568446 -0.0357270874 0.0432911888 0.0076195756 -0.0082871979 0.0326549411 0.0396556892 0.0325169638 -0.0162545852 -0.0408566371 0.0419641025 -0.0038910075 0.0001469186 0.0287559573 -0.0336355604 -0.0219079200 -0.0363963991 0.0117829992 -0.0185321737 0.0220079515 0.0361348093 0.0298493989 0.0339141153 0.0313438661 0.0336375311 -0.0044500590 -0.0417908169 -0.0179346316 -0.0095446380 0.0372917354 -0.0218905676 0.0149024883 0.0262692980 -0.0305140652 0.0025286055
-0.0405060984 0.0184318703 -0.0119474512 0.0363855436 0.0181552079 0.0071521513 0.0070370589 0.0217304081 0.0074615832 0.0120820580 -0.0371581092 0.0114495968 0.0015526003 -0.0142700216 0.0367573053 -0.0409277342 -0.0307393447 0.0203130525 -0.0174833667 0.0009827538 -0.0054771937 0.0281554107 0.0409557372 0.0046099960 -0.0208278876 -0.0118261371 0.0046174610 -0.0272818282 0.0183011517 -0.0081000449 0.0183148496 -0.0172741432 -0.0163576864 -0.0052958829 0.0208741967 -0.0070741326 -0.0388628021 0.0328696854 0.0095150722 0.0090852538 -0.0316552632 0.0146200834 -0.0132634388 -0.0000640000 0.0059083560 -0.0309637673 0.0222839396 0.0424660519 -0.0127063952 0.0327022485 0.0293472558 0.0273103770 0.0297636148 -0.0034564473 -0.0409742482 0.0040740669 -0.0353747010 -0.0015296513 -0.0354821235 -0.0158711225 -0.0276909061 -0.0316257142 0.0330781117 -0.0426377952 0.0057888171 0.0267831683 0.0068299915 0.0350349993 0.0005295699 0.0210997555 -0.0408718586 -0.0099933073 0.0297196172 0.0028090926 -0.0152830267 -0.0336197354 -0.0038926459 -0.0037133216 0.0247229189 0.0036994605 0.0388303064 -0.0181431435 -0.0088462811 -0.0334491134 -0.0322489776 -0.0120412493 0.0027543914 0.0429970026 0.0222979262 -0.0156139685 -0.0092857517 -0.0389486402 0.0063225646 0.0067423838 0.0271713659 -0.0011440815 0.0152952913 0.0261081606 -0.0404328890 -0.0121050123 0.0236697961 0.0205872972 0.0269907527 -0.0356905609 0.0344547778 -0.0003552611 0.0295934621 0.0047336705 0.0395820104 -0.0235916972 -0.0300756171 0.0412724391 -0.0002484504 -0.0065224408 0.0403005853 0.0328165665 0.0372206122 -0.0100184958 -0.0020734880 0.0422747955 -0.0178410932 -0.0165243149 -0.0187699776 0.0134998355 0.0232787579 -0.0187167302 0.0122096520 0.0268018283 0.0164084323 0.0382972322 0.0436079279 0.0392064713 0.0416484177 -0.0432630964 -0.0209081192 0.0185432173 0.0237454027 0.0157477632 0.0323103257 0.0014613682 -0.0435815789 0.0154280700 -0.0384197719 -0.0192799699 0.0147018796 0.0062860390 0.0328198560 -0.0436477512 0.0371687561 0.0262424760 -0.0006546091 -0.0278188325 0.0283504985 0.0346519463 0.0007593124 -0.0117929308 0.0370229073 0.0352643840 0.0257367417 0.0157430023 -0.0030827101 0.0311769191 0.0298644081 -0.0173670780 -0.0041312655 0.0314166136 0.0329443105 -0.0393827558 -0.0062968815 -0.0335983336 0.0013133959 0.0191128794 0.0061943852 -0.0341967978 -0.0401254334 -0.0299332123 -0.0060120369 0.0343484171 -0.0437393039 0.0329505652 -0.0127502745 0.0124466019 0.0307772886 -0.0177568775 -0.0152840437 -0.0083750421 0.0361660272 -0.0102241198 -0.0113268914 0.0104998387 0.0423200987 0.0295708757 -0.0274526384 0.0304072071 -0.0127517926 -0.0310350526 -0.0013015948 0.0123240016 0.0421534367 0.0292368364 0.0048810844 -0.0288060792 -0.0200690012 -0.0271460414 -0.0021052193 -0.0031352038 0.0399547331 -0.0280456021 -0.0393207595 0.0379547626 0.0341426916 0.0426225848 -0.0269601643 0.0107636144 0.0427620932 -0.0264616869 0.0384785384 0.0409656130 0.0215272605 0.0424056873 -0.0020628828 0.0045719058 0.0261168573 -0.0002562581 0.0223723315 -0.0413591452 0.0197640434 -0.0420073979 0.0144073311 0.0123068849 0.0435632728 0.0127350651 0.0136010880 0.0320779607 0.0091643846 -0.0254393313 0.0241900049 -0.0270672794 0.0327273048 -0.0206147283 0.0247731525 0.0375304073 0.0201150160 -0.0173447914 -0.0093038902 -0.0036144347 -0.0216419324 -0.0146631412 -0.0418403558 -0.0331435055 0.0129440138 -0.0205370318 0.0017881696 -0.0260094311 0.0265168734 0.0290301647 0.0185383484 -0.0331971757 -0.0227774996 -0.0154165262 0.0037626231 -0.0107329162 0.0059574097 0.0048660589 0.0026231776 -0.0400335938 0.0347163752 0.0184711572 -0.0140535822 -0.0419807471 -0.0125386240 -0.0056995605 -0.0301411971 0.0196642913 -0.0123326471 0.0386112444 -0.0186864901 -0.0349557474 -0.0069689918 -0.0140510369 -0.0095480364 0.0289452802 -0.0131353075 0.0336727612 -0.0002359907 -0.0221004747 -0.0121224709 0.0384542570 -0.0140568223 0.0226688515 -0.0072761420 0.0191342793 -0.0066927299 0.0339338705 0.0051310943 -0.0165671781 0.0405372642 0.0148640238 0.0170077439 -0.0169010703 0.0096442048 -0.0316444486 0.0428577065 -0.0056504328 0.0307700541 0.0307768881 0.0244929511 0.0292863529 -0.0227690488 0.0049278303 0.0350797474 0.0366585180 -0.0167147294 -0.0160333607 0.0351437926 0.0205567777 0.0410023332 -0.0090418477 0.0157298297 -0.0114761442 0.0073098438 0.0417463779 -0.0421426706 0.0097590713 -0.0145933302 -0.0390546508 0.0097416332 -0.0244649537 -0.0068805781 -0.0125008812 -0.0093341302 -0.0398909412 -0.0284639113 -0.0056163627 -0.0069462801 0.0181416515 -0.0095006842 0.0101745706 0.0291688535 0.0254446100 0.0396429971 -0.0057172514 0.0152530288 -0.0208260901 0.0253420100 -0.0143106095 -0.0425416678 0.0318602622 0.0289133005 0.0348654203 -0.0134448027 -0.0042780633 0.0392301343 0.0165912695 -0.0162703432 0.0006941006 0.0184287876 0.0342262015 -0.0063998671 -0.0102453614 -0.0046737376 0.0119727235 0.0386129804 -0.0336528085 0.0016118377 -0.0412908606 -0.0362283811 -0.0137244835 0.0157291144 -0.0289045405 0.0314586908 0.0219230354 0.0061572855 -0.0082901213 0.0283957962 0.0069315182 0.0242328141 0.0345995910 -0.0283806175 -0.0234567802 0.0193228647 0.0231840741 0.0029331255 -0.0322423317 0.0331731401 -0.0064946502 -0.0408610217 -0.0317123830 0.0195928682 0.0208091792 -0.0341386981 0.0205093510 0.0359447226 -0.0138385538 0.0219588932 -0.0432206430 -0.0043006274 0.0333007760 -0.0427243449 -0.0179519225 0.0219421387 0.0138625829 -0.0406312048 -0.0284013022 -0.0233678874 0.0096679386 0.0225005373 -0.0407303236 0.0175483730 0.0072257398 -0.0240376852 0.0056058941 0.0128941061 -0.0284001995 0.0417926051 0.0423457958 -0.0225308519 -0.0106154215 0.0281634554 -0.0232268479 0.0025909669 -0.0421345681 0.0340810195 0.0378363170 0.0302747712 0.0282391887 -0.0101659149 0.0340363197 -0.0071843360 0.0393645130 0.0093611786 -0.0177624933 0.0432304740 0.0310884733 0.0389336124 -0.0427450947 0.0226210039 -0.0424859710 -0.0051597697 0.0117078302 0.0047328910 -0.0232021026 -0.0216322429 -0.0050452147 -0.0243009496 -0.0017138700 0.0228345450 -0.0264284015 0.0396748707 -0.0138620082 -0.0047741155 0.0223076791 -0.0347283334 0.0029028798 0.0294850916 -0.0030332876 0.0075137294 0.0432096645 0.0158681460 -0.0143408282 -0.0050610411 -0.0280472096 -0.0148329139 -0.0243030265 0.0161490645 -0.0311206114 0.0255444255 -0.0053354166 -0.0126313046 0.0375363901 -0.0013992016 0.0267980136 0.0121695073 0.0146773504 -0.0172031261 -0.0069024893 0.0377946533 0.0058685904 -0.0430295281 0.0370438136 -0.0049091964 -0.0155505743 0.0411574133 0.0270567965 -0.0324557647 -0.0046873619 -0.0239993576 -0.0035239086 -0.0020517139 0.0311124176 -0.0034159599 -0.0041617746 -0.0078470586 -0.0167611316 0.0338536389 -0.0369104445 -0.0376102366 -0.0200303104 -0.0014039378 0.0226086974 0.0243360698 0.0099984445 -0.0244801752 0.0132023580 0.0275821518 -0.0047579943 0.0016544587 0.0150457397 0.0235574543 -0.0088809412 -0.0419055298 0.0295497179
-0.0158874802 -0.0206392165 0.0436001010 0.0397869572 -0.0397631265 0.0039115595 -0.0242932793 -0.0014901703 0.0237150770 0.0153290033 -0.0422070399 -0.0290846918 -0.0069214925 -0.0043665399 -0.0231243260 -0.0226343591 0.0236108117 -0.0038448514 0.0296448134 0.0278611798 -0.0401159450 -0.0268470570 -0.0147397378 0.0323139951 0.0058537070 -0.0191147961 0.0177223179 0.0122132394 -0.0198858157 0.0196780786 -0.0239320025 -0.0076656211 0.0277107619 -0.0194529407 0.0364595577 0.0036091399 -0.0250387527 -0.0267273244 -0.0378429182 -0.0046647079 0.0172715839 0.0289598256 0.0324446075 -0.0437461585 -0.0292492118 -0.0360694937 0.0421966165 -0.0229402129 -0.0424016193 0.0046060551 0.0096643670 0.0203883741 0.0290662739 0.0375993401 -0.0353945121 -0.0059299297 0.0307210963 0.0273288637 0.0200676266 0.0067716814 -0.0373053513 0.0078600021 0.0330123827 0.0099969106 -0.0151355918 -0.0218668375 -0.0144042540 -0.0055175070 -0.0121501088 0.0229869485 -0.0332174152 -0.0435998179 0.0296058524 0.0195564013 0.0405399501 -0.0104937693 0.0066320593 0.0393993482 -0.0169717986 0.0009483093 0.0415240899 0.0200211443 -0.0178710688 -0.0017786918 -0.0255205799 -0.0201048832 -0.0252770763 0.0400973037 -0.0066597392 -0.0397161804 -0.0162681136 -0.0267821718 0.0110303359 -0.0203319546 -0.0099544376 0.0004565557 -0.0044987546 -0.0397702456 -0.0121264700 0.0170909315 0.0001708633 0.0287763868 -0.0011543917 0.0012227222 -0.0258227475 -0.0116808247 0.0140058240 -0.0370702706 0.0007214750 0.0213605072 -0.0085685328 -0.0161759499 0.0172303002 0.0323192813 0.0354070775 -0.0274787229 0.0308106206 -0.0336451381 -0.0226736609 0.0087264571 -0.0420409068 -0.0106060440 -0.0102514466 -0.0420905910 0.0440171361 -0.0434505194 -0.0314301066 -0.0155573916 0.0118170017 0.0418779030 0.0283087529 0.0206102766 0.0411345586 -0.0420347415 0.0353755318 -0.0216133669 -0.0305557474 0.0395716913 0.0020844408 0.0065709990 0.0230637975 0.0047768815 0.0305672176 -0.0364358276 0.0075160633 -0.0261015594 -0.0370159447 0.0176586080 -0.0233762544 0.0380899385 0.0232039057 0.0041776639 0.0401981398 -0.0258332361 -0.0117885889 -0.0178552810 -0.0394944325 -0.0191098917 -0.0008069436 -0.0267647393 -0.0189149529 -0.0401757434 0.0098312320 0.0259503629 -0.0316330940 -0.0083291968 0.0366455056 0.0179480296 0.0412604213 -0.0438201465 0.0019239614 -0.0370526277 0.0177049115 -0.0292805582 -0.0032426731 0.0293407291 -0.0238898918 -0.0063859113 0.0025649255 -0.0265897606 -0.0078424271 0.0099623185 -0.0058599710 0.0104638664 -0.0071415515 0.0038371386 -0.0240160543 0.0340636782 -0.0330201425 0.0201011114 -0.0097733904 0.0280113686 -0.0136854136 -0.0263357889 -0.0153579535 0.0240217540 -0.0317259654 -0.0094800694 -0.0409576111 -0.0304813739 0.0249581207 -0.0410002843 -0.0432951748 0.0342198275 0.0116926152 -0.0374935567 0.0323234499 -0.0392614044 0.0370919332 0.0225464832 -0.0175802726 0.0398537107 0.0145518258 0.0181039199 0.0196203906 0.0065454263 0.0089570638 0.0018809980 -0.0012354294 0.0309893135 -0.0361308604 0.0097554568 -0.0273658112 -0.0287891794 -0.0184910763 -0.0070903907 -0.0042027887 0.0074877511 0.0289031919 0.0392438099 0.0131572029 -0.0010976251 0.0363725089 -0.0256757811 -0.0087129232 0.0031853956 -0.0253134239 0.0296950415 0.0251208916 0.0038895009 -0.0437304005 -0.0204891413 0.0387611650 0.0315467268 -0.0352261625 0.0269897189 0.0226160884 -0.0403167419 -0.0204197001 -0.0149669675 0.0268987082 0.0328354873 0.0250496678 0.0231298637 -0.0020002103 0.0243861191 0.0252115969 0.0045814570 -0.0414121337 0.0433316790 0.0218767691 -0.0159408599 0.0384616703 -0.0072356127 -0.0408667736 0.0013859886 0.0283863600 0.0016288967 -0.0049451478 -0.0062743276 -0.0151218092 -0.0209699161 0.0303805862 0.0418802388 -0.0248020757 0.0290323403 0.0306092799 0.0223768316 0.0205618087 -0.0277321730 -0.0082242303 0.0087371999 0.0164842755 -0.0338169672 -0.0040712114 -0.0350471586 -0.0192559101 -0.0015723145 -0.0168050174 -0.0170973632 -0.0087994188 0.0399600901 -0.0362621956 0.0041863462 -0.0214754995 0.0282137170 0.0239309911 0.0025167253 -0.0047487170 -0.0201466829 0.0177593231 -0.0139571233 -0.0008549172 0.0088943392 0.0316713750 0.0430702679 0.0417660512 -0.0339305289 0.0060681663 -0.0242690146 -0.0051085772 0.0333966687 0.0188945271 -0.0377273709 0.0320142433 -0.0066717356 -0.0119173108 0.0002646664 -0.0134381065 0.0218832605 -0.0284088198 0.0368337259 0.0143191703 -0.0226430893 0.0141183930 0.0238371342 -0.0377311967 -0.0245049987 -0.0128903240 -0.0009598734 -0.0103960577 0.0019895313 -0.0220089145 0.0285212882 0.0170264356 0.0418298878 0.0300529357 -0.0325306021 -0.0024096512 0.0215027891 0.0088228574 -0.0346039534 -0.0337813720 -0.0272309463 -0.0183594935 -0.0131238485 0.0133345407 -0.0407336578 0.0023874398 -0.0202458538 -0.0068070055 -0.0206348225 0.0239358693 0.0286206119 -0.0377084799 -0.0392499939 -0.0331634618 0.0016742677 -0.0388202034 0.0297241863 0.0221348666 0.0087008430 0.0185865015 0.0244765561 -0.0037377775 0.0434117690 -0.0047402559 -0.0080333687 0.0363677032 0.0066152271 0.0257025380 -0.0425085612 -0.0043181814 0.0124762831 0.0299045946 -0.0150711173 0.0395307653 0.0388624296 0.0407270119 -0.0392789170 0.0179854296 0.0077016042 -0.0249008052 -0.0396384746 -0.0015265798 -0.0386193506 -0.0012237601 0.0333820581 -0.0062172185 -0.0272720288 -0.0137925819 -0.0044387165 0.0058826092 0.0261335857 -0.0011806017 0.0435831212 0.0439402610 -0.0356129445 0.0117918290 0.0302041322 0.0288449284 -0.0427909978 -0.0121823782 0.0373226553 -0.0106597124 -0.0122615453 -0.0149363056 0.0162624400 -0.0059307567 -0.0183740333 0.0223689172 0.0074182139 -0.0055315103 0.0384253599 0.0122965900 0.0335922502 -0.0113804126 0.0056884917 0.0190263297 -0.0301032122 0.0118126599 -0.0382113419 -0.0324492790 0.0197975226 -0.0350021720 -0.0093312860 -0.0109096486 -0.0321267992 -0.0246980898 0.0391127951 -0.0242575873 -0.0093507785 0.0426435918 -0.0161936041 -0.0115587413 0.0218892861 -0.0035202049 0.0222828854 -0.0429121554 0.0307119917 0.0381797664 -0.0326950625 -0.0248706918 -0.0120587870 -0.0053212871 -0.0402964801 -0.0264442340 -0.0148704723 -0.0419245288 -0.0244145319 -0.0151656214 -0.0160051715 -0.0175173096 -0.0187763311 -0.0220389608 -0.0227554776 0.0077246111 -0.0013287374 0.0395520069 -0.0008316627 -0.0384473205 0.0190803465 0.0330565199 0.0203830115 0.0352617688 -0.0177752804 -0.0098524364 -0.0415769890 0.0266757458 0.0147218304 -0.0416380316 0.0440708026 0.0213009529 -0.0079273162 0.0066729262 0.0279206689 0.0049160188 0.0095498702 0.0206813104 0.0018726898 0.0048569553 0.0075609125 -0.0427275822 0.0430285111 0.0367482640 -0.0293191429 0.0087170955 -0.0044469559 0.0059058797 -0.0215726960 -0.0248246565 -0.0314964280 0.0425198562 -0.0198784396 0.0164437555 -0.0077993320 -0.0080601946 0.0301117413 0.0334632583 0.0421751030 -0.0303950310 -0.0225313157 -0.0096998969 0.0124841547 -0.0176514313 -0.0357132405 -0.0261506699 -0.0274593029 -0.0140288891 -0.0380174853 0.0315256640 -0.0109488023
0.0198528152 0.0174594633 -0.0266095065 0.0311269108 -0.0092434408 -0.0308581367 -0.0176995415 0.0337740593 -0.0038582068 -0.0137011390 0.0012333064 0.0430628397 -0.0222954564 -0.0136814043 -0.0248693321 0.0037049556 0.0378995501 0.0040208516 -0.0160121042 -0.0045650937 -0.0434095711 -0.0375101827 -0.0005297332 0.0002540612 -0.0028650532 0.0135874171 0.0083695054 -0.0334547982 0.0110237924 -0.0182493906 0.0215928201 0.0096833436 0.0296522044 -0.0316378176 0.0021640563 -0.0263637863 -0.0429495648 0.0236584693 -0.0014333037 0.0304404348 -0.0066786315 -0.0254380312 -0.0191431884 -0.0125766303 -0.0064861416 0.0425001644 -0.0205480047 -0.0258227792 -0.0138757955 -0.0296651162 -0.0269402023 -0.0122074652 -0.0131819854 -0.0271044113 0.0000888930 0.0288663972 -0.0248529259 -0.0270967353 0.0238530673 0.0137173077 -0.0335022509 0.0378987864 -0.0182055999 0.0334472582 0.0009049192 -0.0173958689 0.0165246520 -0.0239877198 0.0234339423 -0.0253541004 -0.0157332122 0.0384911820 -0.0441274755 0.0027744269 -0.0252765343 0.0092673171 -0.0170741882 -0.0242880434 0.0434725620 0.0317572691 -0.0367653109 -0.0232606083 0.0017737396 0.0364395007 -0.0230745357 0.0073493882 0.0274600834 0.0392445847 -0.0031881246 -0.0038851756 0.0060006678 -0.0136135323 0.0235840846 0.0164161175 0.0308737885 -0.0112866936 -0.0318504274 0.0201986823 0.0015555980 -0.0092479931 0.0337305330 -0.0377359651 0.0017166937 0.0030491138 -0.0341080017 0.0162282009 0.0012779873 -0.0187065415 0.0026482234 0.0418239869 0.0291497037 -0.0041945861 0.0238734391 -0.0031615351 -0.0070964964 0.0122525683 -0.0010724476 0.0435374416 0.0286318343 0.0329123847 0.0272575840 0.0059883506 -0.0202007685 0.0261557549 -0.0067385593 -0.0391562954 -0.0326526947 0.0216648281 0.0163130742 -0.0029830381 0.0007995046 0.0429961011 0.0085173724 0.0104801878 0.0066264328 0.0133350305 -0.0096063940 -0.0381229371 -0.0375934504 0.0292931180 0.0131938076 -0.0133299837 0.0295721982 0.0053412435 0.0358532071 0.0197599325 0.0258210599 -0.0287317019 -0.0280191712 0.0433904007 0.0132923517 0.0353520736 -0.0095662968 0.0200021304 -0.0260592904 0.0109453890 -0.0149565311 -0.0022539659 -0.0256640594 -0.0132281361 0.0426007062 -0.0181174278 0.0420304127 0.0031283707 -0.0217891671 -0.0120264348 0.0099031609 -0.0192840323 -0.0130825713 -0.0403717756 0.0110412734 0.0066664405 0.0231434815 -0.0052363086 -0.0273084752 0.0433678068 -0.0258378033 0.0300879441 0.0146920010 -0.0267807506 -0.0032998084 0.0362769254 0.0148867145 0.0285461806 -0.0104200076 -0.0399856083 0.0150273535 0.0313279517 -0.0154023282 0.0436865576 -0.0227822307 0.0046388349 0.0187896807 -0.0389391668 -0.0392754786 0.0242149755 0.0099205617 -0.0080737658 0.0277658701 0.0234765634 0.0149630951 0.0141435498 -0.0030076676 -0.0379555561 -0.0069476920 0.0407686979 -0.0036643681 0.0361763313 0.0196934249 -0.0138525311 0.0128158294 0.0050908914 -0.0219102185 0.0357941650 -0.0331485495 -0.0209150892 -0.0155402068 0.0291121714 0.0318318792 0.0068353652 0.0090663033 -0.0422588177 -0.0111013530 -0.0172297005 -0.0224502664 0.0241953470 0.0050766775 -0.0142444540 0.0032341594 0.0041366708 -0.0307626836 -0.0190417618 -0.0426838249 -0.0337029546 -0.0351299457 -0.0094498498 0.0010833374 0.0058906437 -0.0006627486 0.0064361505 -0.0244994629 0.0431529246 0.0214022528 -0.0164334569 0.0324530005 -0.0049117673 0.0435767174 -0.0399099179 0.0168465115 -0.0234544259 -0.0427616984 -0.0198767111 0.0091295810 0.0147729702 0.0422308259 -0.0387758575 -0.0175009947 0.0245446488 -0.0108301966 -0.0014586023 0.0111044720 0.0270307641 -0.0259702504 -0.0352698043 0.0398703329 -0.0063206414 0.0017838654 -0.0003757444 -0.0253034923 0.0091893878 -0.0147492047 -0.0277269147 0.0179853924 0.0093635228 0.0106845945 -0.0429219082 0.0336450748 0.0108159930 0.0005181218 -0.0355800278 0.0422356576 -0.0091778291 0.0156762730 -0.0242962353 -0.0355792269 -0.0103752948 0.0007570627 -0.0311345141 0.0251093898 -0.0033304018 0.0135022169 -0.0207076687 0.0440673046 -0.0046634856 -0.0261937119 -0.0432402939 -0.0286333207 -0.0405020602 -0.0236398038 0.0248191673 0.0379437283 -0.0334334970 0.0227279309 -0.0240313839 -0.0404503830 -0.0117955748 0.0371797681 0.0439248718 -0.0385632217 -0.0029695826 -0.0169670563 0.0165970288 -0.0041628126 -0.0113096377 -0.0407364257 0.0191517174 0.0398465134 0.0104432777 0.0094739525 0.0000786407 0.0364808515 -0.0223537441 -0.0198217724 0.0256199893 0.0067054001 0.0183062721 -0.0345048197 -0.0298090801 -0.0059480527 0.0424337201 -0.0245855320 -0.0174745563 0.0162949041 -0.0204287879 -0.0306403730 0.0129085416 -0.0190987960 0.0078391666 -0.0279369112 -0.0286343526 0.0222559646 0.0427087508 0.0276597757 0.0065966193 -0.0397380032 0.0084186587 -0.0066514891 0.0195637289 -0.0301778167 -0.0179613419 0.0328955501 -0.0429023020 0.0205378849 0.0131501062 -0.0281070154 -0.0189933926 -0.0270280894 0.0313079096 -0.0266337097 0.0005234006 0.0354964063 0.0201601330 0.0243220292 -0.0115442853 -0.0374968871 -0.0441611707 0.0354976244 0.0193498451 -0.0353253707 -0.0207130108 0.0122302882 0.0407391638 -0.0404767096 0.0029733758 0.0185455717 0.0141345989 -0.0114339292 0.0107919537 0.0187733807 0.0312513299 0.0070692380 0.0296721123 0.0266997274 0.0199027695 -0.0272437017 -0.0395166837 -0.0019677414 0.0441833995 -0.0007332024 -0.0112451110 0.0096182795 0.0438327231 0.0145912813 -0.0108695980 0.0059334859 0.0423316360 0.0114093572 -0.0399900004 0.0201297291 0.0220391285 0.0388199985 -0.0394567922 -0.0014109921 -0.0248560719 -0.0060840030 -0.0309164990 0.0306301154 0.0368753374 0.0432456061 -0.0147768483 -0.0270139426 0.0345912650 0.0355798304 0.0009252023 0.0273697414 -0.0159388315 -0.0121866716 -0.0328248404 0.0389624275 0.0038878045 0.0330084376 -0.0228070077 0.0339981243 -0.0432663560 0.0409908593 -0.0177542605 0.0170636568 0.0259629693 0.0434521586 -0.0095662698 -0.0427159518 0.0333208255 -0.0317919776 -0.0273687411 -0.0078912703 -0.0368191451 0.0426273122 -0.0203351490 0.0312232859 0.0407990851 -0.0423181951 0.0307832882 -0.0135748098 0.0300228596 -0.0129710771 0.0349008776 0.0045403535 -0.0023534957 0.0076679918 -0.0034774891 0.0215528291 -0.0236608181 0.0086391186 -0.0168072619 -0.0098440340 0.0091430843 -0.0089996113 0.0147646572 -0.0346936099 -0.0289640408 0.0320040397 -0.0146667920 0.0387220047 0.0415900052 0.0205936879 -0.0284030549 -0.0222619381 0.0094612828 -0.0415068381 0.0066871718 0.0245810114 -0.0040440322 -0.0060781389 -0.0189325642 0.0366250537 0.0397596285 0.0338645279 -0.0343609862 0.0437769704 0.0374028347 -0.0142054632 -0.0044741672 -0.0149068292 -0.0316702388 -0.0176275820 -0.0067247353 0.0376946069 0.0159023423 0.0043675778 -0.0209519044 -0.0155433463 -0.0410019122 0.0148930047 0.0357536934 -0.0373084322 -0.0105577223 0.0267844014 0.0364743471 -0.0030986732 -0.0227726158 -0.0002123095 0.0028814324 0.0115936333 -0.0292908791 -0.0043267482 -0.0423361920 0.0365313143 -0.0173986144 0.0096657267 0.0265168268 -0.0396034122 -0.0117498301
0.0416840501 0.0223726314 -0.0334128886 -0.0183895230 -0.0359211043 0.0231553614 0.0155301914 0.0096234158 0.0258300267 0.0326346643 -0.0311322585 -0.0425772779 -0.0029316242 0.0174661018 0.0311698113 -0.0159326419 0.0097584911 -0.0440218039 0.0222602636 0.0001924162 -0.0069100917 -0.0099773128 0.0216461625 -0.0031442391 -0.0047502923 0.0387813598 -0.0094832461 0.0064833076 0.0267172828 -0.0367973708 -0.0294782743 0.0303122979 -0.0131525612 0.0089619057 0.0090691643 0.0301533509 0.0121241994 0.0096571175 -0.0168337822 -0.0217864960 0.0371817052 0.0381119885 0.0042600138 -0.0005952294 -0.0111138811 -0.0395030193 0.0091890823 0.0224523060 0.0017697619 -0.0108717587 -0.0002351847 -0.0125325974 0.0228714086 0.0167466383 -0.0159641188 0.0119392956 -0.0428214148 -0.0041777324 -0.0056059998 -0.0323426016 0.0391717330 -0.0423843153 -0.0043909480 -0.0232323855 0.0008646268 -0.0081391362 0.0291892309 -0.0106073236 0.0198803619 -0.0263157971 -0.0425908752 -0.0292770080 0.0110861016 -0.0023299092 0.0269050878 0.0034497406 0.0048179640 0.0263482500 -0.0313557275 -0.0072229109 0.0418529510 -0.0181963965 0.0297358874 -0.0362682678 0.0374390855 -0.0006397049 -0.0067136502 0.0183469504 0.0158166997 0.0356820077 0.0345738456 -0.0255510844 -0.0003630003 -0.0120526599 0.0150028709 0.0193597171 -0.0071703643 0.0260312147 -0.0083321687 0.0264156535 -0.0346170552 0.0128260180 -0.0373893753 -0.0433370657 0.0325183123 -0.0150067536 0.0339753963 -0.0297324508 0.0365913510 0.0383160412 -0.0207068156 0.0203706361 0.0254571121 -0.0212328807 0.0368656069 -0.0323077068 0.0357325189 -0.0252577625 -0.0060711061 -0.0108203599 0.0370002575 -0.0411324091 0.0097411005 -0.0089761671 -0.0136987157 0.0114342552 0.0213599019 0.0040247976 -0.0439672396 0.0047665820 -0.0200072359 -0.0376704484 -0.0323073715 0.0272023771 0.0280540586 0.0334168412 0.0050546397 -0.0111491214 -0.0064323414 -0.0326930247 0.0021825850 0.0192336347 0.0301243272 -0.0366062596 -0.0331729203 0.0297872592 -0.0403693616 -0.0171615332 -0.0222701989 0.0009099346 -0.0241581667 0.0141101005 -0.0283121020 -0.0050522322 -0.0179819893 0.0234437622 -0.0145542445 0.0184651241 -0.0016546958 -0.0030577381 0.0217079446 -0.0312184133 -0.0045504794 0.0122236237 -0.0281525142 0.0428363755 0.0243435502 0.0172036048 0.0352569334 -0.0207993332 0.0285387468 -0.0288260318 0.0117554832 -0.0073200013 -0.0142526366 -0.0321843177 0.0256133657 0.0145161171 0.0306413528 -0.0167156290 0.0290367343 0.0361784808 0.0220870767 -0.0432801731 -0.0267970823 0.0332418792 0.0364069231 0.0135851828 -0.0265377946 -0.0121238045 0.0228495654 0.0033333362 0.0440364480 0.0396999866 0.0216900278 -0.0256001800 -0.0028490056 0.0400951691 -0.0222095083 -0.0345845670 -0.0034559942 0.0349127278 0.0407488123 -0.0334137827 -0.0065480764 -0.0169302262 -0.0073730960 -0.0109557621 -0.0236263946 -0.0097210864 0.0071578729 -0.0157165434 0.0228657033 0.0402666628 0.0081653092 -0.0121670840 0.0030605302 -0.0226499327 0.0332443044 -0.0112424297 0.0180046689 0.0238907933 0.0119065847 -0.0378439650 -0.0001496740 0.0385597236 -0.0139222573 0.0031351091 -0.0188665204 0.0258900337 0.0205246620 -0.0167204123 0.0105837639 -0.0296329632 0.0372172669 -0.0423054248 -0.0281153675 0.0075278273 -0.0301459171 0.0075100837 0.0381841920 0.0008018280 -0.0282187108 0.0169993620 0.0271261111 -0.0323240831 -0.0114978179 -0.0385041572 -0.0033910668 0.0017928795 0.0215057917 -0.0179354493 0.0421135947 -0.0178109948 0.0266018584 -0.0345283635 -0.0093935207 0.0061417073 0.0360359326 0.0259105023 0.0248194244 -0.0357374810 0.0282740705 0.0116550047 -0.0140402894 0.0237121005 0.0404501334 -0.0412872508 0.0129989944 0.0158737786 -0.0170305613 -0.0104189273 0.0410210639 -0.0106862541 -0.0160942208 0.0296351407 -0.0334754288 -0.0212890320 -0.0226429887 0.0008646636 -0.0439686514 -0.0026142583 -0.0383609869 -0.0268383641 0.0071722977 0.0435244702 0.0097898068 0.0263893213 -0.0022519270 0.0155255450 0.0405970924 -0.0069872201 -0.0323727466 0.0260807388 0.0414832979 0.0084682237 0.0017696302 -0.0345279463 -0.0082289139 0.0097460104 -0.0087605016 0.0419156663 0.0111728813 -0.0052147610 0.0358413942 0.0092036594 0.0268913321 0.0168033373 0.0281185955 -0.0082222493 -0.0224141199 -0.0354757495 0.0134063903 0.0061109560 0.0211284105 -0.0213275161 -0.0215990897 -0.0089748027 0.0081970617 0.0078896945 -0.0091446545 0.0243835747 0.0377574004 -0.0364345238 0.0007065392 0.0428425856 0.0028006369 -0.0001721119 0.0174804162 -0.0155801196 0.0083127916 -0.0433392972 0.0001052091 0.0038158491 -0.0320686772 -0.0117581170 0.0120157711 0.0238131117 -0.0336429998 -0.0172899440 -0.0073996219 -0.0174262729 0.0020295393 -0.0335063525 0.0288336277 -0.0253937859 0.0264047477 -0.0165927969 0.0172945689 0.0075083659 -0.0022959444 0.0334437862 -0.0135454172 0.0122987451 0.0171040073 0.0405476056 0.0058954060 0.0058383290 -0.0215244684 -0.0322991051 -0.0229015071 -0.0399885289 -0.0237739887 0.0070199789 -0.0406280719 -0.0075975596 -0.0100253914 0.0378869772 -0.0367438272 -0.0167278834 0.0120433094 0.0420210250 -0.0431289859 0.0152021889 0.0140485875 0.0359144211 0.0051068966 0.0267325491 -0.0392623283 0.0097367177 0.0316488110 0.0298527181 0.0216473639 -0.0401167125 0.0298022199 -0.0317555778 -0.0041085589 -0.0172575321 0.0438561440 -0.0131150400 -0.0097763883 0.0091336537 -0.0159871429 0.0394378118 0.0045249434 -0.0384125784 0.0172553621 -0.0363410413 -0.0196393821 -0.0423346348 0.0224515684 -0.0024350972 -0.0285813008 -0.0373354256 -0.0341930985 -0.0180129353 -0.0354223959 0.0171753149 0.0082587749 -0.0074978187 -0.0049961191 -0.0204039477 0.0394387655 -0.0085744020 0.0019690113 0.0194639415 -0.0330611467 0.0151662482 -0.0037685393 0.0257548261 -0.0083756270 0.0325956084 0.0429062173 -0.0374352410 -0.0264441073 -0.0041783280 0.0350692645 -0.0300381221 -0.0018932786 -0.0361061506 -0.0291410163 0.0109771518 0.0372792296 0.0201320220 -0.0306675117 0.0391032882 -0.0421370603 0.0415410437 -0.0081597036 0.0077955653 0.0353239737 0.0033279203 0.0341797173 0.0181643851 -0.0233275909 0.0236405563 0.0310442187 -0.0110057639 -0.0419932418 -0.0118772509 0.0370307416 -0.0301438626 0.0245475564 -0.0386999585 0.0229168329 -0.0291192364 0.0121273864 0.0334803611 0.0274284836 -0.0162279438 0.0332903713 -0.0159420986 0.0033294377 -0.0355008207 -0.0316246040 -0.0164426602 -0.0130112851 -0.0312847868 -0.0220686216 0.0024359033 -0.0086430805 0.0403540954 0.0264402870 0.0359430388 0.0197752267 -0.0116366502 0.0204022992 -0.0331306420 -0.0272270013 0.0269134063 -0.0317042246 -0.0089585967 -0.0175699405 -0.0231895484 0.0026121405 0.0279927664 -0.0150592476 -0.0360077322 0.0162142087 -0.0142148836 0.0252693594 -0.0211496465 0.0369949974 0.0016664864 0.0249643624 0.0091894353 -0.0357595086 0.0418724716 0.0066679209 -0.0304713920 -0.0379907899 0.0155082913 -0.0167409386 -0.0414360501 -0.0412216261 -0.0422303602 0.0328180417 -0.0244216640 -0.0264905784 -0.0198231228 0.0324485265 -0.0263063665
0.0373075083 0.0362134874 0.0318622179 -0.0417226814 0.0004182601 -0.0061801239 -0.0148149282 0.0306152645 0.0226534363 0.0066970917 0.0265635885 -0.0307688694 -0.0433924384 -0.0034871933 -0.0193532538 0.0136959553 -0.0306240208 0.0288515817 -0.0285768583 0.0097612729 0.0383978859 -0.0219886582 0.0350264274 0.0439384803 0.0406622030 0.0395982377 -0.0258724689 0.0166942663 -0.0118053639 -0.0438520722 -0.0119643835 -0.0198877286 -0.0428177901 -0.0391822495 0.0046398570 -0.0332826003 -0.0335022770 0.0190643054 -0.0392140262 -0.0388129950 -0.0403527208 0.0043739895 0.0323783681 -0.0325776711 0.0035541172 0.0174366087 0.0424797870 -0.0199160874 0.0037878742 0.0213669352 -0.0412527397 0.0208542496 0.0433258265 0.0426629670 -0.0056589148 0.0276214890 -0.0000999723 0.0013207347 -0.0434852950 -0.0098813390 -0.0164601877 -0.0060413396 0.0232351050 -0.0378329195 0.0348218642 0.0143124843 0.0154484427 -0.0244096685 -0.0067832456 0.0330455564 0.0388057344 0.0286309440 0.0151848299 0.0219438151 0.0435816459 0.0349879935 -0.0319280811 0.0315738320 0.0313294604 0.0013250863 -0.0308574308 -0.0102256890 0.0420504473 0.0400639139 -0.0332967937 0.0129443137 -0.0077990373 0.0213038139 -0.0062575690 -0.0172657836 -0.0098496340 0.0407858267 -0.0003371484 0.0101699345 0.0033227310 -0.0330854617 0.0395511724 -0.0374402404 0.0283244159 0.0178139508 0.0184111241 0.0011255105 -0.0420097969 -0.0115733296 0.0350732990 0.0234994013 0.0302384347 0.0275691338 0.0166841820 -0.0137697440 -0.0441560373 -0.0078074876 0.0070228926 -0.0005165465 -0.0364212878 -0.0093917511 0.0416558795 -0.0349475443 0.0007763923 -0.0188497826 0.0279418007 0.0241523087 0.0227975771 -0.0325493217 -0.0356705785 0.0279503297 0.0226126052 -0.0056205825 0.0122575257 0.0260264538 0.0194750521 0.0200704709 0.0024278113 -0.0181293823 -0.0135291433 0.0182708912 -0.0275822878 0.0298332255 -0.0038716779 0.0260736570 0.0031308047 -0.0132105555 0.0018158074 0.0344061963 0.0224749427 0.0157281719 0.0316441730 -0.0298682749 0.0258140583 -0.0078690220 -0.0265892558 0.0248060282 0.0380511917 0.0271692760 0.0154208783 -0.0186074376 0.0286353845 -0.0370569415 0.0394914970 -0.0307270493 -0.0211384781 -0.0198659953 -0.0353859924 0.0315128341 0.0391817763 -0.0314139314 -0.0087602222 0.0049427822 0.0384977460 -0.0065088957 0.0195722375 0.0097104283 -0.0363572873 0.0134802684 0.0391991325 0.0199716575 0.0276467893 0.0105319861 -0.0315869860 0.0238660052 0.0345944762 0.0059204837 -0.0134998616 0.0143981222 -0.0300633255 0.0015253734 0.0367740728 -0.0419074185 -0.0051442860 0.0325037688 -0.0248993412 -0.0091486955 0.0388318338 -0.0110957269 0.0404212363 -0.0364403762 0.0174325686 -0.0412017033 0.0265095551 -0.0264515243 -0.0399290062 -0.0334122814 0.0001956088 -0.0361448377 -0.0157238506 0.0337786525 0.0251111295 -0.0035279072 0.0362860709 -0.0373636559 0.0426557064 -0.0148942061 -0.0097562000 0.0122169070 -0.0205198824 0.0364036374 -0.0061091753 0.0035804696 0.0396037661 0.0132691395 -0.0425187871 0.0045048711 -0.0045075687 -0.0100858780 -0.0195235573 -0.0388813503 -0.0238240957 -0.0283921547 -0.0100673120 -0.0372371562 0.0202594101 0.0024810059 0.0136482930 -0.0404269025 0.0181154627 -0.0309081636 0.0292996615 0.0438265689 -0.0309699681 0.0379576199 -0.0040677818 -0.0140680326 0.0086393561 0.0033045395 -0.0058996207 0.0351921543 0.0045762993 -0.0303398874 0.0069316602 0.0162436217 -0.0368308350 0.0431194454 -0.0440538675 0.0177785512 0.0027568147 -0.0434664860 0.0065894332 0.0104994327 -0.0158293918 -0.0160045959 0.0287451930 -0.0213931650 -0.0188063458 0.0399343632 -0.0157186408 0.0406678990 0.0441249348 -0.0200871341 -0.0072373250 0.0366440751 0.0281298440 -0.0304316208 -0.0180850588 0.0021837861 -0.0238230992 0.0375830196 0.0188765451 -0.0397824347 0.0267457515 0.0125162387 -0.0415326171 -0.0430151112 -0.0013046029 -0.0216268599 -0.0215090588 0.0273303967 -0.0004881975 0.0177006125 -0.0107171955 0.0261359457 -0.0133652184 0.0166685935 -0.0376597717 0.0203448161 0.0144975353 0.0076510543 0.0205063745 -0.0271983836 0.0350451395 -0.0122148730 0.0013406069 -0.0201033782 0.0404531658 0.0246920362 -0.0107286647 0.0184840858 0.0168247838 -0.0029878323 -0.0096677700 -0.0325285383 -0.0224988088 -0.0415621139 -0.0047752536 -0.0217815489 0.0394635536 -0.0281694140 0.0343688093 -0.0141560407 0.0130170174 -0.0127488682 -0.0349825583 -0.0414699391 -0.0206308868 0.0182009842 -0.0035868022 0.0221426729 -0.0290599093 0.0419636890 0.0173589587 0.0139231058 0.0234131962 -0.0287551507 -0.0295263063 0.0384628326 -0.0204829201 -0.0282001980 -0.0368087292 -0.0221011322 -0.0422536172 0.0191352163 -0.0004853736 0.0417340882 0.0176329128 -0.0286781527 0.0417492613 -0.0249028821 -0.0190024283 -0.0030193685 0.0168340988 -0.0092274779 -0.0015603342 0.0260591544 -0.0350236371 -0.0114636263 -0.0396683030 0.0171816833 -0.0182262938 0.0146472044 0.0219487455 0.0172908716 -0.0133423964 0.0270986427 -0.0370985419 -0.0296482630 0.0379022770 -0.0314735994 0.0042098113 0.0156648830 -0.0370073281 -0.0439367071 -0.0290511902 0.0345759951 0.0037491675 -0.0260562822 -0.0408995859 0.0263845325 0.0322969519 -0.0221671499 0.0302383769 -0.0303686839 0.0123631191 0.0131470086 -0.0013623073 0.0122484853 0.0246739816 -0.0373315588 -0.0086040786 0.0138356350 -0.0355194286 -0.0155529240 0.0085734911 0.0180230141 -0.0147355758 -0.0114511615 0.0313626863 0.0129124979 0.0038082891 0.0108490679 0.0060858889 -0.0124874366 -0.0132815251 0.0080353282 -0.0339538418 0.0139005678 0.0327381864 0.0351799950 -0.0280980188 -0.0064205294 0.0097713564 0.0156389885 -0.0100747189 0.0345958993 0.0389520638 -0.0232225079 0.0126369679 -0.0189269688 -0.0226393435 -0.0363769196 -0.0304245073 -0.0196912549 0.0288534109 -0.0136065939 0.0212716404 0.0291703977 0.0431097224 -0.0035373638 0.0367666446 -0.0001060151 0.0362157375 0.0339191258 -0.0260605384 0.0102675837 -0.0262620691 0.0397095904 0.0204895642 -0.0112216137 0.0185021181 -0.0003818820 0.0371413454 0.0257144403 0.0274200551 -0.0102914702 0.0049908557 0.0263731945 -0.0302979033 -0.0244352464 0.0157460682 -0.0091138287 0.0163955670 0.0190275311 0.0062754494 0.0429014973 0.0041097021 -0.0144288735 0.0177985933 0.0062545924 0.0107715912 0.0099596055 0.0194854457 0.0043943464 -0.0400096700 0.0339685529 0.0200130101 0.0430564880 -0.0403245613 -0.0235535763 0.0009768902 -0.0126214055 0.0086428011 -0.0171452593 -0.0230657943 -0.0001586460 -0.0334818363 -0.0245140921 0.0335935093 0.0128168771 -0.0213432275 -0.0101216445 0.0114525948 0.0137446718 -0.0373780057 -0.0313477181 0.0051207263 0.0285665430 -0.0053285207 -0.0306575540 -0.0246339943 0.0420828685 -0.0103405872 0.0427756906 0.0040254295 -0.0180105381 -0.0271593183 -0.0085555362 -0.0295698065 0.0258616582 -0.0213685632 -0.0047890884 -0.0003389502 0.0124521488 -0.0006015251 0.0227418486 0.0143086128 0.0010900545 -0.0360452682 -0.0429732613 -0.0112784859 0.0437309258 -0.0208681002 0.0045411331 -0.0119391326 -0.0284245145
-0.0264777765 0.0329198278 0.0023118546 0.0068272678 0.0404557437 0.0078631369 -0.0422543958 -0.0351153724 0.0397701487 0.0323218331 0.0255912505 0.0249558594 0.0426716357 -0.0103621818 -0.0029625967 -0.0389319062 -0.0095763644 -0.0013490942 -0.0055069863 -0.0141882673 -0.0032636675 0.0393302217 0.0117214071 0.0375450216 0.0008598800 0.0110181766 0.0420877934 -0.0364445969 -0.0220395830 -0.0211196002 -0.0280204099 -0.0047040624 -0.0248270854 -0.0021836809 -0.0180850867 -0.0145779466 0.0355977379 0.0338906273 0.0224245675 0.0123354923 -0.0031781199 -0.0438623391 0.0000237339 0.0211121198 0.0208434071 -0.0354055017 0.0011091891 0.0118085407 0.0103204614 0.0113763241 -0.0121144000 -0.0321098603 0.0057186107 0.0096814996 0.0325070843 -0.0045121307 -0.0266349372 -0.0145846903 -0.0286612101 -0.0081019513 -0.0169547554 -0.0098098526 -0.0115137501 0.0365865529 0.0222268887 0.0326218903 -0.0222057104 0.0412091427 0.0046998742 -0.0055645481 -0.0127421832 0.0059341867 0.0232868660 0.0281913467 0.0069204438 0.0236635376 -0.0087031182 -0.0178251080 0.0350994170 0.0424196646 0.0359841734 -0.0111211622 -0.0009816738 -0.0073573487 0.0101547455 -0.0150397075 -0.0198331736 -0.0278903600 -0.0261006467 0.0092820106 -0.0152763203 -0.0372723117 0.0228108596 -0.0017562644 -0.0135322046 0.0228239875 -0.0435640514 -0.0060589626 0.0214028284 0.0308249351 -0.0383524671 -0.0405265130 -0.0191164929 -0.0368617401 0.0395443588 0.0003152900 0.0080929697 -0.0087788142 -0.0298287887 0.0391268060 0.0277715325 -0.0222814307 0.0380762145 0.0002997537 -0.0026659989 -0.0124408323 -0.0291899852 -0.0402596705 -0.0416922010 0.0366235152 -0.0363276377 -0.0200171974 -0.0346962661 -0.0155281844 -0.0104039386 0.0105205905 -0.0344488733 -0.0059192297 -0.0145945260 0.0138190873 0.0277953092 -0.0427672341 -0.0407899283 -0.0247475393 -0.0262271035 0.0032636044 0.0389808565 0.0118353674 0.0021006779 0.0355077460 -0.0243883729 0.0276234187 -0.0206958298 0.0109710665 0.0407148711 0.0383844785 0.0267487243 0.0364501476 -0.0426139869 0.0085644023 0.0325351208 0.0300099682 -0.0379625596 -0.0063929129 0.0192763619 0.0373348333 -0.0163182579 -0.0316137746 -0.0153346937 -0.0045933477 -0.0292277113 -0.0090616886 -0.0351253562 -0.0232504196 0.0326410569 -0.0288983602 0.0085078264 0.0226118043 -0.0237343907 -0.0177223384 -0.0127450386 -0.0167308599 -0.0301208925 -0.0330328234 0.0407983586 -0.0241699852 -0.0052755210 -0.0395568646 0.0321197063 0.0047916067 -0.0305195078 -0.0239143260 -0.0409897640 -0.0070469212 0.0142738149 -0.0083554229 -0.0280094780 0.0424847640 -0.0239910074 0.0414043032 0.0150557393 -0.0079485634 -0.0018397679 0.0309932120 -0.0050709350 0.0064061363 0.0249929335 -0.0121958433 -0.0391577072 -0.0212942734 -0.0373993367 -0.0418062322 -0.0306077264 0.0096089337 0.0301742554 -0.0439085700 -0.0031451927 -0.0015531640 0.0278530233 -0.0095331268 -0.0024724237 -0.0009395797 -0.0356546156 -0.0308198035 0.0251018032 0.0155828381 -0.0359404869 -0.0343934037 -0.0103823282 -0.0307085831 -0.0287300888 0.0215562209 -0.0332266055 -0.0222713370 0.0294622742 -0.0441270694 0.0145128611 -0.0242302120 -0.0187865365 0.0422762446 -0.0322738029 0.0070659244 0.0021027641 -0.0384847187 0.0389386788 -0.0409789048 -0.0101225721 0.0012604436 0.0320936665 0.0193468090 0.0150418039 0.0246914569 -0.0135940760 0.0058653923 0.0054017929 -0.0170997661 0.0099116480 0.0371558070 -0.0406631716 0.0245792884 -0.0363180898 0.0388711095 -0.0362720452 0.0290678740 0.0210686773 0.0252709389 -0.0177352149 -0.0342244245 0.0391369462 -0.0267376546 0.0072641568 0.0188059714 -0.0016825917 -0.0208733324 0.0241250079 0.0388392583 -0.0377215594 -0.0003927875 -0.0379249305 -0.0128483083 0.0000456082 0.0083716651 -0.0270363446 -0.0288724247 -0.0127632460 -0.0219455045 0.0420740955 0.0379474163 -0.0033264295 -0.0175032541 0.0136366393 0.0396490619 -0.0095202671 0.0354223028 -0.0305852033 0.0212689806 -0.0228585750 0.0277054310 -0.0438661277 0.0044154250 -0.0059552495 -0.0420806631 -0.0094569782 -0.0041761417 -0.0036140026 -0.0168389250 0.0377728753 -0.0101262964 -0.0087160105 0.0012494539 0.0182380676 0.0058949795 0.0017078851 -0.0331468992 -0.0387902632 0.0193234980 0.0437361598 0.0040384899 0.0178960040 -0.0226615593 0.0302909967 -0.0222203396 0.0383925438 -0.0231350958 0.0200075675 -0.0345843658 -0.0099404287 0.0127755785 0.0224567316 -0.0413698182 0.0106427427 -0.0022875043 0.0331587531 -0.0189632997 -0.0055686310 0.0196428020 0.0116296271 0.0200359058 0.0387802348 -0.0134005267 -0.0130858012 -0.0071276431 0.0095237335 -0.0076314453 0.0140598249 -0.0392758101 0.0036335904 0.0116922678 -0.0043552024 0.0181633998 -0.0302549880 0.0173305515 0.0259393454 0.0425611213 0.0013307077 -0.0333571397 0.0169134662 -0.0317154974 0.0241090655 0.0080168154 0.0379945785 -0.0035601496 0.0408807658 -0.0118902260 -0.0421497189 -0.0140604572 -0.0160941798 0.0077845016 0.0362451002 0.0409060344 0.0394460149 -0.0053477660 0.0385983326 0.0246234480 0.0266744085 -0.0342650600 0.0252795257 0.0341812372 0.0281033181 0.0025859252 0.0391156040 0.0330616459 0.0287988465 0.0012588052 -0.0113711301 -0.0276021026 -0.0089197485 -0.0397149324 -0.0358761437 -0.0102935983 0.0394581482 -0.0198118743 -0.0207212660 0.0123011265 0.0040650214 -0.0249889828 0.0432782061 -0.0041675596 -0.0110550756 0.0263361800 0.0030195634 0.0337307230 0.0215386823 0.0048269890 -0.0430905670 -0.0162812527 0.0282590985 -0.0138028609 0.0387561508 0.0296436530 -0.0179141071 0.0276350453 -0.0095880711 0.0167027116 -0.0240226761 -0.0432501584 0.0201055631 0.0351490267 0.0353443846 0.0160795860 0.0050394563 -0.0162905417 0.0150895463 0.0123204775 0.0376003236 -0.0240482483 -0.0043604709 -0.0354610831 0.0345338099 -0.0167789981 -0.0091408929 0.0088564381 -0.0173958372 -0.0197179075 0.0385905504 -0.0137807969 -0.0402188189 0.0129209962 0.0226264559 -0.0020509500 -0.0098656863 -0.0409166217 -0.0082266750 0.0110197468 0.0241220109 -0.0068294648 0.0043189563 -0.0378024727 -0.0322078988 -0.0097316597 -0.0441137366 -0.0157099422 0.0279627740 0.0409664400 -0.0227741916 0.0361621231 0.0326006114 -0.0198112056 0.0389073417 -0.0174149089 0.0393880270 -0.0157887787 -0.0309318397 -0.0214442480 0.0010853182 0.0296297502 -0.0175861772 -0.0034525064 -0.0131989652 -0.0244500656 -0.0362561308 -0.0355694145 0.0264338870 -0.0148562901 0.0237512030 -0.0180105921 -0.0351936035 0.0272336490 0.0000081660 0.0098077245 0.0396210253 -0.0288274270 0.0076374407 -0.0297819320 0.0048060049 0.0359270833 0.0386082418 0.0411741920 -0.0355895534 -0.0345294252 -0.0300722718 -0.0059688049 0.0144158127 0.0204325169 -0.0122013548 -0.0084001515 -0.0126866596 0.0373211987 0.0310520437 -0.0071099466 0.0318104699 0.0394160524 0.0371034965 -0.0034055708 0.0136540039 0.0071035507 0.0178172737 0.0306981616 0.0124854818 0.0203705616 -0.0223768577 -0.0031165117 0.0291905645 -0.0413804278 0.0309396014 -0.0294854492 -0.0056766430 0.0200212114 -0.0166708063 -0.0172973461 0.0116936322 0.0285682026
0.0194332749 0.0079886084 0.0203554258 -0.0049933111 0.0271243621 -0.0298805758 0.0150918486 -0.0257682558 0.0366226248 0.0380186699 0.0221601855 0.0383460447 -0.0308101997 -0.0005312400 -0.0078636268 -0.0003473164 -0.0441619270 -0.0102344137 0.0115558701 0.0115471510 0.0108637875 -0.0064824801 0.0121866772 -0.0171082057 0.0198521987 -0.0273655802 -0.0188019406 -0.0015608768 0.0150479684 0.0261156093 0.0059569776 0.0054848958 -0.0393133536 -0.0150997089 0.0261557382 -0.0268377848 -0.0120501211 0.0431927331 -0.0270972885 0.0072000986 0.0329425931 0.0291678254 0.0352048837 0.0431173779 -0.0281739831 -0.0051038093 -0.0173902474 0.0127316620 0.0080972575 -0.0394484662 -0.0157007389 -0.0273355655 -0.0164473597 0.0142165897 0.0430453829 0.0249389280 -0.0011316428 0.0196952056 0.0035355936 -0.0340475254 -0.0001295383 0.0203562956 0.0109276818 0.0051179919 -0.0098862750 -0.0126544069 0.0322015993 -0.0088550737 0.0414993018 -0.0285148025 0.0349153355 -0.0371847935 -0.0306272022 0.0059627146 0.0047725718 -0.0029326724 0.0406657346 0.0323243812 -0.0054899221 -0.0434034579 -0.0075308937 0.0171470232 0.0052366350 0.0313713178 0.0026850651 -0.0106779672 0.0339004099 0.0122962687 -0.0043595275 -0.0124900127 -0.0307515841 -0.0065569589 -0.0281892139 -0.0176274814 0.0016715967 0.0139882909 0.0031673936 0.0249679927 0.0072313771 -0.0265329629 -0.0064912257 0.0062773726 0.0344278254 -0.0014819886 -0.0062457360 -0.0358754769 -0.0321125351 -0.0265735667 0.0192480385 -0.0239092857 0.0410570353 0.0044071591 0.0240020920 -0.0078503350 -0.0340000838 -0.0038662094 -0.0139800617 0.0176982880 0.0079613337 0.0390544608 -0.0229970161 -0.0323205777 -0.0398769975 0.0017664798 -0.0351002440 0.0362411961 0.0102629997 -0.0216860659 0.0229173545 -0.0027805697 -0.0282570701 -0.0410903096 0.0396550931 -0.0075681671 0.0393965542 -0.0333209671 -0.0332032777 0.0060163308 -0.0399340764 0.0048998343 0.0073162820 0.0179596152 -0.0186316837 -0.0399045199 0.0245952681 -0.0403590687 0.0341614783 -0.0440524481 -0.0328669325 0.0035894678 0.0417657122 -0.0253640153 -0.0029396794 0.0335932933 0.0378688388 -0.0421493724 -0.0228140671 0.0410038270 0.0212843996 0.0097191632 0.0092508327 -0.0213037878 -0.0254478604 0.0103422040 0.0122760013 0.0252972431 0.0390968062 -0.0215440672 -0.0394083969 -0.0351244509 -0.0418469682 -0.0018877942 -0.0279315859 -0.0166258775 0.0255052224 -0.0359786414 -0.0309420880 -0.0140759461 0.0002598248 -0.0238746088 -0.0111670392 -0.0387137979 0.0353499465 0.0157901049 -0.0383131616 -0.0167067423 -0.0102496445 0.0246967040 0.0028206198 -0.0172791593 0.0240006596 0.0209902357 -0.0387488678 0.0161905158 0.0079121068 0.0377587117 -0.0246932637 -0.0200190842 0.0338622108 0.0056396225 0.0035540857 0.0109082311 0.0285357498 -0.0195420180 -0.0046775993 -0.0050145108 0.0415574461 0.0237998404 0.0124651147 -0.0223872568 -0.0200125091 0.0028895722 -0.0378984548 0.0083408086 0.0020674609 0.0043125339 0.0284115896 -0.0138734933 -0.0061999592 -0.0025121786 0.0061575174 0.0066787899 0.0354834534 -0.0277142823 -0.0305495467 0.0300814752 0.0292949192 0.0161596909 0.0195082221 -0.0045138169 -0.0419198126 -0.0386912860 0.0120751830 0.0067539955 0.0091996081 0.0141450511 0.0342209749 -0.0249736719 0.0049011777 0.0052217729 -0.0146881919 -0.0102540124 -0.0374705270 -0.0025885224 -0.0171870682 -0.0086984979 0.0061554997 0.0106104845 0.0120256124 0.0023473634 -0.0090367692 -0.0159951132 -0.0354119726 -0.0043144147 -0.0271127243 0.0353649557 0.0119699528 0.0379354395 -0.0041248384 -0.0067942403 0.0061245798 0.0182812791 -0.0156227350 -0.0385486335 0.0151487254 -0.0414744914 -0.0008770864 -0.0305669270 0.0388504639 -0.0362944752 0.0360133387 -0.0410250723 -0.0440469272 -0.0038224927 -0.0248461515 0.0278219078 0.0233142506 -0.0160728320 -0.0168945529 -0.0105548874 0.0164888632 0.0104549155 -0.0249279700 0.0063036354 0.0035103636 -0.0095901936 0.0167781543 0.0419248715 0.0213685147 0.0221348815 -0.0026765883 0.0088392692 -0.0287838727 0.0113680325 -0.0127430782 0.0393768512 0.0055369842 -0.0043067546 0.0063078078 -0.0242747571 -0.0048795515 -0.0331619307 -0.0073632491 -0.0327131040 -0.0093833897 0.0440804027 0.0285575707 -0.0072463653 -0.0118082296 -0.0206369516 -0.0055107530 0.0078657605 -0.0078792693 -0.0225252192 0.0066134357 0.0017644092 -0.0401865020 0.0397151187 -0.0177521110 -0.0219782908 -0.0026071777 -0.0342417657 -0.0211885646 -0.0339416303 0.0015269697 -0.0281895921 -0.0124004195 -0.0128038907 0.0323997512 -0.0079370784 -0.0321680978 0.0128785223 -0.0352118686 -0.0245117638 0.0402936712 -0.0127986651 -0.0377966389 0.0199031066 0.0023098737 0.0025010940 -0.0017701781 -0.0405769199 0.0123630930 0.0239488129 -0.0155268991 -0.0026665889 0.0365276188 -0.0373384394 -0.0082078567 -0.0300240293 0.0256517772 -0.0115673179 0.0102453670 -0.0328293219 0.0188215226 -0.0151901245 -0.0060106516 0.0224425793 -0.0068177846 -0.0341428071 0.0172523744 0.0074265855 -0.0131697049 0.0260416046 0.0183477402 -0.0185129289 -0.0323851593 0.0053012939 -0.0324980840 0.0241313092 -0.0111985020 0.0110428538 -0.0059647220 0.0231576953 0.0010143218 -0.0093417121 0.0066457097 -0.0317360349 -0.0184869412 -0.0157186203 0.0394150801 0.0070516891 0.0330144651 0.0345504098 0.0150273740 0.0377723463 0.0149694011 -0.0139476247 -0.0242390428 0.0344647542 0.0112036485 -0.0212263111 -0.0368195772 -0.0297669284 0.0164270457 -0.0332632996 -0.0168599244 0.0296424739 -0.0202154927 0.0252479799 -0.0418484472 -0.0072050141 0.0238350909 -0.0070440290 0.0320028961 -0.0340197608 -0.0024431474 0.0344507322 -0.0178995654 -0.0155504011 0.0014213972 -0.0334496982 0.0216634478 0.0316917673 0.0387732945 -0.0351879820 -0.0107105989 0.0072171525 -0.0436578393 0.0083124274 0.0370344780 -0.0256754011 0.0078019821 0.0386711136 0.0076255556 -0.0223679952 0.0096617062 -0.0052369195 -0.0069999751 -0.0281889495 -0.0181562975 0.0182971321 -0.0017923422 0.0241219625 0.0019380596 -0.0018363856 0.0247258432 -0.0301562585 0.0269209575 0.0069815726 0.0343067124 -0.0404272713 0.0381600000 0.0267682113 -0.0306924507 0.0150820911 -0.0057616057 0.0165723618 0.0022319022 -0.0006353848 -0.0135389324 -0.0160426237 -0.0433551557 -0.0109325284 -0.0205936246 -0.0011785681 0.0156908873 0.0266020000 0.0136675220 0.0042534755 -0.0076376726 0.0239815190 0.0270172879 0.0322312228 -0.0404818878 -0.0117254900 -0.0306497309 0.0157033298 0.0168455727 0.0254912823 0.0420837700 -0.0417451411 -0.0410461053 -0.0071857688 -0.0422726832 -0.0302245207 -0.0280893520 -0.0239241421 0.0356334858 0.0120285684 -0.0242163520 -0.0009707631 0.0163106043 -0.0306541454 0.0184796061 -0.0250566173 -0.0409000330 -0.0426306576 0.0239426121 -0.0153215015 -0.0085794441 -0.0345414430 0.0239483770 0.0357891545 -0.0172166135 -0.0072951401 0.0282913093 -0.0331737399 -0.0227686707 0.0328386948 0.0251243319 -0.0142601486 -0.0212517790 0.0400537811 -0.0321425088 0.0186298285 0.0084940018 -0.0343851149 -0.0172088798 0.0078101903 -0.0143828280 0.0141364746
-0.0090168277 0.0038941738 0.0116631025 -0.0291641913 -0.0273436420 0.0325803570 -0.0421175137 0.0101111447 -0.0212480705 -0.0214860514 0.0086160805 -0.0344704837 0.0074210218 0.0036758636 0.0425580479 0.0389092676 0.0179589093 -0.0028899093 -0.0183671750 0.0399214663 0.0134385750 0.0032730610 -0.0285413656 -0.0297086071 -0.0306698866 0.0162268206 0.0016387432 -0.0255687274 -0.0017602579 -0.0342566520 -0.0158978179 0.0198729448 -0.0315149799 -0.0363197178 0.0413738601 0.0323009863 0.0134245930 -0.0013763106 0.0001356391 0.0190202817 -0.0393803231 -0.0295942519 0.0098855747 -0.0299905278 -0.0001893711 -0.0373009257 -0.0228271652 0.0419901609 0.0282372236 0.0001399486 -0.0153416265 0.0057376083 -0.0346181765 0.0056736665 -0.0266661998 0.0248140413 0.0355154350 0.0015928242 0.0310821142 -0.0069449628 0.0331836566 0.0096382676 -0.0002105815 0.0189237762 -0.0000755219 -0.0266183317 0.0223678853 0.0099145193 0.0029437044 0.0201365724 -0.0249511022 0.0384931229 -0.0350502208 0.0343444981 0.0327915028 0.0219708886 0.0030291888 -0.0239891317 0.0353488289 -0.0425608680 -0.0118131926 -0.0194468927 -0.0388569273 -0.0323028788 0.0194710791 -0.0356991030 -0.0002507158 -0.0397797227 0.0357048549 0.0297208671 0.0192010812 -0.0303989779 -0.0271456353 -0.0418193787 0.0364530981 -0.0194703061 0.0154912798 0.0216419268 0.0439359508 -0.0004383957 0.0040997081 0.0087254774 0.0065435721 -0.0423843451 0.0021261030 -0.0294880588 -0.0053933370 0.0377033725 0.0038772360 0.0179702248 0.0171125736 0.0216740053 -0.0088034701 0.0177470520 0.0055749794 0.0000290866 -0.0280888081 -0.0270677600 0.0120703988 0.0405739471 0.0148357954 -0.0398413874 0.0358535238 -0.0360054523 0.0158353131 -0.0156553462 -0.0347099565 -0.0287370160 -0.0082387179 0.0190531630 -0.0362648442 0.0215110295 0.0407420248 0.0422101580 0.0253392849 0.0422531404 -0.0029016314 -0.0099205459 0.0317575857 0.0036475672 0.0434028879 -0.0045023686 -0.0309134703 0.0078425119 -0.0034315384 0.0040992289 -0.0337596573 -0.0237203930 -0.0422163047 -0.0075710490 -0.0239739548 -0.0055887089 -0.0414298996 -0.0361440778 -0.0161941405 0.0041399268 0.0134783508 -0.0283061452 0.0147387162 -0.0194500647 -0.0342275724 -0.0423980728 -0.0193225648 -0.0358621404 0.0110633159 0.0241268426 0.0302921664 -0.0135954777 0.0411153473 -0.0132555151 -0.0225472413 -0.0030834791 0.0335356183 0.0253434163 0.0319387875 0.0396593548 0.0400757417 0.0220314953 0.0396728367 0.0152351633 -0.0291584693 -0.0041785860 0.0196393188 0.0137376124 -0.0146971382 -0.0310410801 0.0251891632 0.0183557421 0.0385094211 0.0043435013 -0.0244504027 0.0072026700 0.0348680541 0.0198493954 -0.0291350521 -0.0420470722 0.0417659543 -0.0284662284 -0.0402760953 0.0368108042 -0.0266957022 -0.0351184905 -0.0231262967 0.0294950064 0.0373072363 -0.0009308078 -0.0429333411 -0.0433324277 0.0032756003 -0.0074550873 -0.0334281884 0.0201686788 0.0232597813 -0.0102685364 0.0216807444 -0.0227356479 0.0048307874 -0.0235999692 0.0387308151 -0.0225447174 -0.0371075459 -0.0021225996 0.0273693409 -0.0217212420 0.0232456401 0.0292357448 0.0193717182 -0.0106895259 0.0252684373 0.0224208795 0.0006671161 0.0090851327 0.0386058316 -0.0395432040 0.0410572551 0.0244351719 0.0221785456 -0.0020789090 0.0024916006 0.0243351627 0.0011824457 0.0368784480 0.0087415567 0.0150296874 -0.0141972341 0.0022966291 0.0406040139 -0.0312147085 -0.0414466299 -0.0081540821 0.0403085761 -0.0278195795 -0.0192551240 -0.0095421411 -0.0375012271 -0.0001864313 -0.0284285918 0.0033397742 -0.0253178701 -0.0421636216 0.0257255882 -0.0154401287 -0.0208316650 0.0029882009 0.0048554433 0.0199361704 0.0020054101 -0.0142691787 -0.0125543922 0.0378935710 -0.0075537898 0.0316526927 0.0284901317 -0.0224854387 0.0399283171 -0.0132395839 -0.0043139723 0.0013523659 -0.0116262082 0.0354571491 0.0076009417 -0.0295421276 0.0054384237 0.0313888080 -0.0168881733 0.0106284758 -0.0266236849 -0.0125137623 -0.0280064214 0.0317210555 -0.0153332232 -0.0337149501 -0.0157798640 -0.0115006892 0.0109814666 0.0397586226 0.0220265277 0.0114245564 -0.0333258510 -0.0410750657 0.0321100168 0.0248929709 0.0243700556 0.0071578203 0.0395073220 0.0146432370 -0.0274449475 -0.0289073847 -0.0241686832 -0.0012490851 -0.0414928347 0.0430012420 -0.0044471403 -0.0119776912 0.0002584445 0.0332022756 0.0004723397 0.0187171940 -0.0196004026 -0.0278755873 -0.0324919969 -0.0371387601 0.0410355553 -0.0172593296 0.0342852958 -0.0209516454 0.0317300707 -0.0010620110 0.0017200444 0.0171077419 0.0398399830 -0.0381616727 0.0203772839 0.0179321449 0.0342116021 0.0108185271 0.0226090439 -0.0261584837 -0.0229536630 -0.0103231324 -0.0323255099 -0.0068078274 -0.0205255840 0.0438589938 0.0326450728 0.0120729962 0.0340531468 -0.0225860905 -0.0245470572 0.0286382139 -0.0080351382 -0.0239081942 -0.0093039749 0.0103923222 0.0131983012 0.0358107872 -0.0245990232 0.0068618809 0.0254832115 -0.0415040664 -0.0006237997 -0.0115348706 0.0148170032 0.0175319463 0.0051040570 -0.0146257570 0.0284076761 0.0350846015 -0.0374813601 0.0371272787 0.0376249775 0.0316998176 -0.0046050646 -0.0269901138 0.0241365153 0.0325918943 0.0037437517 -0.0338825509 -0.0280049201 -0.0202400386 0.0236189030 0.0184984785 -0.0324176364 -0.0289588682 -0.0205071643 0.0243264232 0.0260299724 -0.0002075838 -0.0185691379 0.0241302289 -0.0000279750 0.0111359134 -0.0421762280 0.0115952296 -0.0331717767 0.0182139874 -0.0022918929 -0.0158006903 0.0176574159 0.0358785614 0.0427517183 0.0320384651 -0.0144040277 -0.0354525484 0.0118484329 0.0135906199 0.0314918086 -0.0021852455 0.0247062296 0.0440578908 -0.0317948163 -0.0009709686 -0.0362211838 0.0339245871 -0.0096978312 -0.0317671895 -0.0306661949 -0.0112617640 0.0243246220 0.0437998623 0.0025620596 -0.0145218233 -0.0099677397 -0.0359585471 0.0167555101 0.0295398459 -0.0208441559 -0.0285608005 0.0001961672 -0.0431089327 -0.0152800027 0.0097015509 -0.0424987786 -0.0272086188 -0.0022494616 0.0001263720 0.0310716052 -0.0073267133 0.0439023897 0.0157314632 -0.0024956150 -0.0362543538 0.0377117135 -0.0322970673 0.0352983959 0.0028252718 -0.0150300087 0.0039792527 0.0077413488 0.0345446244 -0.0197363365 0.0436459519 0.0069540772 0.0017297382 -0.0318154432 -0.0219869409 0.0102492701 0.0211361218 0.0032290122 -0.0203349367 0.0108507425 0.0258971471 -0.0009893182 0.0089683328 0.0008982968 0.0326567702 -0.0125225820 0.0128469495 0.0374088064 0.0038650609 -0.0364957452 0.0091229798 -0.0300038513 -0.0262073111 -0.0134702539 -0.0368366875 0.0345344953 0.0178498272 -0.0226698779 0.0362205580 0.0168864243 0.0441329591 -0.0199941862 0.0333153568 0.0285094660 -0.0290266126 0.0288720019 -0.0218870640 0.0137718460 -0.0174452383 -0.0301979631 0.0418730266 -0.0384512544 0.0422676764 0.0173964333 -0.0151703525 0.0307036098 -0.0122109642 0.0137390764 -0.0084042503 -0.0329513066 0.0068817530 0.0256224498 0.0022501517 -0.0058470215 -0.0373975560 -0.0366099887 -0.0439893343 -0.0042280769 0.0260783099 -0.0412342958 0.0291577522
-0.0364927538 -0.0361579880 0.0406693518 -0.0135249076 0.0354993828 0.0014645766 0.0258833859 0.0403496735 -0.0272048637 -0.0265039355 0.0005019531 0.0379317477 0.0433303826 -0.0201892406 0.0253012851 0.0080125527 0.0417252518 -0.0298630167 -0.0180491935 -0.0098119341 0.0425445363 -0.0252920333 0.0111265462 0.0192099847 0.0350031517 -0.0246267132 0.0065188371 -0.0421613529 -0.0441659242 -0.0390440486 -0.0271277241 0.0191754047 0.0032670815 0.0162423160 0.0178779438 0.0090216119 -0.0184710938 -0.0278005712 -0.0115685612 0.0145925349 -0.0259727426 -0.0319352075 0.0100250859 -0.0253831502 -0.0192080773 0.0364293344 -0.0114920596 0.0012136712 0.0411029905 -0.0368927009 0.0025975418 0.0427100286 -0.0264589116 0.0116470922 0.0001461284 -0.0125593124 0.0251515787 0.0397106297 -0.0347032808 -0.0150503758 -0.0109467059 0.0342663787 -0.0046610357 -0.0278145224 0.0438109599 0.0369116142 0.0082486123 0.0093250005 -0.0332252346 -0.0060920212 -0.0193872713 0.0162902307 0.0015390659 0.0163073372 -0.0280775987 -0.0279806014 0.0425649807 0.0147579769 0.0384197123 -0.0210398007 -0.0302801281 -0.0148062613 -0.0305087697 -0.0040868954 -0.0020678560 -0.0312718377 -0.0312835276 -0.0236435495 0.0350247882 0.0069808667 -0.0300207734 -0.0405230932 -0.0375118591 0.0181577411 -0.0200277492 0.0015564410 0.0237927865 0.0245274324 0.0108935116 -0.0219119191 0.0432090238 -0.0374318324 -0.0046109864 -0.0062977979 -0.0190323833 -0.0172360279 -0.0390686728 0.0169781577 0.0262836795 0.0368792154 0.0032313145 -0.0154325580 -0.0352432728 -0.0372756086 0.0292362459 0.0052116844 -0.0133039635 0.0274413545 -0.0006772261 -0.0018001604 0.0257830918 0.0413346626 -0.0111191813 0.0413420647 -0.0201472621 0.0287303422 -0.0198801681 0.0213397332 -0.0253767334 -0.0375010334 -0.0425933637 -0.0379253365 0.0244344920 -0.0204446465 -0.0126584051 -0.0084252814 0.0109546613 -0.0081352955 -0.0108154081 -0.0094747804 0.0244979560 -0.0284208264 -0.0070725414 -0.0076657846 0.0366904698 0.0027162589 -0.0431667715 -0.0210741609 -0.0236517526 0.0348888114 -0.0071539320 0.0203611627 0.0186495632 0.0064745252 0.0207672846 -0.0217981916 0.0096439207 0.0310579333 0.0249032713 0.0236019194 -0.0004439433 -0.0422813967 0.0041753883 -0.0061013517 0.0179060400 -0.0144216977 0.0171236638 0.0073828739 -0.0417441390 -0.0050569526 -0.0148956440 0.0027857854 -0.0422477685 -0.0067058005 -0.0156566855 -0.0089973090 0.0184187777 -0.0336332172 0.0193608813 -0.0236812495 -0.0284605231 0.0397587083 -0.0358678252 -0.0411052480 0.0347321518 0.0424586721 -0.0164636392 -0.0046043638 0.0164944902 -0.0049870363 -0.0048866109 -0.0342025310 -0.0365076400 0.0409890935 0.0341916159 -0.0087767337 0.0413329452 0.0307210907 0.0355473161 0.0042596292 0.0420135334 -0.0159247015 0.0413740166 0.0367648490 0.0196017399 -0.0025387839 -0.0020450810 0.0427559242 -0.0029635925 -0.0057695187 0.0395034067 -0.0112821525 -0.0109605193 -0.0066525689 -0.0163857676 -0.0033020528 -0.0194704682 -0.0146474838 0.0072064209 0.0435569547 -0.0274570119 0.0354662985 0.0275200475 0.0014505523 0.0046624211 -0.0138867591 -0.0275860708 0.0425400361 -0.0396609642 0.0024134812 0.0040587522 0.0335167050 -0.0177733097 0.0002700559 -0.0268256254 0.0106332703 0.0356095098 0.0155668696 -0.0179408174 -0.0332159735 0.0209248774 0.0199571066 0.0317880623 -0.0161061436 0.0164749455 -0.0328606851 0.0367100313 -0.0337545201 -0.0436331928 -0.0324025899 0.0285717752 0.0322928429 -0.0217797421 0.0079925964 -0.0250968933 -0.0012265260 -0.0257187542 0.0050530382 0.0422432050 0.0104180742 0.0291146412 0.0200518630 -0.0213187970 -0.0067830663 -0.0415270217 0.0279302374 -0.0013808045 0.0231592134 -0.0347241461 -0.0255429074 0.0285832025 0.0230588727 0.0140121197 -0.0192744862 0.0234560426 -0.0221549850 0.0414142236 -0.0065744286 0.0050162179 0.0281973835 -0.0053539826 0.0102457982 0.0277601425 -0.0288600326 0.0069253119 -0.0188935362 0.0422297418 -0.0026947588 0.0141451042 0.0335547030 0.0140013620 0.0117843058 -0.0139997713 -0.0298349746 -0.0375327580 -0.0215089545 0.0179530773 -0.0350695327 0.0014686701 0.0385181718 0.0293403491 0.0125647448 0.0279070511 0.0286718048 -0.0425899997 0.0314125605 0.0042762193 -0.0187799558 0.0201498028 -0.0029460541 0.0409810431 -0.0218466707 0.0116996542 -0.0238924008 -0.0221450441 -0.0151319671 0.0420132838 0.0410640687 0.0256213266 -0.0211388525 -0.0422355719 0.0270472132 0.0206160787 -0.0160086062 0.0190691147 -0.0333597921 -0.0288113169 -0.0084375404 -0.0371684209 -0.0173362792 0.0304970853 -0.0426976532 -0.0436624177 0.0171410870 -0.0271982253 -0.0029316135 0.0368706323 0.0364282317 -0.0374045372 0.0424901173 0.0362070613 0.0282828473 -0.0333717912 -0.0441132076 -0.0347660407 0.0328585617 0.0388670750 -0.0138151571 -0.0252345763 -0.0435230583 0.0420150459 0.0303770304 0.0379971378 -0.0102741374 -0.0139901349 0.0239679217 0.0428345837 -0.0385836586 -0.0336162485 -0.0435254201 0.0012828026 0.0208223704 -0.0038626585 -0.0143848136 -0.0404822119 -0.0134486267 0.0218573287 0.0022011297 0.0402865708 -0.0294687077 -0.0135247177 -0.0379925705 -0.0125766033 0.0155960461 0.0088990331 0.0193037521 -0.0288740415 0.0128769679 -0.0099207573 0.0084611271 0.0360306650 -0.0138153629 0.0106737521 -0.0056807525 -0.0094247200 -0.0201282222 0.0187634509 0.0112162773 0.0414395295 -0.0027653759 0.0225230698 0.0041566170 0.0392668433 0.0035652705 -0.0281870272 -0.0191743616 -0.0266517270 -0.0384903252 -0.0225203987 -0.0415538102 -0.0370698385 0.0055720769 -0.0345419869 0.0052615227 0.0348644555 -0.0441243164 -0.0080471924 0.0330301113 0.0017941650 -0.0189068075 0.0191550050 0.0374022759 -0.0352611169 0.0242167823 -0.0348343216 0.0241873376 -0.0415371023 0.0317229517 -0.0099617233 0.0441155061 -0.0340097770 0.0261759795 0.0163427405 0.0247558672 -0.0380870439 0.0182831865 -0.0047348612 -0.0312959105 0.0355537944 0.0161924548 -0.0421282873 -0.0319486596 -0.0432114564 -0.0030712197 0.0391397811 -0.0051940246 -0.0333748199 -0.0123211406 -0.0229599383 0.0267348625 -0.0340554081 -0.0276935976 0.0411750041 -0.0183005612 0.0285794567 -0.0421135835 -0.0136581026 0.0377992354 0.0249689519 -0.0090980344 0.0214396436 0.0143998759 -0.0397253744 0.0302753188 -0.0350982361 -0.0302588232 -0.0224033836 -0.0437828004 -0.0402104482 0.0121547086 -0.0039749113 -0.0327782035 0.0316225886 -0.0037753882 -0.0341009945 0.0431106202 -0.0088815736 -0.0140957711 0.0186066013 0.0252173655 0.0314968601 -0.0421207286 0.0333870947 -0.0041913353 -0.0245418772 -0.0090222172 -0.0227883421 -0.0249066800 -0.0264161211 0.0276399553 0.0364416726 0.0186173432 -0.0364544876 -0.0312807634 -0.0045367763 0.0165565312 -0.0128527815 0.0085292896 0.0160463843 0.0430843569 0.0146897202 -0.0182315521 -0.0099827657 -0.0269664861 0.0180566944 -0.0126701063 0.0379915051 0.0102938516 0.0404629447 0.0324372239 -0.0428608097 0.0265100244 0.0366426259 0.0164978728 -0.0358598977 0.0404828787 0.0342178829 -0.0152911237 -0.0142388381 -0.0125418697 -0.0186208785 0.0068480987
0.0211961921 0.0112668853 -0.0066151163 -0.0071862852 -0.0129832998 0.0011301308 0.0252138190 0.0059788041 0.0033067574 -0.0362708569 0.0380560644 -0.0261620134 0.0390562043 -0.0010736014 -0.0191002674 -0.0214831550 0.0315165445 -0.0217651017 -0.0300191138 -0.0271025561 -0.0161397662 0.0237400606 -0.0202793144 0.0180901177 0.0015969862 -0.0261865370 -0.0201519672 -0.0406062156 -0.0371012948 0.0051832139 -0.0083420044 0.0128733385 -0.0373716205 -0.0373949185 -0.0071449499 -0.0299461950 -0.0015841894 -0.0355328023 0.0226870999 0.0370884836 0.0125845168 0.0091823442 -0.0048001097 0.0136795500 0.0440381877 -0.0006041540 0.0129523743 -0.0051312153 0.0219873525 0.0058159647 0.0390333869 -0.0012158365 0.0379629917 0.0425250456 -0.0404610746 -0.0045466018 0.0327460133 -0.0131612541 0.0367179327 -0.0057836962 0.0190950725 0.0281573348 0.0073462059 -0.0066955271 0.0021161775 -0.0405178703 -0.0374742374 0.0280853361 -0.0077836378 -0.0246594250 -0.0177052580 0.0192766413 -0.0372270532 0.0351604931 0.0300737247 -0.0089927623 -0.0195909198 -0.0263605621 0.0384941213 -0.0404291749 -0.0086622937 -0.0273773968 0.0233193561 0.0413696021 -0.0203888267 -0.0313885920 -0.0235318914 0.0024586469 0.0164178666 -0.0171982050 -0.0311002433 0.0296508707 -0.0137252426 0.0166318212 0.0010094065 -0.0396358296 -0.0014605990 -0.0107462136 -0.0130661391 0.0261178687 0.0321198069 -0.0089356583 -0.0430018008 -0.0090450663 0.0058388240 0.0305006523 0.0089100860 -0.0264652912 -0.0045341104 0.0140891168 -0.0167689025 -0.0120624229 -0.0373224616 -0.0148885483 -0.0390333012 0.0272040199 -0.0256657917 -0.0213761907 -0.0309805982 -0.0051402086 0.0171273202 0.0189534687 0.0430770963 -0.0099120904 -0.0190217942 0.0126897991 0.0307042897 -0.0350154489 0.0091563975 -0.0166136175 0.0278972462 0.0330788158 -0.0287393145 0.0281642824 0.0181866027 0.0300992709 -0.0284666717 0.0344280265 0.0034837846 0.0394260250 -0.0264602546 0.0158845205 -0.0085353637 0.0315492749 0.0273852460 0.0093635703 -0.0091478676 -0.0325127319 -0.0194631517 0.0360723026 -0.0245296285 0.0005364925 0.0291118287 0.0253064893 0.0250942223 -0.0319753066 0.0039519835 -0.0070732841 0.0342990980 0.0355868749 0.0424528979 -0.0182960778 -0.0373490602 0.0021612218 -0.0344351828 -0.0110984240 -0.0105213337 0.0055249408 -0.0192015935 0.0156704765 -0.0093223294 0.0237116423 0.0427161269 0.0142055526 -0.0311159492 -0.0182723962 0.0376281068 -0.0175961927 0.0111129330 -0.0229232386 -0.0194108263 -0.0204937570 -0.0314361006 0.0065820995 -0.0023480430 -0.0276833251 -0.0260035153 -0.0320135392 0.0253274851 0.0318877511 -0.0272135250 -0.0024742675 0.0371280685 0.0219454002 -0.0202127807 0.0395732969 -0.0268556233 -0.0170271266 -0.0238176007 -0.0440225154 -0.0099938344 0.0145691326 -0.0006460322 -0.0114612347 -0.0105954437 -0.0158475842 0.0032326370 0.0190609284 -0.0244562458 0.0022168136 0.0052580247 0.0188886058 -0.0252310261 0.0299902484 0.0441049412 -0.0232171174 -0.0075205625 -0.0312015694 0.0105103282 -0.0253298189 0.0234694034 -0.0137358215 -0.0264532473 -0.0258110184 -0.0288414825 0.0269202515 0.0277935863 -0.0034365854 -0.0252709705 -0.0117197474 0.0398523360 -0.0354065597 0.0417825207 0.0041425293 0.0008607334 -0.0268306192 0.0220764391 -0.0242953561 -0.0286883432 -0.0225895941 0.0171000939 -0.0289616007 -0.0200617369 -0.0314882509 -0.0242807455 0.0260421578 -0.0400033630 -0.0050408156 0.0431576520 0.0391972959 0.0102674570 -0.0318704769 0.0115130804 0.0278502684 -0.0239160024 0.0360817686 -0.0097695868 -0.0406259038 0.0120667843 -0.0134975808 0.0109252268 0.0255098268 -0.0353721790 -0.0246676970 -0.0432297625 0.0127360560 0.0109416591 0.0008765122 0.0037665057 0.0415889919 0.0321732759 -0.0092865359 -0.0032955832 0.0071024601 -0.0191469230 0.0214090291 -0.0269630291 -0.0013940439 0.0298301633 0.0149913281 -0.0270262025 -0.0292249620 0.0300216731 -0.0018032002 0.0241244659 -0.0175489932 -0.0334390774 0.0080989907 0.0401923768 0.0371237770 0.0276164804 -0.0097926147 0.0396170206 -0.0121109858 0.0124273719 -0.0103475731 0.0055955946 -0.0311907697 0.0350985005 0.0003230609 0.0085827680 0.0344386473 0.0376161076 0.0260569248 0.0349607840 0.0152030848 0.0253795721 -0.0189704970 -0.0268954579 0.0343748480 0.0082089677 -0.0290308800 0.0006113031 -0.0307783000 -0.0280932654 0.0094078826 0.0375527479 -0.0331899486 0.0050546187 0.0363774598 -0.0006170141 -0.0335521474 -0.0412794165 0.0354092568 -0.0024821754 -0.0134113329 -0.0059257941 -0.0159132220 -0.0025691506 -0.0156693235 0.0331826247 0.0405837484 0.0012240025 0.0255769938 -0.0026418697 -0.0407282114 -0.0094110118 -0.0336714797 0.0385626256 -0.0077011511 0.0219129156 0.0425744839 0.0338504426 0.0138971694 0.0218817275 -0.0436172672 0.0370261595 -0.0267673526 0.0434983745 0.0108028958 0.0012488427 0.0313839540 -0.0388304330 0.0329330303 0.0171324722 0.0393361486 0.0205075387 0.0240983609 -0.0426806919 -0.0302369129 -0.0344479308 0.0244848896 -0.0439526513 0.0073523703 0.0284116641 0.0317934491 -0.0033583925 -0.0051731989 0.0328756012 -0.0264355466 -0.0146757644 0.0108492468 0.0318060853 0.0280124806 -0.0061812196 0.0138339438 -0.0429596715 0.0130195832 0.0433201119 0.0343133733 -0.0005890444 -0.0114618139 -0.0291871391 0.0001230741 0.0154129760 0.0340955034 -0.0111979805 -0.0132855820 0.0313158333 0.0026718257 -0.0054061711 0.0288259517 0.0348710679 0.0367670804 0.0225160476 0.0302421860 -0.0359841846 -0.0269548055 0.0183758512 0.0091862325 -0.0425626263 0.0344536901 -0.0367573202 0.0375422798 0.0114445286 -0.0288781561 0.0230489578 0.0364456922 -0.0024473779 -0.0104218144 -0.0322377644 0.0367860645 -0.0407748297 0.0292430371 0.0322157368 -0.0026939844 -0.0297686923 0.0064063421 -0.0379609801 -0.0198452286 0.0381942019 0.0095176799 -0.0130137186 0.0381507054 0.0334933326 0.0234942958 0.0403501280 0.0244086664 0.0160386767 -0.0181730315 -0.0093534291 -0.0327001065 -0.0185639840 -0.0106750587 0.0284059737 0.0341572799 0.0249508079 -0.0388539396 -0.0411393903 -0.0249705482 -0.0230343901 -0.0036742201 -0.0065331198 -0.0338000879 -0.0110938828 0.0009942389 -0.0218480732 -0.0042534387 0.0150328688 0.0232665241 -0.0264940355 -0.0014899701 0.0278794970 -0.0356226303 -0.0097679272 -0.0357434340 -0.0222536772 0.0311993938 0.0326940827 -0.0024677347 -0.0162984282 -0.0073432242 0.0436760522 -0.0378860123 0.0036471195 -0.0371839888 -0.0099095190 -0.0371482484 0.0335538499 -0.0176068451 -0.0173594393 0.0343157835 0.0173455980 -0.0016071541 -0.0242695045 0.0068445480 0.0373255797 0.0376521908 -0.0356447548 -0.0165098216 -0.0050355527 -0.0412258618 0.0097011924 -0.0217290185 -0.0339416787 0.0112204496 0.0349430256 -0.0220941249 0.0223108716 -0.0369971730 0.0134476265 0.0113554774 -0.0066546239 -0.0426394865 0.0044995449 0.0291615669 -0.0405508466 -0.0030927884 0.0311091319 -0.0353402011 0.0069354009 0.0081749707 -0.0060712849 0.0007731418 0.0373158194 0.0206703637 0.0202794354 -0.0268394556 0.0259382296 -0.0202805530 -0.0324897915 -0.0012013011
-0.0047382275 -0.0227289777 0.0282049924 0.0298744608 0.0341459960 -0.0136150913 0.0384229384 0.0330618843 -0.0081599560 -0.0070549608 0.0273491163 -0.0389528535 -0.0057081687 -0.0264635570 -0.0219129305 0.0017942230 -0.0247914027 0.0261618067 -0.0202874281 0.0289774220 -0.0374304987 0.0400636084 -0.0199253075 -0.0013094814 0.0313270986 -0.0388016254 -0.0254032854 -0.0185951889 -0.0174024813 0.0352697112 0.0112278145 0.0425719395 -0.0298493877 -0.0219821464 0.0260375328 -0.0363357142 0.0425087772 0.0312576406 0.0354752280 0.0216012243 -0.0257787500 -0.0253154356 -0.0302312020 -0.0039039834 -0.0270572063 0.0004068699 0.0307360422 0.0209684949 -0.0346973874 -0.0042622895 0.0207652673 0.0396798700 -0.0301632714 0.0378128439 0.0207668468 -0.0080770953 -0.0057835747 0.0200728998 -0.0141485864 -0.0338657051 -0.0029151763 0.0418554693 -0.0399993770 0.0093509573 -0.0267773829 0.0233494435 0.0182423089 0.0032326053 -0.0106956530 0.0398434177 0.0110467412 -0.0202056468 0.0313173980 0.0434938185 -0.0165136252 -0.0253699534 -0.0145304631 -0.0386975072 0.0201104525 0.0047270167 0.0016644475 -0.0181228761 0.0188575108 -0.0406246446 -0.0339424461 0.0047684838 0.0340952240 0.0331937075 0.0072809574 0.0386524983 -0.0265699998 -0.0063583208 0.0300721824 0.0357891209 -0.0053200489 -0.0018661518 -0.0413040519 0.0178091079 -0.0243278984 0.0211175736 -0.0296493433 0.0116497157 0.0120036062 0.0314081162 -0.0257351659 0.0252948999 -0.0115734451 0.0146878920 -0.0392426141 -0.0412074141 -0.0124445893 -0.0072228108 0.0223081689 -0.0176329091 -0.0100836540 0.0096407486 0.0104082953 0.0230762847 0.0068426933 -0.0282194633 -0.0269786399 0.0011732734 0.0064606271 -0.0345070586 0.0153776202 0.0053119254 -0.0114288023 0.0302056931 -0.0399572179 0.0162685197 -0.0346018709 -0.0153980665 0.0329490453 0.0090375012 0.0413200743 0.0211012997 0.0237759799 -0.0190622136 0.0434758291 0.0231507681 -0.0374635234 -0.0360518359 -0.0290900450 -0.0125539973 -0.0118833454 0.0367636792 0.0383367240 -0.0281884130 0.0019788155 0.0044997241 -0.0245356876 -0.0040486366 0.0055338442 -0.0054934938 -0.0274186637 -0.0343790464 0.0144269289 0.0365465656 -0.0120111769 0.0024013324 -0.0389619581 -0.0163353588 -0.0079916539 0.0115926331 -0.0318410806 0.0223587230 0.0023174181 -0.0185518209 0.0267903861 0.0339973904 -0.0412329249 0.0400084592 0.0243738275 -0.0053247381 -0.0336141922 -0.0230186377 -0.0336889401 0.0398140736 -0.0032389378 -0.0130637530 -0.0194966849 -0.0257669333 0.0387344323 -0.0253427941 0.0286345482 0.0340424292 0.0354841948 -0.0029641509 -0.0277143978 -0.0001593994 0.0408833995 0.0422657877 0.0208826307 0.0129267173 0.0042587649 0.0431313291 -0.0264149942 -0.0184179731 0.0252949260 0.0162716489 0.0421595722 -0.0179196652 0.0393825620 -0.0386793911 -0.0200593546 -0.0403494276 -0.0305872168 -0.0372445807 -0.0092007257 0.0064460547 0.0178527404 -0.0111314412 0.0321115032 -0.0308913477 -0.0295855012 -0.0375480987 0.0337269679 0.0184157323 0.0013486148 0.0256295875 -0.0042024199 0.0226491839 0.0288730133 0.0387022905 -0.0320631899 -0.0249497276 0.0380260125 -0.0226001572 -0.0094851637 -0.0264090355 -0.0082527744 0.0026688122 -0.0013001460 -0.0099539002 -0.0164266974 0.0124774901 0.0353694409 0.0129982568 -0.0012724713 -0.0221359506 0.0074752178 -0.0071909847 -0.0052618915 0.0071122227 0.0279426705 0.0085988315 0.0278351475 0.0433581434 -0.0012009639 0.0024875859 -0.0053702248 0.0275793485 -0.0424275510 0.0049215979 0.0258910358 -0.0302022155 -0.0313842818 -0.0411294177 0.0246136747 -0.0047753905 -0.0349415690 -0.0373749696 0.0345672965 -0.0177432653 -0.0084023373 0.0048603639 -0.0083254194 0.0126553448 0.0209773611 0.0218029227 -0.0162720028 0.0074173501 -0.0270212982 -0.0138168586 -0.0291157216 0.0100777699 -0.0248497017 -0.0144013669 -0.0114153950 0.0424464494 -0.0187691338 0.0130080711 -0.0077329087 0.0421189219 -0.0341975316 -0.0229118802 -0.0437897518 -0.0287032947 0.0245084334 0.0188830364 0.0175208077 -0.0140959183 0.0398423970 -0.0099720815 0.0259974618 -0.0349489152 -0.0108886221 0.0229033828 0.0330886208 0.0040552747 -0.0371853486 -0.0017966516 0.0235895216 0.0293757357 0.0188273136 -0.0231452305 -0.0114536639 0.0225106422 0.0436249226 0.0316751935 -0.0188203063 0.0169910323 -0.0367682204 0.0414990187 -0.0028590735 0.0086925188 -0.0249499641 0.0324912108 -0.0216985308 0.0300785508 0.0315144360 -0.0240948256 -0.0040382687 0.0319017880 0.0426160209 -0.0095683932 -0.0215844009 -0.0374186970 0.0406810716 -0.0396075323 0.0153650763 0.0010047123 -0.0247376822 0.0053419918 0.0078891208 0.0306293741 -0.0295499507 0.0251581389 -0.0207330082 0.0249018166 0.0020979384 0.0091054896 -0.0382603966 -0.0080053508 -0.0002927204 0.0022713833 0.0029481298 -0.0299193468 -0.0125935357 0.0429920293 0.0285798144 0.0366228074 0.0268095247 -0.0258733444 0.0110370526 -0.0337011479 -0.0355923772 0.0431148596 0.0041356436 0.0023890783 0.0084443158 0.0285548326 0.0175424460 -0.0052409396 0.0325357765 -0.0184781104 -0.0137259057 0.0342499092 -0.0414552167 0.0161668621 -0.0186941810 0.0307272170 -0.0205817074 -0.0339634158 -0.0347360559 -0.0396403372 -0.0385673158 -0.0254200120 0.0022142269 0.0315051228 -0.0154487323 0.0280563775 -0.0114647904 -0.0234818943 -0.0423483923 0.0229647327 0.0360140875 -0.0143879121 0.0102247670 0.0410952270 -0.0212037638 -0.0302700140 0.0017513385 -0.0381954536 0.0295650437 -0.0076218569 -0.0256788265 -0.0147694359 0.0425815396 0.0075206626 0.0034037321 0.0424191840 -0.0193701908 -0.0312749520 0.0357001238 0.0385266505 0.0385711417 0.0315175392 0.0199203175 0.0270348005 -0.0058827410 0.0231072046 0.0305006262 0.0292390604 -0.0271696132 -0.0376633331 0.0318958089 -0.0203479826 -0.0087444438 0.0164016876 -0.0128463488 -0.0042773574 0.0330724828 0.0343838371 -0.0037888014 -0.0109238941 -0.0174640417 -0.0326760150 -0.0261949766 -0.0345775634 0.0229895096 0.0331967808 -0.0386410989 -0.0038443247 0.0319967419 0.0148637025 0.0384041145 0.0211261921 0.0209411941 -0.0099912211 0.0429443754 0.0100455061 -0.0044679926 -0.0008438536 -0.0109018516 -0.0105121769 0.0370291509 0.0275765937 -0.0076474664 0.0162317045 0.0050308900 -0.0186818372 0.0327907540 0.0226268042 0.0183943231 -0.0420120880 0.0209020134 -0.0133646494 0.0046032420 0.0234307609 -0.0091970116 -0.0105964290 0.0119838081 0.0118759600 -0.0090928609 0.0396732241 -0.0231247209 -0.0386698470 -0.0088256663 -0.0428195111 -0.0316164456 0.0232770294 -0.0282414071 -0.0109363748 -0.0429882258 -0.0170445163 0.0380745940 0.0100400429 -0.0272185393 -0.0433516987 0.0258917306 0.0433430560 -0.0019282025 0.0324946605 -0.0046165339 0.0267267283 0.0353051648 0.0186928269 0.0367874168 0.0348047987 -0.0344826542 -0.0339516774 -0.0149248736 -0.0063387593 -0.0016753320 0.0120685808 0.0035820606 0.0426618569 0.0208719671 -0.0042667519 -0.0042329025 0.0052236435 -0.0333773158 0.0059325164 0.0352747776 0.0169584472 0.0360463820 -0.0380924009 0.0075565507 0.0411991924 0.0203813203 -0.0257663112
