0.01618631391890382
-0.00847041281501371
-0.02004494560094955
-0.01108314242043235
-0.01892461770340369
-0.01548862673771052
0.01901532482371507
-0.01783845652462343
-0.00153274561351439
-0.00079531134729019
-0.00954781528142760
0.00136885064817661
0.01138908768316322
-0.01437941928329726
-0.01400611919097677
0.00573952418088641
-0.00453734961394870
-0.01983697887926588
0.01347510374669622
0.00161155429626432
-0.00575489785462059
-0.00213010806672006
0.00389926914827720
-0.01832371409008596
0.00817778065424563
0.00910061457789878
0.01451918281122020
-0.01000100663219100
0.00895977598916707
-0.01125349154569973
-0.00416469927218181
-0.00708416177959205
0.00111420189582051
0.00321605465147072
0.00989957366064878
0.02152680673411489
0.00957536468140871
-0.00274326612366532
-0.01319312155455500
-0.01796173970056915
0.00055599316820960
-0.01129999116540295
-0.01383524307803836
-0.01678946207786699
0.00868136634531966
0.01095792699240569
0.00533796880538447
0.01491908172204662
0.02138843144444882
-0.00857333461854415
-0.00806227586446566
-0.01851451619328206
0.00673584006064354
-0.00165652784544653
-0.02025036887542742
0.00513973313310120
-0.00601519903895771
0.00626224942296008
0.01874229932135207
-0.00799333949571830
-0.02150791680418487
0.01517958296064918
0.01427208333115860
0.00486402425109259
-0.01434692005086187
0.02110591984171310
0.01694601803132872
0.01135291452643254
-0.01445388670373907
0.01929555685166136
0.00601620617084589
0.01770517224731981
-0.00909099954142790
-0.01093472148719388
-0.00911412816050636
-0.01045103000841819
0.00995121758791994
-0.01751962856498966
-0.00369489610602824
0.00059786577650527
0.01316758229988602
0.01116986133513945
-0.00517117344058535
0.00885196487918952
0.00763356116994346
-0.00257561301953143
0.01166512222538306
-0.01264128222990470
-0.01062017574683728
-0.00253695383647563
0.02023346964283469
0.00863295272785876
0.01565350661981678
-0.01991028198117360
0.00139931549571662
-0.01709065534630065
-0.01375002506747672
-0.02046556125658194
0.01189800578304237
0.00197900948525717
0.00661358537007260
0.00901735264931385
-0.02050371951307644
-0.01122362083643707
0.00702935659992599
0.00136485192593362
-0.00220585652714411
0.00055915598238178
-0.00382027074828535
0.01263861800457605
-0.02096546389152569
0.01349295358544485
0.02193608463331731
0.01020351477035648
0.01891296130580545
-0.01652917308264549
-0.01320889523257971
0.00885754395716738
0.00237813975560679
0.01650305435566947
-0.00589434660993374
-0.01486338328654980
0.00820566829528344
0.01806718505052803
0.00104667204570455
0.01809283682848879
0.02103110734539951
0.00374996043526824
-0.01437906164946752
0.02021234118412946
-0.01912432564492747
0.01085272970315178
0.01266912590210685
0.01308995126305689
-0.00425222675051617
-0.00586491331037172
-0.00325730791434163
-0.02208917061852401
-0.01893402300683984
-0.01335604702111769
-0.00165738534451352
-0.00736838451034352
-0.01722052625867255
0.01333621961278610
0.01936668069874902
0.00203690492155103
-0.00260007005118699
-0.02025822376224612
0.02161556715750345
-0.01220988690066430
0.01282475838001121
-0.01553294094953015
-0.01173076352122341
0.02017361361854562
-0.00030928343132223
-0.01418262402598979
-0.00487493237223171
-0.00303477261798138
0.01306552595878030
0.00511738639089486
0.01482935201786361
0.02118306157612067
-0.01050497820103560
-0.00281417433022655
-0.01640906975181566
0.00191466953546766
-0.01304288003002736
0.01833790985468229
-0.01304452497703448
0.00143110579978051
-0.00012109676632948
0.01964092179135775
-0.00526314851705709
0.00003919837784999
0.00465887421236476
-0.02005618002124051
0.00865628703248796
0.00122488456182428
-0.01638841177015155
0.01980995399653408
-0.00178689368615618
0.02153222586925969
-0.02198296209035600
-0.00707261021587386
0.01878328813386277
-0.00729310137728118
0.01094011995500893
-0.01657074713471029
0.00646684763814469
-0.00011025668464764
-0.00977299680486426
-0.00976526476968477
-0.01866740472686603
0.00759543528987265
0.02122778468964483
-0.01078252403035839
-0.01766529001121047
0.00784669151479067
0.01653607450327338
-0.00992371401293336
-0.00163243254939199
-0.00186529227148842
-0.01736672780803443
-0.01836012134642828
-0.00686590248817352
0.01397997357490652
0.00611432421846629
0.01781567083429229
0.00973186528417452
-0.00216077182824236
-0.00528754726487926
-0.01628467862851592
0.01746770915293861
0.01722604544023709
0.02046640507700817
0.00011283668348192
0.02059441265699581
0.01780670667138876
-0.01773804318823442
-0.00846353690160405
-0.01548914604650753
-0.01632637415446321
0.01363259405964032
-0.01667668112413401
0.01147490337520652
-0.01613975174963264
-0.00441539360061175
-0.00246403366015435
0.00136942891247011
0.00408016136797180
-0.00416123120053919
-0.01622717735613360
0.00078328633530121
0.00725155680023006
-0.01851750714524058
0.01302335365930201
0.01144057070170391
0.01371819323854878
-0.00109853264887228
0.02152077403075977
0.01872448755511378
-0.00626192863203508
0.00433603929597644
-0.01296790205475060
0.01689649827452751
-0.00650866119744033
0.01588232484216441
-0.00418054030377085
0.01399197615186233
0.00917757658559039
0.01815729348708959
0.00226382472089352
0.01528096555968411
0.00391995682342340
-0.00254752751344507
-0.02021163620470490
0.01788879208024986
-0.02098500529232613
-0.00067047937290274
0.01741874422913546
-0.00619481410994355
0.00861733228940687
-0.00572608562320158
0.01988189713752762
0.01404477230627733
-0.01556106458777617
-0.00197764747322419
0.02033860934728896
-0.01408769985360625
0.02149952860658108
0.01582932650389426
0.01780919345815982
-0.00582469008451811
-0.01025197023677507
0.00509440279100116
-0.01335478399929298
0.01845410412311950
0.00461410663439080
-0.00363291370773061
-0.00128729226493592
0.01540983089926979
-0.01010536615788865
0.01086424521301168
-0.01634462595550725
-0.00298050499865686
-0.01011081278197259
0.00694513118958807
-0.01796937334134741
0.01805160511804574
-0.01467719436507443
-0.00106518663758595
0.01772711668191657
0.01648123709073845
-0.00170290091778421
0.00107551480824052
-0.01852800703084500
0.00570732553696849
0.00087019379472814
0.00144855237885274
-0.00430596256723818
-0.02053488542014505
-0.00476461211024811
0.01651558255067459
-0.00408585303977582
-0.01671872288446076
0.00988357806722386
-0.00224460125279051
0.02201328631282696
-0.00243465540269684
0.01887794408257555
0.00603487397792936
0.01899715258124801
0.01322986922869122
-0.01182099245546659
0.00101022217673104
0.00471783279779692
0.01698929051618467
-0.00765012855069628
0.02059520005563918
0.02008376864449054
-0.02190110540589911
0.01490289795821792
-0.01413316803122851
-0.00868861278213847
-0.01066453519081938
-0.02200891045122004
-0.01663058185698279
0.00546939093260836
-0.00889113639615002
0.00351107821729659
-0.01184273944908408
-0.00577390361552584
0.00523839232152651
-0.01932468715049887
-0.01282130746476388
0.00272436060999038
-0.00710562221899537
0.00283532238367322
0.02056939657064808
-0.01185341413919017
0.00730737340539082
0.00721160319508365
-0.01338645383053940
-0.01902043595140243
-0.00695782873959831
0.00136031020554935
-0.00154577217469245
0.00022409221854121
0.01315138793495885
0.00226903539335999
0.00005792336538903
0.00637769437141286
0.00641717283823517
-0.00787116938060506
0.01289824480174182
-0.00096684213546369
-0.00417215334066904
-0.00831712712600366
-0.00044783798717785
-0.00872235451393800
-0.01266958732398085
-0.01496443334222730
-0.00942701963766084
-0.00391432381382887
0.01160296178601453
-0.02091939332520788
0.00938629261952973
0.01911879578373979
0.00871630148459978
0.01374451583065834
-0.01777880015850060
-0.01390682381570381
0.00689196073465078
0.00177564090853826
0.01286119728476598
0.02062737504455833
-0.00433052112503143
0.00462256575196865
-0.01761059189956845
0.00949285850914845
-0.00221681453338378
0.01970309524992732
0.00933792003811242
-0.00191607863014234
0.00549916571838160
0.00787494244832741
0.02097703426923375
0.00719849162592049
0.01639923982179178
0.01024794017900100
0.01334312103220276
0.01891345987830270
-0.00796798360641769
0.01534482573610497
-0.01886287271845369
-0.00044527169953561
0.01483375666099794
-0.01220591272852688
0.00820005218890443
-0.01476396358485543
-0.02126692003146138
0.00057887994603786
-0.00208673684760181
0.01602101205451921
-0.01509748029268495
0.01444918088711066
-0.00771260947161128
-0.00731534770301154
-0.01162786772130275
-0.01756980402864207
-0.02143842433622279
0.02066050151341283
-0.00536799364272865
0.00742008907032904
-0.01343478202239929
0.00656325754015112
-0.01934295973924043
-0.00388306675276465
0.00916576104560639
0.00178942530209933
-0.02034837722932640
-0.01910400659033801
0.01449303063592167
0.00988510374371987
-0.00430376308183903
0.01503202363394661
-0.01639724111894107
0.00653911961941279
-0.01251659481505949
-0.01728888982381535
-0.02064493525791277
0.01055666709823966
-0.00419413213267974
0.01793226171990889
0.02025223915802192
-0.02181430858430592
-0.01096023896048167
0.01783976956741777
0.01139300934328267
-0.00284477428445592
-0.01705592785577739
0.00152102378093548
-0.00251152033561135
-0.01416178666537974
-0.00699835098233761
-0.01893638361150412
0.00022070168994547
0.01220259589197554
0.02029994367181352
0.00857288523393744
0.00312897469505216
0.01116753240920840
0.00648173717823024
0.00756776976436076
0.00969853850505474
0.00762292501260516
0.00948067800393887
-0.00217117785927379
0.01947492303436338
0.00794760314456930
-0.00197338100586601
-0.02183875058590919
0.01786543840584852
-0.01076648157234467
0.00308835059357292
-0.00538353843764619
-0.01782520152877879
0.02206623577650266
0.01477931591178543
-0.00444977928623141
-0.00236091153856847
0.00930018167358807
0.01397890978894635
-0.00257941663904404
0.01334154380512201
-0.01954014681704297
-0.00894547461937327
-0.00653189626274885
-0.00886649164105954
-0.00105010483505540
-0.01108885078606679
-0.00287288266848274
0.01637523993435275
-0.00604759270949893
-0.01969066649131195
-0.00618421201689174
0.01170056026546835
-0.01374310002287533
0.01991362471837421
0.01852207849848746
0.01069498871436003
0.01658969326159844
-0.01857256936870837
-0.00489368524694653
0.00696980686317140
0.01357678091718521
0.01042571985906069
0.01465941939075981
0.01544477820824470
0.00338572177482240
-0.00061479378973929
-0.00010513647312768
-0.00258633791060178
-0.01198374503588123
-0.01864354209112533
0.00380438756128850
0.01377225978511835
0.00710375585096516
-0.02112825504382193
0.01198081991060676
0.00547701285089158
0.01152550261927859
