0.02144995861866907
0.03464516798129907
-0.03758787208425399
0.01261712426818683
0.03970898992615617
-0.03770998753506997
-0.03780328665450133
0.01387224561544801
0.02648435592120055
0.01710353684201630
0.00041790331038070
0.01542061454273516
-0.02759392957870650
0.01809147392902297
-0.00843067523529520
-0.01293327230365988
-0.03884297737533045
-0.01574777344834444
0.03654605012977811
-0.04366531808917664
-0.01312818959607769
0.03729275757942013
0.03513077433463760
0.00936151302237530
0.01362218466631445
0.02973001833573731
-0.03179517714506899
0.02327194924065230
-0.02578612768613318
0.03257802118115955
0.03543661731980272
-0.02897291740934167
-0.01986859094751137
0.00421482833143742
-0.03640698647738026
0.02644080784379341
-0.03713673589074604
0.02710371696515483
0.02854477913954846
0.03246071161438481
0.03766006287094569
0.04335782600616402
0.02392533105883725
-0.00163603850611630
-0.02235895325283491
0.00639992596936521
-0.01738185804798076
-0.00010107429203090
-0.03378212870094051
0.01265595667061333
-0.00551679094320539
-0.01800819401049810
-0.02456671061297282
0.02158615629519870
0.02477434089134754
0.02925815966689184
-0.00167765993572919
-0.01855215490575066
-0.02596800037912844
-0.00758622362694798
-0.00472369342317471
-0.00427142258729086
-0.04193848036440279
-0.00628952541809986
0.03609991568392721
-0.01579863528243676
0.00878702178312558
-0.02690643445265864
-0.00411711709150288
-0.01248991054822361
0.03048833333365188
-0.02601448879741224
0.02403753529750961
0.00585976803376619
-0.00217931642135648
-0.00374328640798594
-0.00510967699791825
0.00614115249205417
0.03270652182735009
-0.03882887229393667
0.03620347061554451
0.01554625031331014
-0.03661983578422327
-0.00508158966108208
0.02844263769247480
0.00159972826884766
-0.04041352683074192
0.03179292694337802
-0.03648406101819737
0.01642480381179243
0.00321848741280960
-0.04251408670965250
0.03267773956270019
0.00651629535215324
0.01504591848410145
-0.02437284872363007
-0.01951090189388370
-0.03022361490333742
-0.03601843635321599
0.00302378208104583
-0.02526566020898752
-0.01070350905533443
-0.02376168302002412
0.04234972210015844
-0.03695484314440650
-0.01932261208064521
0.03416962957294867
0.02798516615294218
-0.02767418977066221
-0.03742571915866366
0.03926694786832079
0.02358181830388253
0.02938010733943282
0.03018350212248665
0.00718347515023818
0.02310538286281845
0.03262256113585001
-0.00154203505941294
-0.00723955699064553
0.01005964879169502
-0.03413427864892379
0.00246894155506658
-0.01748514300708274
0.02334521207498190
-0.01915739427688718
-0.00298913737266279
-0.00168367326996050
0.04298956848064197
0.03010487045362538
0.04165883598962214
0.02581578405488713
0.04339612381288091
0.04162530433409023
-0.03013931977324326
-0.01509517834913463
0.01587322363113028
-0.01280980980353341
0.02353862765813646
0.01540452130290022
0.02727288201293539
0.02115880316709445
-0.04259504124685962
0.02703013663636887
0.02461941808007672
-0.00950888348170700
0.03148716328548640
0.03084523195262240
-0.03431837514374370
-0.02979388804889774
-0.03219722045825307
-0.02673508834772491
0.02521335165965299
-0.00607132795087609
0.01380734445925393
-0.03469562888610414
-0.01698950676976957
-0.00947286520482674
-0.02090149956074677
-0.03211083512942325
0.04203441465223236
0.02973822574525581
0.02477278064351336
0.03787972149717596
0.03728603235026350
-0.01915754413487955
0.03720494109184957
-0.00514207655673526
-0.01331992967644495
0.04221796280398438
0.02791752693088890
0.00876179975038708
-0.01031760153420810
-0.00534889105400058
-0.01486682546474090
-0.04396321459896362
-0.02828005032950412
-0.00963243918583675
0.03284394319983958
-0.03687030673660821
-0.00225302858918808
-0.01433598429547610
-0.03458319545406609
-0.02930505150771438
0.03860046204485434
-0.01430892166685719
-0.01113917144713894
-0.00516815052458411
-0.04247406787386034
-0.02341350007628260
0.00914455102382755
0.01826734933653024
-0.01933822874838349
-0.03593467754777167
-0.03755789023212394
0.00654935240897130
-0.03834276569671327
0.01338839782663627
-0.03710438832946886
-0.03643371587864669
-0.04264889827774095
-0.03678726551353596
0.01350772446973198
0.01030825393215430
0.00989298886181044
0.01988094980399900
-0.00147096057190680
-0.00466370576489326
0.01324680744311632
0.01047454245165981
0.02295471156117530
0.04356719380742315
-0.01382825682554842
0.00124208092409711
-0.02768069648777871
-0.03328948430806847
0.02497737215238914
-0.01342825926726578
0.02365380984790545
-0.02989190306173909
0.03907534247509646
-0.02634234918830158
0.00706496579099846
0.03759971128425955
-0.00754449174884435
-0.04210904674233504
-0.00839678443320310
0.03293451773212993
0.00804071484060116
0.01939512438235629
0.01189780059363596
0.02162644785824896
-0.01457707499727969
0.03055726851126570
0.01200612901399571
0.01128769018859722
0.03951622683340790
0.01576949173314838
0.03365844842861328
0.00424037483713812
-0.02403644005199955
0.00387311760680769
0.02982845119016683
-0.02311730388659173
-0.01992233330125906
-0.00371927488352912
0.01656119132277560
0.03817923115144906
0.03657139486465139
0.01682165705267025
-0.02768185031712270
0.01211546718192203
0.03255351536535949
-0.01050554122663501
0.01210423628556791
0.04141004204135213
0.04079588071529769
-0.04239595967768538
0.03796213045489635
-0.00933030765984680
-0.02780308895503499
0.01674795153024322
0.02709286331112414
0.03388898017934915
0.02108850669013876
0.04129374613532674
-0.03146258269019647
-0.01676101603468762
0.01331716030463046
-0.03907221060413136
0.00147732480947897
-0.02758761197509542
0.02579009973598870
-0.03295963071618544
0.00348253947115099
-0.04348584292749724
0.03438655318880346
-0.04348228380968149
-0.03816311512304138
0.00443956096941670
0.01067902438177004
0.00232982587727867
-0.03711452081930638
0.01047060492315661
-0.01096470210732046
0.03605601142845764
-0.00837007098919320
-0.00976856367266573
0.00862471459479033
-0.02848458273289512
0.00931718492803205
-0.04279730004924266
-0.01861386785902883
-0.02887847554515349
-0.01330673040583721
-0.04275187274308932
0.03172590819445791
-0.01655202392294638
-0.03901540206444504
-0.01485336553145134
0.02870290346307008
-0.00288280217146260
0.02100947303318552
0.03236702917964032
-0.04168548737127346
0.00166717838443769
-0.03069801909540313
-0.01383376153159727
-0.00885813977647828
-0.03148012677433636
0.02922312899802798
-0.03294572072125655
-0.03903954633185741
-0.01883073331586324
0.00019033277186038
-0.03963860915435374
0.04229368373427324
0.02550688469333899
-0.03652273502482273
0.00361009611295856
-0.02334281182599623
0.03794057498037895
0.00359964784274653
-0.02835299302311852
0.04394894275580215
-0.01059809867504286
-0.03359181648639267
-0.01338111671606877
0.02042083836220737
0.03232275055477646
0.03916170869839722
0.03238327718751263
-0.01471934614462890
0.01390741190605780
-0.01028755224295857
0.04012160128243597
-0.01867477394546917
-0.00456394269463460
0.01356550371102011
0.04170278665883828
0.03377649859404767
0.01355460724934858
-0.04126612934299100
-0.03601499006708984
0.03513059419843469
-0.03522135534057797
-0.03553684399903513
-0.02933726178503795
-0.02536460039212475
-0.03715421632289470
-0.00711013906540242
-0.01648788299598334
0.03267932087145103
-0.04317456139718566
-0.03847762269659954
-0.02244986452089853
0.03405208226103925
-0.00952484888747483
-0.03908007391042684
0.00340308320203635
-0.03346884218651096
0.01204400270022171
-0.04241372425221899
0.03904879350993721
0.00150963909832235
0.03968171893135029
-0.01135595923317314
0.00849222309495651
0.00317814790054173
-0.02586528710073291
0.03023281567561446
0.04294236212036447
-0.04241259192537231
-0.02707800479921325
-0.02955699273489886
-0.00961459231856999
-0.00335468764324060
0.00905559899318408
-0.00890906877071645
0.02011542738836939
0.01700929202261094
-0.01093490157830299
-0.01833517488009750
0.03688716235990861
0.03019412304995443
-0.01798994058777343
-0.01461340052228773
0.03897228744309117
0.00177545131479335
0.00854977033934044
0.03022600433628706
0.01137008648014837
-0.03371185331208661
-0.03561588638352982
-0.02929454294975040
0.01173023656955363
0.02267111191092382
0.01907593786587718
-0.02451514498465002
-0.02552396062124912
-0.00749939234624151
0.02746645883576599
0.03112817510948838
0.04196415644681253
-0.02549509774097698
0.01236563176803245
-0.02783437155878514
0.00380353071698935
-0.00353981174150959
-0.00691936664503355
0.02813253594774114
0.03306119754265738
0.01893615469698291
-0.00209157141799838
0.03415998605796295
0.00194124054185683
0.01210477807490898
-0.03693726285644656
-0.00061613285690028
0.03178138020423658
-0.00952682521607383
0.03449156537912343
0.03563866672806520
0.02545567442291232
-0.00513909287203609
-0.02387912474787980
0.01045782834782912
0.01372077000387499
-0.00820952787624972
0.03158275414767130
0.01159788887308284
0.01419202961559532
-0.01032768305005423
0.03744281958317406
-0.02387185274590969
0.02839209729777238
-0.02908089402661774
0.03875692783603625
0.04271525539104888
-0.02891068270361569
0.02993751256667266
0.01855312414685128
0.04069038500100906
-0.00681070503199190
-0.03791372062916167
-0.03991266626633538
0.01131997822579612
0.03694181192572029
-0.04210944264186704
0.04222504405739787
-0.03773417839019386
0.03187105790474305
-0.01712817869960513
0.02428405563860953
0.00655698002586635
0.03340007374323799
-0.03003430605756114
0.01841192235787769
-0.02941634788649142
-0.01468711665390092
0.03026657117480664
0.01263455618191246
0.02629474874833629
0.00060361794824507
0.02130279306555101
-0.03564428032176931
0.00041710301595543
0.00300205463897750
-0.03183619112967344
0.03607474931699960
0.00465520634893371
-0.03344328173549438
-0.02500923410024021
0.00793867888461874
0.01190218962536383
-0.01108368928069676
0.02795100846564711
-0.00448253951373237
-0.02466181058552462
-0.00261125565621843
-0.02304940656278195
0.00882049407364919
-0.03904425940858966
0.01573709884427505
-0.03305869864417268
0.02951285408708956
0.03344353766792524
-0.01747657986413263
0.01857269866392602
-0.03572250257098893
-0.02150695319448790
0.04096093259573819
0.03025113937351104
-0.00583121426093957
0.02580354617881006
-0.04320228424521596
0.03789397474485825
-0.03628771865364357
-0.01157871611723748
-0.03541365038258087
-0.04193241237180163
0.00180415557613870
-0.02516762946278997
-0.01115921586920437
-0.00516991556691442
0.01664491821817317
0.02218517662769148
0.01634599222832585
-0.01697694269501122
-0.02263412351785170
0.03630433074926540
0.00018631019215152
0.02845699925033580
0.02375354957153355
-0.01404332835883547
-0.04292332314045687
-0.02798484001344212
-0.01382028215382544
-0.03966753517191281
-0.03352509344513957
-0.01895503505016832
-0.01036561347411115
0.01234521619163042
0.02623542517776172
0.02514059174906743
-0.03208476324692658
-0.00138626955298475
-0.01907187767255900
0.03050301207942356
0.01557051459333113
0.03013106752885152
-0.00691321472677341
0.03612399262455449
0.02864902006819251
-0.03922312115869218
-0.01622301701886179
0.01583338212414296
-0.02075477997027900
-0.01690311382429188
0.03930703872933098
0.01867961755154287
-0.02264553378539895
-0.04405292143066960
0.03699586745413400
-0.04051831321635058
-0.00858057376991530
-0.03063953321876708
-0.03342627096534521
-0.02344647445838547
0.02180980086126086
0.00080322423320161
0.02917289422977287
-0.03364568854812194
-0.03857429474612715
0.01687708342622658
-0.01472229355493140
-0.01731911570955363
0.02261080283321563
-0.01523845582228126
-0.01379821883352211
0.04067158095039825
-0.02099238671285671
-0.03007384275419586
0.00675308986236067
-0.03872385681634216
-0.03885729090504044
0.00968405145582723
-0.01756336761446583
0.03466019168380092
0.03431119554696161
0.01224473594879580
-0.04403169679936922
0.04024534032669733
-0.03716706053029224
0.02000697486328645
-0.03868700922505264
-0.02559870879345488
-0.00563929363324405
0.02593759899448051
-0.03357384452181880
-0.02096087790640233
0.01313743280666103
0.01355361456891193
-0.03330768782738001
0.00602378990192407
-0.00956904881004894
0.04375244022947570
-0.00390840070556583
-0.03170542664802906
0.00258295368211466
-0.02687701191996018
0.02036639872185863
-0.01267315212564754
-0.02214145810111486
0.00994827331674842
-0.00559077618220973
0.03278893598298241
0.00932721904679961
0.01375840996793416
-0.02546106635538364
0.01642217916794456
-0.01902240261287477
0.01861570922980467
0.04121816503258188
0.01341107501130153
0.02500493208982750
0.01395987429205994
-0.03567858596505601
0.00722950313515858
-0.00490199318064395
-0.03176461544968448
-0.01967572712456793
-0.04099137951878654
-0.01586596643784373
-0.04334524263324249
-0.04306693732045657
0.01055587831287255
-0.04007437810348988
0.03007533136317362
0.01777597149465926
-0.03952126079115929
0.03795022847243926
-0.04012572726019527
0.01517736949848213
-0.00383331689749663
0.03068944042180344
-0.00557162640655928
-0.02294803836648811
0.03097135149756693
0.01997177435232207
0.00771686986861722
0.03206594510513681
0.04285561677999533
-0.00991120339299585
0.00549963500762447
-0.00714796370681048
-0.01767189262241857
-0.00983359633452937
-0.01263303839919255
-0.04399923112167410
-0.01855688499896257
0.02787408100507012
-0.00977791181850238
-0.01082406188694377
-0.02005848678257477
0.01264918977809388
-0.01156877162438671
0.02991900048077926
0.00476060383053255
0.03364520841741746
0.01646451368253832
-0.02185207493489687
-0.04248123945495882
0.02554147011600225
-0.02295903433720633
0.02251896041705523
-0.03579364841871743
0.01053005728012419
-0.00200863243355927
-0.02252460593542558
0.02001108815752156
0.01655702559532015
-0.00634607013958794
0.00179128766087404
0.01347589456890868
0.02749778010035582
0.03083782951724181
-0.04155331870621611
-0.00732246394757640
0.02819452403582269
-0.00890060336378327
-0.00081074806946645
0.01905832909960807
-0.01677935525648412
0.00819858362870957
-0.00562755650960833
0.03174969702402799
-0.04208837993377076
-0.01060302757986060
-0.02567055838382737
0.04015027150244848
-0.01016069069635070
0.01885358271313095
0.01615233182433822
0.03253593749725592
0.02332454456200959
0.02169842970409250
-0.03019382416999044
0.00709321510825360
0.02532993074534405
0.03426120229254415
0.03988471909207120
-0.04209369260538778
-0.01731576243567260
0.03218236618305167
-0.01408208504898630
-0.03120256700373381
-0.01808365806058251
0.01611502454176427
-0.02582451102624747
-0.00447221545779715
0.02818393726644267
-0.01058817645188810
0.00079112766125309
-0.01291386881838327
0.01608335380679150
-0.00578204105969877
0.03421419104659176
0.02900768971458398
-0.00684235881184271
-0.00137363035777345
-0.03689003766083937
-0.03585964420624982
0.03761066549026711
0.03804177133796530
-0.00184848386632350
0.01799819726005751
0.00905029749068725
-0.03114123346431789
0.00069910789979373
-0.02046542393620431
-0.00180939615287053
0.01610258822446997
0.04083832167708056
-0.00198828329950241
-0.01190945672311521
0.03239016635020808
0.02340284176624033
0.02500281092557293
0.00504496030852566
0.03088078154177731
0.00568484415216866
-0.01652767405189555
0.02691690688396656
-0.01981800078855877
-0.00163695319231087
0.03095026900841294
0.02993151082352193
-0.00578507103878726
-0.00107960765680015
0.00824675909683742
0.03490749832404090
0.03148765769488101
0.02638907720857014
-0.02956561245358725
0.01165474613531763
-0.01660007650802781
-0.00509223481327869
-0.01279070430642000
0.03797973897688153
-0.00735785224675404
-0.00510469366261412
0.03613094660435048
-0.03766705260155190
0.00363506048919966
-0.00036887533138415
-0.03096661231420456
-0.04131372153983715
0.00144988974810871
-0.03259728125568406
0.02418032466847493
0.03213121876678110
-0.01581080437119818
-0.04315542666160051
-0.04242312801576054
0.01266507836934018
-0.00865110335734682
-0.00352945980206837
0.00408993433934177
0.01008707740337265
-0.03926166510645457
0.02889928372055846
0.01211688132478951
0.02280768463522430
-0.00170784978225285
-0.01194602129542709
-0.01800415692766472
0.01543211648629724
-0.03019763748573673
0.03015178041885520
-0.02901150898604649
-0.03195698890312870
-0.02855486559819855
0.01273689526642152
-0.02971064297321956
0.01445375748126992
0.00942629603887951
-0.04415642102641647
0.02286392044774173
-0.01855142174898900
-0.03223658973394514
-0.01572205327777164
-0.03650313682139609
-0.04153302849161711
-0.00036365691788930
0.02667509240944279
0.01269051557883927
-0.01248011985600044
0.01896112187079354
-0.03964508916535286
0.03666025086489304
0.04409780596921544
0.00203043133812955
-0.01612711398340460
0.02199113152177417
0.00945923030568931
0.00021835096507063
-0.02787207841031177
-0.01358706813602957
-0.02733231909147476
-0.00812495102132244
-0.01994357503278135
-0.03168867356443585
0.02225794402351935
0.01661722367668624
0.00078044508622263
-0.03854917241294706
-0.01745479790616999
-0.03705703413228583
-0.01924341894285899
0.02008955829372380
-0.00923803307165006
0.03208703056349750
0.02967501730948377
0.03602528296278515
0.01192324940680822
0.02171303082904611
0.00901606100944547
0.03909921993959318
-0.01080469788231702
-0.02117176626452843
0.03833162522646309
0.03945921292678378
0.01373533046936390
0.01200438869745479
0.01422225639869304
-0.03307468721179754
0.02320147804601199
-0.02362355701937290
0.03293936331384580
0.03921544939722590
-0.03262499041972725
0.01294145795822495
0.04019937059895023
0.00300502933452531
-0.03020135764468896
-0.00904863492895522
-0.00263682381582571
0.04290099834112517
0.02965157271233380
0.01446620287461599
0.02575342733720937
-0.04096210334126207
0.03443238850155751
0.01756764300549405
-0.01365336828709880
0.01552015299187229
-0.04130577564092710
0.03909903284982896
0.02716586459870541
-0.02049233216523479
0.04230987109483046
-0.02756885935061440
-0.04242786552095414
0.03728497094402713
-0.01763216090984775
0.00990700057011167
-0.03349707142758079
0.00144321898441509
0.01717415717560447
0.02707539655408634
-0.01723196826677905
0.03329578695499091
0.01814589269268797
0.00891928257680177
0.01653296160620018
-0.02530737035686814
0.03248085840830424
0.01498537280669818
-0.00794201821921548
0.04240158801877485
0.00589677562489040
0.02640804107744921
0.01155866438235561
-0.03753136752916008
-0.02021579648379406
0.02950734920345410
-0.02790597930184195
-0.03782252498338250
-0.02477090243129211
0.03917648172291695
0.00012526615498932
-0.02192180882053430
0.02804481895540763
0.03716239422567266
0.00832230637991233
0.02974006947220153
-0.01200637317458211
-0.00549201720172550
0.00441945750944103
-0.01041076059787447
0.01945480402737011
-0.03135103744739168
0.02781592419157051
0.01720808391108248
-0.00204873598566847
0.00104558088066086
0.02182173543514701
-0.02286871758867109
-0.01964113860480251
-0.03285055608319418
-0.03534825563774182
0.04398227125914508
0.03847715160052292
-0.02079021856384515
0.00820148293434456
-0.00479439859738602
-0.03750597137288528
0.00189531514740079
0.00751354397106048
0.03988383963791276
0.00372894956149494
0.02213817966341635
-0.00637139194107163
0.01423665377643620
0.00329547842023814
0.00013819027845925
-0.03004355922616350
-0.00143210321749511
-0.01380602933055900
0.02021211194071857
0.00843303266024813
-0.02813936074677526
-0.04386032292482908
-0.03239648483909089
0.00843085410306215
-0.01632773464889520
0.03068729653625855
-0.01491392636811699
-0.02912842862773705
-0.04348691267626645
-0.01708349981710996
0.01094129982240089
-0.03429044751803648
-0.01912541739627294
0.00491294817641722
0.03763773125677905
0.00208657859730345
0.04206446618847591
0.04073797352636378
-0.02560554098879729
-0.00485940652731259
0.01879891781365851
0.02591772992155894
-0.01286764519180709
-0.01518519288255449
0.01228426363988455
-0.02050236657566575
0.04103524729640261
0.00380415102716693
0.00920140462648626
0.01434282103529516
-0.00815530061689937
-0.01164733846974298
-0.02757671259134721
0.01422916450177118
0.04212027938665804
-0.04339319945119498
0.02168420332516879
-0.01984396005850999
0.02017395713478671
0.02194201122116691
-0.03851978692565635
-0.04069298018099016
0.01661483342410567
-0.00442982263600209
0.00044100350101941
0.01296170019857893
-0.01160074908968560
0.01554937070731249
0.01824661802216935
-0.02349745876148410
0.02144958891814144
0.01267306985751945
0.00560769038483250
0.02657485346137953
-0.00131676474150654
0.03855104104353629
-0.02594186211130403
-0.02125773892364173
0.02710145409133551
-0.02927746452188891
0.02293204927006886
-0.00278952230781934
0.00342426058961029
0.00340580574236270
0.02305857337786016
0.00048293939888170
-0.03495916328008614
0.01197743702847325
0.03320548456382523
0.04309078436597685
0.00229406930949213
-0.00722455511713762
-0.03396697625576610
0.01249426977357295
-0.01131183927629339
0.03286214025959360
-0.01752743001871299
0.01641638852365392
-0.01995588107367333
0.03091093268193072
-0.03682559048452298
-0.02922188280337146
-0.00053805638645766
-0.03419127274266860
0.02972287295203018
-0.00693187549755334
-0.04278984508505684
0.02772198735176890
-0.02768506895389885
0.00734956016972124
-0.03132495207402724
0.00315841000621198
-0.03315223950839886
0.02004274736154097
-0.02088136555644058
-0.03331924372345131
0.03475200173211318
-0.00194483499660031
-0.02763908452886467
-0.04110338004548547
-0.01380881138177157
-0.02619062614603505
0.00359584305091045
-0.00871372364995416
-0.01023771539417650
0.00772311322299473
0.03027881839762283
-0.03030713552021827
0.02129915512606557
0.01726902309784107
-0.03463146167966119
0.04083703767946321
-0.03504281191206488
-0.02252816575716944
-0.00440756256934451
0.03245692653578201
0.02466986463911796
-0.04189377157587470
0.03882328501134298
-0.01095143567616072
0.00068687339900700
0.01771103065946804
-0.00933621090659457
-0.03819546424225036
0.02562088375593700
0.01676529191452291
-0.01294802526668382
-0.00864694806547976
0.00572374559218655
0.01208972947322595
-0.03357013345576836
-0.02223429836180501
-0.03910642622416392
0.01959201396219165
0.01024226224764264
-0.03144350308248783
-0.03297894941963175
-0.00595471592043716
-0.01905405065855087
-0.03678606580159240
0.01035988765246134
0.03714678389539582
-0.00271201660876698
-0.01935081593724962
-0.01071090044613361
0.02732765460936571
0.04072336203814746
-0.04311346605538947
0.02113631117525953
-0.02906680224732653
0.04283013896143830
-0.01201092467872909
0.00978688088134036
-0.02059160806953236
-0.03871920122205758
-0.03754407223000773
0.02023836160292823
-0.04373588614945281
0.04288861233116436
0.02965952216054499
0.04345007299510600
-0.01586096793679338
-0.00194074885726723
0.00838691937536532
-0.03178448597276262
-0.01410190356798207
-0.03759677868984358
-0.03158128011177394
0.03298257947080452
0.01080545009035080
0.00945677384400965
0.00102521368632647
-0.03256163419512564
-0.02112373183264309
0.00393877431441185
0.03303339371658300
0.01089666627222991
0.04052215042646762
0.02824199219315399
-0.02961276919806472
0.02938766694136965
0.02239642163600944
0.01437565476941180
-0.03479703375133911
-0.02303825980369610
0.03724036927174733
0.01783072138381044
0.03258969972385414
0.03559897108857811
-0.04008412984577675
0.01699925791402001
-0.02832503709195374
0.02577160934490880
-0.01829295319916149
0.02705717342412464
0.01740473278352180
-0.00838075560484335
-0.01969756971138181
-0.03463855094131669
-0.03539731316293006
0.03558228722215156
-0.04063413365691958
-0.04050338278778527
-0.00856937065415145
-0.00923288789192513
-0.03893358909250402
-0.01381730051310615
-0.00110929612616756
0.00070210838583291
0.02042194216194377
0.01765145640167560
-0.01262638901249292
-0.01927888924728319
0.04118596274742625
0.02122402128476551
-0.00738882961029323
-0.01191306522325166
0.03295129206287224
-0.01677703554164008
-0.00770221950152391
0.02638244617116212
0.01740507532849087
0.02661016469536108
0.02992765575889656
0.02408252990932248
-0.01249214569873844
0.01221746787149130
0.04240829586030247
0.00077677470513403
0.04022094181997241
0.01835809058701965
0.03949980542361808
-0.03491701542612902
0.03319901348974477
-0.01404234317428918
-0.03137835634328362
-0.01391598597442873
0.00453994484676171
0.00139045747502408
0.01652197868206389
-0.02971879822477338
-0.01857706083320619
0.02784006381598854
0.04084960850828609
-0.00320739568483416
-0.01206125237677892
-0.01796882635523489
-0.00934358412370756
-0.03205346416165848
-0.03637489523436925
0.01885805576768760
-0.03441462108764758
-0.04282699947652649
0.03296617095707897
-0.01171124731415777
-0.00118455959578481
-0.02232056336703110
-0.02294846779971568
0.04146971399558672
0.03463598861226859
-0.02886342140983289
0.03587716679342737
0.02173948989263839
0.04411472864684231
0.03031740791423487
0.03474582562486147
0.02493387954329794
-0.01371065384411736
-0.02601112079720884
0.02731537418610776
0.00753946138480715
0.01337502346906608
-0.03804536543243529
-0.00274157962871232
0.02742612098832267
0.03065068078558461
-0.00173914622023787
0.03306107343861850
0.01386144243534526
-0.02477620284859063
-0.02662023785138067
-0.01050556890597313
0.04124390160067427
-0.03425896867876044
0.01171740905227211
-0.03984571639785689
0.02625730895249044
-0.00434492857138830
0.01044859373465099
0.03146552887384695
0.01674891339349675
0.01470191749588577
0.00375847855025148
-0.02596885552010903
-0.03560346174402999
0.01448558859514138
0.01882732653938367
0.01710219842815335
0.01266490345619046
0.04010058001359135
0.01498880459794952
0.04322186310816754
-0.00692295264549237
-0.02645843366901337
0.01887136269359570
0.02051880683055149
0.01573304407896312
0.01632512395397958
-0.04037006706654329
-0.03054415485475531
0.03744469962267163
0.02559509289892851
-0.00932550408906636
-0.00173871362123530
0.02102014625665980
-0.03936428258375430
-0.01999477057641700
0.04390859533767300
-0.03304443643508705
0.01364298938425784
0.00206054966210027
-0.03871454094918747
-0.03601533723074654
-0.01546694533033633
0.02638553986763642
0.02142626888253420
-0.03209817547588400
0.04344051702547162
-0.02752144242302993
-0.01011574302523635
0.02297533230918614
-0.02935095858008679
0.03053282346849497
-0.02068037168366336
-0.00694259105151622
-0.02368813589050534
-0.03236142329115805
0.02525955434881012
-0.03749548714190068
0.02948579193567251
-0.03879611769270679
0.01628420047606996
0.02599857240985120
-0.02797750530060589
0.02676601195924028
-0.03122660046921777
0.04174240035344422
0.00683805299300975
-0.01559786724702286
0.02892782554399011
0.02002858960960796
0.04198142163383975
0.01562263477073147
-0.00949019714044760
0.03660346898716619
0.01222804880906484
-0.01801779436178579
-0.01430966214210933
0.02894656946149110
0.02310702411296334
0.00166306602971164
-0.04225561725650399
0.01086711318754573
0.00590024147147446
0.01630616601989015
0.04113455071988052
0.01133349893442460
-0.02051414583639658
0.01407401663958671
-0.03485393133243459
0.02451981874751424
0.02598314560802530
0.03657284910268004
0.00655988545940680
-0.02589032374773197
-0.02308485149878661
0.00441078199068535
0.04282873136715624
-0.01186646628394630
0.00981373544593588
0.02226879072101018
0.03037731696085612
-0.00004762196748796
-0.01876323016767433
0.03604815517264637
0.02378610178853719
0.03713057100886565
0.01141642550673683
0.00669293816490668
-0.03795491254289014
0.02739196426933486
-0.01815043907866537
0.01426221903463802
0.02493248642230480
-0.04227795292092353
-0.02641338509096403
-0.04239545923329670
0.04103688211252460
0.03425278883985498
-0.00043663665397043
0.01401484867490832
-0.03185322590201302
0.03455865339998428
-0.04017719691584192
-0.00348695627346945
-0.02808467673830865
-0.00385604251882522
-0.01373824970634420
-0.01385432634576469
0.02703166761542450
-0.01801904841692356
-0.02694663602309922
-0.00086304084172766
0.02950353335779108
0.02254373089478396
0.00379427888787479
0.00670770738794918
-0.02059190956892010
0.04412278489481695
0.00928040443473763
-0.03471754170533427
0.00229197610330927
-0.04008242273181960
-0.03782119135617238
0.00145028097447123
-0.03822479731111904
0.04402213813575395
-0.04242857914584951
0.04281196134790041
-0.00488592694080410
-0.00750548740184282
0.01471919525540834
0.02385915483418428
0.02293075439443350
-0.00367846387734751
0.02633254162767815
0.00023145846635284
0.00524498218954508
0.01853406758998038
0.01247244272599346
0.03248805711662744
-0.00835884240280106
0.01775345053148834
0.02554836342448792
-0.04062768427136956
0.01828393180890908
-0.03104421569637992
-0.01963715134544902
0.00592505933664866
-0.00199448615003444
0.02139629260627100
-0.03009096638809751
0.02525748660282708
-0.01387506497667345
0.03122325941172083
-0.03904946887009163
-0.00961596406291312
0.04071566304735941
-0.03954855824824961
-0.00608549664359342
0.01664326585946026
0.02222436889368978
0.00215255446225638
0.03077712964662929
-0.03609084802502699
-0.04040221101074578
-0.01869331892383977
0.03281604703169532
0.02343740386927947
-0.01347540890795657
0.00749416441084189
0.03456195481985520
-0.03431336220278690
0.00762824478562834
-0.01196415027510073
-0.04054382913755839
0.02493136906825977
0.04132299871876863
-0.00319216760012408
0.00365227110711134
-0.00899891689233358
-0.04031538008696504
0.01541986822628197
0.01674727339090299
0.03468324882809647
0.00049982849424139
0.01483590896569440
-0.01370395138261073
-0.00327877941986798
-0.02783203866903865
0.03942252981596038
-0.03134173518764088
0.00114367160563122
0.03671791280156832
0.03889755479419014
0.03819330116612690
-0.01694657015990951
0.03960519176843204
0.00615076052359888
-0.00815553532092126
0.02095592892949041
-0.01237931016399401
-0.02965192619459078
-0.02871235114154658
0.03057804655229104
-0.04360200094422093
0.02925890163987543
0.03454008173990052
0.03958339291609526
-0.03843460825880470
-0.01603085882720851
-0.01502105727433825
0.01099949500014025
-0.00607152689866092
-0.03196065280137535
0.01855168845400208
-0.02757712909626989
0.00542627484267924
-0.03792547496711177
-0.03718433738409985
-0.00923705637162964
0.01249319544542548
0.00333714003305276
-0.00188553920209485
-0.03513387352885631
-0.01189815924318714
-0.01186029187952214
-0.02605604400321783
-0.02301232549749015
0.01923194427851845
0.00524185520678914
0.04388797792611519
-0.02983730069677919
-0.02972459469477528
-0.03543961122361981
-0.03474755066621338
0.00017857455430808
-0.03020301780619671
0.00345242158889339
0.00424638628438654
0.02251108715063730
0.01355356162541146
0.03453088260421223
0.01978937460099865
0.02311111348795396
0.01631580574386554
-0.00571216171352882
0.00530429152779975
0.03772442568363318
-0.01540505607952207
0.03398844497385532
-0.01901295003731452
0.01867138955570704
0.00743966159854012
-0.03960779406103354
0.03993392694575922
0.01662062957927301
-0.00096351005826626
0.02789193983216809
-0.00584690318767042
0.03934683820431075
0.00096476839693117
0.03044117702134375
-0.03300556434205889
0.03764631078408619
0.02832364495261033
0.03855265569400360
-0.00849256852887904
-0.01017491133454448
0.03569962309796917
0.03243568201612879
-0.00557842882011430
-0.01848528364031073
-0.03001942502804599
-0.03367255317213454
-0.01260959176952487
0.01177643184211615
-0.01307003139883063
-0.00884797442689444
-0.01047509046195229
-0.00585726229861851
0.00384242915732511
0.00709571234342911
-0.03805961770522898
-0.02439563081285550
0.03883797296786350
0.01535686579737583
-0.00428378704160563
-0.01778425250144752
-0.00904454653712401
0.03901205977359917
0.04244334887210924
0.03937772994163580
0.03665996338690398
0.01180405022921780
0.01222657967774183
0.04332894020917209
0.00892632091303925
-0.02671059838970786
0.00961713449017730
0.03328247073071891
0.01309361312380380
0.01788720008510774
0.02970207915745908
0.03887934363667202
0.02105974333249687
0.01500650084526491
-0.03319212290060826
-0.00660991960745719
-0.03354165356264179
0.01315311608212086
-0.01122706310166714
0.03475246273134143
-0.01091545560473970
0.01224222505942476
0.03510100773006367
-0.01222068070548502
0.01388194303040970
0.03283853076893360
-0.03622353068396760
-0.00285644044845940
-0.04013313339693974
-0.01318733665511373
0.04404162742685967
-0.02462959986375356
-0.00734376274108482
-0.03230863738708243
0.01110400108668108
0.02317775669426395
-0.04236009239582211
0.02265876311640007
0.00628555419079622
-0.01222012898144252
-0.00525675999705300
0.01066045559445702
0.02764198311837340
0.03517478918975344
-0.03547084065804095
-0.00417737932729680
0.03091282904195257
-0.01718827331760878
-0.03911902686636866
0.03421944077731286
-0.03989935004617250
0.01893709980618567
0.01614663999325975
0.04410920989382477
0.03116374064189147
-0.03901319590541853
-0.00565722809472243
0.03627242424612184
-0.00958923893581733
-0.01747126310350061
-0.00402860956604742
-0.03791821973042713
0.01158109336823792
-0.01645672693200327
-0.02650857415905280
0.02325544421973292
-0.04284291781863934
-0.00448712265816556
0.04053180918489502
0.03133961307074149
0.02735404581915928
-0.00787137917199071
0.03897772088862567
-0.01429774377318102
-0.04187963962470947
-0.04029332867070531
-0.02438526151540980
-0.02338366390852543
0.01461754956366729
-0.00973505472507396
0.00522642974023872
-0.01975066553767929
-0.00988197613904747
0.02787666487715083
-0.03623843759281519
0.03389520525135158
0.00985421207157301
0.00834989821583294
0.00103785232748001
-0.04227968485660987
-0.01142919123982187
-0.00837573406862114
-0.00373944850457902
0.00821215099371379
-0.02628977168525237
-0.02334691074474273
-0.00855766671825282
-0.03470518461569227
0.02501481527571467
-0.00523194176863618
-0.02830710629597869
0.03156115081180880
-0.03872491425951730
0.00710364305361030
-0.02307086488253440
-0.00919521348898702
0.03111068611360153
-0.01289430694333538
0.00867776430490272
-0.03203456862961132
0.01258748844855991
-0.01531141177422115
0.04327940290359260
0.01576722572427616
0.03412692630387828
-0.02306165774736462
0.03992884089501979
0.00799970666387665
0.02718390347592122
-0.01253046396228996
-0.03603363580559485
0.02797725629008137
-0.01538953856415991
0.03060140297742912
-0.01845758632822100
-0.02227583527153865
-0.03808968104123781
0.02320339235268750
-0.02210787505833783
-0.01490325800152936
-0.02679407959752443
0.00467070859408098
-0.00415539675972356
0.00589759328426990
-0.00803951650911777
0.02804519344764511
-0.00137551468508610
-0.00007048612812209
-0.00488319979158484
0.01223023041633138
-0.00932423553495155
0.03756883402780709
0.03135676625951702
0.00297074979817683
0.00036607816709201
0.01488734846805282
0.00899863073537437
0.00098321495001018
0.02540354116189905
-0.03456317534581052
0.01143603705401081
-0.01875965524665934
0.04225485923215232
-0.03207241901891097
0.03255197594644346
0.03161860576642949
0.02550726185287834
0.00096544224794076
-0.00557234007760370
-0.00125434503513052
0.03040889225608624
0.00318251050479065
-0.01509830482075218
0.00145793559385944
0.04198701264031010
-0.02914027954549532
0.02320170965628380
0.00727875657030666
0.02553857049664820
-0.00294136781837858
0.00048510956353772
-0.00324646252768411
0.00779254531969280
-0.01582745029179438
-0.00982092436416272
0.01472120517986303
0.00703643019939350
0.04332888492739820
0.03561423995834766
-0.03792156197110325
-0.03158137819788602
-0.02971581138052442
-0.03137501651125688
0.02449064810438122
-0.04298144551064199
-0.02588912697882100
0.02821368753332255
-0.00453508038522805
0.00825981803485840
-0.02430775577812454
-0.03220223987316786
-0.01039341447966743
0.00081941150934116
0.00058398263193841
0.01970765840886381
-0.00649482110006686
0.00692752560538035
0.03244212935623400
0.02296435370403961
-0.03423113325049183
-0.04122484847767742
-0.03757764951799829
-0.00943342009686604
-0.00937955833489839
-0.03379415086413118
0.00096021427785515
0.01034989621064785
0.02446434540166045
-0.02892356991093083
0.00954123862730506
-0.02655603045990269
-0.03338931358219717
0.04308618162361755
0.03285216323183267
0.04219519175741589
0.01340456235035073
0.02413517665402872
0.00431301968213415
0.01233476548426100
0.01161312484681412
0.02300847773221515
0.03703123606299771
0.03705069150789139
-0.00422443409660735
-0.00431838216021744
-0.00291594705622381
-0.03353915794186445
0.02729174229254947
0.01957837232402358
-0.00862963347225100
-0.01519102746894144
0.03896467389509424
-0.03294403181323716
0.00665357944781668
-0.01898593534219263
0.03463071111447360
0.00059073541290130
-0.01669900412787835
0.03778340164599520
0.02348654544941631
-0.03468136628307267
-0.00482555294844042
-0.02963128275082831
0.02461996494220991
-0.02057821072896304
0.01612826211105373
0.03415461295070545
0.01703904711163011
0.01040196094504042
-0.02749633028806289
0.00323776287722416
0.00364090519828393
-0.00485313384796297
-0.02957757861278365
0.01523807151853760
-0.02128811794254165
0.01005543440985517
0.00597944034961101
-0.01132274385754653
-0.02411413143191389
-0.01776631279037916
-0.02737448238970536
0.00184473645347120
-0.00178964918921706
0.03472580576012215
0.00931642245293341
0.02801238922965972
0.03731667397981862
-0.01051802561156944
-0.00198062199304823
-0.03831837042628213
0.02418608032966518
-0.03313968129473540
-0.01158345298815614
-0.02016926064159998
0.02042317381371330
0.03503664919797681
-0.00281566856794308
0.02159123794119115
-0.02806683141927011
0.01315141615635955
0.01965275020196486
0.02128085963946555
-0.03490539838091996
-0.02455654392721156
-0.01068167806912275
-0.00968626539491764
-0.00157264094203143
0.02370102803893945
0.02256896173259454
0.02594505423213321
-0.02754256846327122
-0.01667374863357601
0.02828573814744220
-0.03154085911562818
-0.03321744517257855
-0.01291209854323792
0.02653321672708567
-0.00193871809367275
-0.00284450242486193
-0.00822323661965429
-0.02246833401192466
-0.02865876980135868
-0.03365162810480151
-0.01536662124266643
0.01019256524321604
-0.00284568930462339
-0.01660742210356482
-0.00318559575206712
0.03798496550900014
-0.01256657220630579
-0.03971929207696444
0.01904260451157918
0.01080014885181655
0.01161425951247950
-0.01150640355380205
0.01697008582810423
-0.02079739832825040
0.01874910752938140
0.01777280569066110
-0.00639111183206728
-0.00126945716284788
0.01659550987751617
-0.02814904482804631
-0.01351886070654152
0.04146594515102243
0.02936333455767954
0.00302219109343907
0.01295881363535635
0.00063442407056114
0.03493733636882736
0.03628185629768569
-0.02121131881212647
0.01429957291114160
-0.00478872217143493
0.01535718123883657
0.03246573985803001
0.02470281692831811
-0.00881357058737151
0.01077465938149058
0.03312244046251030
0.02259326766316848
-0.04267004037827722
-0.01013343664007780
0.02768144168762467
-0.00622239580084906
-0.00477503853196133
-0.02486085672149288
-0.01937491905396408
0.02969156354188718
-0.00660293013738241
0.03724897602875447
0.02227218572515955
0.03032526623731721
-0.01456721140805270
-0.03716200186311096
-0.02225418680681171
0.00623840593333851
-0.00758916564435890
-0.02752519076050050
-0.03606160539716588
0.01496770819675739
-0.02516605790560529
-0.02446798666830635
0.03011374312083216
-0.01860130657761181
0.00758092152021620
-0.04203836858225989
0.01153134474764793
0.02683173698421281
0.03181991539973011
0.02369421959810531
0.00894291727626229
-0.00500524950588665
-0.03348353613762160
-0.03458664836406994
-0.03052580070491194
-0.01577998120631049
-0.03593488257086626
-0.01138607176950269
0.02996479750471429
-0.02718502025869459
0.03018548154495157
0.03361572238076312
-0.00219627987594789
-0.04045968710033131
-0.01070855106927529
0.02447539308747923
0.00765240847162524
0.03781235855908373
0.01560165992215949
0.01340390400304968
-0.00973614532223623
-0.03190278882921865
-0.03151123227603272
-0.03393305167781220
-0.02805307934488810
-0.02275208768857049
-0.02211825986089733
-0.03425037996812956
-0.03404624644722419
0.04063617864460263
0.00846876111814802
0.00711458882142423
0.02165422204381700
0.00495669345678992
0.00568276402313200
0.02435595831496714
0.02869041895586986
-0.01230948566862599
0.00912602641660035
0.00952243612757984
0.04215366200876517
-0.01103525138407802
0.02332594119823122
0.03467436674838158
0.01507285749213015
-0.01091060639178166
-0.02277063861968873
-0.01623625488397999
-0.01673838002856671
-0.03715585354494311
0.00630049294550205
-0.00852496185486445
-0.01364762671011160
-0.00860970247150889
-0.01465028406566062
-0.02200627724448210
0.01088232487289940
0.03735950796006149
0.03375261766784612
0.00930628654314344
0.03270708251381901
0.00141099721637983
-0.01426496863796444
-0.01221456970798422
0.02529857459380461
0.01157973606063797
-0.01302281489519992
-0.02859175057361154
0.02281719253531425
0.03675709537681355
0.04172666198179986
-0.03691560070919172
-0.02371736638747296
0.01138214804883203
-0.02855297872033001
0.02816764335373708
-0.03493720211095296
0.01372090566924998
0.03476815672024185
0.00010836948765224
0.01842239419327119
-0.00151002512834485
-0.02000514501248291
-0.02677799281556932
0.03718064600299704
-0.01390006266929678
-0.04024841449205208
-0.04108769061369592
0.04169937095475311
0.02600479785164828
-0.03904000840965980
-0.04225311957665116
-0.01340127739585088
0.02141971674353632
0.00816669495828862
-0.04160015283703589
0.00925321708780815
-0.00859242177324145
-0.03401502316808273
-0.01381029687813244
0.01489150369453659
0.01937624650127633
0.02584123151540439
-0.03184822454591692
0.02425184745021277
0.03564420255610527
0.00548757957962643
-0.00937406685793782
-0.02311163536833421
-0.00520343629095587
0.00290811541717722
0.02641234979057416
-0.03508342398547280
-0.00402516160407683
0.01204029821096113
-0.01723557989767104
-0.00733319091992658
0.04243682170729361
0.04107877579364072
0.04007807133197552
-0.00481311610872437
0.04345042453502736
0.01750241194139008
-0.03445977830003583
0.01197913737754120
-0.01171513063840429
-0.03099048539621925
0.04316251454416545
0.04416566708111661
-0.01688808903369963
-0.01252649612630308
0.03735464708625693
0.01858062640480714
-0.03062299148518480
-0.04244851464702469
-0.02624573165565619
0.01264095251262848
0.02261261860134676
0.01100490091475569
0.03180677205642353
0.02708460812990447
-0.02544176409929037
0.01661536267694750
0.02269667514960151
0.03502588803759121
0.00219208236890698
0.01955491277484236
0.01009619025721292
0.00472283268319704
0.03765930233479386
0.02522720296577096
-0.01696630475959337
