0.033788148 0.036681514 -0.010353479 0.040597267 -0.009683101 0.008917972 -0.021516155 0.025954472 0.038959060 -0.032422088 0.038413405 0.008271351 0.032651048 0.005985242 0.021309905 -0.006239820 0.034068663 0.006532292 -0.020631604 0.011265020 -0.020361874 -0.005182777 -0.017949831 0.029317131 -0.034885563 -0.020373970 -0.012479318 -0.026572740 0.004171184 -0.043649662 0.039912160 -0.037541546 0.034119111 0.007354757 -0.014350048 0.027309788 0.006887696 0.035707273 0.004831293 -0.013937657 0.011874253 -0.011984551 0.018599451 0.039457537 0.025546864 -0.019320479 0.025511734 0.007907497 0.022443349 -0.026936572 -0.043748185 -0.017074885 -0.033897940 0.036263037 0.012729307 0.018305825 0.013976901 -0.000768801 0.034586724 -0.031400561 0.002782630 -0.030164300 0.013627362 -0.015219690 0.013541814 -0.009207480 0.036654286 -0.026193971 -0.026357315 -0.026358908 0.039750129 0.014727757 0.042525873 -0.036472403 -0.043835144 -0.034575921 -0.029728938 0.017900415 0.015824866 0.036722016 -0.022822993 -0.030127689 0.023448462 -0.017863482 0.026822496 -0.010487305 0.025281096 -0.034337457 -0.022302579 0.013473762 0.009342982 -0.011267691 0.026342796 0.030043606 -0.032048438 -0.023593863 0.040466923 -0.014912550 -0.015667558 -0.042762045 -0.025308687 0.011039866 -0.005833329 -0.032079931 0.001036649 -0.030188221 -0.037494190 -0.024336079 -0.038679276 -0.028140113 0.044176888 0.008347172 0.013618863 -0.041219212 -0.029025575 -0.014710288 0.006910692 -0.038887396 -0.019042078 -0.026457662 0.000122473 -0.016444793 -0.003062469 -0.029947285 -0.030334666 -0.025782960 -0.015127552 -0.034881618 0.037055481 -0.008770954 0.038024522 0.013770113 -0.037423491 0.030583924 -0.012159797 -0.016940778 -0.036684278 -0.043936107 0.012644423 -0.009653946 0.017205814 -0.036268543 0.032811042 -0.032440897 -0.007631156 0.009230823 0.022815321 0.035678413 0.040259089 -0.035042539 0.011122227 -0.019009061 -0.004843010 -0.033078901 0.040254645 -0.032436334 0.023619631 0.015531583 0.014361159 -0.023893412 0.040170360 0.009711687 0.005685141 -0.038946327 0.018552205 -0.006630037 -0.020246424 0.037960432 0.009853037 -0.024451593 -0.022368392 -0.002110525 0.024676315 -0.011293106 -0.025216086 -0.015133980 -0.033016354 0.015761077 0.034208067 -0.041606177 0.010264128 0.022830347 0.008013702 -0.015738634 0.023066802 0.023224620 0.016525405 -0.007765862 -0.011702673 0.004727933 -0.007807082 -0.013169910 0.028249219 0.037980452 -0.004375106 -0.009894936 0.000644894 -0.002638756 0.010624778 0.012384693 -0.040139657 -0.016309317 0.037217215 0.017216060 -0.002198111 -0.026644921 -0.027038220 -0.039587677 -0.014405640 0.014924557 0.028179161 0.020404331 -0.039065175 -0.026576716 -0.006974577 0.042751212 0.006393018 -0.011444998 0.018283803 -0.016832745 -0.028604928 0.032256763 -0.020095170 -0.008859462 -0.043964554 0.029577862 0.033483036 0.016106486 -0.030815458 -0.043616991 -0.035893578 0.032955606 0.021217877 0.037189592 0.023151996 0.011185199 -0.000432780 -0.033609934 -0.037864339 -0.041336961 0.018091414 -0.021697924 -0.008894191 -0.025433978 -0.008053220 -0.031105401 -0.028877165 0.014659685 -0.013134348 0.027282972 -0.014177878 -0.032419398 -0.007797572 -0.021423010 -0.013520835 -0.042072657 0.024726238 -0.030768184 0.022212774 0.020054618 0.031573761 -0.033899233 0.031784307 -0.020892866 0.016399097 0.041503396 -0.006232786 -0.000341774 -0.010174850 -0.036901452 0.021208910 -0.043872345 0.027435739 0.033067189 0.041794710 -0.010424501 -0.036311787 0.009936187 0.024414068 -0.043986846 -0.010031356 -0.026492439 -0.003865388 -0.021752968 -0.018065145 -0.014029833 -0.041997902 0.036261652 0.037049357 -0.006932698 -0.005032924 -0.018036522 -0.039910115 -0.043007314 0.016425138 -0.024264641 -0.028411416 -0.003448171 -0.014717152 -0.014297733 0.001420012 -0.009374133 -0.015216603 -0.021160431 -0.035966430 0.037057132 -0.017685939 0.011710549 -0.015333871 0.003591275 0.041202247 0.020361258 -0.038298655 0.017540790 0.041951001 0.011626750 0.029628865 0.043570485 -0.006771829 0.009172698 -0.030716501 -0.009107407 0.032729488 0.022655958 -0.027965587 -0.035438646 -0.030200692 -0.043614242 -0.034101948 -0.010929104 0.029825639 0.007397320 -0.033614330 -0.035453621 0.021985509 -0.032873452 -0.005441516 0.021200212 -0.020453596 -0.004818928 -0.003846859 -0.010455606 -0.022407867 -0.039396383 -0.035724670 -0.023664286 0.042684399 -0.021346435 -0.029677624 0.010712411 0.012180370 0.024214419 0.033592891 0.024610592 -0.043818567 0.003919520 0.026770756 -0.004084667 -0.026042705 0.042132065 -0.016529851 -0.025161710 -0.039843481 0.001974079 0.019583901 0.009782948 0.008739386 -0.033516306 -0.041272376 0.000778231 0.040297754 0.025496561 -0.025731362 -0.005736781 -0.032579217 -0.021320304 0.008003492 0.024065429 0.036609095 -0.040574938 0.029548896 -0.031169802 0.016549271 0.037399109 0.000620591 0.040208258 -0.037655711 -0.016880371 0.025776381 -0.009628490 -0.009046557 -0.018419763 0.030463316 0.021677382 0.014162025 -0.024835519 -0.035874601 0.004780069 0.013093798 -0.020404974 -0.012365427 0.029847318 0.003520495 0.001993967 -0.010876210 -0.040021788 -0.041553900 -0.021125481 -0.022464843 0.013768854 -0.012865399 -0.017289737 0.042136043 0.015393841 0.031506129 -0.021394962 -0.018051853 0.016243147 -0.029445479 -0.028889909 -0.002134564 -0.016164491 -0.033130515 0.026214169 0.035539314 0.007169326 -0.007694792 -0.040935870 -0.016097229 0.011251201 0.020838918 -0.005586918 -0.017472291 0.024626145 -0.035196226 0.027931511 -0.017145343 0.000676410 -0.008733470 0.005358055 -0.013355409 0.032134775 -0.001148923 0.034497947 0.042491835 -0.021531003 -0.032240052 0.035457075 0.034631170 -0.033744343 -0.003416355 -0.043581035 -0.036177311 0.008535774 0.011757179 0.009368327 -0.012028094 0.040772561 0.006318792 -0.026078310 -0.002502000 0.010613019 0.015476475 -0.031248853 0.016563516 -0.022577992 -0.036722723 -0.024139186 0.042621274 0.037779734 0.039575193 0.025942475 0.033386469 -0.005915379 -0.024316866 0.022081908 -0.022900658 -0.029825138 -0.014112704 0.009274556 0.022751011 -0.017165415 -0.026011201 0.005961487 -0.026049513 -0.028773122 0.023036297 -0.007423941 0.040383972 0.042991322 0.013218721 0.015209765 0.010177200 0.000692120 -0.003214350 0.000607410 0.016503198 0.041090451 -0.011453321 -0.018681575 -0.010702276 -0.021351278 0.007514720 0.032988671 0.034558844 0.020290673 -0.032523885 -0.023719223 -0.009709965 -0.008146053 0.003634871 -0.040568992
0.013755203 -0.033714503 -0.027963627 -0.036742263 0.038507253 -0.041849222 0.033338614 -0.001485671 -0.005139729 0.027642505 -0.004084762 0.027716557 0.031953048 -0.038369827 0.017005211 0.008342932 0.009502265 0.006451971 0.012088475 -0.021260351 -0.005654253 0.041989766 0.029691832 -0.001660307 -0.041565984 0.001936932 -0.030095061 0.035938326 -0.026829725 -0.003190890 -0.009808572 0.007864523 0.041587938 0.004199296 0.025595676 0.034304474 0.035678450 -0.015262522 -0.009884321 0.021298841 -0.012059161 0.020694539 -0.009655000 -0.029974801 0.017988944 0.006775764 0.019703899 0.043906294 0.030172817 0.041895241 0.002365397 -0.038016383 -0.031003416 -0.027452260 -0.038946044 -0.022152219 -0.040683731 -0.040774219 -0.026408430 -0.043568112 -0.027126934 0.016851621 0.036860272 -0.013146124 -0.012855147 0.023597624 -0.021804119 -0.020896444 0.027229335 -0.038506456 0.005403832 0.039040335 0.007578704 0.012018331 -0.025738295 -0.000609728 0.002429992 0.010846765 0.017171469 0.038401548 -0.033733390 0.001324733 -0.022081012 -0.034960415 -0.003538965 -0.038901340 0.030843079 0.005118339 -0.023818806 0.023094950 -0.041826602 -0.017094271 -0.008609853 -0.037554011 -0.028102560 -0.007213312 0.033532973 0.042676292 0.028119091 -0.026389401 -0.028912764 0.038567953 0.015632249 0.001174137 0.005980891 -0.035518713 -0.014755790 0.042542111 -0.010899707 -0.002216961 -0.036695797 -0.024722535 -0.000902427 -0.027451627 -0.005480502 0.017985225 -0.043229736 0.013126204 -0.029221548 -0.021569014 0.016966572 0.035139680 -0.012078649 -0.018144760 -0.039961956 -0.022789065 -0.038698051 -0.010114743 0.009018061 -0.041404448 0.038586531 0.027727021 -0.043263704 -0.021108596 0.014414159 -0.009080117 -0.004816126 -0.019954361 0.035497624 -0.024704464 0.036649201 0.002851508 0.008883992 0.034477282 -0.007281679 -0.025161657 -0.007147710 0.035843834 -0.032791518 0.010031213 -0.043433655 0.023171099 0.016328322 0.001873491 0.018967835 0.000049707 0.024454972 -0.034985013 -0.006490024 0.019605180 0.044009302 0.022512132 -0.032136872 0.033989601 -0.009855224 -0.009436094 -0.040168513 -0.006956796 0.031259723 0.006162649 -0.025741071 0.013603501 -0.014170613 0.040349018 -0.038358536 -0.013959858 -0.042672724 -0.017405000 0.013932110 0.042541958 0.007422250 0.043326132 0.008646684 0.025523726 0.035428800 0.036942940 -0.024736527 0.040631678 0.026771303 -0.020664267 -0.021089608 -0.037067693 0.011098803 -0.035821553 0.018668709 0.013956417 -0.038395993 0.012042951 -0.003594336 0.020188682 0.025358157 -0.043935418 0.040530428 0.037063088 0.017584139 -0.040391754 -0.015787076 -0.012807864 -0.011357811 0.024922116 0.016067700 0.035009701 -0.016551742 0.014873096 0.015724072 -0.036795665 -0.042869225 -0.022931874 0.030253017 -0.041607030 -0.038468104 0.024757601 0.023844037 0.036344964 -0.033363894 -0.032345705 0.022671022 0.038432587 0.026443090 0.006923110 0.014565282 0.041945871 -0.028514272 -0.020064676 0.030912364 -0.030239405 -0.024369223 0.032261353 0.013944237 0.014277814 -0.018731276 -0.000609902 0.040447954 -0.026526229 0.000347464 0.021018729 -0.030509723 0.042920358 -0.022079876 -0.010612614 -0.011957630 -0.028799526 -0.043366179 0.024918955 0.011741248 -0.041392297 -0.028444555 0.043680109 0.016892562 0.017732674 -0.026441289 -0.019374553 -0.006671293 -0.008082227 -0.030283986 0.003640934 0.004392371 -0.005595911 0.006126719 -0.017516388 0.011501617 0.016667409 -0.023278795 -0.043822017 0.023132751 0.010541933 -0.022476625 0.042590011 -0.019986724 0.029864071 0.022420963 -0.037052754 0.028502649 -0.040635347 -0.024484221 -0.007367827 -0.029788928 0.043173723 -0.008864451 0.017553471 -0.039461505 0.025441101 -0.013734831 -0.033617236 0.006462202 0.021410389 0.038245510 -0.026993476 -0.021748142 0.008496899 0.011988165 0.016991433 0.024257086 -0.010021193 0.024552941 0.032583993 -0.011544470 0.031442266 0.021592367 0.038981594 -0.025114395 -0.021823479 -0.012778255 0.002241807 0.026525298 -0.025228802 0.022125989 -0.015838370 0.026698111 -0.002098218 -0.038717937 -0.024317661 -0.031985622 0.021918653 -0.029634323 -0.003682181 0.009535150 -0.024235850 0.012748694 -0.043152224 -0.031621303 -0.040045373 -0.013367737 -0.016099822 0.006328312 -0.008172142 0.020774888 0.040517014 0.015856477 -0.017411068 -0.041382790 0.016007215 -0.021896351 0.022489369 0.029543139 0.017046599 0.041467868 0.041975468 0.009357669 -0.032201499 0.039484899 -0.020969948 -0.020875275 0.036980741 0.034242101 0.013353328 0.002770260 -0.037174631 -0.004587537 0.042387795 0.011254436 0.003783818 -0.009176965 -0.015414146 0.026340732 0.002725389 0.028751589 -0.007822308 0.019308841 0.018242026 0.007047385 0.027770426 0.027694099 0.040964607 0.033975419 -0.011300302 -0.037415680 0.008079466 -0.000385739 -0.011526963 -0.007400523 0.002078577 0.032245390 0.013777146 -0.015693100 -0.018173747 -0.010943861 -0.017081179 0.039740410 0.023407238 0.039906263 0.000141139 0.008912678 0.015324978 -0.041832130 0.003946389 -0.002956148 -0.024777642 -0.034292351 0.039123971 0.035932779 0.020482615 0.042172279 -0.017934343 -0.007633337 0.016732736 -0.007302052 -0.008672436 -0.036529198 0.011873262 -0.026707741 0.001607175 0.043088239 -0.013603644 -0.013929639 0.026662912 -0.016248131 -0.003795282 0.041265801 -0.018118450 -0.031616963 -0.024732992 -0.012252642 -0.020970080 -0.022933759 0.017851993 0.007510257 -0.014144856 -0.034334958 -0.013914972 -0.018651672 -0.014381621 -0.039868578 0.009520710 -0.032470502 -0.034418385 -0.036108106 0.018445926 -0.026606072 -0.018241182 0.034641191 0.023465525 0.025340550 -0.041962657 -0.031691633 -0.016683787 0.036508702 0.004521082 -0.033052698 0.000276736 -0.034324326 -0.009682911 -0.012152296 0.038257200 0.013688559 -0.007706188 0.007465666 -0.012757335 0.017363906 0.017481618 0.011868173 -0.017225869 0.037704289 -0.006380311 -0.017205529 0.027679432 0.036020756 0.043980263 0.013092892 -0.015065523 0.022445867 0.037916590 -0.043347154 -0.005475081 -0.030138901 0.008236015 0.018278040 -0.009129982 -0.003697158 0.019892273 -0.007427702 -0.037113361 0.035361346 -0.022243569 -0.004855106 0.004168676 -0.002655931 -0.041572839 0.020276284 -0.020074386 -0.022921732 0.010558670 -0.023063261 -0.020424763 -0.014891224 -0.016602760 -0.018457143 -0.011918544 0.011484995 -0.035762716 -0.026749862 0.000644857 0.006146001 0.024408109 -0.031043930 0.014106645 0.025119515 0.024539264 -0.041163404 -0.016864682 -0.037987791 -0.027966578
0.024615398 -0.006599032 0.018769767 -0.025942259 0.006715742 -0.026731195 0.022092313 -0.019329604 -0.011082092 -0.038344249 0.000145997 0.041961491 0.021450887 -0.023579402 0.000594355 -0.004845823 -0.035579588 0.034652259 0.000712440 0.009307162 -0.017846888 -0.020679299 0.007287158 0.016339069 0.009912665 -0.021299163 0.042908024 -0.006505577 -0.027065178 -0.020670174 0.043505661 0.000002128 -0.005999103 -0.018391926 -0.011585299 -0.037221592 -0.035120379 0.025866384 0.037805881 0.042174518 -0.031905644 0.023903005 -0.027354715 0.026364487 0.031888496 0.034200586 0.031822070 0.027646694 0.000860180 0.020306446 -0.015811389 0.019243682 -0.014204093 -0.000742080 -0.038465675 -0.011555654 -0.023240520 -0.014907614 -0.028221803 -0.039750192 0.002877771 0.028681099 0.040249817 0.025789693 -0.022907492 -0.043708466 0.016763462 0.024762612 -0.037941229 0.015847415 0.037365168 0.002677131 -0.026625169 0.036233757 0.018871615 0.029265434 -0.029887879 0.025718601 -0.030187875 0.043729883 -0.018725060 0.026629955 0.008849510 0.011711919 -0.006777397 0.018152110 -0.018418889 -0.041656513 -0.016979538 0.034627840 -0.011634985 0.013891042 -0.016339753 0.033152226 0.026449781 0.015601146 -0.022590367 -0.036112379 0.001663884 -0.025926854 0.036336172 -0.042469528 0.019748975 0.044057790 0.022133697 0.015069273 -0.042521276 0.042510074 -0.007559306 -0.041295409 0.043626845 -0.017983966 -0.003126632 0.040450022 -0.030635431 -0.031266935 0.007186738 -0.005915563 0.010179765 -0.037065886 0.001321699 -0.019655788 -0.021726247 -0.040465817 0.023432562 0.008513411 -0.037363667 0.035070371 0.013329884 0.008200812 -0.025948007 0.006664681 0.042582862 0.030312097 -0.034421526 0.040341377 0.003425480 0.021255856 0.034324568 0.037675936 -0.034450896 0.038699239 -0.030015573 0.003313064 -0.030881280 -0.009688834 -0.002008303 -0.005287185 -0.006981615 0.003485618 0.043593958 0.025677325 0.024725311 0.017688606 0.034214295 -0.002039518 0.003513978 0.009095032 -0.038543086 -0.035600919 0.005418267 -0.017290981 -0.000810953 -0.010140742 0.006879387 0.028753417 -0.014656640 0.035393372 0.034894027 -0.033918947 -0.034127899 -0.035756394 -0.024219301 -0.017203743 -0.003326472 -0.010747678 -0.022329042 -0.014040206 -0.015986999 0.043356173 -0.016379634 -0.031643067 0.018371411 -0.002552724 0.033833466 0.027613962 0.040602461 -0.032366022 0.028410817 0.037089463 -0.021824475 0.040622395 0.033129852 0.000483978 0.021308329 -0.015451235 -0.038545441 0.011171406 0.013175400 -0.028883498 0.021434158 -0.037751663 0.038034569 0.042797212 0.012032235 -0.027728695 0.021508032 0.007531384 0.012017225 0.014524562 0.033647478 -0.018996242 -0.009941261 0.012052013 0.004815446 0.035637192 -0.023212481 -0.001609404 0.008257821 -0.011737486 0.030127905 0.004834027 -0.040845580 -0.004787813 -0.020044573 0.004294400 -0.005136068 -0.043837711 -0.008053298 -0.004232887 -0.013031911 0.040604740 -0.009643130 0.028391097 0.010947681 -0.037305765 0.010385015 0.036625285 -0.028907437 -0.028566007 0.043259423 0.035510458 -0.024655664 0.026593624 -0.005653852 -0.043572333 0.003320460 0.014278873 -0.013256522 0.015374422 -0.037790477 0.030627266 0.037677050 0.024371615 0.007490527 0.014555303 -0.031976599 -0.011042948 -0.004219110 -0.024593445 -0.032642704 0.029725777 0.029992165 -0.040136628 0.014063112 0.017978286 0.041983064 0.025568701 0.040629324 -0.014468717 0.030952998 0.035947599 -0.041733798 -0.035474960 0.008945142 0.024131689 -0.021956243 0.004867302 -0.000064158 0.011185884 -0.023747720 0.024927236 0.029389540 -0.030664492 0.000428128 0.000122621 0.014191444 0.041170605 0.012960535 -0.010041887 0.039692242 -0.016817335 -0.012832740 0.003017372 -0.033654254 0.004809092 -0.029984664 0.004544073 0.004234136 0.006117389 -0.037268750 -0.041974932 0.020334505 0.037900742 -0.039216690 0.016369266 -0.032532282 0.002770592 0.041116390 0.033526547 -0.032312118 0.027337272 0.023083376 -0.000067788 0.042812079 -0.017552828 -0.010284685 -0.022336360 0.006359401 0.011702030 0.003521401 -0.024865281 -0.019894734 0.015032759 -0.038750619 -0.006882559 -0.000978971 -0.017905883 0.016083058 0.002848479 0.031027166 -0.003924951 -0.027892642 0.031225473 0.006171663 -0.012657130 -0.029128503 0.010358626 -0.042150304 0.011639764 0.021851575 -0.038767152 -0.028932706 -0.031772334 0.037145492 0.037570380 0.002766593 0.041489746 -0.014774288 -0.042904686 0.015436799 0.015656605 0.043327186 -0.000012792 0.033870246 0.027089428 0.031986363 -0.043855298 0.036392044 -0.037673451 0.039620567 -0.001831433 -0.039165631 0.012290079 -0.008995580 -0.039694913 -0.016022077 0.004556648 0.034420483 -0.013586600 0.026249921 0.005534371 0.001489691 0.008456333 -0.029003253 -0.036734119 -0.013886322 -0.041182518 -0.020609977 0.002033190 -0.029106691 -0.018331567 -0.007941093 -0.005091318 -0.024395829 0.002123574 -0.006203115 0.012639339 0.001996138 -0.022069233 -0.015215344 -0.000509371 -0.027576514 0.003459740 -0.003120363 0.017146392 0.010459246 0.033074193 -0.001456880 -0.032655302 0.019755192 -0.029868096 -0.006074593 -0.014310193 -0.016769234 -0.016351134 0.040610932 0.025299257 0.012247859 0.041496411 -0.040049732 0.007131505 0.028292067 0.029357744 -0.035172097 0.015728245 -0.025176799 -0.001726835 -0.009222009 -0.036900565 -0.042157460 -0.029075256 0.020054013 0.020215983 -0.038438488 -0.016596781 0.000721886 -0.038209509 0.024901407 0.040028095 0.007816260 -0.032836925 0.010305478 0.016043087 0.034994848 -0.023514390 -0.039593991 0.019416736 0.002751367 -0.014399628 -0.018518345 -0.022787215 0.035775051 -0.007625224 0.031873148 0.039449912 0.005598345 0.009414135 -0.003009833 0.030353237 -0.039822835 0.017575273 -0.007200505 0.020179778 -0.000196842 -0.016363604 -0.004770760 0.023864536 -0.030694174 -0.027935099 -0.009899336 -0.016030312 0.017361203 0.029741345 -0.004733133 0.041788854 -0.018465208 -0.024799975 -0.019785469 -0.030448563 -0.030977190 -0.039377693 -0.039168376 0.011534617 0.026951993 0.041491579 0.037644479 -0.002545306 0.008575730 -0.026442247 0.017081980 -0.042375188 0.020845193 0.008105897 0.013581058 0.016181624 -0.020289756 0.037923303 0.021091780 0.029030917 0.005837101 0.027753346 0.029742725 0.020030342 0.033665739 -0.008015846 0.029059267 0.010182299 0.026591457 0.043045059 0.010007200 -0.016403416 -0.004397149 0.012441918 0.007451547 -0.012072527 0.034626950 0.026552182 -0.027451375 -0.003601006 -0.004242365 -0.027697850
0.006445939 -0.013567297 -0.022815749 -0.014210505 -0.015757369 0.042277914 0.016951647 0.043492071 0.012117846 0.010006942 0.018167941 0.007585158 -0.034682326 -0.026134381 -0.010707301 0.000664382 0.016648585 0.017016890 0.035059828 0.008996730 -0.015083171 -0.033235181 -0.032368284 -0.026398836 0.013329119 0.023876879 0.038666040 -0.013979135 -0.003486166 -0.013124054 -0.000161486 0.014186392 -0.000971011 0.002045961 0.005598835 0.016458718 -0.013408571 -0.026352881 0.010426492 -0.005232837 -0.020021196 0.018559918 0.000400801 -0.006428690 -0.021393683 -0.005814448 -0.037579414 0.010053746 0.000663207 0.026818635 0.002853637 0.003533423 0.012039068 0.033629008 -0.020884296 0.026384149 0.010808196 -0.029482674 0.015387830 -0.026504725 -0.013911478 -0.021065986 -0.030065922 0.034806069 -0.039501674 0.022097750 -0.039775282 -0.005378697 0.002635838 0.031418104 -0.015993586 0.012720298 0.006845939 0.026003182 0.002627413 0.016548270 -0.026697293 -0.030711018 0.039380439 -0.032202836 -0.007523602 -0.005342197 0.043216605 -0.009550961 -0.033645216 -0.011203174 0.022796286 0.017513717 0.036561489 -0.009047295 0.020817466 -0.041588485 0.017100483 0.020305619 0.028509086 -0.025342805 -0.011798888 0.010691886 -0.031405028 -0.035155624 -0.042516686 0.002467045 0.027444046 0.011351711 0.002694295 0.015398393 -0.027771801 0.004659213 -0.010978875 -0.021882465 0.038111866 -0.034190942 0.006476580 -0.038833972 -0.001499364 -0.019638212 0.014546400 -0.024816707 0.028286019 -0.035862111 0.026544595 -0.033197753 0.023669753 -0.018608682 -0.000102954 -0.008065590 0.028683348 0.014483648 -0.038944099 0.004063235 -0.030487897 0.033037860 0.007261090 -0.011365893 -0.022546515 0.015296882 -0.026467763 0.020959627 0.024115667 0.027126534 0.011545192 -0.038686201 0.031789623 -0.013710069 -0.013065381 -0.004748174 0.032311901 0.033982076 0.006824112 0.021087332 -0.041188832 0.000104398 -0.039097860 0.015041467 -0.031486113 -0.015751010 0.030893108 0.042236190 -0.026533317 -0.024528248 0.005473274 0.017372962 -0.007198007 -0.013801412 -0.029028663 0.018865420 0.043299764 -0.021393476 0.020844787 0.021584196 0.035523143 -0.005031675 0.001392021 0.032469410 0.027935753 0.043650899 -0.012664727 0.017487044 0.030859737 -0.029999711 0.008779562 -0.009888567 0.028409088 -0.019848805 0.003099716 0.026441848 -0.040487032 -0.037315886 -0.022635549 0.028346900 0.029633421 -0.030183297 0.008427268 -0.023417648 -0.020512845 0.038113825 0.021346187 -0.012086351 0.006505450 0.008562928 0.010352088 -0.015126725 -0.026025310 0.029259363 0.005938486 0.018497456 -0.016737645 0.021406310 0.032163002 0.026877724 0.012016209 0.043481890 -0.000096653 0.009408809 0.041990202 0.042952184 -0.018659668 0.039810259 0.016310303 -0.004946991 0.038587969 -0.022893872 0.028715100 0.043793958 -0.030480817 -0.026078667 -0.043792628 -0.007953289 -0.040137306 -0.014801599 0.013417138 0.031239877 0.024617711 0.024531340 0.018334564 -0.027410697 -0.035089947 0.001832013 0.041966029 0.002488387 -0.003801135 -0.029996239 -0.021913163 -0.034067683 0.035384875 -0.007200541 -0.039041515 0.004740914 0.003207091 -0.005460130 0.015819920 0.023766708 -0.041560650 -0.033856791 -0.002123084 -0.040974084 -0.040144209 0.039019499 -0.003361385 -0.021849174 -0.015159346 -0.034503385 0.034487616 -0.009583013 -0.024847642 -0.033517428 0.025831055 -0.006109022 -0.004642918 -0.011518470 -0.021333538 0.007861715 0.034001689 -0.025614068 0.002117463 -0.033610258 -0.020722520 0.038792316 0.000463378 0.042573091 -0.007743003 -0.024087777 -0.026405500 0.039169941 -0.033984743 0.023192853 0.010985887 0.013042021 0.024936119 -0.011562208 0.027345745 -0.035210494 -0.015549337 0.032351963 0.013115936 -0.005885449 -0.010320693 -0.026985604 0.026874110 -0.001405381 -0.001495260 0.010451633 0.032613017 -0.022547131 -0.015220359 0.029947342 0.024959654 -0.021740725 -0.043719530 0.008198521 0.023241453 0.010556094 0.031347562 -0.035066932 0.022286505 -0.027474603 0.024872778 0.032867841 0.013997005 0.035756379 -0.029130658 -0.039526198 -0.042492926 0.027746493 0.015481659 -0.032361925 0.021402391 0.040323306 -0.043579150 0.032059383 0.006778188 0.004110983 0.039765615 0.040021811 0.018621268 0.034919359 0.018385855 0.007201068 -0.038847167 0.008254708 -0.031441782 0.013605893 0.007797351 0.000992853 -0.030216735 -0.026790386 0.032665577 0.021523405 0.023300927 -0.013168841 -0.007610072 -0.011325981 0.030392040 -0.019078087 0.027836354 0.030471608 -0.040418047 0.000269877 -0.008416936 -0.024431527 0.019079398 -0.005369371 0.038692359 -0.027661309 0.020534001 -0.037732661 -0.022151077 0.003014616 0.034917515 0.023277920 -0.036287192 0.004895188 -0.026052015 0.001914921 -0.036816984 -0.012965398 0.030311301 -0.040549751 -0.042135727 0.008049716 0.006058330 -0.008082475 0.038590886 -0.026608823 -0.026829408 -0.033034090 -0.008225531 -0.011278571 0.027345007 -0.002481459 0.014113568 -0.018365184 0.035849977 0.037256517 -0.039578930 -0.011357886 -0.037498642 0.018774873 -0.038611706 -0.020895528 0.044157602 -0.042201865 0.032606661 0.003733484 0.035339195 -0.022428071 0.029027993 0.005332193 0.003399080 0.030163946 -0.042007763 -0.035596251 0.042681117 -0.026538448 -0.031855498 -0.002160858 -0.014146663 -0.006046287 -0.029609457 0.015946092 -0.038028274 0.003579416 0.025789045 0.008491294 0.005872073 0.006464020 -0.012946705 -0.008418912 -0.018636389 -0.029854424 -0.023398876 0.043688618 -0.007396182 0.015481043 0.030562660 -0.003452354 -0.023775321 -0.029943276 -0.016281281 0.015774511 -0.037218500 -0.005395966 0.016810872 0.036056042 0.013299375 0.008740135 0.030254919 0.020421591 0.014951495 -0.013702251 -0.035439257 -0.009546034 -0.008015224 0.003245497 -0.004860485 0.017867196 0.029369241 -0.017917216 -0.041934110 -0.022674246 -0.021145869 0.025051033 -0.028507169 -0.004156775 -0.009366473 -0.026822871 0.020032549 -0.018409327 -0.002286261 -0.031072248 -0.004457414 0.006279364 -0.001798385 -0.016513051 0.013129365 -0.011450603 -0.024501201 -0.032590225 -0.009361631 -0.041749284 0.036682047 -0.021112783 -0.018314870 0.004085267 0.011456599 -0.004167175 0.030318214 -0.025762977 0.015838344 -0.000099672 -0.035950683 -0.017116178 0.011246850 0.008442936 0.032135148 0.029565591 -0.024104510 -0.018872214 -0.009370994 -0.031661615 -0.011931978 -0.036164660 0.016808907 0.031270001 0.003499137 -0.031637754 -0.033468600 -0.017204754 0.012854025 0.001077985 0.008035471 0.041652180
0.020525631 0.009502744 -0.008941448 0.020906007 0.016168021 -0.039779276 -0.026105894 0.001483411 0.016769141 0.021500593 -0.026307845 -0.043845672 -0.002302145 -0.005052159 0.012824263 -0.012153681 0.033787452 0.002948820 0.032272659 -0.030773036 0.017679259 0.005266006 -0.022103641 0.021909164 -0.043487925 0.035729531 0.003561524 0.004267063 0.020437401 0.003668662 0.018943902 0.028116958 -0.034491714 0.029237116 -0.006617582 -0.010277314 0.008895472 0.034566548 -0.024024624 -0.029783828 0.027427224 -0.020756586 0.014228318 -0.006510956 0.012164576 0.033725239 -0.022397563 -0.021445824 0.021682577 0.002419740 -0.004863930 -0.038819637 0.037443880 -0.001673672 -0.008140011 -0.018141262 -0.008721200 0.021479882 -0.001015728 0.037795238 -0.002551539 -0.006339998 0.024945471 -0.001143549 -0.008820846 0.014770868 0.034852892 0.011028634 0.030773206 0.028639516 0.012498016 0.015365808 0.014260760 0.004584118 0.037597589 0.040797431 0.015732624 -0.002206993 0.039624233 -0.034397233 0.032473166 0.023415202 0.028378673 -0.003395687 -0.032973181 0.031525422 -0.019324150 0.011628041 0.025037993 -0.041300587 0.002932899 -0.015698938 0.031367049 -0.028138494 0.026833365 0.027558159 0.024382584 0.042426951 0.006693257 -0.040056765 0.031548671 0.004045834 0.000877034 -0.042098895 -0.009932917 -0.021450428 0.043284260 0.031467527 0.032968335 0.030265788 -0.027394814 -0.018980052 -0.017295402 -0.017716659 0.034402166 0.015015716 0.035415180 -0.002067356 -0.039395887 -0.012821756 0.031059429 0.026905658 0.013681256 -0.012963375 -0.041249562 -0.023746708 0.023041977 -0.017826062 0.021139778 0.012066827 -0.016974421 0.026917711 -0.014201027 -0.001468249 -0.016834136 -0.041921336 0.007125789 0.012770758 -0.022250943 0.027110776 -0.039644625 -0.042602148 -0.027296485 -0.015273723 -0.004908122 -0.008540426 0.020169711 -0.038785927 0.006507484 0.000765339 0.011673017 0.043932546 0.027199237 -0.024470517 -0.036215026 -0.010699452 -0.022168988 0.015437253 0.000405126 0.035546415 0.017359745 -0.008125996 0.001518951 0.010583885 -0.005483932 0.035661805 -0.034555435 0.021540500 -0.028171306 -0.038717695 -0.009072915 0.021536037 0.031225920 0.011090195 -0.003819658 -0.002477497 -0.017915493 -0.003965871 -0.003053550 0.037607592 0.025864383 -0.035365235 0.000182817 -0.027182505 -0.007015422 -0.035124119 0.011488767 -0.031867448 0.043629415 0.033375550 -0.030421453 -0.041607220 0.001724354 -0.012336877 0.012973938 -0.029915659 0.018090496 -0.038172688 -0.023324361 -0.023232955 0.021385178 -0.001157057 -0.042471863 -0.025240177 -0.020452043 -0.041004661 0.005658926 0.015748059 -0.008108643 -0.017586842 -0.000268017 -0.035102624 -0.026909899 -0.001007905 0.039261099 -0.013590077 0.021905260 -0.017392633 -0.011764391 -0.042070400 0.036614209 0.043033086 -0.000928221 0.028079642 0.036148254 0.021952022 0.022760851 -0.042072438 -0.041527968 -0.033920810 0.013823302 -0.038226929 -0.033735387 -0.021421041 -0.040733121 0.000059548 0.006375812 -0.025862450 0.028936815 -0.016778091 -0.012441855 0.033670444 0.037942979 -0.005069976 -0.031726029 -0.022170849 0.005627653 0.025906293 0.022001835 -0.019515371 -0.041779697 -0.038676396 -0.014060652 0.000554379 -0.019850943 -0.034944564 0.004657522 -0.035078716 -0.033937775 -0.035927474 -0.011975448 0.039034862 0.017276356 -0.005240059 0.009095659 0.017598521 0.000257486 -0.035645887 -0.027228586 -0.030023433 -0.001122191 -0.040455420 -0.008035433 -0.016160572 0.043370839 0.035922091 0.025670350 0.002478509 -0.014308871 0.011272628 -0.030535065 -0.018848993 -0.008877965 -0.010383629 -0.041865237 0.017568555 0.036393106 -0.024376331 0.011913260 -0.005125389 -0.001611869 0.002576079 0.038297899 0.005921600 -0.027960639 -0.015897242 0.021590060 0.013790991 0.000858942 -0.005832613 -0.017194929 -0.015685713 -0.023311807 0.007241735 0.012411583 0.033841468 -0.009984056 0.003163806 0.028562229 0.019224051 0.005678408 0.013579926 0.002293963 -0.037909400 0.001703734 -0.009659915 0.039881345 0.039890885 0.008767708 0.039500888 -0.022760836 0.038412411 0.038050529 -0.001689146 -0.035466239 -0.014261297 -0.011818729 0.000729999 -0.040068701 0.008190308 -0.018379988 -0.011315527 -0.022825947 -0.009330891 -0.041044239 -0.023430334 0.004071386 0.028959379 0.040161356 -0.033430927 0.018558068 -0.024912069 -0.034169033 -0.001946104 -0.025351839 -0.038062070 -0.041301064 -0.029581297 0.036315933 0.024647444 -0.017494135 -0.029580075 -0.033996005 -0.026097607 -0.018185828 0.026542546 0.014462828 -0.017031204 0.030424656 -0.027454888 -0.036004461 0.009645385 -0.024368707 0.012572289 0.037442885 -0.020899663 -0.030839223 0.016634692 -0.039913841 0.039429057 -0.020870972 0.021366108 -0.035141956 -0.029913630 0.004868193 0.015706824 0.034267947 0.036961172 -0.002541676 -0.005681922 0.007305376 -0.010265908 0.001504405 -0.041854016 -0.036279328 0.030284608 -0.025825160 0.034802269 0.004850033 0.010765032 0.040167093 -0.024580369 -0.006976399 0.007829857 0.015098576 -0.043010399 0.015707429 -0.026062451 0.005804907 0.029899552 -0.004402412 -0.001398074 -0.003301984 0.036879268 0.025116850 0.007432101 -0.026596727 -0.023999069 0.035203081 0.031794202 0.025588868 -0.034458961 0.034418102 -0.004224605 0.032560367 0.038384825 0.004844169 -0.018390007 0.041571286 -0.023030471 0.028877124 -0.042377353 -0.013899636 -0.038530897 -0.019824455 0.018765690 -0.031666365 -0.038219299 0.031600393 0.023591757 -0.000483272 -0.031155160 -0.011708647 -0.014309213 0.027293898 -0.014455320 -0.012728611 -0.031327445 -0.020814911 0.023928879 0.028473668 0.006420851 -0.016581571 0.042448092 0.008723044 -0.017058795 -0.015317576 -0.006185013 0.020952351 0.016164796 0.032039031 -0.001991254 0.036552683 -0.017951112 -0.020353766 -0.016320793 -0.041463327 -0.029010823 -0.039990194 -0.002611772 0.000416637 -0.011470249 -0.030201573 0.040096868 -0.014643306 0.021060860 0.030777272 -0.029051343 -0.005525294 0.025542786 0.042840023 -0.005575586 0.032024123 -0.034686513 -0.028714694 0.036342420 -0.004184287 0.043660421 0.003213676 -0.018327726 0.041971892 0.038647078 0.004101484 -0.026790744 -0.001913472 -0.021253724 0.032203462 0.002047230 0.009303822 0.026802218 0.014638944 -0.027588937 0.036713172 0.027150452 -0.027282666 0.033415344 0.012538039 -0.008699573 -0.031606052 -0.007332825 -0.043329883 0.025224309 0.032007787 -0.012723417 0.040970191 -0.016364720 0.007568183 -0.030798657 -0.001868459 0.017864605 0.019035956 -0.001481941
-0.022285456 0.030891085 0.029259453 0.007092303 -0.020323837 0.009370293 0.000118174 0.040375926 0.006549257 0.003408669 0.003021091 0.023511704 -0.000546055 0.037880786 0.023024717 -0.033394311 -0.000000506 -0.037512317 -0.033932664 0.008586625 0.009931257 -0.003867532 0.042004902 -0.023741631 -0.018521147 -0.007077504 0.000267954 -0.003743351 0.039791942 -0.018665249 -0.023116866 0.003798490 0.033193454 0.010489734 0.023808839 0.008555342 0.037666183 0.026544064 0.031623971 -0.005952515 -0.036588158 -0.020964136 0.015055555 0.031004274 -0.017266858 0.036567099 0.006351862 0.000175542 0.001722884 -0.007807898 0.041374080 0.001919573 0.027069325 -0.037300494 -0.022769766 0.004969045 0.035289034 0.021040285 0.008417199 -0.043663472 0.000830830 -0.029172646 -0.037736163 0.006043263 -0.027961889 0.040112361 -0.024021380 0.014242373 0.025940336 -0.034349356 0.022617696 -0.005917428 0.022899773 0.042768236 -0.018834030 -0.019140670 0.035114445 0.004914412 -0.004407607 0.033528719 -0.021352151 -0.002182137 0.030355908 0.017271567 -0.028585447 0.011486797 -0.033695262 -0.024000680 0.028417375 -0.011778289 -0.022510616 0.003132585 0.010799745 -0.027471842 -0.029802931 -0.042800695 0.011419046 -0.028515382 0.003367965 -0.009884389 -0.028896801 -0.014102309 -0.033971619 -0.023393428 -0.001377586 -0.037782267 -0.038759764 0.033104111 0.004158587 -0.019545043 -0.001469397 0.032772858 -0.036869679 -0.023431024 -0.031958595 -0.003212960 -0.001520848 -0.034440774 0.030674465 -0.033937581 0.041261259 -0.030421900 -0.006056613 0.008263732 -0.019643312 0.040642817 -0.030468978 -0.002449612 -0.032450058 0.012267889 0.037679382 0.040993899 0.005246455 -0.022125604 0.042949889 0.003298228 0.029900759 -0.022955222 -0.020510221 -0.036687054 0.040664207 0.007331118 -0.031739786 0.003795787 -0.018955108 0.002207784 0.014669063 -0.021930685 0.007711856 -0.027903389 0.008516029 -0.042671081 0.007042406 0.043907758 0.040707812 0.016121201 0.032519374 0.042968132 0.012523272 0.014739559 0.005746749 0.039126415 0.037964590 -0.020782769 -0.001816803 -0.022266934 0.015858211 -0.042823788 0.015638914 -0.012129020 0.016027108 0.013793278 -0.021991851 0.022928407 0.018767059 -0.037566848 0.044094823 0.038040277 0.027496830 -0.004485705 0.015657455 -0.023909733 -0.015017143 0.020857822 0.019673832 0.017500240 -0.042149652 0.036622785 -0.018459324 0.038246352 0.036413837 0.016380604 0.044030212 0.025377192 0.025919253 -0.015007112 0.040989455 0.011583066 0.026111495 -0.009992649 0.032006342 0.039204746 -0.033863842 0.036230568 -0.029207470 -0.030426510 -0.036932435 0.012770337 -0.033182193 -0.016636183 -0.022215782 0.011811570 -0.043388121 -0.020260438 0.000323303 0.003968732 -0.019959167 0.015833169 -0.029157285 -0.037427593 -0.006282862 -0.023893507 0.027857054 -0.030207546 -0.003710203 0.018356211 -0.038702559 0.034211587 -0.020080734 -0.012025955 -0.027034184 -0.016468417 -0.017040813 -0.039327372 0.015101484 -0.000141577 0.043232098 0.029816762 0.038446017 0.013003103 0.023222234 0.041382752 0.036285166 -0.033958752 -0.009909609 -0.042623729 0.001671902 -0.015608927 0.038356856 0.006987331 0.000486396 -0.031967964 -0.034680534 0.006957217 -0.021959292 -0.020296283 0.030999318 -0.023039248 -0.019671040 0.033932623 0.017266611 -0.025111461 0.013384132 0.022279935 -0.039253294 0.008255793 0.010097042 -0.001721235 0.042373419 -0.029211285 0.023958391 -0.023476673 -0.037834909 0.030119149 -0.021200929 0.002077176 0.023241822 -0.036887068 -0.037829727 0.015046393 0.038534041 -0.004676446 0.031122496 0.015529860 0.012608719 -0.028176963 0.042060409 0.020242725 0.006833458 0.031258721 -0.037972841 0.009523133 -0.020803463 -0.004487812 0.014479470 0.019573459 0.010138430 -0.034204211 -0.027658151 0.000771656 -0.007654047 -0.036991157 0.043538611 0.005558885 -0.031402178 0.019382946 0.019202331 -0.021680143 0.022160912 -0.027415566 0.015312450 0.041980267 0.029173942 0.021818174 -0.008991361 0.008296781 0.015422253 0.010794288 -0.008953392 0.006166289 -0.017900014 -0.024981512 -0.040783986 -0.036031898 -0.027741356 0.042244777 0.008843921 -0.039978955 -0.022590689 0.010322848 -0.013227593 -0.012509616 -0.016595569 -0.010793976 0.005083532 0.002617098 0.028393958 0.028281767 0.036371429 -0.001405866 -0.019733571 0.000150807 -0.029266013 0.018080791 -0.005332045 -0.014154355 -0.037468344 0.021297898 0.024668103 0.040315114 -0.015656674 0.013316170 0.001665881 -0.028150370 -0.027627934 0.022631172 -0.025381748 0.032181468 0.015439649 0.015092686 0.029105201 0.021629335 0.019060174 0.022929782 -0.018754542 -0.023435349 -0.008096436 0.024535203 0.030928290 0.032545116 -0.013940465 -0.005607564 -0.030353444 0.027249960 -0.029306347 -0.018185396 0.036494024 0.010739754 -0.018501075 -0.029759109 -0.030391186 0.035665832 -0.040393665 0.038189478 0.035353802 0.002738370 -0.003542379 0.034370780 0.019488603 0.041786086 0.035700597 -0.028980752 0.027273083 0.022288438 -0.031378407 0.021225216 -0.022954985 -0.026330538 0.000824487 -0.005430643 -0.011882998 -0.028982870 0.024175890 0.044064682 -0.009792625 -0.029776884 -0.002278838 -0.038396347 -0.035888135 -0.014722062 0.027767412 -0.033857781 -0.007052653 -0.022948716 -0.040693518 -0.009948584 -0.002574356 -0.007430848 0.032311924 0.017702520 0.027515063 0.017310379 0.004636743 0.023986794 -0.028193654 0.022518413 0.021050291 -0.018756306 -0.001516770 -0.033431854 -0.038672026 -0.000048822 0.007913202 -0.009532938 0.013653792 -0.034118000 -0.024292758 0.030502623 -0.043008536 0.006939431 0.034023881 0.033131812 0.015075448 -0.040256504 0.005689424 -0.015541250 -0.012423410 0.033861242 -0.015019055 -0.031650577 -0.035476346 0.027903484 0.002132483 0.043649036 0.009037860 -0.041185379 0.010933978 0.040439617 0.027410535 0.013262211 -0.033203259 -0.026500352 0.030008476 -0.029550783 0.010082169 -0.005662292 0.014808611 0.002891716 -0.033661392 -0.017616149 0.038545769 0.005202349 0.022408878 -0.022296082 0.034985904 -0.009460377 -0.014896255 0.008964987 -0.015835362 -0.017759407 -0.006323976 -0.002523063 -0.025135601 0.015106168 -0.042832214 0.027129177 0.040988490 0.007149860 -0.010326336 -0.040477481 0.020753693 0.036211833 0.037782725 0.003940799 0.014692865 0.042347278 0.006596392 -0.021335604 -0.041959200 0.019322176 0.017215550 0.039274670 -0.022499489 0.018982418 -0.014621832 -0.010983801 0.025786705 -0.040511824 0.032577168 0.020554643 -0.026265452 0.022552088
-0.011116263 0.003977345 -0.011828945 -0.043271098 -0.004577100 0.021563202 -0.005141852 -0.021761777 0.001400318 0.008064874 -0.012330866 -0.034271877 -0.023694405 -0.007205109 0.015916215 0.039300706 0.000820193 0.015823375 0.025428051 -0.019270945 -0.014664374 0.029314255 0.031642504 0.010472201 -0.034152482 0.025084013 -0.036526266 0.022089237 0.005237641 0.014275369 -0.043078177 -0.015537578 0.018769113 0.034015644 -0.012652373 0.039410144 -0.009862320 -0.026655558 -0.019137999 0.002750071 -0.007854776 0.021390153 -0.024458021 -0.012571941 -0.043797001 0.036073197 -0.008315705 -0.034838799 -0.002132552 -0.000080669 0.012273968 -0.004850796 0.027800925 -0.015248040 -0.013227783 -0.010494781 0.007889985 0.035409268 -0.002033527 0.034004278 0.034716576 -0.023009691 -0.003797173 -0.020862257 0.018383628 -0.015537304 0.013481428 0.002640363 -0.029011946 -0.029711483 -0.043165546 -0.024721403 0.012345834 0.002692567 0.033238526 -0.038860574 -0.001291432 -0.039626699 0.000258697 0.016101556 -0.039644089 0.039030194 -0.013726312 0.039157636 -0.007418040 0.025072012 0.040175889 -0.016089927 -0.010743015 0.023181146 -0.037836000 0.026159769 -0.027758947 0.041045930 -0.028963329 -0.018186407 0.032977048 -0.019241558 0.037881091 0.030406453 0.040393982 -0.042836618 0.000495320 -0.014536063 0.010527213 -0.033368859 0.018121997 -0.002093645 -0.020890085 -0.039757237 0.023116566 -0.015994102 0.032609832 0.007867199 0.013441230 -0.006702682 -0.006121951 -0.015013186 -0.038267773 0.027784714 -0.027830880 0.025758024 -0.014905923 0.027686279 0.037875384 -0.027029427 0.036492258 0.001077121 -0.033761300 0.018040579 0.025024476 0.038957682 -0.042069331 0.039905675 0.033503920 0.043476529 0.024086097 -0.021483365 0.033526216 0.040389802 -0.016898520 -0.007223996 0.034583364 0.035575539 0.029194077 0.033858582 -0.022711314 -0.007624159 -0.017655963 0.022969395 0.011013735 -0.034137923 -0.005551304 -0.036038361 -0.041591879 0.040288642 -0.022230597 0.019725172 -0.009841094 -0.008949288 -0.000028544 0.034468256 -0.006113648 0.036569159 0.025858356 0.030317588 -0.040081479 -0.020664990 -0.036006067 -0.009386340 -0.009153584 0.008980424 0.039596684 0.019838991 -0.030752853 -0.027716083 0.033371262 0.004399267 0.012485065 -0.023115112 -0.005389444 0.012582298 -0.029001335 0.028843833 0.022023903 -0.025772814 -0.018123187 -0.010390094 0.006877770 -0.016211305 0.042277083 -0.042568237 -0.024978524 -0.026824914 0.011949237 0.006271461 -0.012593399 0.037717871 -0.038150758 0.015576242 -0.024317915 -0.010063392 -0.042559005 -0.032991260 -0.037496511 0.019280765 -0.016595200 0.023118004 -0.023950985 -0.010949751 0.005349573 0.037031386 -0.011910931 0.025620326 0.012191929 0.026879011 0.027917825 0.017934700 -0.013326633 -0.012403823 0.017204849 0.024087703 -0.002358796 0.022153452 -0.026588060 0.024910405 -0.005423283 -0.030413186 -0.021473244 -0.033751011 0.008914732 -0.026209829 -0.012655597 -0.002768985 -0.026965547 0.001134804 -0.005608797 0.013998154 0.031926207 -0.026678659 0.024162998 -0.000936334 -0.025259396 -0.020042671 0.011249093 0.009201821 -0.001427482 -0.022001872 0.022286931 0.006557127 -0.042962525 -0.007810290 -0.011990431 -0.018858075 -0.024514409 -0.035853069 0.043527015 -0.040367603 0.041081902 -0.034741208 -0.010722280 -0.018104879 -0.023654928 0.015712598 0.025614711 -0.029031228 -0.020583419 0.022557899 -0.005342018 0.010763446 0.023107046 -0.016335566 -0.024526615 0.016267741 -0.016183689 -0.029417478 -0.022292232 -0.020548748 0.044004951 0.008499570 0.019033222 0.005936373 -0.029793333 0.031892192 -0.006869931 -0.011443238 0.036016341 -0.022512982 0.008973996 -0.037595257 0.022646107 0.017554421 -0.036340702 0.024666406 0.004863536 -0.022820322 0.037681431 0.018980222 0.015530550 -0.016414849 -0.024232566 -0.023779768 0.016603904 0.011905304 -0.026450112 0.040214580 0.025748294 -0.016873674 0.022865150 -0.018733837 0.013869358 0.036784261 -0.039091159 -0.021973655 -0.002497664 0.006590481 -0.036344133 -0.029075420 -0.004232856 -0.006371824 0.009532442 0.005615662 0.009066082 0.002929786 0.005079554 -0.002550833 0.015871128 0.030162366 -0.022055114 -0.022894848 0.019397492 -0.031958297 0.028719937 0.020416765 0.006391891 -0.019186493 0.001325186 -0.034942288 -0.039760686 0.041617811 -0.039638914 -0.036670290 -0.017167106 0.002481828 0.010121971 -0.021778114 -0.004288552 -0.009868990 0.036978390 0.038358510 0.018164206 -0.000272416 0.033142690 -0.035681684 0.018465087 -0.025688209 0.034465335 -0.039067108 0.016420465 -0.036335718 0.025793850 0.008080889 0.037920315 -0.033332013 0.028443770 -0.029493574 -0.023855358 0.016809553 -0.007438908 -0.034892764 -0.037605397 -0.011473916 0.012236394 0.038818158 0.032502901 0.000724283 -0.027108436 -0.039401490 0.039483141 -0.024640227 -0.007772537 -0.035660937 -0.030547498 0.008575235 -0.010925727 0.005060846 -0.000337986 0.002251627 -0.008756835 -0.001708991 0.019209791 0.032284670 0.037354220 -0.036056601 -0.037357755 -0.006604996 -0.003371421 0.024392424 0.041602578 0.011348955 -0.031389304 -0.005002331 0.028581610 0.016305614 -0.031254724 0.002579524 -0.042672362 -0.017808450 0.030909555 -0.019170715 0.026983276 -0.036048051 0.039072260 0.021080863 0.028638262 0.012069118 0.003131010 -0.021764984 -0.024386030 -0.030348998 0.036524065 -0.015338898 0.001076673 -0.041547246 0.011861182 -0.015065190 -0.035347756 0.005469602 -0.040712304 -0.004354254 -0.036090851 0.027939714 -0.035097428 0.007218032 0.021882564 -0.035311747 0.028609723 0.035992332 -0.027090892 0.003700683 0.013401581 0.036601834 0.034527555 -0.037070598 -0.036021214 -0.039077293 -0.019654956 -0.008920917 -0.015857004 0.029120542 -0.030457404 -0.035272535 -0.034547318 -0.026085928 0.043286629 0.005580901 -0.007737808 -0.012987799 -0.033849381 -0.014994252 0.023282567 0.029868718 0.031876374 0.003146357 -0.024094636 -0.026090775 0.042950265 -0.039889652 0.010462728 -0.004172659 0.041032929 0.025887147 -0.011165142 -0.036670540 0.005805349 -0.030911177 -0.004661020 0.011065355 0.021581251 -0.011952635 -0.029832551 -0.037638817 -0.041860614 0.005543401 -0.026898308 0.001602760 -0.020937158 -0.029907482 0.029799808 0.025010271 0.031030506 0.042393528 -0.031976201 -0.023525218 -0.033271343 0.029675374 0.026039507 0.035825532 -0.030923342 -0.023700917 0.043083895 -0.035093572 -0.029433599 0.016270116 -0.038632501 -0.012495244 0.018778397 0.036205385 -0.005014706 -0.039109219 0.025017858 0.044058856
-0.032808792 -0.001952463 -0.031969037 -0.022566397 0.014872505 0.020646935 0.018274831 -0.041625798 -0.010713845 0.018835258 -0.004102174 -0.013662733 -0.022828635 0.041903924 -0.035375584 -0.034812536 0.032204933 -0.026843732 0.026705697 -0.024361685 -0.005978483 -0.021353120 0.036513906 0.030638246 0.002123579 0.001059672 -0.016678615 -0.023622708 -0.016716421 0.014471468 -0.007949091 0.029998029 0.006363046 0.000487855 -0.027463539 0.017828476 -0.040879928 0.010325583 0.015857156 0.007997823 0.031102683 0.010606891 -0.012205532 -0.030925091 -0.041016813 0.022304023 0.024056552 -0.033710312 0.011831959 -0.016251113 0.037222743 -0.015233014 0.036581568 0.031259179 0.024443490 0.030202504 0.013783289 0.014981023 -0.037571806 -0.010089434 -0.005009759 0.021443320 -0.017125376 0.020249916 0.030006744 0.019055558 0.022746447 -0.005890496 0.021170177 -0.015155342 0.038283419 -0.001134209 -0.002577933 -0.038909111 0.040874407 -0.006183311 0.032916218 -0.028912058 -0.036973972 -0.007073864 -0.035337668 0.008492247 0.000595272 -0.016206564 0.027671423 0.028631696 -0.039021265 -0.035404865 0.025854615 -0.026841763 0.008527898 -0.011770013 0.007902908 -0.024387762 0.000141224 -0.015645204 -0.019908696 -0.021727676 0.009871434 0.028596872 -0.001089101 -0.000431621 0.036463220 0.035625134 -0.006415651 -0.036188364 0.010370974 0.013195436 -0.034970652 -0.039645460 0.004635642 0.043155264 -0.039529461 -0.021654123 -0.015241022 -0.039037317 -0.027211512 0.034689181 0.033801261 -0.032513276 0.000947408 -0.035993882 0.018355710 -0.030185178 -0.022522053 -0.020484474 0.006514306 0.029531896 -0.018496672 0.008151522 0.035188340 -0.002677858 0.004563360 0.003281622 -0.000564562 0.026532859 0.023913141 -0.023668880 0.042199336 0.025429549 -0.006915065 0.038477033 0.002376856 0.027926950 -0.037524972 0.039669752 0.041661426 -0.033022419 -0.039555848 -0.012862480 -0.027171141 0.011807866 0.019672273 -0.005631051 0.031011725 0.001674679 -0.012989184 -0.037722856 0.014045848 -0.041639999 -0.000151128 0.006459710 -0.024750868 0.013276821 0.008590939 0.029575733 0.027641136 -0.035765287 -0.032791279 -0.016220300 -0.031793270 0.013856545 -0.028955569 -0.033741139 0.012872079 0.026671991 -0.012848235 -0.044037573 0.006246026 0.022647919 0.034523230 0.004193232 0.030680876 -0.039515682 0.042279601 -0.028537761 -0.030165801 0.031716984 -0.009820473 0.027273769 -0.030954668 0.033436164 0.041913543 0.013381803 0.035651177 -0.031560220 -0.009758644 0.013451767 0.024973689 -0.023597857 0.028122278 -0.014545209 -0.023588864 0.008644951 -0.035200998 -0.040561348 0.014694746 0.015053068 0.016994821 -0.005795560 -0.032320764 -0.035502814 0.042289346 -0.038313258 0.013319816 0.035893645 0.033763267 -0.027864615 -0.014249907 -0.035334691 0.027721630 -0.041473545 -0.040684577 -0.029504085 0.036049128 0.028646100 0.029612107 0.033909626 -0.020611320 -0.024646528 -0.027150029 0.014582235 0.017190909 0.009170558 -0.033999432 0.003925884 -0.023451233 -0.008690653 -0.006841661 0.002196789 -0.038750298 0.037724089 -0.018805571 0.013808561 0.030434050 0.017808914 0.030950047 0.024955701 0.032360807 0.009327545 0.028226767 -0.019210065 -0.023813792 0.021102954 0.011595883 -0.001657272 -0.037278175 0.014441059 0.028626919 -0.005102418 0.010153202 0.019674385 -0.043645237 -0.007271200 -0.016394492 -0.022588456 0.027011847 0.043817971 0.007051621 0.027505739 -0.032786861 0.007785850 -0.005715718 -0.027257198 0.009061693 0.014068133 -0.002134575 0.018766774 0.021218019 0.040085968 0.002561870 0.001574559 -0.000632556 0.006098939 -0.028656311 -0.005439825 -0.037372027 -0.030999081 -0.037644058 0.032774374 -0.025398390 -0.003566540 0.004724746 0.039033029 0.020057078 -0.031472135 0.043225244 -0.041860130 0.005746027 0.040380448 0.038327485 -0.010243069 -0.029493494 0.019405695 0.034067623 -0.023559904 -0.006993347 -0.026876781 0.016877195 0.009406734 0.021906767 -0.015162935 -0.042661093 -0.018611457 -0.034563504 -0.010646800 0.016061073 -0.036766559 -0.002062904 -0.043238703 -0.031318173 -0.030942051 -0.015047468 -0.022392210 0.006802554 0.027016087 0.033323631 0.013924587 -0.000292436 -0.007875560 0.030007966 -0.025311347 0.031943955 -0.042550683 -0.032985225 0.011723136 -0.018202243 0.008245346 0.038506400 0.020184873 0.043255884 -0.018719295 -0.021104055 -0.005611400 -0.008900697 -0.019439681 -0.002743849 0.039925899 -0.024225377 0.024818692 0.020530215 0.025593637 0.011922758 -0.016325992 0.018239534 -0.020815264 -0.027127145 0.041312493 0.036632001 -0.031939276 0.035896871 0.009164100 0.011328146 0.042597283 -0.002320542 -0.014055879 0.027744027 -0.011415969 -0.010609326 -0.017821532 0.043499831 0.021087717 -0.007164364 -0.000881691 0.003093052 -0.026198149 0.012547812 -0.034300353 -0.002060559 -0.008292371 -0.018045209 0.040874682 0.012377033 0.021289738 -0.029091077 0.007043376 0.011842943 0.022942031 -0.013040709 -0.008678678 -0.035880871 0.026860196 0.029502120 0.020730976 0.022460181 0.026470091 0.041657634 0.014473101 0.015953368 0.013900605 -0.024957366 0.011088219 0.013315343 -0.035176475 -0.013079526 -0.027267562 -0.028238267 0.030712366 0.034766950 -0.006092306 0.013545812 -0.010350470 0.009369977 -0.007398410 -0.022990447 -0.018594068 0.043898612 0.007449571 -0.024167836 0.005016771 -0.044090517 0.000389843 0.033925805 0.005097456 0.010529710 -0.041629542 -0.008312427 0.026078267 -0.032403290 -0.020674421 0.029866667 0.012691623 0.020659599 -0.041211821 0.028127352 -0.009639305 0.009288106 0.035722204 -0.040727578 0.012644481 -0.039952550 0.032718651 0.012976804 0.004917462 -0.017704695 0.016662762 -0.022939181 0.008448051 0.037113532 -0.033172239 -0.012609673 0.010322343 0.007671153 0.000607752 0.038021129 -0.011484457 0.011399980 0.023421293 -0.008568886 0.028877920 0.028863205 0.019679649 -0.010781960 0.038387481 -0.025536381 0.013658903 0.008873761 0.031193456 -0.036224414 0.007704633 -0.025451001 0.023424312 0.015175989 -0.034377981 -0.002766846 0.012362629 0.018826285 0.039316792 0.019847240 0.008428274 0.023574682 -0.041818514 0.029465493 -0.005196095 0.025012294 0.012655577 -0.002330594 0.031108735 -0.025763314 0.012462823 0.019373646 -0.015727919 0.016010085 -0.043714721 -0.022321092 0.021487432 0.022778548 -0.040565725 0.015294195 0.004155511 0.043139912 -0.043106325 -0.010533025 -0.025028842 -0.026891202 -0.007218095 -0.040617798 0.034624025 -0.015635932 0.015485290 -0.026005169 0.000238298
-0.031308617 0.035571102 0.037272338 0.034793641 -0.015471239 0.027505880 -0.036924347 0.020278076 -0.005455045 -0.036622554 -0.035468083 -0.041356400 0.008281598 -0.015984487 -0.020354224 0.042073052 -0.013464901 0.014906576 -0.007780061 0.026652582 0.013188234 0.027986381 0.011539917 -0.009685962 0.039060134 -0.003150656 -0.026456552 0.013752880 -0.005362791 -0.032775782 0.005781246 -0.010268479 -0.017599517 -0.021092379 -0.018807283 -0.017896984 0.004342469 0.042694584 -0.025903758 -0.020617459 -0.029625425 -0.001676976 0.003098626 -0.030334588 0.020186555 -0.039636314 0.040904470 0.008316827 -0.004454126 -0.015824419 0.019843178 0.032272086 -0.028906895 -0.011077609 0.032533798 -0.008282293 -0.032541949 -0.014202497 0.001526601 -0.008250462 -0.030286087 -0.027687302 0.011949606 0.030323392 0.040204372 -0.004995239 0.017003851 -0.035099942 0.023549620 0.042229805 0.023013901 -0.017473519 0.036032353 -0.041855313 -0.005303153 -0.010950246 -0.044082206 -0.025211707 -0.032199249 0.011878110 -0.003676090 0.020297216 -0.009941678 0.036454886 0.005005792 0.036634397 0.035887800 -0.037478946 -0.029679520 0.026619332 0.041753411 -0.037720382 0.000646822 -0.016990937 0.041607175 0.036713149 0.032164637 0.023782812 -0.004145459 0.040779643 -0.020680668 0.002184260 -0.011628241 -0.032239903 -0.020943027 0.010715314 -0.003943054 -0.029276460 -0.005618465 0.007632599 -0.030920513 0.026690446 -0.037573352 0.000422822 -0.036151849 -0.039852295 -0.005489869 0.040109534 0.041778665 0.015883766 0.034254856 -0.024158688 0.024881007 0.026965749 -0.042236369 -0.033867378 0.019092860 0.004083809 -0.029914152 -0.034874626 0.031940419 0.004827832 -0.000097807 -0.042723168 0.038775660 -0.029214993 0.019692373 -0.005314059 0.001440100 0.021699794 -0.011772852 -0.012398496 0.035230882 -0.033865120 0.019666789 -0.011405221 -0.014766670 0.029584337 0.007461083 -0.041145440 0.039492935 -0.021929279 0.038205221 -0.013870085 0.043091044 0.013037353 -0.002134928 0.016870378 -0.001374309 -0.021919589 0.024174616 0.028665215 -0.005536589 0.041569911 0.002806590 -0.023372287 -0.024083583 0.029735127 -0.017902507 0.027913362 -0.042929936 0.001522360 -0.030535771 0.015676705 0.035891082 0.017390933 -0.015195134 -0.041459028 -0.020939207 -0.026066465 0.042201787 -0.023761576 0.017087828 0.035477571 0.015932789 -0.038780637 -0.005020274 -0.013116747 0.028474843 -0.004145590 -0.002331000 0.039313864 0.010516535 0.020486407 -0.014226510 0.028901838 0.006354285 -0.008877433 0.008516803 -0.034787212 0.001625019 0.020268025 -0.041382801 -0.023475062 0.027688598 0.001002236 -0.001505354 0.004509960 -0.019835213 0.036545169 -0.004381971 -0.016091535 0.023263358 -0.036784925 -0.008151770 0.004454258 -0.013715327 0.024052873 -0.037741784 -0.012740897 -0.018574717 0.040894333 0.017637238 -0.032967210 0.017128099 -0.000937230 0.040456500 0.024389196 -0.025810620 0.039394237 -0.007904368 -0.010063429 0.013215281 0.043907389 0.013334662 -0.042641345 -0.014107889 0.041153025 -0.015576364 -0.021261588 -0.035226595 -0.024395769 -0.024162952 0.010554762 0.017656701 0.042177819 0.029003242 0.000653013 0.023833737 0.025260825 -0.038118578 0.022300165 -0.030231792 0.034127481 -0.019221960 0.009169753 -0.000470243 0.020503594 0.006873972 -0.032058232 0.017902648 0.026069980 -0.023014750 -0.028669056 -0.030093329 -0.021502910 -0.005571824 0.003304418 -0.000311708 -0.011688881 0.027425060 0.002335547 -0.025661461 -0.011695988 -0.025983294 -0.015591115 -0.041688569 0.007722061 -0.034243271 0.017092781 0.030274766 -0.032877266 -0.023322653 -0.034919433 0.011794127 0.008551353 -0.022810716 0.026696851 0.018338231 -0.039931137 -0.002403940 -0.019025119 -0.007662834 0.024607526 -0.004753537 -0.030693458 0.031087710 -0.040395495 -0.015177739 0.017028611 0.039062746 0.042892326 -0.010382107 0.014747445 -0.038812712 -0.008599316 -0.013746885 0.012545568 -0.028956134 0.009548031 0.022832254 0.034442611 -0.007472684 0.040376075 -0.041754920 -0.012523488 0.016754668 0.011332555 0.020812698 -0.029326156 0.027211785 -0.041477319 -0.030302983 -0.003005565 -0.042934947 -0.042007837 -0.039232604 0.035531621 0.009694212 -0.014101092 -0.001816329 -0.038520463 -0.041739214 -0.030820094 -0.042755142 0.029075904 -0.015464911 -0.011929960 -0.038057618 0.007319485 -0.006630637 -0.030086849 0.028335562 0.037251696 -0.031500697 0.025039548 -0.007176112 -0.000417238 0.018811187 -0.008057381 0.037549287 0.027191166 -0.028687848 -0.026894916 -0.043787587 0.014149471 -0.033242274 -0.037042629 -0.028327012 -0.043693531 -0.035984799 0.039419651 0.024686219 0.039157186 -0.021437757 -0.018126305 -0.015506315 0.000863136 -0.031721052 0.006478956 -0.028323993 0.006983569 0.040481754 0.007464354 0.032237180 -0.031475492 -0.006236848 -0.027288951 -0.004903206 -0.017580304 -0.025092937 -0.042688947 -0.016386883 0.005918413 -0.007774660 -0.041160028 0.033197708 0.032769401 -0.026644722 0.004492570 0.029345328 -0.041968919 -0.039049976 0.024521817 -0.000875316 0.014073106 -0.018378364 0.008012869 0.029311378 -0.010811994 -0.014274959 -0.042081211 -0.006819529 0.028004326 -0.041766535 -0.003413853 0.032214668 -0.012613666 -0.016328348 -0.013330363 -0.017905582 0.005289434 -0.042550325 0.016888237 -0.011161497 -0.005626736 -0.002981742 0.024688391 -0.027451854 -0.040215980 -0.031967819 -0.032420427 -0.021516751 0.034905244 -0.034189280 -0.025978569 -0.036027253 -0.022201516 -0.001240671 -0.026948089 0.000467135 0.014934930 -0.007519129 0.019068014 0.010141132 0.042691916 -0.002256274 0.038305711 0.033079017 0.021126961 0.025010968 -0.029596917 -0.029598856 0.018872825 0.016046964 0.039882399 -0.005754114 -0.008124168 0.030296735 0.001427271 0.041490480 -0.022542268 -0.014500196 0.001909542 0.023570715 -0.038743604 -0.012370658 0.032095540 0.009202174 0.031244338 -0.014970107 -0.027859209 -0.030171722 -0.024847310 -0.033212263 0.021901278 0.011878752 -0.028276511 0.040508237 0.012582040 0.016447181 -0.018621352 0.030597299 -0.031174075 0.032214325 -0.024015732 0.018770857 -0.015987858 0.028711591 -0.037064381 -0.008616923 -0.011928728 -0.026426880 -0.021707918 -0.012401110 0.004582453 0.031369288 -0.007262308 0.043319158 -0.021030687 -0.022751817 -0.002305285 -0.008000625 0.014037513 0.040834799 0.015131646 -0.036980335 -0.015099324 -0.008779810 -0.040243059 0.013664319 0.038577348 0.021949198 -0.000875106 -0.003364562 -0.020695852 -0.004909686 0.038759921 -0.022721212 0.007070434 -0.032426216 -0.012085414
0.002559141 -0.033370990 0.012007510 -0.037950587 -0.018053496 0.030754639 0.041456524 -0.003455283 -0.031587426 -0.036286645 -0.010860811 -0.022552641 0.035130441 -0.031504653 0.026601952 0.008402596 -0.013441747 0.036024760 0.024593581 -0.001545709 -0.029953839 -0.013007476 0.014249407 0.038292930 -0.014913678 -0.018366354 -0.043179952 0.027163681 0.043134660 0.030426748 -0.024625503 0.031659737 -0.013398278 0.023105556 0.025841013 -0.036031276 0.010936659 0.017643323 -0.026568113 0.040859684 0.034501303 0.036935944 -0.000398678 -0.023645587 -0.024151193 0.015620317 -0.008779994 0.035126321 0.037012823 0.003410423 -0.036181100 0.017542008 0.039549150 -0.011100226 -0.023129063 -0.010338200 0.006331711 -0.032790486 0.023601312 0.018890643 -0.016896835 -0.016371505 -0.020969758 0.034546424 0.026211282 0.012561293 -0.001982161 0.011040304 0.042638544 0.013992659 -0.022040972 0.017095642 -0.017538046 -0.001569296 -0.028464464 -0.001293007 0.002305564 -0.026802771 0.028412445 0.040817242 -0.036965620 0.012805903 -0.030529501 -0.008783930 0.021169730 -0.000775792 0.013392250 -0.014318875 0.042175561 -0.020748662 0.008271619 0.004536418 0.030104065 0.004513011 0.026645517 0.011386772 0.028179003 0.000558562 0.014746819 0.043594014 -0.014398275 -0.017983865 0.032080967 0.016899811 -0.041715261 0.015718224 -0.043343622 -0.023994021 0.017295122 0.023280386 -0.009978820 0.037408873 0.043919459 0.034461498 -0.040590465 -0.016075088 0.002688811 0.035919789 -0.007413462 0.009232130 0.023261245 -0.023122361 -0.026763791 0.043705121 -0.000986131 0.031271260 -0.043093383 -0.016868865 0.031010460 -0.004278622 0.014885708 -0.037022345 0.043015368 -0.022057779 -0.002234652 -0.028947024 -0.019607782 -0.037887096 -0.038682625 -0.009028682 -0.019493582 0.032646168 -0.000213821 0.034365233 -0.007402061 0.009376014 0.042444199 -0.034197461 -0.019145148 0.037781671 -0.010132265 -0.011902107 0.003546752 -0.023725294 0.003178352 -0.018368382 0.014020138 -0.009381341 -0.014829969 -0.016648225 0.011482018 0.022178398 -0.040404081 -0.030822333 -0.042413928 0.020629670 0.033144575 -0.042461827 0.011488740 0.008962754 -0.023716031 0.009548237 0.034077108 0.043348711 0.019110681 -0.008763030 -0.025145631 -0.016831733 0.000362479 -0.003245455 0.032247685 -0.039938688 0.003944608 -0.014055900 0.003685420 0.042498954 0.001292876 -0.007664947 -0.014979016 -0.044103045 -0.040040374 0.019256230 -0.026987923 0.025091104 -0.012529594 0.015944121 0.032261543 0.006465042 0.015174467 0.037347417 -0.013887360 0.032501284 -0.037168439 0.040468428 -0.014496319 -0.001663373 0.024792394 0.003244586 0.038643997 -0.019424107 -0.024358518 0.039452303 -0.026675230 0.030413756 0.042564165 0.029916428 -0.016708676 -0.000653292 -0.039827809 -0.024064381 -0.009147246 -0.029198989 0.025496198 0.023157395 -0.012646736 -0.006950389 0.042689838 -0.002722112 0.037536938 0.040937625 -0.015502290 -0.042209089 0.041222867 -0.023761118 0.042261746 -0.028213412 0.008015624 0.013066851 -0.010439532 0.034463245 -0.040069699 -0.018364346 -0.006956737 0.033847589 0.020468511 0.028428070 0.019022943 0.039749511 -0.011006207 -0.013643261 -0.006068693 0.017385432 -0.012959971 0.016231684 0.012116686 0.010391432 0.036006812 0.007039008 0.029326513 -0.012321410 -0.039714228 0.027009707 0.018328752 0.037126400 0.016886283 0.000883224 -0.031899523 -0.041899927 0.008869398 0.036053784 -0.003435621 -0.014417720 0.022109477 -0.021396374 0.015594508 -0.035862688 -0.040051870 -0.025782807 -0.007566908 0.014902229 0.022361021 -0.027972683 -0.009076529 0.014551626 -0.009746211 0.000664129 0.028611567 -0.012749290 0.022784838 0.035909556 0.014732752 -0.007852811 -0.027982920 -0.029210020 -0.008586940 0.013811406 0.024170574 -0.002131940 0.035613675 -0.017504092 0.008812879 -0.022626124 0.011875417 0.037718374 0.015485605 0.002961132 -0.016264731 -0.036259264 -0.030242503 -0.037909389 0.031410791 -0.018436737 -0.006612588 -0.039602686 -0.012323090 0.037590019 0.008125106 -0.007891465 0.023034390 0.034071632 0.034390442 -0.032699116 0.003173004 -0.036290932 -0.030470718 0.033936005 -0.035210345 -0.021673573 0.021194216 0.042999752 -0.042930931 -0.028517626 -0.017330015 0.034235369 0.025755091 0.027551699 0.028317899 -0.011060171 0.032585971 -0.001241873 0.004152202 -0.011719953 0.018747650 0.019735456 -0.004684601 0.038905866 -0.011445682 0.011185974 0.040139787 0.024899704 -0.016092930 -0.020019125 0.008529274 -0.000334941 0.003110337 0.028468305 0.015448058 -0.024786029 -0.036083013 0.041781951 -0.004865337 -0.017410900 -0.032458894 0.042438731 0.022300629 -0.028016258 -0.038169034 0.038392432 0.019027436 -0.006491679 -0.036729161 0.026786361 -0.029999930 0.021717142 -0.041974720 -0.039403945 -0.042396571 0.040063899 0.040160961 -0.037710164 0.034163613 -0.026862383 -0.041071977 0.021268912 0.025052007 0.025050486 0.007755958 0.042413488 -0.038071349 0.020390783 -0.014004465 0.002182675 0.030480189 -0.031647656 0.019367309 -0.008827331 0.028585695 -0.001160524 0.021926371 0.042403955 -0.015779532 -0.043533321 0.041687321 -0.024331506 0.010099665 0.027486045 -0.006863108 0.034539256 0.028640216 -0.008897536 0.011587175 0.003349194 0.043234669 0.030596916 -0.029435163 0.004258191 0.023836540 0.033786621 0.015089309 0.018778855 -0.008159730 0.000958567 -0.030586990 0.036382455 0.034800224 -0.024335332 -0.037836578 0.034462072 -0.039169785 0.028342687 -0.043046884 -0.022594409 -0.018711573 0.041533910 -0.007478321 0.038121313 0.012840274 0.042814560 0.029271908 0.032547876 0.038530655 -0.013057220 -0.012150983 0.014239744 0.038932513 -0.016263811 -0.034763772 -0.034571391 -0.020417714 0.007051853 -0.005114172 -0.011785686 -0.020660685 0.011495095 -0.036403496 0.043479230 -0.006844279 0.008246100 0.014558564 -0.017195566 0.034877695 -0.000327549 0.003625430 -0.042071130 0.005470324 0.015164172 0.006158350 -0.004379837 0.033370730 0.034940112 0.030425999 -0.007670416 0.007634306 -0.030857183 -0.033085622 -0.007724000 0.004939795 -0.025741093 -0.036888603 0.020104710 0.016157959 -0.029199220 0.029408427 -0.033033513 0.033431116 0.023477886 -0.014936173 0.042075381 -0.024813889 -0.020187508 0.035224508 -0.011388025 -0.017849516 0.006838279 -0.007467736 0.027841939 0.036081385 0.019658364 0.009557788 0.011102318 0.001150614 0.005190026 0.000839207 0.030135766 0.024714205 -0.004443432 0.016688881 0.002444185 0.015617467 0.036283463 -0.030068625 0.006280391
-0.009194203 -0.043204930 -0.042944524 -0.005786736 0.031630676 -0.029141000 0.014395682 0.025471326 -0.032212269 0.018979859 0.008340935 -0.040234908 -0.000849707 -0.041489858 0.038639080 0.020712994 0.016933629 0.033929002 0.033798132 0.043873809 0.018233722 -0.031907238 0.041049145 0.012276476 -0.017421337 -0.016447524 0.041354086 0.009817381 0.032122303 0.003446685 0.040823646 -0.032338280 0.010532940 0.010545542 -0.000509703 0.039314002 0.008874714 0.002394036 0.030163951 -0.003488958 -0.002855423 -0.036436297 -0.000289549 -0.020628743 0.025587635 0.038446181 -0.041230086 -0.025597924 0.042548809 -0.018863060 0.039303489 0.043512009 -0.011083341 -0.035774820 0.022097925 0.020089468 0.038405623 0.006382977 0.024030589 -0.037893824 0.006090657 0.010401442 0.027699029 -0.023657121 -0.005281395 -0.026342638 -0.029743209 0.018397620 0.006739175 0.017560368 -0.001006351 -0.001085666 -0.001696911 0.023872033 -0.030579783 0.009526694 0.024233157 0.025632201 -0.021207867 0.034223191 -0.029453728 0.023044538 0.036150921 0.001418031 0.013539311 -0.041866064 -0.017481428 -0.017363532 -0.041146293 -0.009358708 0.030852804 -0.004219595 0.043671682 -0.039782487 0.017625300 0.038215164 0.042954914 -0.017143568 -0.039903507 -0.016243273 0.032761510 0.003872152 0.042240795 -0.032269623 -0.027673598 0.022522828 0.015153266 -0.028712124 0.041114565 -0.017044043 -0.036729746 0.012281886 -0.024759082 -0.021031056 -0.024688518 0.012020323 0.020704692 0.029723480 -0.025008027 -0.010328659 0.041251834 -0.022702226 -0.015974592 -0.008497890 -0.039133117 -0.032665063 0.039372154 0.008157970 0.008257321 0.017519891 0.026876597 0.029685806 0.031653482 0.017837305 0.033316541 0.028875427 -0.007389728 0.003980833 -0.023149578 -0.033254564 0.041917369 -0.032909818 -0.027628824 -0.042689417 -0.033852976 0.010046028 0.021212455 -0.036837250 0.003516838 -0.032626495 0.008367392 0.026397265 -0.016956352 -0.019402264 0.028785849 -0.028481776 -0.009032154 -0.036795530 0.030968398 0.014095381 -0.017556876 0.031450018 0.041844845 0.018039288 -0.031209141 -0.009636697 0.035549745 0.032116763 -0.014529319 0.029244602 -0.028910188 0.011855007 0.038957421 0.008021251 -0.035117287 0.013255009 0.024630154 0.030736020 -0.029070968 -0.007933138 -0.002300117 -0.007726702 -0.009808009 -0.015924249 0.015219959 0.021001142 -0.008583822 0.034728698 -0.000237497 0.010773472 0.011060434 -0.015047584 -0.001940040 -0.004935717 0.016713237 -0.023743169 -0.020287054 -0.042658638 -0.019225327 0.014086683 0.035721362 -0.043569446 -0.015898850 0.027804555 -0.023899117 0.029839141 0.001783549 -0.041551620 0.007472700 -0.026489904 0.008589365 -0.039598439 0.041527580 -0.018856125 0.028264720 -0.027805945 -0.037039235 0.017387440 0.026569515 -0.000397503 -0.037375260 -0.012122556 -0.030625479 0.012518767 0.007156066 0.030711507 0.044115555 -0.020429756 0.034916993 0.030704590 0.006793371 -0.043329772 -0.030652042 0.019256789 0.032839771 0.023618672 0.004165399 -0.026876597 -0.038833722 -0.025255466 0.000329309 0.005825274 0.033847228 -0.031874772 0.023114244 0.037437253 -0.039944906 -0.023547756 -0.012333732 0.008479277 0.039586790 0.009019173 0.029902531 0.035758805 0.034694657 -0.040306367 -0.028873499 -0.002889577 -0.000161264 0.003725639 0.037127074 0.040028099 -0.012930374 -0.020430837 0.003579569 0.005591854 0.027255408 0.015701007 0.013771414 0.014508594 0.032903850 0.026320333 -0.004346999 -0.030837668 0.029799944 -0.003603102 -0.031661246 -0.007365167 0.032518052 -0.020314360 -0.004261347 0.014908999 0.031779025 -0.006614300 -0.031744193 -0.018474538 -0.014265591 0.004821141 -0.030007577 0.038940556 0.011651227 -0.031836171 0.024134470 0.002230264 0.043239996 -0.000888087 -0.000582812 -0.042652782 -0.036503952 0.000154552 0.037504792 -0.027329754 0.008652880 -0.030456292 -0.034252979 -0.016250180 -0.029587103 -0.036565874 -0.013565137 -0.006038384 0.022002898 0.020318763 -0.000580093 -0.010093939 -0.009388938 -0.036300391 0.030721249 0.039642576 -0.040631205 -0.042197261 -0.041408721 -0.007127838 -0.000106716 -0.028856987 0.024420684 0.002910445 -0.022369824 -0.042753529 0.034414530 0.043833029 0.004103433 -0.021165941 0.028097123 0.026045552 -0.006341710 0.041443650 -0.032656889 -0.005064528 0.037452843 -0.027345149 -0.013632240 -0.018789427 -0.018091671 0.038928404 0.027239472 -0.040177733 -0.027030159 -0.000576701 -0.014369673 -0.024338003 -0.043440904 0.032594301 0.024743734 0.012823194 -0.009945723 -0.042838339 -0.002766782 0.016895317 -0.012825986 0.034787107 0.010100282 -0.002192901 0.017465958 0.023030855 -0.032414746 0.013439481 -0.040167753 -0.009260547 -0.014328448 0.033744577 -0.042568270 0.015701523 -0.040270574 0.019158702 0.010823363 -0.017390400 0.013053658 0.042416286 0.026905742 -0.040325750 -0.011453248 0.040087879 0.006837373 0.005448460 0.003153143 -0.015538026 -0.011560796 0.002932989 0.033267282 -0.012456053 -0.011565311 0.008412790 -0.016175313 0.038548812 0.033245675 0.001856642 -0.028579062 0.012368483 0.037478920 0.014559339 0.018524298 -0.023392592 -0.043535985 -0.016618233 0.001412357 0.039265227 0.009227515 -0.008101683 -0.011104910 -0.008450106 -0.023764495 -0.018501934 0.008210343 0.029928818 0.037537068 0.017019061 -0.030536929 0.040855430 0.042674296 -0.013133395 0.001523714 0.040004466 -0.015540865 0.020951014 0.007350858 0.024634985 0.015397850 0.043846615 0.037454434 -0.030155327 0.026595736 -0.008743796 -0.023123631 0.007412461 -0.006015383 -0.028800095 -0.039009288 -0.024629906 0.004550063 0.026933417 0.026041916 0.011785497 0.041923806 -0.037851494 -0.027817009 0.019023791 -0.040254224 0.041680455 0.006093476 -0.016287744 0.039434083 0.020605315 0.037167814 0.033294871 -0.007691552 0.040118758 0.005836337 0.004279396 0.015356536 -0.034598563 -0.026424730 0.041818745 -0.028921036 0.023879714 0.026709596 -0.035879049 -0.005064987 -0.000472867 0.032787338 -0.012093696 0.039916195 -0.037084054 0.018462626 0.024130108 -0.015920777 -0.014533830 -0.028149242 0.011724942 0.014810081 -0.015533753 0.035739779 -0.006771671 -0.006886152 0.034516562 0.007743393 0.023657616 0.026049333 -0.028928027 -0.000559773 0.039030422 -0.027327674 0.005788116 0.032828633 0.004879630 -0.009909504 0.015981289 -0.036555104 0.036309492 0.034717366 -0.012375816 -0.015987575 -0.008644671 0.043971974 -0.016964391 0.013233637 -0.041957609 0.013358496 0.026777510 0.014304762 -0.002100004 0.003225188 0.038271170
0.019205924 -0.010212123 -0.035497043 0.032209147 -0.016453745 0.027554108 -0.008882006 0.000733497 -0.034853090 -0.016836343 0.003646424 -0.042709265 -0.009094731 0.025679000 0.031061674 0.032553092 -0.013477577 0.003478838 -0.035463702 0.022893103 0.007824852 0.036991693 -0.006875194 0.042266991 0.021895308 0.037715834 -0.002876143 -0.034675919 -0.034659196 -0.041670192 0.007345753 -0.034175131 -0.014436428 0.022457037 0.040176440 -0.011084004 0.030597890 -0.003348873 -0.008843957 -0.005230081 -0.020039046 0.012095808 -0.000239231 -0.021532867 0.028110072 -0.019743238 -0.029931763 0.015341801 -0.002713820 -0.024328409 -0.036077090 -0.013241038 -0.033838008 0.024037031 -0.005504800 0.022762533 0.021512225 0.003559686 -0.006804456 -0.022792932 0.009949443 -0.038428925 -0.021535423 0.035243340 -0.008577963 0.035652462 0.026170632 -0.009316387 -0.035571586 0.035492029 0.003723005 0.041765165 -0.039969746 0.009107223 -0.038077254 -0.005365700 -0.038736731 -0.040224500 0.002229447 0.043570030 0.003386299 -0.004094440 0.041195214 0.004045444 -0.024676511 0.028102506 0.031534694 0.038320698 0.034755141 0.041081328 -0.016390845 0.006354607 -0.016126584 -0.005882672 0.034940433 -0.034919176 0.024150534 -0.025534632 0.000242355 -0.005261844 -0.019906282 0.003768661 -0.022386925 0.040028643 -0.015998848 0.027972588 -0.010526960 -0.034795396 0.034307104 -0.012203082 -0.018308222 0.003313211 -0.000450260 0.012470768 -0.010722728 -0.012750871 0.024180168 0.020256229 0.039062925 0.004877334 -0.011472635 -0.009415348 -0.009006007 -0.013966559 -0.015082692 -0.012451828 0.013328056 0.017486470 0.033637326 -0.043006733 0.034270983 -0.008903875 -0.043185879 0.028891733 -0.025056174 -0.019915091 0.014667456 0.007239106 0.030125966 -0.030836815 0.024009056 0.023035107 0.027355338 -0.014709682 0.007505632 0.013008340 0.041669615 -0.026855646 -0.040578671 -0.039969187 0.005853191 -0.033588193 -0.008181088 -0.020659253 0.008005757 -0.031316780 0.027253510 -0.043415800 -0.024212226 0.009119482 -0.043468796 0.010893042 -0.016533749 -0.022320366 0.031679709 -0.014270017 0.010447382 -0.017064596 0.020674193 0.040246129 0.042423651 -0.026733030 -0.043930881 -0.030904112 0.012449799 0.017741773 0.023211392 0.019191004 0.042993009 -0.033513531 -0.034647360 -0.013839470 0.034302171 -0.033935431 0.033134360 0.007353550 0.027337098 0.043785281 0.043015420 0.042426698 -0.010845301 -0.018858412 0.018761996 0.037687726 0.001100344 -0.010461464 -0.007147911 -0.015774459 0.021220421 -0.043954596 0.037605684 -0.001622949 -0.026790876 -0.015764207 -0.027128629 -0.038401209 0.004446919 -0.010036866 -0.019838369 -0.007526563 -0.006093296 0.019470405 -0.035749156 -0.001036212 -0.000603137 -0.036127985 0.040738117 -0.020950781 0.035062775 0.033874169 0.001196912 0.032906756 -0.033256024 -0.004857935 -0.036455385 -0.026903739 0.013962850 0.032931466 -0.026226023 -0.017857077 -0.024779733 -0.003839667 -0.036708586 -0.034979913 -0.009614718 0.042461984 0.007613117 -0.018396093 0.029544234 0.032617789 0.030204106 0.000411337 -0.004787840 0.028705459 0.023756713 0.033509605 0.031829346 -0.012544477 0.037431754 0.008646594 0.043998964 0.043965142 0.037064545 0.029418405 0.034700133 -0.020772021 -0.017204575 -0.010299488 -0.022619849 0.032469846 0.004131403 -0.011193202 -0.019800462 -0.039346684 0.003170976 0.038848352 0.029058944 0.035027727 0.030195134 0.018596880 -0.001272629 -0.032693740 0.032493360 -0.031098779 -0.026575474 0.017733734 0.024271190 -0.022998113 0.027968764 -0.041359920 0.010531518 0.019510260 0.008208841 -0.024868369 -0.029846290 0.035321929 0.009736228 -0.018986100 0.042567451 -0.009224723 -0.008172379 0.011375292 0.036793888 -0.019673036 0.000222804 -0.019840777 -0.020017382 -0.006024218 -0.000045529 0.023696896 -0.033010364 0.025646098 0.034527615 -0.005038171 -0.003958822 0.010898495 -0.040460635 0.032518905 -0.007731070 0.001777380 0.020952115 0.018402172 -0.020448813 -0.032461338 -0.042634409 -0.036903426 -0.009290424 -0.034308966 -0.004462413 -0.023348458 0.025041902 0.030229246 0.037388507 -0.028980441 -0.031188367 0.015330832 -0.010092247 0.033516023 -0.040543601 0.040982869 -0.030653892 -0.035439983 -0.004686424 -0.019578243 -0.027859647 0.025230816 0.034132160 0.024605498 0.005394375 -0.006359585 -0.024112960 0.042122509 -0.024070570 -0.038748443 0.037495323 -0.003564196 0.029695010 -0.014668584 0.034421563 -0.031164480 0.026595330 0.034396868 -0.000617862 0.029308001 0.001568258 -0.040463254 0.019361218 -0.034356542 0.001388870 -0.039753791 -0.021041630 -0.013168203 -0.017174656 -0.043533757 -0.021950636 -0.040949199 -0.036946986 -0.044091560 -0.025458792 -0.009903203 0.039813451 -0.031091187 -0.033606853 -0.035976820 0.041345336 -0.005651776 -0.011758286 0.024231324 -0.026112085 -0.011679787 0.040507261 0.023538435 -0.034282830 -0.012146452 0.004339856 0.015967622 -0.020332340 0.030944385 0.000691124 -0.038211286 0.011842237 -0.042901844 0.003076773 -0.043709293 -0.012606154 -0.010270961 -0.039698198 -0.012500391 0.001484075 -0.024899662 0.006271746 0.023337357 0.005215825 -0.043379199 -0.000139648 -0.020711346 0.012597156 -0.035459828 -0.030570641 -0.001467127 0.025484255 -0.011806639 -0.002330457 -0.004376755 -0.034579612 -0.003496534 -0.001243833 0.007315160 0.019780263 0.013161480 0.024645807 -0.008425155 -0.019091448 0.037532035 0.035237066 0.024095217 0.032193858 0.021645050 0.039066486 0.038444448 -0.035932623 -0.041647159 -0.022928955 0.033790119 0.039903913 0.002882944 -0.032676134 -0.020771194 0.021009114 0.041166671 0.008559904 -0.029065266 0.041931350 0.038806830 -0.019387756 -0.023879746 0.025407616 -0.031936135 0.036889702 -0.008921302 -0.000601493 -0.023610028 -0.043690749 0.009998723 -0.015745740 -0.025913021 0.035227705 0.008195123 -0.011849876 -0.040755227 -0.024878567 -0.014426108 0.018578131 -0.040279321 0.025523853 0.040199693 0.013675777 -0.043879241 0.005765736 -0.017834686 0.013979730 -0.001651977 0.021623434 -0.003595627 0.007971460 0.017607389 -0.032743331 0.007370161 0.039382126 0.030859042 0.002750893 -0.007771594 0.018273724 -0.038862966 -0.013310838 0.038332634 0.005687322 -0.000571748 -0.034785848 -0.028643461 0.006111909 -0.033220384 -0.012779709 -0.021771280 0.013619601 0.006751430 -0.042670913 0.014586523 -0.003984579 -0.021410326 0.032556422 -0.029094702 -0.040310919 0.004818254 -0.023986878 -0.017947003 -0.038649622 -0.010983426 0.035111863 -0.040097672 -0.029884228 -0.009671158
-0.034975942 0.008272552 -0.008782207 0.033431858 -0.043921761 0.001479528 0.019488176 0.005737045 -0.012035454 0.041445956 -0.034304705 0.041162089 0.012031793 0.021044027 0.031155361 0.004398413 0.004686166 -0.008961168 -0.040091183 0.018616874 0.033053212 0.018478479 -0.006895788 -0.039560869 -0.000730484 0.011493092 -0.034591310 0.037580047 -0.001163785 0.012070520 0.038987435 0.019185476 -0.023947150 0.016297711 0.025985640 0.022049250 -0.020763714 0.004488903 -0.031754445 -0.004965188 -0.030667210 0.025264211 0.043240536 -0.042802077 -0.020648031 -0.018693481 -0.030945739 0.040214188 -0.034137350 -0.023105044 -0.036713529 -0.000146624 -0.032712102 -0.029769698 0.043946292 0.019748585 0.018749120 0.031342350 0.007636303 0.007171476 -0.033193517 0.012415577 -0.034527231 -0.000192284 -0.023848973 -0.025050048 -0.025875656 -0.021393772 -0.026283069 -0.024169225 -0.016098615 -0.040380631 0.035374980 0.014851006 -0.043958068 -0.044172373 -0.022256950 0.017053163 0.040451076 -0.006884177 0.026295349 -0.023837013 -0.009172971 -0.006851191 -0.043026958 0.000230564 0.011696709 0.026936799 -0.034195092 -0.013306671 0.001667234 0.004688073 0.007453238 -0.032828853 0.034300074 -0.039935756 -0.015342443 0.022023130 -0.011021996 -0.021294437 -0.043599192 0.030438507 -0.000992326 0.021346794 0.007050673 -0.032866128 -0.015616287 0.031511851 -0.021642186 -0.020362580 0.024235202 -0.019153735 0.007214439 -0.021484829 0.013603701 0.004495641 -0.035079468 -0.033519905 0.016250571 -0.014473381 0.024208780 0.002299859 -0.015113122 -0.007690330 -0.020135166 0.021807801 0.035055097 -0.001376490 -0.028490933 0.031769905 0.035960991 0.030127715 -0.000799879 0.010863808 0.002247870 -0.016786009 -0.043760013 -0.005401793 0.019114144 0.025779014 0.010511113 0.020152820 0.027663631 -0.008543809 0.028858704 -0.000928269 -0.015651511 -0.017161692 -0.025756503 -0.034038279 0.010124052 0.040837687 0.006282530 0.005973020 -0.016579116 -0.017421141 -0.013851498 0.015297246 0.007619360 -0.016237695 0.008659634 -0.007721445 -0.003010333 0.031336557 -0.018415628 0.041235723 -0.024172761 0.040944368 0.016602676 0.017745245 -0.010109370 -0.012043794 -0.032326460 -0.042381193 0.030942641 0.042869747 0.012673104 -0.017286651 0.009706208 -0.001655128 -0.038201887 -0.035394140 0.015344145 -0.012903647 -0.010511445 -0.026645690 0.019490330 -0.022301631 -0.014113784 0.023645198 0.042485107 0.039398875 0.017397154 0.001569896 0.033215493 0.039074033 0.019840633 0.012991303 0.010656746 0.004497095 0.029169859 0.012501535 -0.037261948 -0.026105948 -0.040133893 -0.013282074 0.002258781 -0.018736998 -0.040644292 -0.028742205 0.018808652 -0.003113124 -0.007409184 0.007155091 -0.009335258 -0.024084637 -0.020280210 -0.018013546 -0.041366942 -0.040757012 -0.016744422 0.016584337 0.043220051 -0.001196159 0.030180130 0.014613034 -0.035198234 -0.022109773 -0.012126048 -0.036425348 0.006189507 0.010497563 -0.034450904 -0.009301520 -0.038982000 0.044009294 0.026139421 -0.016671034 0.037993018 -0.027661534 0.037180088 -0.017007750 0.012912630 0.030710453 0.020575633 0.010709599 -0.005096181 0.000325337 0.037735455 -0.014442802 -0.014338863 0.005647593 -0.021443199 -0.016708717 0.003453386 0.033237368 0.014409428 -0.027307890 0.026685540 -0.016275901 0.011397293 0.002602526 0.031562872 -0.009871108 -0.017957039 -0.008803855 0.000401659 -0.020855889 0.030375181 -0.023694204 0.006991330 -0.033931095 -0.005487562 -0.009522500 -0.017680323 0.023102921 -0.039461441 0.004635384 -0.004134248 -0.022984078 0.034368288 0.027743578 0.013355056 0.000859727 0.024494980 -0.019412590 -0.035962272 0.042408727 -0.016543733 0.008864947 0.000882592 0.037205655 0.043959167 -0.029733568 -0.000471344 -0.035828978 0.028543958 0.042195890 -0.016893020 0.008009866 -0.009730696 -0.010706495 0.035091549 -0.041061834 -0.006051729 -0.000181237 -0.038977861 0.018172298 0.029471505 -0.035106000 0.017099530 -0.002859337 0.041405037 -0.041647229 0.037520319 -0.016418215 0.037254822 -0.022543628 0.007485422 0.010309509 0.027417436 0.020714195 0.024698675 -0.009303085 -0.034965083 0.000513170 0.040310688 0.038228143 -0.026003519 0.030401686 0.019876596 -0.007996990 0.024123207 -0.001843113 0.005381288 -0.028958552 -0.005442433 0.043262392 0.027378239 -0.035716418 -0.002503091 0.028151071 -0.018912423 -0.005535530 0.022044055 0.037143052 0.040096488 -0.031926934 -0.041642852 0.031232337 -0.003423072 0.039900653 0.031369336 -0.017253233 0.012661087 0.014868543 -0.015817970 0.039706957 0.003626378 -0.014444320 -0.040366985 0.035369571 -0.043822948 0.033638220 -0.015478198 -0.008090646 0.005970011 0.043443404 -0.029092656 -0.031386841 0.026564347 -0.021464484 -0.016263604 0.025548540 -0.018319128 0.026323583 -0.017236343 0.033994261 0.044025838 0.006112842 -0.014712685 0.024860233 0.012352651 0.000191837 0.039427955 -0.002556238 0.015534443 -0.013161986 -0.008018037 -0.001902330 0.002973618 0.019327005 0.033337757 0.027092552 -0.018588282 0.039612774 0.029851405 0.015931588 0.004823075 -0.025011346 -0.026377041 0.000221566 -0.032872565 0.015503586 -0.040116720 -0.039408505 -0.019850196 0.025428820 0.034603991 -0.037146334 -0.027910054 0.009804258 -0.008054842 -0.036217351 0.012277082 -0.036786076 0.002765913 0.018015396 0.040764865 -0.037716951 0.032999638 0.006149604 0.038477942 0.043502364 -0.011022233 -0.006883034 -0.010683446 0.034758236 -0.019137887 0.029186144 0.018176286 0.041554183 0.031302895 0.035866626 -0.036325615 -0.023261346 -0.031356081 0.021944046 0.008990539 0.016845278 0.016587371 0.001870551 0.016865103 -0.023964493 0.028712640 -0.038047738 -0.040608179 0.015008930 0.041490328 -0.016167952 0.041629855 -0.015687641 -0.033583615 -0.006871222 0.024441358 -0.023003470 0.041444585 -0.019763736 -0.019561874 -0.018405886 -0.033660188 0.041225564 -0.024968656 -0.019883523 -0.013390802 0.037202526 0.020617168 0.016271787 -0.011621408 0.022334663 0.008016973 0.035211448 0.009810759 0.032436904 0.030499451 0.007722962 -0.042349897 0.008992167 -0.033344600 0.007592997 -0.004949167 0.035163783 -0.031722277 -0.036946785 0.019697635 0.029179785 -0.009618601 0.011961607 0.035468344 0.004396127 -0.012352256 0.025553286 0.039830431 -0.007501628 0.029985944 0.003687296 -0.009253688 -0.003857032 -0.042902667 0.021201061 -0.024054686 -0.037638441 -0.006127177 -0.018006181 -0.028129291 -0.009304090 -0.004664244 0.013432016 0.006057208 -0.005904779 0.009728467 -0.028595187
0.037395127 0.021640394 0.027958386 -0.039418671 0.030166011 0.007811892 -0.042707760 0.041963730 -0.000924839 0.008475705 0.036561929 0.028500024 0.039318431 -0.041249264 0.043691929 0.010764943 0.000573956 -0.034724202 -0.023765648 0.042904638 0.032859042 0.034449928 -0.003713985 -0.024617337 0.010319081 -0.021058710 -0.028767901 0.014273220 0.034664039 -0.033903278 -0.039064180 0.005971086 -0.015571190 -0.023632264 -0.009045661 -0.002555732 -0.012256699 0.032727610 0.024489716 0.013900236 -0.014171825 -0.003939255 0.028651970 0.003664310 -0.042635445 0.004199180 0.023141470 -0.011336001 -0.008250272 -0.005995594 0.027158981 0.036492478 -0.034682062 0.029117482 0.018097267 0.015470723 -0.025104681 -0.025230531 0.043883357 0.011309443 -0.009835593 -0.008951200 0.029588526 -0.011009109 0.029858677 -0.012530173 0.010446344 0.011642292 -0.022637719 0.001092404 0.008827141 -0.043222088 -0.008703635 0.004207615 0.036399856 0.009786477 -0.037563294 -0.012953090 0.043755405 -0.005751027 0.033340659 0.005070540 0.028999018 -0.018991807 0.043416038 0.009327066 -0.009047901 0.033981182 0.021793740 -0.029706063 -0.003177672 0.031675149 0.011010516 -0.013976833 -0.028773805 -0.030947424 0.024566671 0.019997783 -0.039161813 -0.009074264 0.011185199 -0.039101522 0.038086440 -0.004713266 -0.017952813 0.004920898 0.015966043 0.009820590 0.041910827 0.024878968 -0.004280444 0.007523154 0.010709034 -0.017528389 -0.037869342 -0.004701065 -0.016833609 -0.041747224 0.015760919 -0.018542953 0.042312015 0.015805643 0.018820681 0.012880999 0.017235726 0.028296845 0.032466177 -0.002414946 -0.012528435 0.011973703 -0.019940648 -0.002245595 0.012903826 0.019747347 -0.042747825 0.017112695 -0.017111087 -0.031128561 -0.018821090 -0.000953493 0.021764347 -0.039360605 0.012004375 0.039818298 -0.024968471 0.010560509 -0.017766841 0.010865257 0.019136792 -0.027224109 0.010575371 0.043681309 0.003100817 -0.031370267 0.000552793 0.009746016 0.013608084 -0.003185954 -0.009471345 -0.021973880 0.028558210 -0.024965275 -0.015042642 0.029322822 -0.020768639 -0.005768323 -0.017620165 -0.039172787 0.021303983 -0.019623857 -0.020394048 -0.009738177 0.012108547 0.038804375 0.039090410 0.000603696 -0.037903849 0.003261128 0.001021213 0.037323836 -0.009134560 -0.041525997 0.016055783 -0.009692268 0.015420757 0.013297620 0.015753401 0.024446098 -0.030982491 -0.035997607 0.041377578 0.040394496 -0.017445687 0.042315431 0.008724619 -0.011612673 -0.023934847 -0.023518605 0.035461087 -0.027164465 -0.018127423 0.043995220 -0.021589253 0.043483842 0.019736990 0.021924807 0.010064309 -0.007911322 0.019703809 0.013163398 -0.024111148 -0.036407117 -0.035918172 -0.005348625 0.012639555 -0.028011680 0.008142197 0.025458293 0.025993235 -0.016514368 0.010130875 -0.039184377 0.031794809 -0.035319895 0.002452894 -0.013883366 -0.036643121 -0.038307451 -0.028391160 -0.032083508 0.033725835 -0.006788572 -0.029505434 0.000159405 -0.019950615 -0.006399635 0.038006932 -0.039003488 -0.038392305 0.010830923 0.030803740 -0.041987631 0.013884573 0.043785680 -0.007100174 -0.026077457 0.021681102 0.024962535 -0.004587990 -0.036044378 0.001713949 -0.028620116 -0.037728731 0.027583985 0.030352579 0.017743038 -0.036060821 0.037479453 0.032376409 0.037982371 -0.002937477 -0.008184792 -0.039635696 0.032612499 -0.002317355 -0.044189341 0.043211404 -0.005714101 0.026580494 -0.006523289 -0.006952528 0.038875915 0.036693458 -0.020626461 0.001380789 0.030018782 0.002123974 -0.007964147 0.039484084 0.039353438 -0.011846488 0.033460788 -0.004377135 0.001313217 0.035451330 -0.003428809 -0.004396175 -0.009603243 -0.036898438 0.034219500 -0.034672137 -0.033921394 0.005981538 -0.004654155 0.001732346 0.003477046 0.043801516 -0.042909343 -0.026571386 0.008152355 -0.039343286 -0.034914654 0.033863626 0.017112358 -0.013708452 0.011662544 0.007729584 -0.004354022 0.036699310 -0.000011796 0.031353392 -0.034400314 -0.017956449 0.007474881 0.023607329 -0.017981641 0.031882778 -0.036664166 -0.016857954 0.033224627 -0.033021513 -0.041448075 -0.011154885 -0.036819693 0.013146598 -0.007770109 -0.013008882 0.024440214 0.002571226 -0.039843660 -0.041879050 0.027755791 0.019058788 0.024285909 -0.037534267 -0.008540221 0.037758414 0.035696998 0.030044876 0.041027043 -0.013848869 -0.034212988 0.024843987 0.028178150 -0.013346268 -0.004125676 -0.002128258 -0.039203607 -0.018305039 -0.014003954 0.016498400 -0.012894723 0.019945791 0.039794464 -0.009420758 -0.010772239 -0.027758304 -0.003372801 -0.040443406 0.029872073 0.038122825 0.011786893 0.041797351 0.022260854 0.029295193 0.040819027 -0.030384980 -0.003467232 0.016603108 -0.011829382 -0.031349584 -0.013876681 -0.021907937 -0.015500383 -0.033667088 -0.013331069 0.025322596 -0.019397091 0.018825196 -0.036344234 -0.027848355 0.004580551 0.040926840 -0.040814031 0.019236669 0.007729363 -0.036111318 -0.032087993 0.022266205 -0.022082467 0.030970899 -0.030562034 0.033385966 -0.022546129 0.017902484 0.013223084 -0.034678414 -0.023177205 -0.010705316 0.000140223 0.021826204 -0.018166604 0.006502284 -0.023973238 -0.021007048 0.028840024 -0.012104032 -0.038724471 0.001856384 -0.006300116 0.012563843 -0.022544369 0.001903504 -0.021802781 -0.026709327 0.010102478 0.013659825 0.008175956 0.040822677 0.004096858 0.003758129 -0.005777764 -0.042726964 0.017285112 0.034451697 0.004379358 -0.034466907 0.039681442 0.009900621 0.031965945 0.019194344 0.006970946 -0.013021027 0.009073158 0.014219998 -0.002679238 -0.028228493 -0.023225836 -0.040506151 -0.017284770 -0.007124556 0.036145188 -0.023640193 -0.043485869 0.024223138 0.038104445 -0.034470368 -0.000441367 0.014050606 0.028491316 -0.007933517 0.020128654 0.033956099 0.025862101 0.021532498 0.026876429 -0.039602615 0.009396697 0.034081273 -0.035015821 -0.038739275 -0.036495462 0.013569209 0.041015111 -0.004008513 -0.017568275 0.002615423 -0.036439542 0.007650374 -0.029055426 -0.029745944 -0.032238118 -0.012511840 0.028801581 0.008976330 0.030756198 -0.042636853 -0.035991296 0.027078433 0.034812342 0.037531130 -0.041044202 0.019795606 -0.043578614 -0.013070170 0.000895273 0.020666443 -0.013500531 -0.038213167 -0.042945214 -0.017722834 0.033679876 0.019175172 0.021859922 -0.035742451 -0.039709955 0.040891010 0.028867325 -0.019048600 0.003716066 0.031838480 0.039782282 -0.035560150 -0.021903828 0.017173886 0.033766225 0.007688691 -0.002727433 0.001711868 0.040216818 -0.034698140 0.020133628
-0.031640392 0.004201951 -0.041748025 0.028623642 -0.024623521 0.002935749 -0.027716652 0.004047272 -0.021520870 -0.022601632 -0.019152138 0.027420972 0.006176115 -0.011383105 0.037640698 0.008660697 -0.014301848 -0.001998372 -0.017279575 -0.017532103 -0.013800769 0.010532060 -0.039351847 -0.034417175 0.029666677 -0.010584617 -0.001631726 0.015434887 -0.019767758 0.030959789 -0.010003813 0.002692983 -0.030650679 0.017971069 -0.031411681 0.026877504 -0.006256810 -0.016140956 -0.014794065 0.016861109 0.043284617 0.012006804 0.027088517 -0.037252478 -0.010429653 -0.025028069 -0.031719271 0.007588282 -0.013816095 0.010004171 -0.017572502 -0.040297832 -0.022744088 -0.042479657 0.009571338 -0.033177972 0.033972114 0.019127414 -0.024796667 -0.012629845 -0.039595772 0.031838734 -0.019762857 -0.009284049 0.003264779 0.021454062 -0.013175284 0.021667337 0.022729617 -0.005460524 0.029302834 -0.038754601 -0.024064375 -0.003468190 -0.004499724 0.015678786 0.031919647 -0.031911802 0.023190845 0.010603909 0.036703359 0.023588063 -0.009605999 -0.006266715 -0.029409669 0.009751326 0.034584008 0.015207473 0.035733029 0.017651353 0.008503648 -0.009567740 -0.038180597 -0.008284638 0.037515018 0.038426645 -0.014951847 0.036273938 0.036430459 -0.037709903 -0.043593917 -0.022011323 -0.004471986 0.017119411 0.018504074 0.027997445 -0.021643355 0.029559555 0.010075694 -0.031374414 -0.032661408 0.015711302 0.041148607 -0.029341718 0.005236630 -0.041837931 0.028786160 0.013029635 -0.011256327 0.023349496 0.018328611 0.029788360 0.004419766 0.000436251 0.021206951 0.014904416 -0.037457667 -0.016963948 0.027324054 -0.022510985 0.034186013 -0.008480557 0.042330772 -0.025978722 0.031255912 -0.019517126 0.031252544 0.024402440 0.017796148 0.012932223 0.026401902 -0.017616218 -0.014249575 0.012006705 -0.031346180 0.002626339 0.018444341 -0.040151015 -0.002381197 0.002503934 -0.034023929 0.034694880 0.001999831 -0.041586574 -0.015329493 0.008008850 0.032015197 -0.014272613 0.038657356 -0.018693492 -0.035625044 -0.012074608 -0.028838964 0.014688050 0.029184105 -0.037303090 -0.032352597 0.024562735 -0.009480164 0.040298171 0.040121611 -0.029327720 0.026031284 -0.042620078 0.017790765 -0.025214547 -0.000251027 0.042916849 0.005993350 -0.023753332 0.020311030 -0.007105584 0.039662916 -0.033050410 -0.007513956 -0.037130978 -0.025067933 -0.012612476 -0.029157659 -0.030108143 -0.010963928 -0.025243001 -0.026779043 0.002387735 -0.033190589 0.025457192 0.029122544 0.040663112 0.013694180 -0.004172912 -0.007721492 -0.021008918 0.030058900 0.024473026 0.031912360 -0.008580134 -0.030532500 0.014740380 0.038739618 -0.007010006 0.035691489 0.031206096 0.015538020 -0.011952246 -0.014820576 -0.007737787 -0.003316578 -0.009096049 -0.043049287 -0.030311413 -0.014014955 0.033959355 0.018260291 -0.040249798 -0.031639881 -0.025930421 0.041912500 0.010941190 0.035399739 -0.035687391 0.041284498 0.035961680 0.003065677 -0.020667439 0.017323460 -0.023746930 -0.018320872 0.016578352 -0.033944391 0.010754722 -0.002356904 0.000411543 0.002024998 0.010656003 -0.026415268 0.018189678 -0.041457869 0.018591397 -0.035911590 0.042530738 0.010628049 0.012242205 0.011740695 0.008586119 -0.016900385 -0.043002177 0.026429657 0.026764782 -0.008085504 0.002215549 -0.002840461 -0.009979942 0.030152492 -0.026422391 -0.041295301 -0.007306003 -0.025766354 -0.029187582 -0.012699382 -0.001700567 0.029028725 0.024869554 0.035973605 0.033074398 0.013291636 -0.000288116 -0.001411087 -0.033542428 0.004213036 -0.010333949 -0.012172268 0.037150513 0.020278381 0.027728776 0.028546454 -0.025588058 0.012754016 -0.005543923 0.015423128 0.025982304 -0.011094004 0.033163320 0.001847502 -0.008408518 0.028951919 0.034239318 -0.012469945 0.025417574 -0.009846679 -0.001351049 -0.031412587 -0.018844577 0.005818272 -0.010192852 -0.004429249 0.010622733 -0.017558582 0.023353500 0.043330662 0.035213728 0.038901925 -0.012261266 0.001423225 -0.014824105 -0.021530611 -0.009898430 0.026898080 -0.041328050 -0.023421768 0.022696499 0.023047993 -0.011301246 -0.010031903 -0.006149520 0.032000184 0.031934723 -0.020633616 0.007324353 -0.042779889 -0.029175282 -0.004044253 -0.014779462 -0.020851800 0.036318503 0.021997061 0.003404807 -0.013011796 0.000656390 0.036264781 -0.008252105 0.003367027 0.013687889 0.026173320 0.027068734 -0.020690914 0.017370582 0.007031406 0.006366639 -0.038082078 0.040897042 0.019709468 0.005182308 0.016981244 -0.010975946 -0.031729847 -0.011555675 -0.039557513 0.038221389 0.018915700 0.011597442 -0.029891819 -0.028786670 0.025205800 -0.035806037 0.008571926 0.033064444 -0.038533445 0.031198235 -0.036432303 -0.008583337 0.030517647 0.032772679 0.040136632 0.036566295 -0.042626396 0.007406265 -0.039494719 0.025157848 0.013083973 0.034054432 0.010368478 0.030297652 -0.001939340 -0.035494283 -0.029067358 -0.000621908 -0.039691094 0.037530795 -0.026533516 -0.033533048 0.043039359 -0.028335962 -0.019727502 0.000745204 0.014093021 -0.015843574 0.023656098 -0.028291961 0.008580371 -0.043480996 -0.039681111 0.015645916 0.021244729 -0.019734876 0.015511284 -0.011557403 0.024688222 0.004825835 -0.009764292 0.008396632 -0.041943301 0.024755904 0.040848535 0.037694477 -0.025460362 -0.017794430 -0.019363362 0.006719224 -0.030947587 -0.033186898 -0.017189534 0.038685001 0.011642124 -0.040019896 -0.020619107 -0.035011664 -0.005670885 0.001402173 -0.029511765 -0.034468979 -0.008713302 0.002578412 0.032487117 0.016038388 -0.025736235 -0.040790752 0.008617792 -0.006340430 0.025915891 -0.030574519 -0.002144727 -0.032236069 -0.022163352 -0.026074775 -0.009203754 -0.003702564 0.041083977 0.039169770 0.034425493 0.010565867 0.000698895 0.042073134 -0.030504482 -0.040823098 -0.023880458 0.033103932 0.043269172 -0.018161057 -0.028602632 -0.039261308 0.020477636 -0.017798824 0.033033341 -0.015626149 0.040432256 0.028492160 0.029112451 0.023506887 -0.035512850 0.006063862 -0.026366198 -0.013580884 0.027373092 -0.022457447 0.027869556 0.002280297 -0.020955170 -0.021461764 -0.042961378 0.015159320 0.001697132 0.039347686 0.015928896 0.013725231 -0.002347664 0.020653889 -0.006556970 0.017718766 -0.020096939 0.027945900 0.012118636 0.023346050 0.002984576 0.020975342 0.039940018 0.006800889 0.030727692 -0.040463693 -0.003497040 -0.038409539 0.003159918 0.008299378 0.012479450 -0.018811703 0.020687200 -0.018595552 -0.011242730 0.033143964 -0.040671598 0.008969150 -0.038023621 0.018991822
