0.416666776 -0.357355088 -0.429494947 -0.338773459 -0.291282922 0.175387532 0.155051395 0.359800816
-0.223618746 -0.295189857 0.229747072 -0.175025672 0.262805730 -0.102754191 0.247703150 -0.336437017
-0.218519747 0.132015377 0.091542147 -0.110400371 0.258105636 0.294366032 -0.314009279 -0.231171697
0.396493226 -0.146112561 -0.153510094 -0.418980747 -0.247973472 0.108168155 -0.057154719 -0.314317852
0.010157046 -0.295782954 -0.367366523 -0.238443911 -0.378977925 -0.275715649 0.432843328 0.081785254
0.133437067 -0.403864145 -0.284391403 -0.144130796 0.067710675 -0.381017089 -0.186573491 -0.259231091
0.001199990 -0.161125422 -0.030005945 -0.293422252 -0.297217816 -0.252620399 -0.148219138 -0.341768652
0.363068104 -0.085937448 0.372562706 0.134919003 -0.366673857 0.299660027 -0.119141199 -0.165985048
-0.359431058 -0.430484176 0.123889536 -0.094588965 0.168581858 -0.355357707 0.321481228 -0.317854583
-0.074769750 0.090443231 0.223543584 0.349575639 0.394456923 -0.343345344 0.108975120 -0.186250001
-0.047451612 -0.324105710 0.394413352 -0.317809880 0.231424168 0.152177811 0.140710041 -0.234106660
0.393587559 0.095154718 0.055702776 -0.381594509 0.181773737 -0.064960822 -0.198373631 0.371934772
0.096539654 -0.239575714 -0.219164580 -0.020678833 0.241777524 -0.110649385 -0.247066170 -0.148282111
-0.323492885 0.154426381 0.335169256 -0.407655627 0.100567497 0.223690808 0.078517921 -0.154206485
0.226007566 0.227553874 0.161915243 -0.076089598 -0.114662312 0.046324097 -0.076493464 -0.129038244
0.276784688 0.372130930 -0.042867113 -0.096950181 0.006318647 -0.025854426 0.104101136 0.121344715
-0.393286705 -0.159798026 0.364652753 0.168682247 -0.021537000 -0.261065841 -0.264919370 -0.387878418
-0.141145870 0.146230191 0.276098251 0.199920803 -0.382758975 -0.260397583 -0.068336613 0.418874621
0.062638529 -0.112137616 0.179143950 -0.164926544 -0.280269921 0.316050440 -0.196891651 -0.086804651
-0.430762887 0.289802670 0.328065425 0.157810688 -0.301928580 -0.427357495 -0.351683795 0.322897673
0.207891881 0.364382118 0.226842299 0.109592125 -0.004240357 -0.329308778 -0.370993227 -0.405017823
0.177258924 -0.212595373 -0.087144919 -0.249201074 -0.078905113 -0.304769456 -0.282937288 0.143634990
-0.128689811 0.267317444 -0.138914272 -0.317643940 -0.076400295 -0.209901780 -0.132476583 -0.412226170
0.242266670 -0.301465392 0.217639849 0.196494326 0.309358448 -0.332143277 0.311421335 -0.204707459
